-0.0868681988311534,-0.023355366103039614,0.11630061610952336,-0.17256906297948227,0.01168108118526385,0.0870800061998844,0.12906990428774243,0.1318908672128397,0.010793407270253724,0.1345410962377816,-0.039154392281750244,0.007228677339769708,-0.049461822880973325,0.020712193821182567,-0.03731971599050568,-0.04698471117524349###-0.0921694698259838,-0.004710443256081292,0.04097422928552434,-0.030172070398968666,-0.08435740463436857,0.08411149637609729,0.07605040244507238,0.06512576191426891,-0.044014366353110033,0.11593030810286988,-0.05357017361915853,0.054863409713582015,-0.024196913079814586,-0.028151917026169045,0.012653380047171462,-0.008657185357663586###-0.056294580880547104,-0.040147386771485744,0.07710139735131236,-0.023576126237805587,-0.13878394724203377,0.10451901978831955,0.16326176316001942,0.006426725698164979,0.005332923422844245,-0.020877254840364318,-0.09366323363104406,0.0216885653046285,0.028852529851679576,-0.012675758037059061,0.03648678823439758,0.01506480768180484###-0.0637431185066133,0.021749455269987082,0.11916182472333038,-0.0629201501045408,0.0044316760079109755,0.07314705406597118,0.09577145425726069,0.08968309704521102,-0.01778863637012925,0.057885853989793824,-0.0955422189000096,-0.03490380947817625,-0.057039771694575366,0.006919175671436805,-0.008993348535904961,-0.01282233011708068###0.06282324645835444,-0.0106641303935668,-0.08680730170333406,-0.0682125674099295,0.08274206595920097,0.20007773288185882,0.06228395788772853,0.07050473694808035,-0.017221699064950597,0.07200851898798569,-0.27089921265599803,0.03997137504302295,-0.004801874755712743,-0.009277859506132236,0.09093620063663571,0.04867942747169495###0.016836052104798525,0.03561800331275186,-0.16583817759435537,-0.06743035035436619,-0.051592047284817394,0.2240019876738061,0.21540927584778344,0.10902183546370135,0.010755903108926095,0.10223515486228239,-0.32810177281550623,0.05278174352801726,0.021470818792971014,0.03831206488907368,-0.0024361229798446006,0.09388710655056128###-0.04925316268539803,0.07287510239618121,-0.05561299688312883,-0.020242491986229735,-0.00302561931945864,0.1811840891972257,0.21897630394495773,0.10786156111935892,0.06843723994996498,0.16348042541858682,-0.23064266214059487,0.041091867279304875,0.04823366120257646,0.016385913130579865,0.04259448496161204,0.05877982470754069###-0.00720888476887687,-0.04132245732823898,0.07546674456503388,-0.004562273389526087,-0.06783498340949888,0.024037089373580102,0.26979933509287446,0.11283184078257352,-0.050652228759726955,0.125561750201241,-0.17173074724756615,0.038774925670529155,0.04009697358192445,0.01231929332163522,0.04464117529796073,0.03497019254568819###0.028036595866885613,0.003413954343968177,-0.1173458944061636,-0.008276801497096468,0.06666027076081422,0.19970072116469664,0.2542091879550782,0.05534526731138976,-0.012623547233070829,0.08874928890248894,-0.1251322192722181,-0.0420639449355369,0.03219615981244642,0.0036644939172285813,0.07947980510108206,-0.006227190278152744###0.3799252614872921,0.06498858315835648,-0.3646325909892829,0.2933993118970965,0.030780558021838617,0.3240220394140364,0.3150310289230234,-0.030587396423990755,0.03639817830136048,-0.04035675328324761,-0.20968404203605293,0.004804823489153472,-0.048249278646221666,0.03849916439127879,-0.007563104549733863,0.049380112869927044###0.18802180426426546,0.042174304258060735,-0.3007898486676855,0.01411938822780491,0.10774189188015253,0.23481857847354104,0.38493751255145603,-0.0872262173257182,0.02792052799839542,0.1066300670254229,-0.3056039974553292,-0.023526093929637136,0.02126552502095211,0.012985540517288152,0.046452495763768704,-0.035930411175193196###0.44373770431051274,0.03183366436754538,-0.36921377991642745,0.1741007706904432,0.09200340996345416,0.09524776570206801,0.38215948021239576,0.08416486970687019,0.018329917246956283,0.01721996288794818,-0.28725269473863163,-0.019278512049942798,-0.0343446743743794,-0.028799324770502965,-0.0025697699614971228,0.02551917138718074###0.31371768064188854,0.033259068786305614,-0.425987228175406,0.07398456443998516,-0.05013657628608025,0.08303703053330176,0.169865118975401,-0.11391707082535626,0.0055718302614069315,0.010819223816359531,-0.18908850011754402,-0.00880513190529752,-0.01973405004781664,0.017367071765393836,0.026906195675041295,0.05108682256713606###0.39479938023384437,0.0742006234510947,-0.3929950627862792,0.21693691588278305,0.2805879905350464,0.24921255220890823,0.06610971640883676,-0.1463167874456473,-0.010837016484752729,-0.11881015082524213,-0.27679428564759584,-1.2715968313079082E-4,0.008074406524180802,0.011091047620455487,0.04169698751355137,0.0432364594521806###0.4342875819942032,-0.02712319653810014,-0.3135844881500851,0.10846665063405178,0.15202692338804488,0.27486611100084624,0.3804312362689012,-0.0555967018465421,0.08754229278513849,-0.12555671433164137,-0.3237636563256096,0.021025448755450923,0.0268496438126832,0.0815506573239517,0.06355558672461438,0.08097781439655206###0.3840395295020823,-0.012923213335941075,-0.4087809419020161,-0.014974345024444335,0.19164761958039742,0.17989916047003512,0.3766316493209423,-0.008296631038880528,0.04823758558420919,-0.08816612665860003,-0.17328965279301708,0.04398939146879781,0.04519345707165521,0.053908048130283444,0.04610957655087245,0.04348748897267562###0.6001267680523344,0.01098668291216376,-0.44646286246657546,0.19952311099011993,-0.04674503039145316,0.09749275463774087,0.35251109327707786,0.05420608636050248,0.09612644498779944,0.06411386777913516,-0.4026934734771895,-0.019083318988451215,0.06659638868590564,-0.010352430308518333,-0.029946573650054716,-0.020363132543081617###0.3766443961482788,0.0015448819990213447,-0.43829406882512495,-0.01975855710696575,0.320705971790436,0.3506200060021111,0.43150071832230696,-0.024357281251745813,0.0018145834597583206,0.0014671653616660264,-0.21420735314863665,0.02729441999356924,-0.022631157498215242,0.03939269553239028,0.06355103714836226,-0.0065339073524537375###0.4373114933041222,0.06671739509471446,-0.3201594177943476,0.04821075408527568,0.2674992251639221,0.31687423554714955,0.4294762545057751,0.018699497174262895,0.013728660999327638,-0.05580302030772132,-0.2849485471488963,0.03643022108754524,0.0066634310840583705,0.012528821278588499,-0.01627545761362591,-0.04191564741162602###0.6326078570975675,0.09178035464024542,-0.29493281524523957,0.14598726390667796,0.031177053042005732,0.09393432720884037,0.14991784249755477,-0.09930953179581804,0.0036400296410599615,-0.07943946160432876,-0.44026440640871284,0.06012045838385137,0.026502943835366537,-0.038125737257011544,-0.011123668506604283,0.05575870978262267###0.33636512743828667,-0.04494642714382426,-0.20895872496178988,0.11011352845350446,-0.17009385931862578,0.20977800805305605,0.18815966171878173,0.15347989114545388,0.04008675453949174,0.12803690411543633,-0.25295939684344193,-0.07349693634424516,-0.031188973882810424,-0.04704770946516338,0.05839827610562257,-0.03263585499455626###0.07712996280557562,-0.023509173969214023,-0.13312590926423382,-0.03665238296843309,-0.03864997535567798,0.23424722275697718,0.20228659895197157,-0.071316879348192,0.0964020770786845,-0.0760521656423422,-0.2367249872447229,0.0523933732646996,-0.07150742111412646,-0.014371889967821296,0.015725598786060394,-0.01856111739863935###0.09918694473076702,0.02946681395788645,-0.235793105037922,0.11062114781566852,-0.03516701426837653,0.08778457351124234,0.192067665489628,0.03115148965109311,-0.06163824839306691,0.02867671716254291,-0.23149685566450381,0.01876290373953554,-0.04344018187821684,-0.010792256508576646,-0.00871923928124015,0.013633912292024838###0.07939652322262307,0.01548491061794855,-0.15248389977471105,-0.141968691372969,-0.12456590402011354,0.4204383272288617,0.13723332761291696,0.05852975999800421,0.028627040235115635,0.07390187510392686,-0.3554709997592908,0.017308246558306487,-0.012484103748545427,0.027939994880164017,-0.008647070987493713,0.0457062982250397###-0.07252500500076242,0.005063947953735614,0.07920146843075135,-0.03165681824651865,-0.16312367466083766,0.03993825175263657,0.05467602176225048,0.015004832789335208,0.007292970149366392,-0.011359905012831533,-0.06545741437136467,0.04206553229222244,0.01136600007646304,-0.011120146170640773,0.050976970463705064,0.015695464646513068###-0.14047766480133336,0.032421019177043264,0.027505933262312918,-0.0530425462746031,-0.06553386734089132,0.17171497678512432,-0.023175257260735563,0.04514302239792367,0.006500484629631464,0.07868659208491172,1.2214190125409995E-4,-0.0020870452175248467,2.4256349925749242E-4,-0.013643683290969358,0.05412752599034834,-0.07086592482062601###-0.07053532116521435,-0.04916346759955743,-0.04869863667978955,-0.059125504960135286,-0.028460828082036246,0.14588342354611636,-0.018271171493453805,-0.012953922114985911,4.619257038810264E-4,0.06637267993093605,0.016446459945660755,0.02065747301482131,0.0024359958687533946,0.03480424212240023,0.05275459545908337,0.016532515960545512###-0.026659671639800393,-0.02557590491763791,-0.041692775835325595,-0.11342600566258158,-0.07363214403210507,0.08196756637969865,-0.07303981109477035,-0.01840445249543438,-0.041635782822268326,0.07361022503254835,-0.010299817753809214,-0.0078117943818497935,0.03345485089217734,-0.007515472225180454,0.001977225985135798,0.06513660683352392###-0.02112135373283893,0.025012434737681798,0.07573866955291063,-0.024502798551818413,-0.034438401192118315,0.10141332741210485,0.15071436472845282,0.0634080617171044,0.03840154975008506,0.08340365069130284,-0.027575035610568177,-0.026578684581556395,-0.0013836686904302883,0.014298523968666632,0.041312138962012794,0.04992589803082039###-0.026523203023566044,0.034176798261794,-0.011816415959637028,-0.1252763559951388,-0.022369733441936983,0.1897966986201859,0.018117636333022262,-0.002323005109282786,-0.006210053900036777,0.12897712255025476,-0.062027781359219096,-0.00535843301107227,0.07233036991250485,0.004847428670028855,-0.04112103193572492,0.0134072576267826###-0.08386955380551826,0.009357592627607849,0.1098893913049372,-0.0475380006697819,0.02527933253806982,0.02375695322084312,0.05022267142558242,0.09717225839833848,-0.02317114881407138,0.018917300999195048,-0.03888871322097803,0.01618842669180523,-0.014573423738640895,0.023267659067471632,0.031974225217274464,0.041161903896184224###-0.10627349400752095,0.048692318765523726,0.12748847089041093,-0.11029457132869872,-0.03391366380929669,0.03421450936352258,0.17321975861395394,0.09612207912210732,0.034688530144684926,0.0768979811053729,0.0382854152244669,0.04119800047869805,-0.0068975986363570265,0.03169042451506515,0.0216256365353733,0.028104901543880328###-0.009987690089895978,0.057920927333495555,-0.004366743310141187,-0.0389935403551773,0.06301120964738811,0.22454658618088788,0.26111952233384494,0.04117207453584755,0.030988682538287286,0.12000025115500679,-0.14483158818149153,0.005484763944687259,-0.0036526556408962682,-0.010952038168793136,-0.05895568082565299,-0.022493319128783943###-0.016620897656477566,0.02882416516377404,-0.20877932522161652,0.04832200916028675,-0.09223353372280463,0.21098213997338866,0.21187027267815867,0.2211549022995786,-0.040289945921725995,0.19088292313657843,-0.0991834650241506,9.994645976011136E-4,0.025360811285885135,0.03530554964013232,0.022097736287539676,0.005865539581440124###0.019698922335056473,-0.024158303593253504,-0.10819608311234652,0.06843638491654079,-0.05514913591052076,0.08131729120158977,0.07768570774677534,0.1550804537641274,0.004001493665091577,0.1746028486882478,-0.14345985766238706,0.019717204004610193,-0.022673645207296138,-0.030262224891947517,-0.02854620472070452,0.08343491577895824###0.02526071664229988,-0.021053597984774054,-0.12804530422329322,0.0709084239529393,-0.026140314114995095,0.13822804834084357,0.12743934360744952,0.15181131628996847,0.02405866397660649,0.18386140143313084,-0.15133289782201645,0.0052920334315675905,0.03157795124084243,0.031078181925752395,0.012162061602274954,0.030991928154423445###-0.03600090408680573,-0.03968041370054101,0.011670483349695568,0.07770017620297597,-0.3030870616265364,0.12409103965655172,0.2544241747605365,0.2668768236030899,0.03376379151325155,0.2450481900232789,-0.4069646281304562,0.00603272846351517,-0.023274327361078668,0.05593871858777186,0.04539647526710998,0.07268197048755644###0.01211942274046405,0.005944973991947059,-0.037986370820070094,0.004960882265643431,-0.16382359984302727,0.2695236959984944,0.005080605117761865,0.022842058858316097,0.016151862723925815,0.021111834035069162,-0.08780354671907585,0.016500770791210775,-0.05558416016460542,-0.018750851308329514,-0.015170921437830625,0.03389304265397237###0.14747433600745086,-0.021408540572716902,-0.03942939394758223,0.15777071091710135,-0.16193024132800002,0.3332964054467432,0.017730092821016646,0.005385926872021317,0.04127425070562802,0.05435109209063402,-0.1822208761672084,0.023011869529982847,0.010436230735324733,0.015973231027150262,-0.06770473714814554,0.020170342869173134###0.07432219380321232,0.033767725888248466,-0.29041704628851456,-0.053918487148570254,-0.22038405398053817,0.18292753875397624,0.1319061293508697,0.20603070521087785,-0.011288213982683044,0.07752842631172127,-0.2913516128598658,0.04201840345917406,-0.031745081657893595,-0.04219776921655679,0.019552319388426668,0.004074885955620104###0.028102361034016105,0.01358848593559968,-0.19842763512252606,-0.021410862854710888,-0.09953322194363656,0.16252163968259659,0.04605433697698163,0.1609295839890914,0.043557093812683564,0.1533440214584885,-0.26696856897521715,0.02045741153897908,-4.0823125698207494E-4,-0.0027968630587805045,0.0020155969881601537,0.05760044457025902###0.3162728396274244,0.011804120669031257,-0.24957747815816134,0.0654305219177399,-0.08355125661205742,0.14066972593929072,0.16764064826571265,0.07341601053364179,-0.02972230073885129,0.17888407772142387,-0.1391909646999056,0.038947236690917306,-7.526899548209028E-4,0.03731209345350466,0.032641824710394576,0.07506093479915046###0.4258212952683307,0.023949343446327015,-0.4238597209610742,0.20162645516732994,-0.06825244237134333,0.1344160015025833,0.04987385633329342,0.043033545846078984,0.009519396666976071,0.09861895799240102,-0.1942482195602571,0.08508572324645718,-0.011962982107283629,-0.012557635495574867,0.06291572426880535,0.00919006515607852###0.2766522411001708,0.0320245969814505,-0.29248517372621424,0.10047908080075248,0.02365221230503635,0.2876278268007273,0.2034642628048474,0.04094106562476516,0.05566487684160306,0.0055313357005219105,-0.1369973817727392,-0.01928654679670185,0.040077166473623964,-0.04266533648280547,0.023140000995805345,0.04190811763638799###0.35526239476781013,0.05731742119798232,-0.36553820404860365,0.2951806042411338,-0.1207304179665705,0.04668040323101135,-0.10377714807093084,0.02396767398314942,0.009879394106202236,0.0546058240505966,-0.19240339828370878,0.074758743609549,-0.06880030015306576,0.01603146951936835,0.022500255923551874,-0.061954950132841545###0.19250331543349455,-5.824105442077167E-4,-0.17478596184250425,0.05860732253423049,-0.21500495572481826,0.24792290981529472,0.0197111575645225,-0.033050942517627975,0.006548595997031052,-0.07286105553557698,-0.39340444655968476,0.014175044596207862,-0.054818565101472365,0.05893430700035134,0.026869859408033585,-0.07155432847355998###0.2547792967731514,0.09671934256728432,-0.27211512569903823,0.06025295005227244,-0.041514744358505946,0.2108889432036034,0.10327273235244497,-0.07289569072275838,-0.0022744225106851057,-0.07732136730068549,-0.3805425018420701,0.01109757066557788,0.037051346658635735,-0.007597096872877324,0.010444527054676649,0.009187684122589228###0.29598082648436824,-0.006046668907921169,-0.3734711932367022,-0.04692483624424557,-0.05922348503441021,0.3831646247383321,0.38113660636251695,-0.04917318031854793,0.060448965799574234,0.07120229931099907,-0.3211959573186989,0.02637785942034369,-6.187451944299034E-4,0.05957994078211299,0.0016028012383169394,0.10478896355546907###0.18583485057917887,-0.01568290778543461,-0.12591345912695148,0.030616757464114946,0.11008662311221634,0.2810835241550867,0.11685638160252565,0.06111718958984659,0.03909645285768343,0.12203364277141156,-0.29197349274723344,-0.037074392623626266,-0.01539947197094967,0.03282232537839982,0.07185405293708527,0.03762654586203784###0.20977388312008366,0.02715978093543358,-0.024394642381115206,0.1996186590839795,-0.12238979618094965,0.20968519070242064,0.13441151326539869,-0.019006203093732587,-0.010971946527766332,0.00813351000968847,-0.1746994476494665,0.003091253910163225,0.04127663048085864,0.050171365239052246,0.05544901968925775,0.02122275273098001###0.3940730996658236,0.006979930428392388,-0.16840706002009245,0.1773402515263212,-0.026892418998351767,0.13927173854235164,0.1880738147216739,0.06906900521667339,-0.004874527629411812,0.02980199988697934,-0.27225339269333554,0.02085446802715582,-0.02921991515418259,0.016151906180505972,0.04355645618271292,0.009379666430363724###0.03243778966054925,0.06643305375080788,-0.029452788490885187,-0.03613137005589079,0.019946803443667213,0.14841852933092664,0.4196748781567635,0.1001503766891168,-0.013799111757849638,0.027739792591102548,-0.2670447135133767,-0.007393479278684828,4.717225055300185E-4,0.026539571163522055,-0.01063466520683146,-0.047945898143429456###0.0703895326403001,-0.01951086566194021,-0.05952050138366213,-0.0813481681388806,-0.07561098622734742,0.010775980203329505,0.06911360747657976,-0.0036215012026843086,-0.026920648219485394,0.050650963232366786,0.012499265714028115,-0.1062358724207367,-0.07902701116955535,0.06358209522289207,0.013658515871305848,-0.03917996491260803###-0.022400527250190764,0.07488941674365254,0.1006917271638352,0.029547527219201068,-0.03196651119693929,0.10137575455400123,0.03394472240136841,0.11498715627988747,0.0013630587777604714,-0.014647965408239634,-0.07280406791697484,-0.028675810776602587,-0.014981382178642923,-0.02684200451580562,-0.03540930556927246,-0.025840135733923943###-0.050199028359274575,-0.014117761087891608,-0.046912274208881,-0.0186287235827645,-0.1022083299162957,0.008619029089947374,-0.009365360915789269,0.0382041473760266,-0.021293214507904515,0.03464142093521379,0.01885881554472149,-0.0026339926516229448,0.006001648621982773,0.04682350395700922,-0.04365913428268491,0.03681128171855512###-0.07386002982284633,-0.03631804500686001,0.017362469767208632,0.0026436062401753962,-0.1402746105641166,-0.03499283185373341,-0.0581223171564889,-0.0010323923002517295,-0.01682482976989545,0.007443595373362407,0.05304893309482429,0.0444114417909189,0.02664863670821025,-0.03994765451384381,0.06589301939780538,-4.821794592973935E-5###-0.04198873132287428,-0.023292756848983437,0.07099600213794502,-0.09649948577982237,0.07483266867700807,0.17377315189392756,0.1296714496984267,0.11979472870114159,0.014134438978405797,0.13801880284585194,-0.1266372880493355,-0.06104516580018851,0.035131611876078904,-0.04118059061451384,0.005458196176332048,0.02025151743225396###-0.05587623650128577,0.010524732163226032,0.07350861220555133,-0.06739261772687627,0.06624655263131912,0.050673025899812,0.0869867828756294,0.11537055809801752,-0.016870129016339837,0.1024205445172136,0.009613257523010114,0.04672604886446338,-0.02482988554852829,-0.037795651133714296,-0.018807224902485972,0.0062499186608349555###-0.16935177892758493,-0.015870992729725794,0.06755462849833571,-0.08216780883875442,0.08272117138993956,0.04348883037095857,0.20856645245356917,0.07407220061559207,0.011189260024289077,0.09742608387860205,-0.1520915322761549,0.0872042409220855,-1.9527970891067596E-4,-0.043474454362553344,-0.03681314475508383,-3.42781422355706E-4###-0.10995217950841668,-6.116182968313543E-4,0.06709823700295398,-0.025199918884989982,0.00345910667607648,0.11231312007125271,0.2450565931698079,0.06373745756400256,-0.01284735494398353,0.06924188013953302,-0.12346851015123311,0.050519630701360764,0.03149481747500165,-0.047686988831882715,5.116337275833458E-4,-0.03642159941117594###-0.13982064144123493,-0.04460315030802258,0.030220256592411985,-0.12446358858285439,0.09522851569224289,0.18986425058944065,0.14613614689586674,0.1256568349738861,-0.03974357555022575,0.03982394800533611,-0.14694698075249119,0.020679639156828886,0.009461309855342574,-0.019329327549734113,-0.015254615281996543,0.0197810486416552###-0.09737855399076807,-0.02813136359360237,-0.029787653386207792,-0.06326915870259452,-0.030967812737875397,0.15333731689950794,0.09783387029605886,0.10505374176927493,-0.050770783190497486,0.13251781121744646,-0.09807349081463933,0.027252877303447526,0.030801781359172935,0.0067833567321835,0.026370363220960365,-0.007510030088702146###-0.08233944833583384,-0.005194787807659214,-0.09739204061646219,-0.17132671361440752,0.09818550676392561,0.043760948870171526,0.09324398857530956,0.15697521226890168,0.004289829687883359,0.08267989489981692,-0.1441166402575738,-0.005624680089781077,-0.015525427277160516,-0.0013731595041216755,-0.029227278144891955,-0.060239433483063966###0.0014668031685136254,-0.039828399424568485,-0.09545884999822318,6.283898239955279E-4,0.046174470921488804,0.06384390428280338,0.027853671087152268,0.1012624555564181,-0.0062767148019196636,0.09743700810417516,-0.12770614807505565,0.0413138395593299,0.008161122740249792,0.027162659531230933,0.06638258213426315,0.007129884604400555###0.14107559996810232,0.028864887130531265,-0.27364685160139124,0.1272149064973173,-0.10226490592469044,0.3108226599144487,0.08358364273934647,0.21699483055308758,0.02937854169372756,0.1602446653596688,-0.19033009217908026,0.05933043134512117,0.04990406766888428,0.036716936170727604,0.02702422327200889,0.03608298356103341###0.2204954892846994,-0.006241799842401587,-0.29019617379881146,-0.030843212376585036,-0.2669582948277886,0.08420483003860053,0.019998590250362245,0.20583283981201178,0.06997885932071145,0.191658663078352,0.0201303285867324,0.04182205602903079,-0.06896606266114735,-0.018147105348964302,-0.00838231273048909,-0.008102257246939172###0.3473877893211896,0.008775349737622715,-0.1697322681983082,0.0928261928709413,-0.2916348476181944,0.2162667222971576,0.05878629233816544,0.15304366186256874,-0.03284053528249864,0.05904304717886231,-0.030529479372283716,0.005590036297542257,0.03382493682746062,0.009391565140403143,0.05002304695045932,0.02611975693218757###0.27422348629979476,0.03670747943372734,-0.08648789910488171,0.22883858680874813,-0.2706838499516745,0.011656393458370023,-0.012306838504187937,0.1268364183959577,0.03212600533486306,0.21634661022279253,-0.028790268975759196,0.03553105960043039,-0.04525414099064697,0.03747553478571123,0.007259759782562186,0.0759742075746761###0.5971324100672769,0.058207779455792856,-0.26078503510195705,0.15099127657122283,-0.05492363112829857,0.14512435892656525,-0.17704808797782473,0.2162649886410693,-0.010810565806868348,0.15026908113706558,-0.04910444198619602,-0.012574582096357118,0.0015413107236817586,-0.011400651079061602,-0.0036553152017423157,0.02913800640629245###0.5842347469580053,-0.03859080028488878,-0.3712596217446504,0.12337079058463776,-0.24990438876712479,0.21231369767426492,-0.24821723479561286,0.09095370086112321,-0.014241009447766032,0.05410561952853384,-0.010831165574157859,-0.005067301475341846,-0.022662969519592374,0.04328140068008967,0.05442897120071749,0.04824016099420652###0.6775338406952977,-0.012878354330836903,-0.3679618582681622,0.11508092825976236,-0.30346484155129116,0.4036656502126523,-0.04543172196496823,0.2684792229084446,0.06135080581635633,0.07808272061695706,0.14028500891960516,0.013736666998921475,0.013893609539105968,-0.010827924697893279,0.0022115290021648996,0.030866870116281277###0.5156024292577359,0.03838091986700246,-0.33536090326558404,0.11519909926926299,-0.14160697963690083,0.3491410354580714,0.3970864525893369,0.23662689281526533,0.04490872343483295,0.10793431442795633,0.09157569441836148,0.03484039592208697,-0.014393724191340315,0.07091006134449838,0.09845373718827224,0.0561521423322506###0.801776744753774,0.010271126800071263,-0.39929692568441477,0.4010903478878464,-0.30628881151245124,0.36261575750034913,-0.39077299169376295,0.08804429715386389,0.019343833000808868,-0.15856878851628295,0.3292025988407744,0.08492940156088037,-0.051629934104668755,-0.019735486568098683,0.09874830459437146,0.03205985439462873###0.8154889182542723,0.0396371181240718,-0.5056565426863621,0.29663826240352775,-0.1891001096978695,0.20473855890801324,-0.11160974747735314,0.24764402945150607,0.010344602179561936,0.14866785391653925,0.10229996707046578,0.07540909851227616,-0.02251625821433851,0.013495226213813867,0.04205755184572203,0.07712303309988545###0.6706102965126794,0.050494557711841005,-0.6647012344534888,0.2404172135214394,-0.13493233091738838,0.42034617370448524,-0.25140052815214337,0.1566145231177735,0.032597636388577635,0.025916352638104666,0.002205113929255237,0.08070047153854139,0.03989079925519134,0.02135771433660024,0.057715445093607445,0.038624643802145975###0.6768080776372736,-0.013845050759441745,-0.7074235645069763,0.29074583186017516,-0.45140119568621795,0.5390904776456512,-0.01936803743732455,0.1589620905507677,-0.029292999100548524,0.03468534666158849,-0.1794668068728412,0.01326135224195546,-0.030576014687683187,-0.019825481338516963,0.05935704669051138,0.048162139563016945###0.22818099874542494,-0.009520304794810022,-0.49108183403727595,0.26847786681112895,-0.40152435717948176,0.24248376645075032,-0.10647583997679669,0.12108304410361155,0.0015867856284339963,-0.024890362531940775,-0.18221610359224125,0.08550698505839482,-0.029368204120436045,-0.009564563646383075,0.009748747296479697,0.02954622761897808###0.3025274397829681,0.09440676842793409,-0.15962093592861043,0.2045632712733438,-0.28867768729319326,0.13967171902088696,0.022163891162748275,0.04540196390743498,-1.1731995525688652E-4,-0.022037172607993708,-0.1575324569243468,-0.030055659343550513,0.020619145497548966,-0.025023305362682654,0.004506792516048409,0.059685532276037595###0.28265139702525016,0.018382837072788143,-0.2796515721954156,0.03888829320333522,-0.17409819031947069,0.023256385508291826,-0.012380914623868903,0.15622354587393572,0.020620310367986013,0.08771635684865967,-0.1974492242622096,-0.015602431884093736,-0.010607211087654052,0.00809874438600361,0.011572949326089703,0.010992331120628848###0.43795222767619973,-0.011881719260232931,-0.3151797256027514,0.15666646018147992,-0.3094051990000428,0.09147070995429836,-0.008374028977427651,0.09213185534900632,-0.03538560209180886,0.012610087857014434,-0.1729574889399849,0.02488142044000403,-0.007159828380537452,0.02226530945241813,0.030652970173425765,0.06294726689824862###0.044394974540011616,0.080271369504748,-0.04649896436319585,-0.08530713815430613,-0.1612181173312146,-0.0530556674811456,-0.1307994781481658,0.0882086745330911,0.008332636857736308,0.09410973494028668,-0.06731339765094052,-0.03858169449399706,0.010258417353947802,0.04305187884942211,-0.03399462848160886,0.03771252128465861###0.0019411399210888364,-0.026673115421758316,-0.0026713430594696745,-0.024293264650659365,-0.12751413160146483,0.08265151630103044,-0.07327662334690571,0.04714423320210726,-0.02167399754750823,-0.04704642303998672,-0.046858656475763705,-0.008998462312479331,0.007759999429368545,0.018335982512078464,0.0060457373314482385,-0.025599766853423637###-0.07772687043591123,-0.00973590086344262,-0.0881993879717276,-0.005246528533167447,-0.12935041779490825,0.07935440401516888,-0.04487916914688819,0.06418990517052629,0.019242989253185256,0.09208050749929882,-0.06426465237187362,0.021607977031849152,0.009940608101141132,-0.03077016029668492,4.1827664940294714E-4,-0.024315852645406495###-0.03884873568500444,0.037350490968955784,0.009621118274071104,-0.10720242836988757,-0.18123883307723937,0.01930953502098923,-0.0015154762022903745,0.10646400697570545,0.04626574493564587,0.11641095023916496,0.011432275666629101,-0.049877813671944826,-0.035153782888119,0.028495027519712043,-0.0034268458766501505,-0.0410379575314353###-0.1301614006141204,0.08073731795773258,0.16197728608522358,-0.039032682159136765,0.005009787366336156,0.1467841444549185,0.1540173071416078,0.1511322430006538,-0.04838573604199185,0.17211491769132686,-0.03901438883465476,0.0631998023919695,0.04541641109090398,-0.05594478533929414,-0.013221745750087461,-0.026245361633765302###-0.11340054154011073,0.025847544585675744,-0.012468479495939603,-0.07493742196844014,0.029590272033947637,0.035204170144447246,0.09705507426986383,0.13902834629372934,0.03841031200537094,0.08819552286465004,0.026254347170510707,-0.015879864753085567,-0.058277065089289794,-0.008320300920408193,0.02486194504681911,1.8042775791730673E-4###-0.1451664113414278,0.010451359528169536,0.049534938054990284,-0.08335809499141494,-0.10686587064525961,0.0016133388854104582,0.11640226425477171,0.05680614147100325,0.013392421424761916,0.10089343839662875,-0.08272883637606884,0.006946077746708513,-0.02027852973873398,0.024183301464269807,-0.03170042631156358,0.0027850964008587827###-0.04133471159931007,0.047370894179347096,0.03442014994279793,0.05457603085500788,-0.09598111003214568,0.041592487691346644,0.21373364561018074,0.12360742309447252,2.019991644888555E-4,0.08954757235835319,-0.1305474971239176,-0.01334089535223117,0.04317890955750243,0.010561260944720355,-0.0018541543170214501,-0.028444332474201372###-0.09121720591681652,-0.06030707415988126,-0.04685283203823313,0.012299824672868744,-0.13963679691570596,0.018447485560425417,0.028239677802228056,0.06081133864376944,0.03631237437714568,0.12181981599809391,-0.08257377496332231,0.05299058565479498,0.016648110323077444,-0.055471104663080424,-0.003224701807472699,0.03569792363779005###0.035796283540108005,0.012751849521524923,-0.0919926098930298,0.053683851968515994,-0.1547239436696399,0.10296022336539208,0.09860997504270633,0.12529804333053055,-0.03739472224473487,0.10641921805593171,-0.10196336544120446,0.026032561102814728,-2.862497372308814E-4,-0.001846331812250562,0.02381583584862047,-0.002010300370768417###0.04098130081729984,-0.0346157107272924,-0.11385431813731776,-0.03440986967773182,-0.11510859672154611,0.15404246143707595,0.14407874545849866,0.1593826369017983,-0.03621142317191906,0.12425186154845673,-0.03906900895182603,0.028116786953203063,-0.03452595575728104,0.01903096780767961,0.02079005629401282,0.014070253188455955###-0.1294074334447384,0.002997921987751437,0.021031709237297514,-3.3161156209932243E-4,0.03682320539527647,0.08494935325559438,-0.10302620720711074,0.08450793322333776,-0.015600151383950654,0.1249888869467434,0.05493574513934871,-0.007588393311300771,0.022094027293349087,0.012904155575581054,-0.01003020801568562,0.06386735114422668###0.1237652282488457,-0.027483143927417106,-0.0352348304315497,0.07467786791481269,-0.10644368322179894,-0.1931884471842365,-0.008838487988058898,0.18799618674236435,0.0021812823159615964,0.2235077735162717,0.14908168564025925,0.01870212115954226,-0.06408184265871529,-0.039529945909059096,0.021641823099504506,0.05812078907737584###0.26526502486055864,0.01713206672108338,0.024185154544542176,-0.0013348887861602114,-0.09959566308167311,-0.26192984098865596,-0.1804402578936273,0.1470066810977414,0.017682595088812893,0.06447166396163037,0.18887684976379215,-0.01681330433875231,-0.01848746136219983,0.037071236493434995,0.04046167504566052,0.02029982590883514###0.07123413264717425,0.06976751092598024,0.14731728668898417,0.0328098827172033,-0.2943766490666235,0.04249551270699378,-0.3406067938690094,0.10386044565931911,0.11724375061590983,0.16014188195692622,0.2668637417598604,0.052670611143073,-0.0103487476396327,0.07273756555091632,-0.005449554444709387,0.07838566671759287###-0.05561779155492998,0.08183991581322553,0.14999921283828124,0.08333273070197068,-0.4602868453374043,0.05563121951091591,-0.10038688297930182,0.19689271537255448,-0.02830842946634674,0.30078753308760264,0.4187032655948836,-0.0675711597011177,0.0021556469881331554,0.004855640602534813,-0.03930889119959118,0.04542066017856954###0.1504080159722575,0.0074457739731629575,-0.0742034221570652,0.126708613259973,-0.2670273012874541,0.1711576962755887,-0.07070918604509623,0.17112089869854155,0.028302540681829066,0.25901452575782585,0.5310488650609909,0.01373287312431524,-0.02988165158366918,0.062156838933712384,0.038411031662086814,0.06789255235271861###0.19527710054537445,0.05560442494088008,-0.1889061462662302,-0.01687880919351773,0.10452981492727029,0.19029415757159124,-0.08488562249216193,0.24571848456986844,0.05865160679558663,0.11344145383685598,0.6849810694159826,0.05451365420522298,0.004351495445008325,0.08823573555562399,-0.0016660427485322986,0.0117849509741078###0.21359875190554828,0.03950824482259127,-0.087005399664507,-0.017570867930136812,0.10115209610288801,0.3241370079756782,-0.030757362772384028,0.3711693455780056,0.05401140834201546,0.15187888200715471,0.5480212302212569,-0.01442853638342116,-0.008282100951065853,0.014822717097603976,0.07390300276571342,0.05014635470467257###0.10774265076838868,0.1035375237049251,-0.1531783888621729,-0.20369110329205029,0.10760005273883984,0.4010096534267919,-0.11002772273741575,0.2067183817378978,0.02998971840174311,-0.03114770315888866,0.3937093148220814,-0.03127848834319317,-0.001808444259309135,0.044681286200700325,0.027993713642651186,0.04258622235404562###0.8021627173498773,0.049006278516653935,-0.3958339285043432,0.06268806619493486,-0.09006016718411378,0.03281736286158852,-0.23314921073593117,0.06604489038412682,0.004979445545200751,-0.07825074215280142,0.025688171522737134,0.043896383464149834,-0.07175299060860564,0.013724892410862784,0.016611032662747566,-0.01672272873679652###1.0913465766845325,0.0044727423388911565,-0.786159703748899,0.15490525851672488,-0.222402309122537,0.31301219856909757,-0.5580989625845753,0.03954477452651542,0.1254997991623155,0.003360272828258151,-0.05386398186438441,0.033985681109461235,-0.04876069800275037,0.03594627981232732,0.041021607221775065,0.05481167947270862###1.1341730470040658,0.0744335668928274,-1.0324884917500208,0.17319795855793876,-0.08711635160208953,0.5997620976660297,-0.47199212232705956,0.18608192773978885,0.05486684281962754,0.1882874930991103,-0.07350080456947441,-0.0018981528369992934,-0.05536580883134882,0.03941121158355595,0.04055980709734579,0.028822946949991147###0.9657908208059389,-0.01165243378945968,-0.873515473364553,0.21400505430407452,-0.16222701471741463,0.45353434282383975,-0.4511200491862322,0.11248949770891412,0.08426367230292063,-0.013629126451560088,0.05393066988981772,0.03755128578122173,0.046105224593939384,0.060867960356024174,0.05970844300070697,0.006952827865112553###0.5163738683505715,-0.0034638413076899105,-0.6768660962104367,0.21937458895782014,-0.43432762240958933,0.23244572095244814,-0.24109020657292218,0.14933073744953645,-0.013093280163388007,0.07431925070028544,-0.12551353187610823,-0.009775130334577919,-0.03632655466787598,-0.016105900913750755,0.008991996967202749,-0.0173373313422281###0.504649764598967,0.021115135306229448,-0.6678812797842207,0.1315028540045535,-0.40227701706762653,0.3253574227782468,0.09823363153174629,0.18059747078015687,-0.011323463888128459,0.027388370211359498,-0.38969421579006985,0.11004737606162077,-0.10035215927090521,0.07232988424065154,0.056580665612412935,0.03745076524864216###0.2711197396121309,-0.009465044287108674,-0.5256463747897666,0.15072281892016165,-0.13513155889266013,0.2685204395192771,0.002060367019358239,0.07932664748677902,0.040123653324430054,0.03819248978637409,-0.11147333797584183,-0.027169203580136164,0.00892185919229895,0.031140857580990153,-0.06892691779738302,0.015245845828876874###0.21530334337342313,-0.02820891415497685,-0.15089745106739919,-0.06693944384136366,-0.11617533714811765,0.24546239192055347,-0.16185980828271634,0.049090748424663426,-0.013565891837488919,0.00657044900638593,-0.09987845722622682,0.06688834716825424,-0.017540635830459627,0.037359860681629116,0.01923787982170962,0.025937897328732296###-0.015132393224194182,0.0023900786610116342,-0.05331002698031151,-0.03184816271013367,-0.22194265600458746,-0.0346968756895047,-0.10013205207984903,0.028899452357463724,0.09297134607029445,0.05048107485969901,0.008876516543791096,0.013915677704129343,0.02586129397192086,0.010131153937235272,-0.01905625011649992,-0.021352731884177332###0.03728204473033216,0.0069789456676774015,-0.09292789350086084,0.026198709393997176,-0.0969942494620101,0.02226243433552553,-0.09910404209430028,0.029267576476689657,0.01138847451271044,0.07017111271454142,0.07894329242571621,0.05227028674891333,-0.018639725224107978,-0.0069489720987589015,-0.016008514555684323,0.0017028215603293294###0.03962230227237151,-0.0331640021501491,-0.11460600620744557,-0.024773653456260238,-0.0549842183698963,0.08722731551819413,0.08538701581213241,0.020526740054251646,-0.01566168295745426,0.029719214655848928,-0.06712487268255932,-0.03675839665220678,-0.048607014404780574,-0.05105474373741076,0.002001709747548012,0.055814745513039936###0.01596356127545413,0.07592750187913579,-0.08402826986351096,-0.08069027131714909,-0.12418323455150446,0.04156869232253045,-0.001127170396181621,0.07437075325071044,0.025702067316213873,0.007391237402958726,-0.047600439418416594,0.05483542557286443,0.058125281249129884,-0.01600118299851757,0.03537633459520998,0.031004729689699882###-0.1631016698249657,3.317635275930026E-4,0.08019817938170362,-0.061765327393255895,-0.10832949388951103,0.06917994469388691,0.22777561098475704,0.05977012710408807,0.05232356094029705,0.15641396379926734,0.00380612957100213,0.003293636779870407,-0.032309624952678334,0.052368702282586714,0.021043909352370323,0.001567574596762783###-0.034362876798562224,0.006350294328053299,0.02147600654006859,-0.017488225461080767,-0.13457850816375613,0.010229086354586804,0.1364098380183836,0.15295696291612706,-0.029765584986435084,0.13081189397116513,0.005523849510667001,0.0014778943790104762,-0.014330683149409064,-0.053944777516824576,0.023617825014652476,-0.008661404953446559###-0.07106400069454862,-0.002569880994783864,0.08408287792506394,0.08878144900897322,-0.12031558652644572,-0.06751651443980276,0.07518385927709653,0.08919681417521541,0.02559910683080963,0.13035585819132753,-0.02992438007036865,0.010941233554374027,-0.013943545695810522,-0.006159593286838929,0.004205905942673884,-0.023735223116299258###-0.055385030586824244,0.023654470525467864,0.06822474768343735,0.13417159497681896,-0.03457334784752903,-0.04005277510061294,-0.05265749817670237,0.08911245856710316,0.01483337682258674,0.057916372488026245,-0.06094386924543179,0.06860977249526574,-0.06199595823138565,-0.013568879415922289,0.03386688801383776,0.03036789847626814###-0.04109299576427677,0.00584212257825404,0.029709375592843063,0.03543259446332044,0.0967476684178266,0.03470860656921428,-0.044665280227028446,0.04841447610724877,-0.03699553302011924,0.11641373918726686,-0.09300377388939482,0.04519628167682395,-0.002554833001625821,-0.04794615484718299,-6.248137179033276E-4,0.01892289891150831###0.11096579943582204,0.035118811424707845,-0.03789210165866746,0.06300091859405622,-0.07877253238749654,0.03269741150902839,0.14839654287136955,0.10812641674627992,-0.050423263362939334,0.18412934271581824,-0.10364269043920304,0.003751648851790991,0.01020898876895817,3.964505602152015E-5,0.06761903501068028,0.01470802838356485###-0.087660371546156,0.044774945701570146,0.0065940858371590205,0.013230612727664164,-0.05447353230912605,0.06816946680079006,0.2619421851595174,0.1464956534870546,-3.328207017930429E-4,0.20462247012512758,-0.02022315280729229,-0.013519074338792476,-0.04412955045905098,-0.0012756474230021307,0.034887879885696554,0.017884400936758214###-0.2995052490243485,-0.029515661581805547,0.07158595209008559,0.047314154659943305,0.12281728259938324,0.06416576839488365,-0.19297948155315722,0.19635727872971342,0.015210050999366865,0.16969063810633234,0.08913956907631312,-0.0032426240180450402,-0.01425974025915764,0.010038012671884937,-0.004845943237685535,-0.02391900424138198###-0.4035322025009749,0.02542320000392822,0.12247442537438638,-0.18407693474055817,0.2979839764104127,0.2410631005761479,-0.1969705938874058,0.12216846235047599,0.02164592791806045,0.2443848691883454,-0.062067763963119006,0.022321873104911426,0.014474579837381867,0.022083411531631292,-0.031697590186899376,-0.008251102503885636###-0.23037121645963032,0.0790356286338858,0.11239464290934423,0.10874041848790793,0.2273293812229935,-0.11765618703338687,-0.5351906253808758,0.2712169549855276,0.10627779680976729,0.16628316488655473,0.19778984474945407,0.03721462925474143,-0.0046034089776179595,0.0055939923616475295,0.011992309485141503,0.03591822668794338###-0.3425999019905584,0.10117176216766026,0.2649012030574316,-0.05166092973732795,0.32965598419540426,0.014369340789743933,-0.5959546147021041,0.1785569863246522,0.021218011658585025,0.16480626725536462,0.19908772152966533,0.02082780278904477,0.06266679587983867,0.03228710218479942,0.1002569794285792,0.012443233663526468###-0.8731381503002523,-2.625487965037894E-4,0.7578317794776916,-0.08215969199964022,0.36163209378389616,0.044491512653431445,-0.47637326012984715,0.20933258110228767,0.05279367469621516,0.14958915266530684,0.24640162336796048,0.0012365775037090974,-0.055707784390212026,-0.002436053901516775,0.03826205591133853,0.05933899709623939###-0.8344945511621396,0.04203327698079858,0.6390745796314102,0.12913525581040014,0.4111666487928431,0.06326976760656017,-0.4463155829832841,-0.14230563726653214,0.003600527298399778,-0.007874037114575192,0.17631078468529288,0.03528174081436881,-0.06693737583310408,-0.011538559385693732,0.043053983773198565,0.01346614245416166###-0.5196137895594632,0.06923478553025955,0.35146505846025256,0.14689199160709435,0.5241300403925034,0.41372048126989447,-0.3154643972942969,-0.12661861559236107,0.025421598047778344,0.011874435029144054,0.17952195874255322,0.022985298399976893,-0.05159221983969027,0.059103454915686485,0.06049497291216783,-0.009195664048346432###-0.3460066715459508,0.023185170008768057,0.26815131137622766,0.25002799121273206,0.4239780729354284,0.34879524232549736,-0.3505907558589841,-0.006465449133676352,0.06767708892162401,0.0345458846854374,0.05805789108975885,0.0109356695213195,-0.07073321211819245,0.03858582000991532,-0.0018512440433029304,0.012331132956153385###-0.37406698964674623,0.0966709461374796,0.43053750292703896,-0.0714201288602098,0.14800993752434688,0.11156603440305032,-0.42041543207865,0.00678429269093416,0.011542144518582298,0.08830309767908626,-0.1523222127162472,0.02399917530342336,-0.10711141804385932,0.11749775765677205,0.09048040046686784,0.09023674394586077###-0.19986426795945467,0.0827158632880977,0.23811483286743265,0.07305881405165046,0.3006116281594725,0.10775823628911156,-0.8690858300009519,-0.3052796696785434,0.040209673635805056,-0.06831495234487804,-0.3363702228740668,0.0747860670262348,-0.04839780957766479,0.09615374873768061,0.09787299591890447,0.04532355313167186###0.34245594479827834,0.11668944546915964,-0.22825005970299433,0.5103533720541592,-0.20030731766507653,0.19711262294256887,-0.9498349760726403,-0.023681381223900722,0.07096102757929056,0.025040645877223964,-0.21869269973778796,0.027519547747104012,-0.03852264133568581,0.05507842551084895,0.04719921606643339,0.008859802609332529###0.922637715336586,0.05359950212444207,-0.6686409961433872,0.31519889740360596,-0.12554805425441115,0.35996903207341496,-0.6798311354311575,-0.015957557924192924,0.04523266873580385,-0.05611455754006838,-0.15076062400888338,0.01767192177451727,-0.01798910141283727,0.09386031349185271,0.035866504589870334,0.04324462592299569###0.8542636732599079,-0.025111596580391977,-0.7502862897851653,0.056138191948858704,0.3916621809272685,0.4208776201477135,-0.4612198297605511,-0.11543490945684105,0.041235798763286494,-0.2080871547808481,-0.14202124664520693,0.09548002823837325,-0.042291102742292364,0.04467412085812794,0.05831883684345238,0.0935490625545808###0.5982726309633305,0.05476352694051666,-0.36327138287676763,-0.028675797290428746,0.03600263867482091,0.23359738460529553,-0.42432455970512384,-0.2789679913206397,-0.026377400106523532,-0.4570629111258054,-0.0316952253782842,0.05326189685986747,0.01601307722077903,0.03265875911856995,0.02338404145125694,0.04939161434468933###0.5107024364935997,-0.0068851412198595065,-0.43632680077383995,0.22829425804088416,-0.04301755841865897,0.16722741694193655,-0.6698543996886897,-0.39496542964795944,0.01300431945837029,-0.5723319963193383,-0.010426926590090523,0.07970704826185342,-0.045910580463679684,0.01647447531955083,-0.050540903127037885,0.027684963012229617###0.4768966322522838,-0.030794341933360274,-0.3770152894414928,0.02554053351348611,-0.24832144390670774,0.46497684791775135,-0.37318456841314007,-0.291297148044794,0.005483951771796061,-0.481350514259705,-0.015449561765503663,-0.007772966594832184,-6.840823220181737E-4,0.01533393939747654,-0.010044703083379706,-0.01528402511085336###0.18071954341060842,-0.008771951643213555,-0.21037117230113442,-0.15705561501919113,-0.28414793601239546,0.2184662781517911,0.11267495440105989,-0.058687545080208146,-3.342425732911211E-4,-0.154242569376421,-0.0999149013481422,0.037064471767841105,-0.020898581132130046,0.022504076881331766,0.0160599738002785,0.05127974329162308###-0.023988722274015606,0.017077698842551864,0.04851751412683745,-0.0764514521000754,-0.45618863339940274,0.09878075166253583,-0.05651973299682354,0.035522860782458435,-0.01562784687767117,-0.031620566428402296,0.17390246364940326,0.005579071920990881,-0.005917871233775658,0.02572537547491253,-0.022895697242980084,0.05980880229455584###-0.02291521354264604,0.014079993340350969,-0.03397148433471307,-0.10095092572516814,-0.2710758220781929,0.15272080163617688,-0.1060138948110958,-0.0032906776232199514,0.009356912524440106,0.018422650098007438,0.13168465797047021,0.037668507840452385,-0.01660536552581332,-0.05722211197876088,-0.08114813004346465,-0.045423276266196924###-0.14096068284753788,0.01646523368303732,-0.017378325823645076,0.036728531832434345,-0.11999376101944478,0.2592230033711276,-0.0408653694639782,0.0599346424076162,-0.005758741110782376,0.0878933966457179,0.08706446262603938,-0.018657727050627047,-0.02963131813405853,-0.03508220853341737,0.01887248152286116,-0.022551255754378812###-0.2764899757820077,0.037868139938757754,-0.010884914732340226,-0.1430717745253352,-0.14817713847151906,0.13246142679695205,-0.018393161035620404,0.02803173185306147,-0.050939731935191274,0.03180277162290207,0.07215161673839218,-0.04941246088823093,0.0023290896735761128,-0.022330059240029565,-0.01353556335984655,-0.0034291556278615975###-0.15109944461353736,0.0031768207171682466,0.09904795810297239,-0.058396034168851474,-0.1459186700661742,0.17444365444342577,0.0690830807177336,0.13846088253623234,-0.010954084688740885,0.11584940119596542,0.007593926642462003,-0.042572639498463405,-0.04698512003116338,-0.04279745548247793,0.02972247193849271,-0.03352980526841999###-0.12908937086116132,0.0156474192318313,0.1548276353177832,-0.045464435148452186,-0.17027737533214007,0.1356940879915315,0.1531568194043315,0.08896050998157289,0.022500351653721204,0.16345753264419938,-0.04411908437305775,-0.04017556741311221,0.00815342662994845,0.04658542526123811,-0.005222679017813003,0.03391563891743909###-0.10475033261852437,0.038743477017570985,0.17758894075727158,-0.0943340426957904,-0.18955650476330685,0.027275167213445375,0.1727656739618614,0.16872082118325107,-0.019998569412104067,0.1183124091459554,0.017943919658885844,-0.004834945249332896,0.046364962997815715,0.03203943870873209,-4.99691481879141E-4,0.05411450556322126###-0.11367951591609529,0.008398283657234815,0.10837895808977885,-0.11922898235997911,0.03879693480663053,0.00567912531107969,0.04456356400001824,0.11933076182698737,0.06362153941202145,0.04975817072672038,-0.07351349399894111,0.002636408098914724,0.08289976095207895,-0.07162007685377081,0.030659071497713724,-0.03185300044952076###0.008376384071267338,0.023295547971281378,0.0049536575913596975,0.034580715047601567,0.1898972162603065,0.1152592995014835,0.04380706713910071,0.0958584304876945,-0.012148422245329756,0.12080731343309623,0.016187864736195177,0.023697337327214397,-0.07992578896103303,-0.007870999709403586,0.022241196232620268,0.04713935813526026###0.16857373649783894,-0.010760799572054012,-0.1320714353280145,0.11504058252224836,0.20520950018841655,0.052948223647859664,0.17455654328066608,0.20585170633626143,0.035221575176139455,0.216716502283157,-0.09354718077807193,-0.034941335333174714,-0.0630301769436994,-0.009534398912840239,-0.045698688353514615,-0.014328619293113453###-0.043246712579609776,0.00916451113946454,0.037968313723491263,0.1553298417342261,0.28827293068550014,-0.08380361293230046,0.14985722659750375,0.24315260127083663,0.008183336660646133,0.22228591191171318,0.04843655587757266,0.008490461824155844,-0.005541890026696242,-0.02304013278528609,0.07343393085429926,0.046108014189963006###-0.14875613653542163,-0.0012882238543264156,0.16886193056653098,0.12706798961622953,0.5355440028912313,0.004143883974294606,-0.17332779576121723,0.2766231042608518,-0.041176025933116436,0.3178376022276254,0.21470835817556444,0.006069645429286305,-0.07851600602248468,0.02643156511086811,0.03101555162112558,-0.038166394996746504###-0.4049101790821184,0.08675420338772392,0.17879281573511469,-0.2865395685582176,0.7243613382013447,-0.05664457441150492,-0.35677570444834433,0.37726398985439624,0.0011002480720894781,0.30542833274959663,0.08061599679921604,0.05860611302069852,-0.05711589054045215,0.036882118546015696,-0.016126274590264774,-0.006742272908589567###0.02391361839016329,0.007750394453156654,0.36469703586263025,0.025879075551208802,0.31908260220831774,-0.3576164005602827,-0.6250231697300813,0.43307732637156715,-0.027226193698240683,0.3970399319632586,0.12656822466614132,0.0024095774111512606,-0.023202545522180613,0.05565109349890002,0.050180871391113366,-0.019129687707044773###0.058182159566219215,0.0799595541836271,0.5752240679884455,-0.048906683398465996,0.301382987420602,-0.4964342015058387,-0.5653278110266305,0.4195716043104393,0.08920886103015507,0.41313339382740877,0.010782888370431011,-0.03340517456468206,-0.03202580554456719,0.025537217223108904,0.054565635453600186,0.0031363143731544542###-0.2547598363046012,0.10940674360946574,0.7115913723486037,0.046471323948295486,0.13763317686949575,-0.526260089438144,-0.5590910268267713,0.30084432380195225,0.08271403551771299,0.3435594741541289,0.14364954020677642,0.059147589516918224,-0.1021284871830161,0.10657595281258489,0.0395761669753984,0.09629610141736615###-0.3334062009334459,0.027660756191457123,0.7572221882658994,0.2602275771033069,0.11804907842741134,-0.40166648830885454,-0.5160002148015785,-0.0058911607860574885,-0.010918411436810162,0.29931806121891463,0.284700499587586,0.03359539436443258,-0.023658764904122404,0.07548567978675931,0.026026325456962117,-0.013583038829516345###-0.3827504677763217,0.09758906589711956,0.5985984222629582,0.19093041127309915,0.23901589272931897,-0.12075702858209744,-0.43092344548333295,-0.03969059667861857,0.10387858001056681,0.33255751013899937,0.4906628989629022,-0.0072690414128707016,0.023926284447487636,0.025719488499492,0.011948035697102464,0.18292385502841307###-0.6560660737189543,0.15788527440360164,0.5653535524416065,0.20010036125826294,0.4215617299297412,-0.4441488979392213,-0.38901510070418566,0.14353323041654195,0.08369032405569399,0.3656249825744212,0.6952834609141495,0.1209254220495779,-0.11309894409374933,0.10834021212267711,0.06680169382227662,0.09926789326480401###-0.6750533506537733,0.10803183320922412,0.4452726337256882,-0.04118024332659893,0.03933275398381493,-0.6010610334920524,-0.5973768967917162,0.06474883990008234,0.07179827873514914,0.4238272646573399,0.7266236241706588,0.13345295336972424,-0.0777351743587877,0.11351459294675188,0.1494700106322739,0.07146863953748056###-0.7758907678933427,0.07351159966639177,0.5529573177626057,-0.1216841076270849,-0.11088869664989025,-0.4217800520960042,-0.45241429142519474,0.32090123836792284,0.01853591633972775,0.5545410338124174,0.657358062153899,0.10657487517581855,-0.09933949552490723,0.09354335931504779,0.043775786735676746,0.09052490521677187###-0.431437586217351,0.1037924292944295,0.04160247323439561,0.29493462263465714,-0.4527509421423332,-0.2710483621118347,-0.5334624122711413,0.3041672875088439,0.0954716207241784,0.37025101037572716,0.6717450532180606,0.09025868469382076,-0.06893751231762343,0.011281150801804495,0.07751287510053982,0.08989235504892597###-0.1305889450451301,0.04747916981474598,-0.2802624856683251,0.3584160049085748,-0.31995131986307296,0.1674763403111904,-0.46697570011051254,0.14193233235512492,0.07157993872629773,0.1013692298824732,0.769145756952185,0.05817930738589357,0.0304669596599213,0.05517329932897214,0.09142028743292759,0.1045785311256653###0.10044996941771125,0.06592639973767153,-0.27311787929375386,0.06297242937378851,0.12568352817995765,0.25426832564209134,-0.4977698183857283,-0.03814618042860229,0.019997147842592825,-0.15069857332244838,0.48580425607414324,0.05429520780206386,-0.015863931424099968,-0.0452465446345017,-0.010049227363869826,0.058569494878280434###0.16544424546358213,0.07586785968892727,-0.29420422798040347,-0.10927821789155966,-0.17251721031028996,0.08577612284095996,-0.18180833703742066,-0.42946573150980033,0.026883359626446023,-0.5471395812048141,0.4037595830148267,0.06468142621659378,0.0036364653229786076,0.03027114148556309,-4.0448582826592075E-4,0.03930634948764204###-0.0957265756278678,0.06719948544699339,-0.06329138027297754,-0.18353022915672287,-0.24347574105714653,0.023517130436089394,-0.2955383281282856,-0.6137870463331573,0.009283287320099864,-0.6608716857792599,0.21609954021088726,0.05443267215940201,0.029393684095993626,0.015862497123298416,-0.019847446651708355,0.022330842293507062###0.09876584562191545,0.07206356754596846,-0.04396398690593802,-0.23990835874950978,-0.5369051710307315,0.2192656321690272,0.014208408933988118,-0.3726300769853426,0.03935904760915894,-0.452432693309968,0.06456578074118986,-0.00991265841930573,-0.09174762122368198,0.05509953566154631,0.009876568375143313,0.006596560290119483###0.3453663370790106,-0.006211540827092855,-0.0294030756306523,-0.19925729479612664,-0.7702998778084221,-0.0014437125359814207,0.23644894941806036,0.00893819053167266,-2.82796421287224E-4,-0.09925868394102298,-0.42909085779849904,0.037410649684458695,-0.08599434008862294,-0.0024788433758733503,0.013888085253764629,0.08238530082160318###-0.29567904542746076,0.02928122670229096,-0.00975412168436649,-0.20107760061139715,-0.7511877440039995,0.08998665194556892,0.15781798099109806,-0.029849662642823648,-0.010885885123991633,0.028449263030658152,0.08654859917997026,3.166028122813011E-4,-0.0016700578644298159,0.12046942843726953,-0.011032323426731097,0.03996656907912161###-0.22715713741796256,-0.0017067648838467295,-0.07115145936481945,-0.13965001306875943,-0.29912876819506495,0.18110515344781092,0.04009469522950712,0.03762113201507573,0.020445430324760875,0.05395742823034259,0.08362350128339918,-0.010352742789749425,-5.466794133297608E-4,0.03880957042897923,0.06368960487945083,-0.04271303251937867###-0.18840654749213584,-0.021224127731223945,-0.028027080135447274,-0.08618534249043044,-0.11951659536961133,0.21474706144777572,0.11723567718773933,-0.004827025355519535,-0.02587519750924578,0.019251829857344523,-0.052753334454861724,-0.019929604597773664,-0.020234993843283488,0.026706002115798783,-0.04865122548275705,-0.017443173310849144###-0.24862714128458768,0.008246423684964456,-0.009167227038232893,-0.1254998640391291,-0.21813751450970179,0.10383148005231804,-0.029002392600293525,-0.028084564466413116,0.029020711692805227,-0.031366250130156544,0.03554184318716774,0.04086035873964816,-0.010475279633282854,0.06882297148119391,0.04114140070916597,0.0191306650587332###-0.2619469778730506,0.013019388352492691,0.10603308360196143,-0.056646842774325905,-0.022356284747221244,0.09109384371388893,0.027270498548675703,0.1165877851103128,0.07024520793227157,0.16906820830756883,-0.03899371104725298,0.025449679113888648,-0.007056800856791434,-0.04821780692758476,-0.01770106891011854,0.021171847739017848###-0.24362013696880422,0.00945577723232349,0.05452742413348448,-0.07313167171408409,-0.13473162421951138,0.08918628890319508,0.1433441691314619,0.07157751429164083,0.04588842525725957,0.044632305927091574,-0.04181040431873831,0.02664209225568878,0.006388208135223515,0.01053537444481385,0.04095971412520674,-0.036604668371793166###-0.09777138086483468,0.0360078029303699,0.10507471447991822,-0.20479296355516013,-0.00729165375889053,0.015358121031292358,0.2030832606932501,0.14362961337367133,-0.03202825354828056,0.04193966673729626,0.05449978257538185,0.025286525632936596,-0.017754725137934135,-0.015524694717889956,-0.016203501361067057,-0.060878108967839566###-0.1250483891862166,-0.012653906714477307,0.025617992649449528,-0.19291450567920979,0.2263913105805252,0.23868084959662939,0.2789234437880347,0.0768508712043786,0.01124033528543513,0.07591582797283462,-0.07581095980911431,0.03857187098022361,-0.004833086125385392,-0.02771065275180632,-0.03541844373548318,-0.012837279356631563###-0.06255734712789034,0.021596724470610205,0.05787174044237648,-0.11996300459328385,0.3634102369728346,0.32599395417893623,0.20006331621002318,0.13652174546658039,0.06549990352829028,0.17148711864922908,-0.15604326603454474,0.022362952892836886,0.016637649725447057,-0.01051533638380848,0.02659686250720124,0.003686287105757562###-0.03586344687639451,0.024644564280341424,-0.09663063131921011,-0.07811628893256951,0.49436351108311893,0.17577995219934509,0.34699648614048123,0.20918809188645038,-0.018746762109366447,0.2450627065776464,-0.24179276751133466,0.04955757624896506,0.0014716477871660398,0.030919454551154513,-6.340767273091528E-4,0.011380606278110198###-0.12238649231720758,0.038656541847881254,0.028831038469505316,-0.08105176876023627,0.4771334515912923,-0.004305626612716615,0.21612178425202028,0.3300759747304289,-0.03868949309612763,0.30961086518223785,-0.15065341596246917,-0.009511921603884681,-0.032341001540120026,0.017078905694598853,-0.012976692726402167,0.032963363527474226###-0.1374085706034051,0.05768533179882112,0.06690705849954078,0.022129269360230037,0.5901150428095111,0.09197099612808686,0.16489810622869033,0.3803262618701304,0.0032319211412862154,0.3978511530893996,-0.09778570017678022,-0.06447354780228072,-0.03257749447704673,0.05560940665302064,-0.024737288831468293,-0.028588041378298255###-0.13844130894583132,0.04395412331754497,0.25675997186097316,-0.1240353983695592,0.41566688800794876,0.25188518947827854,0.36264343819950057,0.5501933716018419,0.05479734774520863,0.5010548973168263,-0.0911438521063959,0.047153690949564536,-0.01770530292743363,0.013239456606126852,0.09323228406991173,0.047721539338251816###-0.10021286654396545,0.044451571319097556,0.30347593171385184,-0.24129537077890245,0.20939965418453893,0.2987883146523255,0.24490451966935606,0.7230959868938134,0.049979584600199425,0.5377329850310001,-0.24856606296429154,0.04722216076869234,-0.10700924722478453,0.03355830737074714,0.07507190782328978,0.04230207972182927###-0.1692608491740927,0.028774604331635773,0.6206294483294708,-0.4666186000856057,0.13686927916863534,-0.12892250377519582,0.2145731769896329,0.7444982495795129,0.022339202230331184,0.4782399080259879,-0.34500363821898794,-0.017067384664543234,-0.010985151499041225,0.07553156307378427,0.0704420114086965,0.039606993491069144###-0.09805986572898134,0.13151945810079604,0.4223457709196309,-0.37068944541157844,-0.015341052210835511,0.010049941650260255,0.3905052043302248,0.5422249181774,0.005637747632317859,0.5524864311077129,-0.21272965887064707,0.08203121489449776,0.04594098887584594,0.03809405938756407,0.030666673260965865,0.09284580946133167###-0.25200932216300087,0.08290872343854014,0.42569598096653105,-0.27356077630975306,0.08637598192915005,0.2555622505515611,0.618437618694711,0.24283631451863222,0.08104569643243506,0.40691568465202593,-0.19733447208058602,0.10861332091180528,-0.08867203936889642,0.06090493022046365,0.08281544762095176,0.091772132509705###-0.4599630349806649,0.0035751322722420813,0.5223065154000014,-0.10966324097271848,0.47313948336967676,0.09543771518317636,0.7497108259490785,0.2250969443814799,0.08600692207692444,0.4340027741724301,-0.47179841273402695,0.12109965529324729,-0.09710846967929729,0.11919106454803167,0.14189997623867698,0.08793399009203569###-0.5592549622686668,0.11393498701256742,0.6637233526368927,-0.27335547700956403,0.6548761150800856,-0.12010961481937975,0.4027318551616281,0.4194473794639448,0.08672206667287535,0.5194276395400987,-0.058565303742914535,0.0781751449604891,-0.09330370791966126,0.06928735497188168,0.012566240959933495,0.0511974692914781###-0.6823204078044685,0.06529479143683586,0.7128262780390466,-0.431617783095219,0.35105667055733475,-0.20961540876749324,0.21914523463181823,0.5453234017913711,0.14274145001439303,0.6230306763129131,0.008777977723209663,0.07567912917300731,-0.06562359845633906,0.028406311219052578,0.13980362326400755,0.12764452807205046###-0.30730388563402977,0.13491780740829343,0.6392144510637943,-0.3693380311563727,0.12284416750044061,-0.23633664712028757,0.36518914071057373,0.5911648079566743,0.11986196639358516,0.6592823027648388,0.19222909781434325,0.14713597930093855,-0.0609241943119157,0.08290677816107898,0.12870402435491807,0.018411533411011222###-0.43887340821648274,0.0941441691963585,0.41458809517818057,-0.21781928839897916,-0.3043497437061181,-0.21789724021588547,0.5421831988493169,0.6023128935462947,0.020742179340397605,0.5258629349306508,0.054257231510033206,0.10186586123902001,-0.08781175672764849,0.12940612147006486,0.14548720589375594,0.06128312308527515###-0.5104596179202724,0.09693047859562175,0.23140572255191505,-0.046979468219038374,-0.27374775483223085,-0.011666888783276035,0.31158530713174265,0.2558781495360596,0.034735208405052655,0.17987272256440934,-0.26233232820153224,0.01819128759353942,-0.04891006498953042,0.09961675731369422,0.08759825703532992,0.06953811983408648###-0.43461298935063275,0.08551974031582504,0.34270891741582216,-0.1628059376650074,-0.18923055050438461,-0.06052842834392215,0.27194043316994443,-0.04635219308903476,0.05643500270598437,-0.19968577709124657,-0.16371115977010417,0.020796764340808502,-0.066760531492387,0.09247514232844885,0.04257299887864395,0.06269759521345755###-0.21013449502492168,0.07163204693475411,0.2817953119118087,-0.1453090621843663,-0.07009302699183802,0.08819658742466549,0.36917354772688044,-0.29878815038078177,0.08657827948411195,-0.3628182386362115,-0.023761810886277015,0.03232489672323118,-0.09616144179755666,0.12619715732854897,0.01758783563514763,-0.023648229525101445###-0.2931309893470835,0.04419578169628005,0.4534635076740251,-0.1419405399739634,-0.3958652096491485,-0.118933891784853,0.23810143016426802,-0.3113282109142662,0.04658568916033545,-0.4265038845303532,0.0766314491444129,0.06973406817100848,0.06021543518547112,0.05426470511898799,0.1035016061907173,0.0664767413089399###-0.3166879624711395,0.05834393074106729,0.3106764692323204,-0.1109053148143747,-0.8520129280070445,0.14018438425282287,0.3919831851458432,-0.17501754227149377,0.016920882471606193,-0.10892383838428725,-0.08865786329601259,0.058527314235580184,0.06523646404546034,0.06933791148535491,0.014129918139579178,0.007642948179710331###-0.409521383548257,0.028753465092215394,0.13257687411346947,-0.5347891933939881,-1.091321689237075,0.4456215935507866,0.5918955293847183,-0.04849930739885938,0.061302207343531395,0.08991536639730426,-0.17628663446853104,0.012701293543451807,0.02437641011816396,0.07103121345392148,0.014177498697092674,0.06663047226201511###-0.7227099570094487,-0.05626382970012376,0.2458250240712981,-0.42712410035734616,-0.9701920968934447,0.43107799034633804,0.51342834302976,0.15761745724563536,-0.0443960865750721,0.24829414598743663,0.056469986230499966,-0.020912179426243346,0.02059912006352447,0.023187109977521186,0.011093191848855023,0.023164602077071068###-0.6107021222574197,0.007122435483998779,0.1733225602997599,-0.4016608381856611,-0.5607352037034787,0.2386420607094174,0.2939367510644644,0.12216254090596358,0.0658804762628725,0.11520798069895097,0.08184934009056302,0.0022307414531134266,0.0020741039201138335,-0.027966154499775076,0.05611717122491588,-0.06349082315617234###-0.28921446344528673,-0.0932182892375338,0.14253217098505433,-0.23977975400640794,-0.1256162884629593,0.09194574628238199,0.08750912479769733,0.027671786585511487,0.01963694231209246,0.05206557455568256,0.018931059302791608,0.03186063618676743,-0.039228351528266314,-0.03050838530879332,0.01574239276863576,0.015290452711133358###-0.21289578434282896,-0.011595612725870728,0.06478209688980595,-0.06134738695966597,-0.13904312776580827,0.03560086354224727,-0.023506645768570072,0.024765553392460254,-0.03553319038748526,0.029957137978870518,0.17292850363802692,0.01659791890363025,0.010903766355641388,-0.009942033787034437,0.039977229620316836,0.05313411271561301###-0.10955838555047641,-0.015335749531788876,0.08935306604618742,0.007434454203722119,0.05590838283413811,0.14472923152327533,0.13921671924766532,0.1270772494617883,-0.04189850710001783,0.033647916627155286,0.011067357989081915,-0.002083795176566728,-0.06336600785239892,-4.7792100448208535E-4,0.01500640409277271,0.021039543739880755###-0.11754664826066616,-0.014635835941097764,0.0818261536954496,-0.009091863867357714,-0.05578085398263641,-0.005304155692432359,0.0554208678126246,0.11429794821290422,0.07961174687029769,0.09657045431657314,-0.06880051330726838,-0.017026868087029808,0.010106451145515017,-0.00873869441187043,0.024998164859140137,-0.008125634101006939###-0.09315414874233481,-0.0396477552379702,0.10903979892157116,-0.16776958424984337,-0.08450664584015036,6.564571444692871E-5,0.1840057524452125,0.08972917902484384,-0.005223082221354253,0.07706571535741268,-0.00214342960115015,-0.07313211032506173,-6.254773167490925E-4,-0.018906183574952457,-0.010632450056563911,0.031050672498793386###-0.09020385380166228,-0.04758535908158031,0.18032083577508076,-0.15881095656784674,0.17923778316541522,0.1931990204399937,0.08428489619545528,0.044259211944807864,0.005477516457713896,0.047137924255694845,-0.06043559948053581,0.024033814331390044,0.04675526052877907,0.06347581366476376,0.007279930556022002,0.033280059308223586###-0.021490848715117656,0.03857658071205053,0.20127499240286648,-0.07613163256732523,0.25833743836238965,0.3602758320033864,0.1624251538016088,0.11480641953193986,-0.018458520841633182,0.20353219247480792,-0.15281162164067966,-0.023934312090740394,0.0482796165725859,0.06594324795519774,-0.004641380337591777,-0.02964128173569983###-0.10118640821394007,0.046940778657443866,0.016498580169102835,-0.12838500751379459,0.3311011030781953,0.14852014844299785,0.3215553681279164,0.23836009419886578,0.014030203416905643,0.20464805674899875,-0.2532304861202865,-0.020350306826535228,-0.032145440857971955,0.039510550097513135,0.005199838817100742,0.03766970158829997###-0.2249455304596341,-0.02119699901784744,-0.03739309200902077,-0.10626597615343235,0.33376113363972165,-0.04623264368618567,0.24616386297228493,0.3622513707005692,-0.027817805224822724,0.36574312870528775,-0.3086988126332986,8.87837475710139E-4,-0.08007973306430202,0.01567806910830094,0.029048115407685583,0.03626611712109504###-0.21663961347643765,0.032346098671649164,-0.08035862837751259,0.07752628340914286,0.5148651725234427,0.12912940398183173,0.24756909935758123,0.5250887520530165,-0.006219136586380307,0.46356012380832795,-0.3313988068774999,0.031697505285818224,-0.039017254969579314,0.03805678488682701,0.035300181000557145,-0.0542176660981641###0.0626427966377332,0.06798931752852136,0.41501815887153776,-0.13985247978391194,-0.011646253881335599,0.08723580972979088,0.1758377636793566,0.6726251768044651,0.08878764877839591,0.6380641600404986,-0.2142428462596383,0.0653648295429602,-0.04758271418400365,0.03475748405123498,0.034663039224647973,0.04242935740119908###0.24440638158200417,0.078249820718716,0.24064328688626965,-0.19973210942710856,-0.47464990187073886,0.16471166264974532,0.4483744699649169,0.7740952824252704,0.04589189064894734,0.6301662544980133,-0.10796286783739656,0.07750917161770318,-0.07570591975160183,0.06008746601548023,0.037203511826348554,0.0532262414448823###0.23570747306805157,0.08157669988789618,0.2567209050278268,-0.3269853615663637,-0.5988960147738539,0.08423102659522702,0.5580372275787637,0.8642196353533351,0.03295714125021837,0.537486838956184,-0.3701960707734321,0.036284868767932,-3.8836108221104384E-4,-0.024712133007688784,0.06284814547506894,0.09047476846129###-0.004941662305426333,0.05927201146365265,0.17977821421612653,-0.3030554178488829,-0.4623051826193723,0.24985906045790646,1.1467667510121846,0.5075678544744339,0.0876362362618104,0.2533169758734212,-0.37821223754040234,0.010414583518497226,-0.0465628910088998,0.10657692797395864,0.0725948657780332,0.025390684242873135###-0.32122737278237806,0.09672948431762102,0.18782567593456073,-0.3729498229417005,0.09375764640640524,-0.035897440649104925,0.9399611978046915,0.3950221426710816,0.11409808926677019,0.194822090969968,-0.4192829491152167,0.07193861613350504,-0.08883095817803452,0.10618286735557475,0.08214353452104775,0.12824691850456046###-0.3540130796706308,0.0960065106477415,0.18579834084383393,-0.2671481702008618,0.6110832064132719,0.08334662915892696,0.6781989093315866,0.45701827605406947,0.12462521828485196,0.34473707179814533,-0.46866088801649497,0.12389717865465893,-0.08593349956730724,0.07226914433722118,0.11448078427389478,0.10802574714257139###0.24965571969666978,0.04223498304285021,0.326460669303825,-0.23291498309311068,1.0663360751372177,0.008830811228443513,0.3151121156486784,0.5180469542450196,0.0955954524095123,0.44300626452317887,-0.49627122117846695,0.09826546783461883,-0.11680092476275959,0.12006680786252233,0.10432804748832969,0.14767000230120053###0.3301765875072608,0.07940494980783368,0.3727539836225103,-0.2987267028349944,1.0925187232303517,-0.3944818086431376,0.37373122716353596,0.716366857683897,0.11436515012172824,0.47790876218629297,-0.5576270453846888,0.080645223862686,-0.053043370970120796,0.12128823890562127,0.124201310877899,0.09483113606611067###0.589247509243258,0.12195287974903239,0.5410476463826503,-0.17760711171066462,0.5667864914449301,-0.39379889202444657,0.9877272858717224,0.5398550540012013,0.0999733921264704,0.3402725381316731,-0.38812831523622743,0.13934859167838576,-0.05129650104157009,0.1030148102060051,0.1351587002104331,0.08148128671045485###0.09612871013710457,0.14664941925655356,0.4625290210397762,-0.24423753654209548,0.38311009048055666,-0.1965678567296103,1.0956831037495125,0.5635877735292193,0.13805761626070887,0.390120735983233,-0.6636384004590805,0.07669155901920999,-0.11445473138154899,0.12885650916537578,0.07014125350861125,0.11792342982451312###-0.3931668756506564,0.0768480794249796,0.4025895046039582,0.11637063299635104,0.15757345240907258,-0.11407891376288694,0.8417602139615099,0.2745227301991683,0.057916290459151504,-0.025742471540926144,-1.1011845094458197,0.1055162592153612,-0.10077248318298035,0.03920057071101646,0.020588084609581867,0.08196346474431114###-0.3657902898570411,0.09984245890226386,0.5423311392566355,-0.004729514763224436,0.1034537738136687,-0.11305942922239492,0.7284794638150046,-0.17385699850985126,0.05992769651068288,-0.15502510752694224,-0.8885337374965852,0.10183524553072368,0.011659471344107043,0.08692990788333106,0.055604247256651466,0.07146990261333501###-0.6391779554578131,-0.005443016698726693,0.4890206311248443,-0.29646218749406694,0.33985503871038564,0.016864909867278347,0.8675255055141416,-0.22189322376429152,0.04863015387706162,-0.04121143903959082,-0.4473583285465697,0.06734822879914028,-0.057792201902642434,0.020697401291215497,0.04350451147452693,0.07720027811854599###-0.6420716888144882,0.022637232426910313,0.49294295236899677,-0.23513697827850216,-0.032427495753016025,-0.032037612650763346,0.826706813847406,-0.12351068180687219,0.07984919779185405,-0.18397888369210955,-0.4116404506858879,0.03014933027609148,-0.050520811732081866,0.037998617131251196,0.027284659025356258,0.04645193595622816###-0.6445227295022861,0.015133295337108624,0.5579916245341481,-0.35036580077789053,-0.6330225868439435,0.10720966158482055,0.7182480743995339,-0.05200837056902974,0.04250486685474039,0.03805242892700692,-0.4202816946359111,-0.013542111722051617,0.019041244304483635,0.04807177959796157,0.053315496311885056,0.017981949967803626###-0.6810258246419066,0.06179485419954096,0.33655967261783865,-0.37272921253395336,-1.0505804733256363,0.1416246393491375,0.6779826437161733,0.11261361855631016,0.022887578283002787,0.327430397369108,-0.3095969151119886,0.06595223205638003,0.06529848193883522,0.02607088942491131,-0.015957973558696714,-0.01904380535982712###-0.9462252959247412,0.07658863262930743,0.4349087509074901,-0.5340626894190346,-0.9377270345744264,0.5411339598150051,0.5774906924787777,0.14802679425845375,-0.04015425978901391,0.3037458596531483,0.060145693513074916,0.019859877965799425,-0.047624683599383044,0.060076319999402876,-0.0015930435925152764,0.013386472860051783###-0.78079698793945,0.03196662555659213,0.3977316239407353,-0.4486746059622277,-0.5797188151074745,0.40160429299910627,0.30496036012465644,0.14781662897384473,-0.019999485626304693,0.19140887540707643,0.008756933830458339,0.054307160023605,-0.008724650572572167,0.03640874993060285,-0.03780986408591948,0.030002920520392263###-0.333479019767479,-0.015380492346239867,0.24918320296179738,-0.258929940609554,-0.21512659431252942,0.1377984047011961,0.059099899215775624,0.11708418920369981,-0.035843685581028975,0.0762576957997472,0.02487894582591592,-0.01554626731307687,-0.06103506814640821,-0.04854137550882968,0.054386247158384825,0.05326363454265147###-0.14771912750305677,-0.06244143918397654,0.1338045694588539,-0.1569799375455985,-0.20303204488595963,0.041490188438133145,-0.027832488657201688,-0.03389491478456057,-0.02764777426351975,0.030338703522600395,0.10992210306119633,-0.0015437723088332857,0.016809406264556216,-0.03313931585822309,0.015549546993726971,0.02506470090329953###-0.25272918402865785,0.030497168805017853,0.15050191793947681,-0.03858633979680105,0.0516433673883788,0.09401877513804671,-0.019282230520767007,0.08434171343827719,0.0447582216176217,0.0958517383559295,0.13544663901388757,0.04563380493681211,-0.00839881022832233,-0.0029379090207330436,-0.03524784018242418,-0.016442405405399433###0.006324639429301524,-0.0011942681149731292,0.11317482850955005,-0.02492995419224933,-0.18679785151046974,0.04310047512889853,0.09616264746898466,0.11968104595925246,0.011929507285967249,0.06880224064067501,-0.10741528533104978,-0.012518455830654399,0.01843316936789023,0.03816347293714936,0.028982932640889227,-0.06911792642720702###-0.09468771534838073,0.014522396118117458,0.14098319312281785,-0.012213173092545524,-0.15846445159548522,-0.02765602758891452,0.010405206036064827,0.13749667730018103,0.052824842394410494,0.15061671354506395,-0.03578297138536523,-0.06973352405051252,-0.04790755164701473,-0.09202639233223991,-0.01617753954958544,0.0464679513069859###-0.019128390641709368,-0.0392292031794216,-0.07148214293255427,-0.1095049910034136,0.1670388501626622,0.2666900994969236,0.17177239831814553,0.1299968138583797,0.020185646306136472,0.1283171012719222,-0.05066232731101747,-0.037574062881126934,0.008453232279859628,0.0028729027007580983,0.022473400018264193,0.07046593187772492###-0.15216704103571158,0.048421761183500445,-0.1960061055901407,-0.08658425473524525,0.22847914759363358,0.22631569224957335,0.11733382013376278,0.13581555370136278,0.022880695395449385,0.1438712318296595,-0.06356960005913986,0.030489745846572325,-0.07468389243507896,-0.017876261318217287,0.014777135997788272,-0.03803370012729493###-0.19903892707702642,0.05905518329891331,-0.1775904618378064,-0.04922946547812935,0.21657743962846246,0.11499381699385361,0.022348926405110194,0.07627454798361394,-0.0394864956684502,0.1467227352693678,-0.5003052644542932,0.0018068775921478587,0.03029031311912975,-0.03701349828910904,-0.04710912916554958,-0.027896889297843987###-0.5100484725269997,-0.05609807656251274,0.023949520302516507,-0.09053484706925326,0.46218851871823674,0.23950139222600345,0.10046106858319007,0.23320795195074703,0.04488359276048453,0.21729919781354298,-0.307505922952355,0.008377018205005773,-0.09831551604377672,-0.006322033547284328,0.03415489163753331,-0.011430785141404725###-0.07477746244655546,0.07093145925066448,-0.11667331572098741,0.21877612281683548,0.09852531158524838,0.045835620429915465,0.021336974047594305,0.32884138109492833,0.005409304114615132,0.36146420733998696,-0.15218869861694634,0.02061491534189246,0.01200499210745152,0.04289663549659228,0.030168331069775862,0.07936874614429933###0.2944910676034353,0.11744264552525475,0.19962245747402205,-0.05158832455801567,-0.39236965223460474,0.5096632800489501,0.6183536324923339,0.675824449252155,0.1320829689797745,0.6294590864110554,-0.34521694396400154,0.09863009503540913,-0.07601292242679589,0.027521258119851004,0.06961508366244444,-0.0082479096295476###0.4403528087473431,-0.008282390747602364,0.18448426157402179,-0.24902360092952835,-0.692591740049801,-0.08733531342946019,0.6689171946272836,0.6129210635598492,0.03898784886060313,0.5286968659791998,-0.1811199656795369,0.028818983172316622,-0.04778169134788093,0.043207482334507934,0.09585894367191362,0.05660156728807549###0.22669088078917793,0.05860520672241239,0.18777905458300603,-0.18428724583894054,-0.7651331562118309,-0.1383486802334909,0.7026314858829114,0.739571603269424,0.12118197170040021,0.4081291832400117,-0.07415868941728368,0.03501542067248136,-0.07599792404411564,-0.005070416346321024,0.08092947515190702,0.08095014269866285###-0.15539103975159535,0.06583353457849736,0.06526973201327271,0.00698985357582487,-0.6201915606777677,0.20169625372453515,0.3010124124898892,0.7149824000346497,0.10649524812926241,0.037316077447807024,-0.09480766406286316,0.06709296916346787,-0.10003598194944309,0.03927749166183135,0.0524667393961251,0.056913992772208426###-0.47013788179041177,0.03568320796696982,0.026403513782555413,-0.30014012542115476,0.06886919724787319,0.5622120831382215,0.18659731075451563,0.23607916970493575,0.1332328818444476,-0.13581411237081636,-0.1426748622545324,0.13550823267512838,-0.089056020685963,0.08428034708030846,0.07833210735516168,0.05397584490236406###-0.25467399576204125,0.05639691146848897,0.036035068603399695,0.08414509185633205,0.34116750708237925,0.2623419704584431,-0.001459784768104458,0.12789245663264712,0.1280372007933827,-0.09003806848537757,-0.5163084874756644,0.08100451362370029,-0.09380266628205022,0.1148010721748445,0.08580863664278794,0.12528430010819985###0.07739329439613823,0.1280870048293265,0.08813233745596154,0.3680746662070698,1.3366875214873741,-0.07964473090255446,-0.10738408988429439,0.16099223383062067,0.1589917566549986,0.20336173967200188,-0.5578151893106787,0.1546405226279216,-0.09627338016306265,0.13227718227128654,0.20189362958787088,0.1377070043563256###0.3964890652602869,0.07787338739002864,0.13060441337533565,-0.15250275300724436,1.3563783857695144,-0.34459198958555004,0.2771864842222982,0.3829960131547736,0.18693486029883494,0.3113343392280612,-0.5127895083769619,0.10432980021777688,-0.025528959519674644,0.04573720989638976,0.13782585842621822,0.09910287946050327###0.10710331669050077,0.005032889542940111,0.6837615469590692,-0.04947942497234199,1.1999342597600757,-0.6209684619844741,0.39198993642050634,0.39412162073523843,0.10733649574401573,0.25453911355265074,-0.924124710277574,0.11542269322857453,-0.030898463296690413,0.12802665283722453,0.11446029761608725,0.07076184087695694###-8.993995714081046E-4,0.10467249287983692,0.7541289283690927,0.07562266022905414,0.7289374412567959,-0.4062284577641184,0.7395991759876349,0.19644675864577135,0.06042797396876613,0.12510632191136178,-1.1796547632816272,0.11528792364737835,-0.08952830926832744,0.09955759311197626,0.1943910483303551,0.05588919552613934###-0.5225418739132813,0.0609400896556359,0.7701872277931958,-0.027034054133259888,0.6364017137397084,0.035016916417007556,0.723443963977788,-0.01919572782822911,0.05515720018881556,0.036727532708632334,-1.2161947252103693,0.036590134621136486,-0.06721331595863396,0.07428501221523985,0.04410897257729639,0.03401388743452594###-0.8611170483419301,0.08293269321246621,0.5634088915102213,0.10389487303880703,0.4776578925535917,0.22015208196464048,1.0401307325877436,0.020407849070763213,0.06711527932217781,0.03418973412839266,-1.03786284230975,0.09470683667189615,-0.07844126329969259,0.035485050911907866,0.060362373207233255,0.06523267179592142###-0.4684648043675031,0.07337485460487464,0.4328147936059001,0.22365433739948568,0.5293276693083394,-0.08089722076788669,1.5346779679458247,0.015479213892440565,0.07069889378633637,0.23851290130642397,-1.1203201330464352,0.0959976603551558,-0.05806445954291159,0.0019000142857284797,-0.012706179822419198,0.03418258218570373###-0.6568593141117427,0.046719763374467156,0.3122258388716936,0.1557640720766632,0.11532082620437092,-0.18337654441152204,1.6487672268303275,0.24404874093444054,0.049854428501101826,0.3017753883172444,-0.5963419969391742,0.004186582342935036,0.0033510041275944167,0.02603975854154052,0.02460075256702948,0.10153592872476548###-0.8517037909263293,0.02638656939224829,0.49548415408897706,-0.06000153642631119,-0.2927138389393725,-0.11005096279672588,1.1780640594103693,0.32181015582484607,0.006430274238392625,0.40594705285105254,-0.3597652592449006,0.07438994957541444,-0.0431031735979587,0.048835815350179376,0.03875658847129022,0.03346228241777832###-1.1146432655289462,-0.031662981326730455,0.41253286253027177,-0.02081535768978612,-1.1996301014004884,0.11800013662038358,0.800573343752229,0.34567787895124724,-0.006423939581133968,0.4708377012860474,-0.30095013574681934,0.07056757787715628,-0.010003417629352966,-0.01595592968723863,-0.061734275306180766,-0.0027970295314689105###-1.3901457331190903,-0.04030425032477343,0.6661598494637705,-0.46036002075444454,-1.0987785317238716,0.39646973771155586,0.8467798106342642,0.3444755474065345,0.08811895370900394,0.5294992981373451,0.06160797787143883,0.08380420270149322,-0.07740169374266613,-0.007444554043111692,0.010765099063848465,-0.0016329737781765692###-1.1025237439883049,-0.0588501848258769,0.36545606242572115,-0.44668261090022404,-0.758534150555865,0.4121662467598266,0.45402359303670103,0.19061408947028322,0.06109770000953054,0.32843423275571115,0.05517071605914218,0.016361772524534177,0.014890303771543384,-0.04796582292301509,-0.01273404039630597,-0.029910803155937506###-0.461275618311149,0.03552270965801775,0.25318443427781534,-0.17077963719643302,-0.35104190521477696,0.2603743890052159,0.2665754928832869,0.0936305832510545,-0.04788240388177235,0.11624740172993864,0.008553697697232077,0.05030386060298199,-0.04794416702674426,-0.02396734126773727,-0.038725829578966385,0.05801523947030467###-0.1523511372072666,0.028139852410873977,0.01969929119736506,-0.05936592593444696,-0.2298851454640839,0.08608075439945945,0.22051161740917513,0.04848683893275195,0.02639879744440041,0.05390204661739549,0.03800091616306006,0.029649221842523586,-0.052917728012631164,-0.0014316087215932648,0.04056889054631807,0.009145824631045033###-0.1182054583701687,0.04588457708540708,0.11639021691479583,-0.004855757450602073,-0.017739735013883866,-0.09711808580003321,0.01204846557189808,0.07858414983233102,0.037538365529287035,0.06895429537116166,-0.0399637257432232,0.13679117881212932,0.012934252795660654,0.017257344071414105,-0.008632254094023578,-0.08495545694587962###-0.06648871973148684,-0.015749823004856726,0.15428971050451964,0.0012244401663869477,-0.14300849182121228,-0.0677635386973474,0.08573156067811516,0.10352015332913964,-0.008480742208849739,0.08184895419925851,0.027608064110390535,-0.0022235197110892072,-0.028935656221710137,0.017462533047683748,-0.029064351094335927,0.014796624012726262###-0.12633137848620635,0.00248829634680499,0.14396888922328324,-0.09608171333948298,-0.03818797151076539,-0.07979815874767893,0.09667711447672242,0.04884172318227123,-0.023589610540864545,0.12792129354217588,0.013619551229462245,-0.010859180552808378,0.024690883408292164,0.008144193276641534,0.047984238693466456,0.06290710274916131###-0.11206618771829194,-0.02281367905761122,0.02583173353942166,-0.09019909449838821,0.2323786357174786,0.23275690170651708,0.21947385493242844,0.11379251701409542,0.06705231716172544,0.10991553309159256,-0.017702564247715477,-0.010416659692093336,-0.007292791638049832,-0.031836778277867905,-0.01627951729676535,0.02550385170935918###-0.16265703457015326,0.03692921153083613,-0.03487147812913454,-0.11635163831846451,0.14439056766943933,0.21468909775294368,0.11976406016796895,0.219146461138351,0.03456891227726847,0.1917128348229506,0.07149886407194338,0.0876177486080768,0.028026268578250347,0.023597375061241266,-0.01972239783802319,0.07928022635222035###-0.4513593067909936,-0.010975191087222157,-0.05710413892999071,-0.1917759350674865,0.23608506535725862,0.20933804477966053,0.05410700376623944,0.08823448197322481,0.033170381896681804,0.08150395042143295,-0.1584938070301854,0.0931245571164099,-0.026466674107103183,0.02537918466417398,0.05720648692752713,-0.0456247768521769###-0.6075068590980719,0.01831661428635879,-0.15550817153928936,0.004370320281740479,0.19493319721604424,0.4153562712594017,-0.10638037328029641,0.21441689802416317,0.03452184563071719,0.15155002021864428,-0.06558053399049202,-0.035068287882416935,-0.0585962013853309,-0.006271046738775837,-0.040149886782079175,0.002347715401643692###-0.4372778223519848,0.01963399859497235,-0.33645942474357454,0.4414156305855947,-0.18388985116837472,0.38355218458059215,-0.07271338384535572,0.34267034397632556,0.06426755580539474,0.2934061108969478,-0.23252652630387635,0.09163151077767616,-9.334573006672594E-4,0.05974100163771456,0.03537947626084616,0.08277206134495262###0.004093520569991496,0.037850466791124235,-0.1636598777489412,0.22159133161690717,-0.7538136074326122,0.4852637233203854,0.8539885811689111,0.4060523970222004,0.034823066370930876,0.43852321647025816,-0.22664386127835434,0.06837875130621385,-0.01229150039026717,-0.03492790198721128,0.11571212231024475,0.03750432985469373###0.03745859279142047,0.14203895886892795,-0.033403132026727754,0.2082174807644186,-0.9767249094335935,0.35167479198925355,0.5031696569221987,0.6588350950515496,0.026793713160308895,0.5426042224638691,-0.07879386402925245,0.1258955872443838,-0.052488082825950945,0.04326922965398042,0.09163975163429154,0.048304179725631134###0.055573687126238544,0.06253975088986255,0.13086148341471598,0.2055260339313111,-0.8702323805438484,0.4009004757695028,0.3941795357888007,0.6023074155606128,0.07541198233294245,0.32440814766413495,-0.23486601805306734,0.04196666135340004,-0.053972749857273836,0.03178621665989455,0.2011657788339499,0.09808136244588843###0.07019095653232167,0.04247215775541339,-0.16191131286890742,0.015216572592104514,-1.0262943169971035,0.3877450169108897,0.5595913447532279,0.5545003215525929,0.10773939133576677,0.04308601829386478,-0.4337036466755343,0.020235654839561794,-0.0012792025976321145,0.05968400804901859,0.07662157452004287,0.04043056265616269###-0.006933948559680343,1.5949206523091034E-4,-0.5600669021491946,0.15031626559633046,-0.7368549308210774,0.4093876542653114,0.12866344197721608,0.2656190739790453,0.11647501099673305,-0.25548958783136844,-0.47477750837336724,0.08783932550055552,-0.049326680351111395,0.05901035999429693,0.09027520415573222,0.0738815924030901###0.3522038774325977,0.07466068283663013,-0.6172700074613715,0.5116831940735002,-0.15421779650147927,0.003911853881975401,-0.14391574085442307,-0.19385064663030288,0.1191438173185512,-0.21845580065970693,-0.6289179749636818,0.13151003357302293,-0.03359101729305817,0.08378655401694346,0.1538968410002999,0.06629638880542327###0.3313876563394981,0.10644166745546789,-0.23581557416559387,0.39004000790113325,1.488082279553186,-0.08182990178292093,0.12198964356590374,-0.39437043866751054,0.11433900039509207,-0.2266913271116522,-0.7344932054667441,0.12669963686639363,-0.057483844603988886,0.13884361809231568,0.21907716803478147,0.1543332673980677###0.5240765212517581,0.11749271087403113,-0.10617563748992577,0.13067921905675328,1.632564935049515,-0.2771827041361609,0.2348935071391251,-0.3779203222690325,0.1100913771213546,-0.2887788454844835,-1.077575973317865,0.10353269455146458,-0.08785496356103213,0.02823446593756047,0.13038667770252155,0.15091522582026545###0.17441716570277632,0.08775095240748391,0.37458658927606464,0.2009546523267345,1.4691847617683902,-0.4101652121743629,0.7454036832638177,-0.19932529419559974,0.10578804323082631,-0.26596254646401035,-1.0075818039671207,0.1553680362061599,-0.08145246436676212,0.11208089704096251,0.15532752925188992,0.07511139976085643###0.0534102788415648,0.1010368584046553,0.5532714490536406,0.30874830124468916,0.9112656811661417,-0.5366513931164987,0.9498086350620805,0.08185501091644558,0.12753010486230837,0.19156748958410455,-1.0627335820279946,0.1292453796625662,-0.06477961053243228,0.11322074672781357,0.11067662317360025,0.0749036993446706###-0.5097742510909725,0.024815358903062884,0.32975543704670185,0.5060483974822745,0.7906495443542717,-0.37225432264902736,1.1375855928076573,0.07907383327888926,0.08667143725372581,0.1400465165550996,-1.1214544278555505,0.07445074275430412,-0.1030787904212105,0.08820762357285702,0.09162851480556014,0.11337452264384383###-0.6463646096702642,0.023424049719729733,0.3391089557477684,0.6622075157652417,0.7561910098171787,-0.12916285066963268,1.3541254439149983,0.2718554253360931,0.11492230070509897,0.22316483543109292,-1.0499219694050204,0.0774347502538993,-0.02738860199654521,0.06889802414612611,0.03295348719853181,0.08165398978850466###-0.10069141649323649,0.06574887338749472,0.4094096577072901,0.3898677695391177,0.8403199534867055,-0.28315096931142114,1.7015545968835564,0.2360893178372524,0.06254539772550476,0.39692885616162404,-0.9032431266707517,0.03528313457726857,-0.023676447238270063,0.032748531026186314,0.03288424124146366,0.0996574995183261###-0.40954908168592113,0.038851532060582575,0.03488271976714645,0.45797057736517416,0.2192842350190496,0.08084879730928624,1.7489947270596125,0.4061239574798992,0.04535367955395786,0.5775958165364501,-0.8596857843462852,0.03933980523217481,-0.07453771138764487,0.07565414195281904,0.0716925074764232,0.013119323608644913###-1.1132050326631653,0.04560284194394848,0.6300100414065775,0.18343235060942956,-0.3662227928717018,-0.15786124452851394,1.4358155644115198,0.44836623009946286,0.005750473202075894,0.5667437371973795,-0.3464621942197412,0.01431458560710329,-0.06997124728249393,0.08422035131307938,0.04596845756841793,0.0557697689574583###-1.1896509100143977,0.053351517336613134,0.7701593946994606,0.13354194825771512,-1.0100009599831608,-0.10393565602694334,0.9919497272222146,0.4625723699839074,0.014148212432571819,0.5792074870759903,-0.08961072979502976,0.022397364468620513,-0.013030570563438383,0.06845172062487376,0.08474237274195998,0.02920618145907222###-1.4853545076587247,-0.016854315108263854,0.8476276015339514,-0.36343996668911005,-0.896041497495578,0.49344678045427215,1.0928192654284068,0.31860837953974835,0.023198417119356055,0.42778331716975776,-0.09998998103410016,0.018723501284307185,-0.0017931320867272957,0.04543060194320783,0.10716620103194824,-0.009845048599313202###-1.1393187226280748,-0.011573846492656305,0.6617034060727828,-0.398887325185472,-0.68155672450422,0.49637002694485505,0.6980351575564525,0.1943413385071326,0.059347858147092813,0.32580044290373994,0.023885149467299735,0.014523849227631684,0.01556653679670237,0.044436040076265663,-0.04379951640564321,0.011402701722232803###-0.5629989753754128,-0.013274324256046023,0.3813274867853147,-0.1738342411223319,-0.32941599432397034,0.35632534942804717,0.3344838364470404,0.0695889753977592,0.03830062007096266,0.07924164780075929,-0.016539886342445353,-0.009389689707384173,-0.013893914426820196,0.016274061261676662,-0.046746506388142796,0.03728781797684799###-0.24320494755244298,-0.0379416229983274,0.16270649773271476,-0.08952442171123705,-0.16809588770128678,0.2167324677065369,0.17982451930947543,0.013385431442933271,0.03869737938958678,0.08292453080648096,-0.041513293795249255,-0.051388521728385754,0.04757804585777081,0.011041769061423732,-0.009683449476990048,0.030769655233208047###-0.11470612118099256,0.09149934797086093,0.12899255233822832,0.02753104752590756,-0.11742696526755152,-0.06309667599029524,0.05901749951143927,0.10067923046459964,-0.025640353999134217,0.07595580272446967,-0.11560110416334034,0.011452822559944717,0.01933950774056079,0.03960000656872575,-0.024865185297606764,2.789098006932019E-5###-0.1849185480822579,0.006751357701293799,0.23837534774747973,-0.03422497184068155,-0.15476775835998016,-0.016855214364017393,0.20202949055373923,0.10050022378274752,0.02182416758351397,0.18104330959780587,0.1643919096866986,0.039310471002478344,0.003326611147649184,-0.020859320757029343,-0.03663221691356611,0.022826096541385562###-0.3016952467394566,0.014949400480124001,0.2662352903079247,-0.13527080142058923,0.029854204612445187,-0.047441883741842876,0.016057705038500823,0.12962583076354484,0.02286961154746067,0.05548952647250016,0.06505747728887391,-0.02232020216419644,-0.005184926744663631,0.041300300381320786,-0.007223882043799572,-0.03588808597256959###-0.23766622528028347,0.01221069145778368,0.013656284713509445,-0.18833328613214892,0.19022679868808576,0.18397256765466538,0.10756199114142205,0.01354005185037927,0.09770883743966009,0.042382425128632356,-0.07876874967867999,0.10747362663039522,0.07233531529998838,0.013105222481154746,-0.0535350091468446,0.0019067506916415023###-0.41520275968687076,0.009949999073019222,0.03021486649915822,-0.2608785377387665,0.20353654500357368,0.33176667729616743,-0.005999753238002389,0.1762000484717856,0.004665279662765602,0.21805555914427258,0.1450961710217264,-0.03285520160659347,0.001520718398522988,-0.01601627020380786,0.07045726097433577,0.026479579997515424###-0.41897624545968004,0.05990803601136336,-0.10628730034244425,-0.1301619577856635,0.08708922804684437,0.3716133772603001,0.18240648348013622,0.07344819637180575,-0.03099513272809417,0.15162289881295304,0.0902796681216995,0.0017940395676031326,-0.0011970811892529753,0.015494168518496767,0.0676601558440685,0.009581872608126164###-0.4029112065696738,0.0012995320952334634,-0.3064697890614235,0.12343880549839378,-0.13306434007192147,0.485554157621868,0.20956082540954807,0.06003781588395699,0.00530066034068857,0.23841183786867995,3.0473741925306425E-4,0.015582512687365458,0.031728714705637096,0.019277246046421597,0.012792213276264485,0.042834438935831456###-0.2555013577430895,0.0024427309553963386,-0.43308436994790145,0.3935102256266668,-0.522119797811012,0.5692396289223088,0.21130620596972846,0.19281266280625173,-0.0026887206569554713,0.23299320396946557,-0.22498445833223196,0.04896255331510854,0.02946206167028879,0.03372923698356429,-0.11713526872925664,-0.0034019545334206787###-0.10380224928420512,0.047905996425089366,-0.6991608429498634,0.07896169224369876,-0.847246452212683,0.543400324839266,0.5819788062933653,0.3090203524447772,0.0776084763365818,0.1632637027011552,-0.4793754850436422,0.03326565381762396,-0.05062369516162637,0.10453238113194742,0.019641233224951864,0.02348984781308792###0.04389976892287427,0.031025803159769806,-0.5495278031709278,0.10092041288836745,-1.2046334347298242,0.6745551049666294,0.6968623606178794,0.4087924418747637,0.05462483394750421,0.24720179788875682,-0.1668705599861969,0.11052196869359902,0.021864540178651935,0.10289758184251341,0.02537594483931598,0.002311917032841482###0.2290520264161653,0.07256074516081266,-0.5369369839415412,0.20956383192394842,-1.2286846895019607,0.5659325322632587,0.47181913878077103,0.38339548055658607,0.11497290957829244,-0.008040187283567528,-0.18711624862542908,0.04473116768783914,-0.03858682491693472,0.0980099920876108,0.11255809079391962,0.0020117629967543508###-0.015931853788338116,0.02027254710558755,-0.4905587287491619,0.036471444495007124,-1.447714848455204,0.7504474751426558,0.8674279568599967,0.4045679053750033,0.057239384586551964,-0.13583944492712902,-0.5539852882621944,0.1327382914053808,-0.03627614644844793,0.0728801381893101,0.09442362361752084,0.07851828085677337###0.3433549917200302,0.03353993439085392,-0.3527933441512569,-0.12773200210505858,-1.0013904058707335,0.764793004712388,0.6843348362742633,0.05074795138086987,0.10524020030490476,-0.3104447527668324,-0.45150190132640944,0.08908318232465086,0.011192166034439545,0.08189110438932953,0.12766899759422742,0.05940083937466528###0.49240839736838765,0.11769222059293911,-0.454651324519705,0.12389104206361436,-0.4054860191065637,0.46737400222816283,0.6115478407827586,-0.4486207973086941,0.093586062339565,-0.45597669966102194,-0.39443025304911533,0.13002798752899603,-0.05690148245955244,0.13989597815877908,0.07887282181180603,0.055620548450882254###0.32317039907107903,0.10062038735668523,0.11042088053613214,-0.05620714499663053,1.3752424796367442,0.24303572669864926,0.08405762143156797,-0.9596248210937571,0.03022889143190463,-0.66557209478179,-0.548477579315931,0.13743194821310784,-0.07430336740041986,0.0653050482506382,0.11141336886873324,0.15527490552998838###-0.06187729161748699,0.08988891993178663,-0.04523463784720922,-0.28726811393035356,1.9540248136830258,0.37632613681817795,0.5058034355819081,-0.9572131003569976,0.15321240989572268,-0.7739417733911242,-0.6816858959480849,0.13647450425074512,-0.0517718896742006,0.14833693523558428,0.08519340715085946,0.10056402349439185###0.31389432769612136,0.07119906048948951,0.49226906943325704,0.1366036358454458,1.378294025051344,-0.1433555646871651,0.5393164173366951,-0.3854397933854336,0.020541423160965192,-0.47030499715513957,-0.9611045138360894,0.10077772328870943,-0.06504234942138937,0.1177021747884904,0.0977401917881418,0.13205588562640583###0.0646527046896131,0.019194289744296766,0.06535177363013307,0.37264010945277604,1.0977198746751902,-0.5116417238356717,0.8731507741510846,0.1992464777349838,0.12432044252928484,0.23506130525496116,-0.6172310978378475,0.14327012939131856,-0.07049692856627443,0.08030164545565867,0.07626812090687962,0.12752024402622447###-0.16475150412257958,0.07159850412361472,-0.25794558776352794,0.7896475542131799,1.0339136682940182,-0.4537367671400848,0.8205460606020375,0.25841561290285414,0.14453430346056037,0.27918730874669206,-0.674917882548263,0.022747150673481622,-0.006371539384430921,0.10911461485855072,0.04717221109490903,0.15038952734190583###-0.17490080752758408,0.12212807519405895,-0.26848302270676017,0.7757160592529219,0.9881376119523904,-0.32585560498587746,0.6827036830615191,0.3640935907529991,0.08640564933904507,0.23101675438316985,-0.32355092297098614,0.036266262476580866,-0.043223871331972655,0.13919396167682388,0.03066567077064783,0.07328469011165566###-0.0016443155365924028,0.13354269026657395,-0.11576601993829448,0.6324895411479852,1.0158512234108406,-0.23011556205823566,1.206920385257257,0.3399723087118728,0.08009477548610724,0.5826799516010637,-0.3248268632169886,0.0673063113266984,-0.04523758958907669,0.07456745930491102,0.11843761245747433,0.004952568497641265###-0.0819904098298187,0.03354172083300907,-0.1661326449100842,0.6180263211287247,0.43732523073197577,-0.530373618511398,1.2059298120116932,0.41891171966888424,0.07684038682330946,0.5642903373543746,-0.26275008579749354,0.04757197446862209,0.0021464154618626298,0.033752602454961034,0.07801961343862299,-0.009851052278188879###-0.05475975368909526,-0.005466902304446237,0.33204650167957567,0.4844491026577214,-0.2259153288365197,-0.35921620807957616,1.2598097763645792,0.5745454228151744,0.04110714309460487,0.6435751511421377,-0.14585772386257198,0.0441741685559755,-0.0753488167278202,0.06183194223774385,-0.018647136531725617,0.03169823801446972###-0.4833001086237491,0.053878830896744605,0.6340838641603173,0.46515826009599737,-0.5599600345315674,-0.1169923863197383,0.6372303599155976,0.3343074846783267,-0.01761563661460513,0.3910474393738738,-0.12022715808615882,0.023840519019609305,-0.007744927153458559,-0.062406636966515855,0.020527411115125585,0.04701328111733082###-1.2226469966348268,0.03665072937177418,