-0.24762518616056703,-0.03413631125468141,0.02158119781685211,-0.09047238560950517,0.06614048502647805,0.19636937919451825,0.3139982329548741,-0.3732801010967083,-0.2698249313191056,0.18288140868171382,0.28862427035648913,-0.4840698761515053,0.027330615992215875,0.1959005588872493,-0.012107930803161146,0.39214837025546045###0.3300917424192043,0.3092113252877942,-0.456431046022371,-0.13219979621092875,-0.13763016425254224,-0.1629537997029817,0.15656266770517085,-0.27108755850175104,-0.2881142507015703,-0.0850090034228624,0.1739054641414812,-0.5684029131229016,0.09376879866495522,0.08881698330684264,0.1679487366035338,0.43593809460456046###-0.09471953388381561,-0.12347561192392613,0.07386075293874061,-0.33792255607820987,-0.1587287808507497,-0.5528606022509177,0.3481358658764505,-0.25680823700967537,-0.3812643045339045,0.35275276267877737,-0.26510594714082375,0.005153903298745127,-0.0728967914795323,-0.003769579452990871,0.736559583516244,0.09031737068439749###0.040995383065604955,-0.23277415075610125,-0.36682471246656145,-0.2451135463505182,-0.02398221028363086,-0.05093144927496064,0.3263588645235616,0.5487801747663578,0.05224579997321907,-0.3960259908450213,0.137644769159898,-0.45314335180050624,0.0853899766171316,-0.0071436732446201676,0.20808493487028035,-0.3612219939822555###0.3182679430514638,0.30668560291042934,0.03676347338143268,0.1609090661751361,0.0338167100134434,-0.3049048931898181,0.3573171384230006,-0.2905315450706616,-0.24143679464772527,-0.30495843451492594,0.2576596075384544,0.27037416888641674,0.011099881166427558,0.04829908935278638,0.06346468679866496,0.01808637511889979###0.015136041194090292,-0.03719212418985868,0.31903932617136516,0.0018300834519720335,-0.5122776077655473,-0.05679555362813246,0.1614031663328893,-0.16094183200995651,-0.05013790259634328,-0.01520847855444304,-0.08899567302856908,-0.2027758179424821,0.12048873340251066,-0.13395229857043933,0.32071581821908485,-0.2120606862457746###-0.005492859390081791,-0.2634006868524342,0.2160206710594191,-0.4931351111850371,0.2717929693673466,0.4009721031820652,0.4510038851358183,0.15363658573064284,-0.4415400949173279,0.06985220843866385,0.21637856991241003,-0.21673065645443515,-0.23029847220153377,0.2508879889449399,-0.1395360576402678,-0.4087102150933427###-0.1796486150112711,-0.4557367246517279,0.04015333766223034,-0.8835306197221322,0.24649786966938492,-0.1396699494899302,0.15732897785597744,-0.23631247461332275,-0.25180103970505535,-0.2232151939715001,0.019487888813719233,0.3339795124527424,0.11342117755311679,0.47850743583669475,0.14942125251357913,0.07138626178758155###0.20464597309961105,-0.06770149017978125,0.05921024387853175,-0.16793099908683104,0.07895175947649319,-0.2762381969944163,-0.28162470684664237,-0.06178331771686647,-0.06059529347462098,0.17074092315118222,-0.2955145303524282,0.006405523961694146,-0.11963286484444913,0.15630135088807026,0.004990347301632023,0.09909232185630486###0.5791577149547041,-0.03703591540471455,-0.6167710518222363,-0.29919458562271806,0.03816338359603826,-0.10886994034131582,0.5230143918481952,0.004043185603729758,-0.17990060442748115,-0.13981906041071515,-0.14516185396858716,-0.5203138823248522,-0.3102488312765476,-0.19386276472493155,0.14689736878638068,0.1064801098164536###-0.29032814710931404,0.18654866395836692,-0.7716889962101691,0.12718061385654356,0.30747768603832776,-0.23220487653639388,0.3222702910182658,0.05812193255929552,0.3083108855303514,-0.306340310698096,0.4893834761978017,0.3123626195288986,-0.46519610074063794,0.16671781970807456,-0.4145852868126874,0.27250540339568036###0.06240344346131449,0.046344354757026876,0.30114102727180303,0.052925633276193734,-0.42008362066997335,-0.23549947390563125,-0.16344147890569014,0.4097085972891055,-0.2093924950159215,-0.038836462521735116,0.21962635868869454,-0.07209112694479725,-0.3272508270684825,0.10103776917442073,0.40230871268657153,0.18458055070787488###0.34343870661530845,0.11926401569325672,0.06319917992947473,-0.49407731708879277,-0.0511951427532289,0.4488497036423494,0.4341853868432298,-0.2304919864623061,0.4618323568599267,-0.06960365258650311,0.06082451728085173,0.5055096717196054,-0.3660696249998215,-0.383661590023316,0.15805692388687184,0.10026050973617223###-0.48743766975173547,0.22633358257021913,-0.4245338340275967,0.3711153634988836,-0.06524876394746006,0.04750135324625554,0.5134440981485964,-0.017144137885593363,-0.1772064120490848,0.009830969926715182,0.19927135502623453,0.4817993744816299,-0.11286200570814904,0.23039721625306933,0.602634018817793,-0.31063248582951825###0.14115023178789204,0.37905170432057655,-0.15486639825915322,0.5200454510460282,-0.22958227019400415,0.3325447510189384,0.9371886374266291,-0.17113854191281858,-0.09933160872226678,-0.08077446041373104,0.2918680843912169,0.4665039675432392,-0.13156636632146046,-0.264737153094013,0.6547857211209513,-0.21039179427700594###0.5623264689847591,-0.3999198923576606,0.3165976047076116,-0.16873156355107863,-0.3724810347057999,0.032017817466211344,0.5709903592860247,0.2694129565660661,-0.1330596143690194,0.07404485200528753,-0.12066126344496288,0.15965080277786528,-0.19940022483101055,0.19987250855922786,0.4247379719848728,-0.21557379455396392###0.28706205934279805,0.049931913276941596,0.05799942371342032,0.021218156121911386,0.021405951263624177,-0.23476615127611708,0.17353382226779004,-0.38537239728519396,-0.2547223938704012,-0.2835780669093316,0.3251007520889927,0.2894565560845782,0.030461871844254022,-0.1907926878348697,0.6076928149535739,0.07249698712639015###0.3024635488390779,0.08561426769707017,-0.15663146420101728,-0.2955961703616202,-0.14729680095592232,0.2804439507496672,0.336617698333322,0.14827371504227632,0.11628808880449927,-0.2862967173525589,-0.36254584454442934,0.14928664997736724,0.436129181637435,-0.19612149225187997,0.0022613259186369437,-0.13495384833133145###0.3573836706206372,-0.004723397432797344,-0.5078695515015806,-0.05585893940969772,-0.26321625450665426,0.13609439361832837,0.1287024053742711,0.4622732542449563,-0.345667967940777,0.2937204182542615,0.24318196460691616,0.14609769824036398,-0.1342584984183691,0.10366031716933677,0.36088555714620063,0.5053175101167913###0.14761563706986683,0.36019410839559823,0.3426159820367431,0.4509792105888825,-0.6986528100601364,-0.04474147271767763,0.037886410796241846,-0.2979800988418549,-0.198141342157634,0.21577288211232754,-0.14069411170368581,0.3182679687203055,0.10881487247056341,0.3334072115128208,-0.03999609517548352,-0.2726144741151076###0.1550198103410981,0.07302208492705664,-0.2598833667271203,0.23069814866076924,-0.007339644539794392,-0.06917911311464986,0.04134383280490933,0.39741451953566975,-0.1642483383093945,0.1388989391033981,-0.02871746992790219,-0.012577482663540033,0.12004316688111949,-0.1909385229830833,0.17004615425238181,-0.19628834779645551###0.06564558454979573,-0.2472611504239249,0.325832432201823,-0.48513598670225166,-0.24700859120357502,0.0365636095001394,0.34752941266809767,-0.5005941856647872,-0.3445822988144772,-0.14915761946725406,-0.10448922543459344,0.3255900566870265,0.11942899651512133,0.1186219079226939,0.2327957400459591,0.373585388590641###-0.0032356535694329407,0.06791372818333456,-0.40110183727713133,-0.043886231847549334,-0.6784101082124392,-0.625749826742174,-0.10822693290814092,-0.09516543011717608,-0.053391565492709514,-0.40599636058512156,-0.3730066853942843,0.023256027719869732,-0.20402941575917888,0.30343334813114686,0.483567694972138,0.3614730521661465###0.25858649812394086,-0.3170384317563589,-0.4848886265210164,0.1859126504358731,0.06391147734256157,-0.09165781859718297,-0.42874158631895226,-0.05803880436472648,-0.37032209721844755,-0.015887655602550087,0.20794241987158396,-0.5338291534661335,-0.33287871728399937,-0.03254105140729043,0.342343841960698,0.05394587974431202###0.2999995914293102,0.06988902888817133,-1.2592233915527997E-4,0.16005585550673845,-0.32643598950237784,-0.0684805494227293,-0.37588228861692874,-0.10330347992145708,-0.08754432099664643,0.3861976558320956,-0.08263739075817575,-0.44771264318268356,-0.013420741578866026,-0.2529979033807799,0.2613359665024768,-0.2671745212094857###0.10821265496689722,-0.1286588918657411,0.02503392544485782,-0.1487527129052688,-0.41019722151654925,-0.06870996940505918,-0.2080294136565378,-0.05986159045344397,-0.238109880685784,-0.05395002145154024,0.01173493228145881,-0.3235930816888274,0.30969674709943895,-0.04730889902391911,-0.1933792320385374,0.2923547035729312###0.05255887856237298,0.10862120251651922,-0.09595588128209134,-0.166505051121402,0.021587213075436183,-0.19712056822301602,-0.4329438553958715,-0.04783302682777153,0.017112466104851908,0.12682445950915522,-0.1542244099420186,-0.17694922585808093,-0.1216232307090122,0.03111291370000309,0.50921845906841,-0.35058088360334716###0.15190123617290957,0.11292771549901473,0.13950003518248547,0.21467046993408279,0.22607610666214134,0.09859072725978357,0.08861795853939682,-0.01858873557821762,0.15823402603651,-0.056365495507169405,0.22738258162454372,-0.3823428388790109,-0.2517591407700921,0.19264973996734377,-0.13743109888822316,-0.007634607678735733###-0.14789654724578064,0.2882274286666929,-0.15756338556931698,0.48246842862300826,0.13486610315939634,-0.2701471588952839,0.5483161256040857,-0.4763651646100518,-0.32543581587702847,-0.27842312360555255,-0.3737014909216397,-0.3127779039409282,0.0482249054410631,0.2691365839112924,0.7086210397461971,0.5270035640143391###-0.053203502420418484,-0.010353468463492513,-0.3440301322498613,0.054053552937392384,-0.19093272417304538,0.20664998070932683,0.12562392505972855,-0.06109085927142092,-0.0018641193642526038,-0.0786741597284774,0.46149925141084297,-0.18525218892702214,0.03768448928954288,0.060869456886424485,0.2014354471595937,-0.34428177633148854###-0.45516933945729576,0.14139686920412303,-0.120943124498687,0.15512808733559885,0.8155143453050361,0.07584884438052296,-0.18777448331010405,0.13497146434327106,-0.37838571200828475,-0.3411827849283195,-0.2639107769515863,-0.1280954277610901,-0.10342322074946529,0.5145257440316242,0.0835547909201795,0.34809174577791874###-0.1685625374280564,-0.08603446130355194,-0.3076737391633552,-0.2752144564172927,0.21382812963122905,-0.23053110379254083,-0.17731840086682704,-0.20118795294205033,-0.14802718818219768,0.01536222907742598,0.01701024419877118,-0.3308158069825152,0.1628405000928249,0.02252972900736916,-0.10945611494602059,0.4092165753444903###-0.029368463233275188,0.16960399889389965,0.06263377572405836,0.027620745490633886,-0.23560277668211446,-0.18852570783188133,0.317985668815258,0.14893893405377862,-0.20498092712204466,-0.09136352566510196,-0.15676273377334837,-0.18586705285381808,-0.2618388522399501,0.33307724807122474,0.7569754096117298,-0.23679553691507518###-0.1293413254107198,0.38419924047138887,-0.17664187731490166,-0.09592354465481293,0.24289827017760418,-0.22619614785089454,0.1599672842531395,0.174358308851906,-0.10423044295278774,-0.3275329620254333,-0.30234016676268116,0.14886029902611855,0.08377971069796766,-0.06473209689618076,0.4564579441940232,-0.03163196915567148###-0.2167391927782642,0.07002603291228332,0.25496247168611724,0.16321117589233433,0.16230900349205635,-0.460039990883894,0.20459267252496002,0.4587467505263013,-0.6420149796964428,-0.40387256554749695,-0.4228195293175046,-0.04562095621963625,-0.3686312474900108,-0.02638036054621249,-0.0554377679162029,0.0659190178617266###-0.025404929263966872,-0.5583679709013208,-0.07215555071718407,0.6293525759267182,0.25554370197275167,-0.15876125928635051,0.4243006549856176,-0.14316542103293542,-0.07973612115620497,-0.43178072673332907,-0.1870556326598725,-0.34198433214168,-0.4764678770641832,0.4165562662323472,-0.07342565355818857,0.09557775157879643###-0.11172385642569116,0.21517533240036027,-0.25152147609897485,-0.06628511331719425,0.24369788521601185,0.1194945150865041,0.14261658225354876,0.06864872596376703,-0.08599161763126341,0.1914122975255337,0.026540629848724125,0.011391807033501225,0.05329082719417643,-0.3776342903927658,0.2754045655393725,0.37705968512802124###-0.4374082809549023,0.20305171869904418,0.35564293806068237,0.353545506462219,0.34140376877947615,-0.049221261821958115,0.40293162134374716,-0.003522303329666846,-0.21339690752054877,0.4094181688436482,0.3104610251270639,0.39232207497085736,0.03711598119321859,-0.3660584396726,-0.14295376447265545,0.10928724826698037###0.053894206299658236,0.14165628136837977,-0.20253356217954235,0.09671782408386125,-0.3536778424713753,-0.04367736783060437,0.22631196710748497,0.13552923965051533,-0.47480625505037555,0.057912238171605075,-0.011196830540209772,-0.14370958527165595,-0.5680482825119602,-0.07990006142750562,0.35121662657478375,-0.6550952877368971###-0.188910023102735,0.07142349483271551,0.6937592152108587,-0.21835820868071298,0.11900015442014919,-0.5832606502232566,0.3008233264152109,-0.08618300601061749,-0.4858989736655226,0.2772120925917562,0.45071213629237694,0.022043535053230114,-0.2891198485800086,0.33111567201699876,0.16390430482874568,-0.3430650742649736###0.13003561672967054,0.16225502554333648,-0.3167920351151969,0.03244685411191876,0.28490183614035397,0.3648486521335129,0.17080219823738052,0.09214998843839536,-0.2736520816732015,0.12793002186046745,0.17990804457963355,-0.3092657452842538,0.08630282994036194,-0.050188170673152704,-0.06542517209224777,-0.022801075967115###0.22081447353329392,-0.5591505315159924,0.13594189214206684,0.048061816912306814,0.19869151311244843,0.24148872063259755,0.04932156830802951,0.11313187818759012,-0.16746297337244392,-0.1012064592457346,-0.139558512745896,-0.3765661533338806,-0.1499626574851891,0.47060293515598994,0.23177308144571904,-0.12292340272491831###0.21314625134369228,-0.40766899981741245,0.7942179277801755,0.023985912658658636,0.04444409391819659,-0.2612282055662667,0.3376367159174577,0.16764694922835474,0.043320689707619736,-0.3363389778243909,-0.00658716175198619,0.17749759535352475,-0.1645955901515255,0.24023422489128057,0.013674777357746167,-0.3008419229403424###0.22385540767014445,-0.16153112724417623,0.43756319881757694,-0.03606286476300409,-0.11324249949002124,0.14284407114684292,0.1383190010802365,-0.03829836210655766,-0.13000005534184547,-0.17694646147158055,-0.14573468213902613,-0.15322783489368405,-0.3352506529530583,-0.11960776688823951,0.3252774057405543,-0.3291692494880868###0.439090638870803,-0.11805024799806464,0.43050764819614895,0.3903451803029292,0.15407850962801176,0.009277647861570969,-0.023138263964709017,-0.29662186662467,0.03144853836849105,-0.1685975957126603,0.19281330416327425,0.038600858982023076,0.33030376612633494,-0.19888064966528726,0.17689718435498586,-0.010015829850101908###0.7755650994585678,-0.37826710558640525,0.05624316305644015,0.3492982817910562,0.13437886888799766,0.44017059116032464,0.05298733515524929,-0.25537548571987806,0.5323540711300487,-0.14451225573678245,-0.20317359257416578,-0.16558498765956522,-0.4943038501565139,-0.03218853695880542,-0.32034120800781307,-0.1298353181595118###0.4103023815511397,0.4518800821681078,0.01977329252027537,-0.3807270059888759,-0.24188494207954522,0.05737404713639566,-0.25535257414946005,0.20822638730212475,-0.22540509872750913,-0.020720727090290096,0.14747676446153044,0.3961222724741501,0.24333917000250718,0.025554622639981386,-0.37242422247065665,-0.2549818241995401###0.26329425858323763,0.06095007209207031,-0.3997279759614999,-0.2832169697600519,0.0038093422414260713,-0.39302883076262685,-0.3092566219580837,0.2152334030147697,-0.20752015680153213,-0.16386799736768612,0.1400252687270069,0.012455052475151692,-0.12855824362725546,0.17766100819943584,0.0301863780080895,0.26500512628897144###0.2769372344898088,0.13816485421381539,-0.017430533116140564,0.0627995539181247,-0.3198919557457187,-0.20054693477212343,-0.5572823443234557,-0.35263761587423437,-0.5078183686053831,0.161780604704284,0.216095260847959,0.4807120547832062,-0.17744465145711033,0.30967649940857406,0.5108323704042987,-0.059944475554804144###0.2688657916320825,0.29967825476932486,0.5456580098978743,0.08497634613645881,-0.24527915086569915,-0.20904534521018936,0.10737976453189364,0.11312755586048727,-0.20303956027811243,-0.19008130138949328,0.20693667759114664,0.23124207402426256,0.18234800431166728,-0.21838031739459673,-0.05179111688895867,-0.18842898816846793###-0.38387205399678886,-0.39813962694832045,0.40396921539526737,0.20476965883497417,-0.37059067549102215,-0.07340762261460704,-0.1885699555816949,-0.27626968941363467,-0.05698254434482641,-0.04303180488600333,-0.45549083363968373,0.4090768901374898,0.06013343772635479,0.059583206919695424,0.49468487743263356,-0.08729689768843653###0.4377249935068303,-0.13683155190106772,-0.13108861703213023,0.04977913188059998,-0.22937362088433344,0.16959014972947373,-0.4664267159952003,-0.08818054241850258,-0.3855620974296845,0.2924010681627035,-0.17551946985844294,-0.364455556593692,-0.3024517037315221,-0.23936080595204007,0.39708209300926584,0.03126479296960924###-0.12455651646046854,-0.21603059277357264,0.08707766219822288,-0.03824290602462965,-0.009576894832939008,0.08931290812538943,-0.41866132470579775,0.3602617859390535,-0.1948699504283608,-0.2312941426283738,-0.2898328051084459,-0.07425185602363849,-0.31213645573827437,-0.16565929216227485,0.681993561406413,-0.05203854971822256###0.007525049237038626,-0.2037428915614311,-0.28190942575706396,-0.10290436286491135,0.07286253102114222,-0.24675102284692849,-0.06447965631009625,0.474611671299442,0.0451924733062017,0.320126964000386,0.08100691173817046,-0.3668759596015156,-0.1976455211605753,-0.2698360026401415,0.14850656949700294,-0.2726679943815236###0.35765736653250113,0.05283682464330905,0.3053723716007697,-0.17790730031164304,0.004116123158088106,-0.0034063754439910467,0.05681446119141945,0.06956859662922185,-0.24383342317493048,0.005917064766771817,-0.026368428229424687,-0.31044413190719194,0.08771860329940595,-0.0266085907076878,0.4095941507707734,0.053493276604784985###-0.09403248978881525,-0.17112983481157565,-0.5638979775177387,0.05214495116335846,-0.15341231777669626,0.004941465557500561,-0.19920422536597315,-0.5641322503547049,-0.41838255438851035,0.09110615462101337,0.48879433990146215,-0.4662831010564248,0.04481157613922786,-0.06380873935439994,0.2611184920413799,0.06996070381484677###-0.17257834660861499,0.20421477351185513,0.18013724656772104,0.060142187103754144,-0.3411032468229753,-0.1796744259159134,-0.24885981819493938,0.002574521872521853,0.11624308592712933,-0.19420739898638983,-0.09092567946571316,-0.6408736806464723,-0.20512340339630686,0.2923717040471638,0.7591620217737447,0.004052975102680823###-0.12998115126645735,-0.41551999250098515,-0.15597497626488477,0.17266109452170855,0.36872117300214025,-0.3580720729984633,0.003539651380780882,-0.08979727709488974,-0.3863198602371819,-0.03714660748478959,0.08528473419008632,0.2577631878710503,-0.037192067857534455,-0.1916498244358823,-0.4285572480966402,0.18412502587646587###-0.05769926776300306,-0.47556206043540394,-0.02433903547514954,-0.42164041553133563,-0.0529767153076952,0.09168720540984086,-0.00398717619408935,-0.11821637564787232,0.14121280976441922,-0.1662306721161657,0.10386971215098803,-0.35523276193232506,0.6206691756519724,0.019770522927210845,0.2401845933114505,0.5387809347785729###0.18788543976952218,-0.04302235631901085,-0.24409988001822722,0.22709325625352172,0.37016858366359073,0.43680565536664595,0.5992433942946144,0.4195002963453536,-0.11406958218007132,-0.29241301122250435,-0.3178139433324503,-0.30091560571972964,0.14070143146943964,-0.02115317172886776,-0.2372703370960127,-0.007421503219891916###0.18078812065462074,0.2359965746085904,-0.021258140857604566,-0.16956354221879624,0.22633924575596728,-0.37980323812410444,0.06303252018397286,-0.12357764887414764,-0.36562603648499337,0.37708508096845794,-0.20698921172646056,-0.16640786099317734,0.05636143053279743,0.1642720478005071,-0.12252130912642187,0.3865692551583807###0.03011251987449469,-0.27457701734322926,0.22924292074889646,-0.18730379748679973,0.5746410880649498,0.030820264270396865,0.4759451287110191,0.024271152018731788,-0.5375036034494919,0.27026824224393026,-0.20569574207013933,0.06704575461174156,0.15492783131936075,-0.023203485169660126,0.6051418392848378,0.2829009192800213###-0.2482159071884928,-0.13265380082758485,0.1759568985154361,8.31966711628111E-4,0.13032088812142836,-0.12484362819540733,0.5733850928230378,-0.1416784402828836,0.22325227147518126,-0.2752397750983379,0.49284466934651655,0.23256849817959582,-0.11837286083375628,0.12205186242295804,-0.05271901725212865,-0.10597662187427744###-0.26103938819482236,0.33413317755749533,-0.1722337239714193,0.08872293219299343,0.36276429232981605,-0.1821101511912546,0.22101050565124966,-0.10112167607242081,-0.3646667362575884,-0.5077519061959161,0.08824583041971475,0.39672666483268265,0.03406385514909705,-0.34059359093174624,0.14343104368442558,-0.4253037038517581###0.29096122865078716,0.5214753631773481,0.20332698677090025,-0.21075597169045293,-0.24337192223910492,-0.6020516767291632,0.18777408709565194,0.04173988927065333,-0.31169397815539057,-0.0501614623811253,0.1391742709778278,0.44787711844922495,-0.1791514517878472,-0.5649801116020694,0.3926378589664575,0.2831734833349037###-0.3217396059738339,-0.2750912074679802,0.11247170793572826,0.252383169143741,-0.09392630668884536,-0.32596556118081393,-0.16620264490631434,0.6557234853872558,-0.37543335222205665,0.24111293604690612,-0.1095906160088725,-0.1572582772104309,-0.518712940492285,0.05223137851671782,-0.04018207473076279,0.3427324231157321###0.020763756243063473,0.25099980472237,-0.2210387187076702,-0.46677058509837605,0.11643915586907164,-0.3127505781518381,0.3058683866603401,0.16918991470073072,-0.37863271959490424,-0.35619296989419996,-0.07375897746650577,-0.1186725098724323,-0.7203313635754908,0.036964174715086576,-0.2560653221685348,-0.13039012624628138###-0.1677888402560819,0.2410977299640073,-0.0034538601490804594,-0.1377306958102344,-0.2943182033599082,-0.12316339215662117,0.5668003905503941,0.20058605251002273,-0.1546061706102613,0.15446192959857424,-0.7345467160775222,0.016819427799519164,-1.0526444464305005,0.1574788621968921,0.2099483850771646,-0.7092256292291089###0.37604708592944,0.19224898590314982,0.9666848270729913,-0.20884833618586005,0.19485036251216686,-0.375637383497075,0.3676817741386185,-0.1563954957602473,0.33826908972280445,0.06521520253943124,0.3529260772523265,0.06935702530978131,-0.5662232995505296,-0.23905925826580474,-0.4078827906228354,-0.5436014654075141###0.5883668409077796,0.4090440197708903,1.4619745058691043,-0.18852568171357525,-0.041044659633665805,-0.44776130022941923,0.4585336619787072,0.02267269987213831,0.47881795318755604,0.34004752445268954,0.2916049827747005,0.3097636349518847,-1.1005856664197882,0.34507257737928426,-0.37805491452771395,-0.9219242428313688###0.5511201037478458,-0.17805802308479945,0.7113697846381866,0.0012106549834852655,0.029203668685502126,-0.22794470603764613,-0.12210108104092006,0.4035643037081674,-0.2459593598417993,-0.040920425714170185,-0.07192712471439762,0.28406991694218614,-0.631573434085164,0.2347974298514886,-0.2344923441089925,-0.13482174491205437###0.2922117301884933,0.09015849560963915,0.7324089019877091,-0.12315328250250145,-0.061026269303940665,-0.3014559269755894,0.27040668497491216,-0.2884067423415993,-0.060599845554566774,-0.2091929200395108,0.25633889505255203,0.060449764349797784,-0.14985662766490188,-0.2620908161031305,-0.13204558549723608,-0.418928957499331###0.6084800595058187,-0.26004406117591694,0.1379003495762669,0.07365471293477259,-0.0369476150344807,-0.5517312149718342,0.4358067676141721,0.05589842696288235,-0.09636300954961464,-0.2923023772808951,-0.5669678721754654,0.29063047011098786,0.06488561538368891,0.03252198323100599,-0.38654968610408447,-0.6165962722632065###0.5844642703514479,0.14944917491916643,0.4269554190632166,-0.05524100316737409,-0.1997074997194116,0.0183961183518358,-0.10783081894796921,0.27343068924991215,0.16215051330787802,0.3430290576112891,-0.012416006986219813,1.044659998996983,-0.2532360380842507,-0.2273922090437535,0.34371202677593904,-0.07120430084699206###0.7084939743971436,-0.5704370859146645,0.510541550100506,0.10017469261284885,-0.15845070647960569,-0.06193225696699476,-0.26388734482156234,-0.022864547077,0.22128351029103294,0.042865866345053974,-0.23435102236723848,0.20399743219006067,0.3839585492671187,-0.3852478147807116,-0.029427526052338414,-0.8036652360142853###0.5907990037124787,0.31582702788133177,0.36110816997325845,0.09192831369629964,-0.36171501977783627,-0.6307938498814611,0.03618425309403917,0.20151047306754027,0.3828875441701782,-0.15825525999273288,0.08640059563269802,0.07004818268265452,0.11154841797951753,-0.3001797817970426,-0.055505354677724515,-0.7877504292443553###0.523162442934427,-0.17906524654775213,-0.19883567345324055,-0.5577585446401093,0.2943334458618594,-0.16476191947898125,-0.20192040231099215,-0.18029595852338245,-0.3641066814599744,0.5327906465240237,-0.21551512437920883,-0.5297364166199592,-0.3575194688895473,-0.014370723606999883,-0.008623485840149313,-0.0049728562396393694###0.5866380297004385,0.038602059098102326,0.30722210310373965,0.44962657951880336,-0.3595224567238379,0.2511016071996117,-0.2264923725819113,-0.17261286335928433,-0.09020205425768846,0.1632275247581457,-0.07299632511056872,-0.3922303306050862,-0.3364679992756922,0.07802564714688205,-0.13821037135254996,-0.31727924830448373###0.1939192585653933,0.029610335034727858,0.19707458794917995,-0.20314014413042403,0.010359516624556338,-0.021363677002198125,-0.06719962587369589,0.3724478725247787,0.10837391451219357,0.06402114872887095,0.029513057689707436,0.14895079135411227,0.03532347704830052,0.32269465617098064,0.23149488948802266,-0.020076163093589065###0.48436730839948305,0.08236932873355254,0.29432886765727934,0.025580341902318636,0.05843494645369872,-0.7070790969170072,-0.3333036769445394,-0.11517474267167391,-0.17919158828288834,-0.12222706590900442,-0.044675583007772295,0.5326202947280287,-0.12498279887424184,-0.07740841068549123,0.76042691761477,-0.09952855815915482###-0.0931675694489089,0.239364426285856,-0.16371194260031835,-0.08877275602083963,0.3123200821013616,-0.1888836517241125,-0.2838491615788641,-0.12966519249991165,-0.2049918166670095,-0.04988403911781424,-0.43260531826227705,-0.33376103019989173,-0.008733514166973615,-0.14029517235177727,0.022769645456352815,-0.10664818116194281###0.31281390336050213,0.05581529320936743,0.3095352116488271,0.4216457826898621,-0.18971573110433804,0.13154089447694203,0.47618289463367464,0.014948063772532086,-0.1718027397538529,0.3821407047954576,-0.1388385433125575,-0.36888779611378886,0.0674402302065448,-0.16160581753824987,0.10992859925353217,-0.12526396225674785###0.1524484085031143,-0.057040292092650706,-0.35791946563864996,0.31993618305433397,-0.49833696449796944,-0.06888919218112911,-0.12401420586671952,0.3924026616822644,-0.07084432826545392,-0.2534245298594352,0.17064738682949476,-0.43665587975048703,-0.06968682134074157,0.1470405579919797,0.20064437441049718,-0.1790084469876636###-0.3394909444139731,0.2748680206260088,0.1691228834850656,0.32672382936508043,0.3045130670778937,0.2389028017220638,0.19957796709986036,-0.11417259831483814,-0.04778827696908743,-0.050457177191064115,0.18654749015623287,-0.013505573295084722,0.43433982160032625,-0.25199858515808976,0.16730153325471098,-0.16717412363150955###-0.3295083350756201,0.14734779730191647,0.12834171305833691,-0.02337999545796742,-0.0835030152113211,-0.12106067472350658,-0.2031910482845808,-0.014335884129296832,-0.3179905569991913,-0.21645600375318702,0.18953640613613867,-0.19730119757447256,-0.24061504505381956,-0.2222357112068761,0.3952153650622657,0.006251980392908618###-0.357802770158473,-0.2517874603913666,0.19341071948374997,0.2856763910201962,0.29492863579836665,0.011413221062068093,-0.46550793197079504,0.05602596934858293,-0.2826843435356656,0.2135372620752748,0.005932781396977895,-0.5311741866774875,0.4565821030401769,0.037628328921080485,0.22538976180177578,0.36599183104928196###-0.10310424658367338,0.12316962172749803,-0.15272806584215742,-0.29526850619814676,-0.4620353925682632,-0.039271676123949294,0.052182607165409754,0.25147691405513445,0.1482020406037706,0.49291570539321367,-0.0033729585508475244,-0.18477623726650183,0.012285670561571906,-0.4122975210660665,-0.050059830078521536,0.08591166459612273###-0.44970444429996187,-0.08662474489565884,0.018611055387471515,-0.1285396614049531,-0.052168922295970234,-0.37442565539434636,0.35938145221628454,0.05737026407157901,0.16048100484629,0.021455875438432512,0.1712440074035614,0.1300730145816255,-0.1292655711505822,-0.24102733724000847,0.4554070403598194,0.6449082910987589###-0.2408206255626416,-0.05058389083736236,0.4348210649799976,-0.5253143830097761,-0.42858450378872276,-0.20785841776747224,0.3125255703790407,0.1371729271176957,-0.042073257375285104,0.07641890933350068,0.02948003256657941,0.09672981954969057,0.24436369836775418,-0.35099243916190054,-0.044624860014027976,-0.05885577562724174###0.09694109494132444,0.06861022324460284,0.2977742539757915,-0.29735996258869535,0.10029578713837962,-0.16393679119672352,0.5787217114499112,-0.25446326851405815,-0.4008963009633883,-0.29377641741899657,-0.07660609954709031,-0.19890214342847046,-0.08502124676702089,0.01352120453652332,-0.11762829279849697,-0.4869229882777385###-0.12103655332478198,0.0010456457702719625,-0.1290226715406741,0.27181730109690655,0.01700015326115607,0.030150551330608677,-0.23082985192460195,-0.0853368560061686,0.11768857756951671,-0.11679986790146393,-0.18329299554924486,-0.28953826732761473,-0.16016467108643417,0.022532415120022495,0.15694889345341978,0.05697862515472365###0.31687455210909216,0.02223603556731173,0.04810911024818339,-0.3684642061582957,0.18140025496202244,-0.2305684909578405,0.06316621035179638,0.4038516166071332,-0.3031572753729616,0.2730000054131625,-0.26666209001103824,0.3314307993456491,0.4971417759607054,0.34900266831860327,0.08034050678493157,-0.03517725228306684###-0.3717301125894018,-0.25892695444461017,-0.09765265737817308,0.4918402855504167,-0.1503782616306449,-0.1746221837747005,-0.12667514696730134,-0.05604992051972888,0.44471002918759256,-0.2389168010918049,-0.1047381117481325,-0.06473169806171272,-0.08678522173274716,0.34250454506835015,-0.04637481859356838,0.14543043738362962###-0.14986441072887532,-0.42601762997775233,0.22698314983354687,0.16613031046465837,-0.16312735580386528,0.14829021924193644,-0.02162055186101225,0.04632961852447926,0.17581570030076507,0.5073094466936509,-0.1253798546475805,0.0808426206334509,-0.2994532593134093,-0.8734668497214452,0.24540070047551063,-0.030331488136930297###-0.058044351501495554,0.3400543223394806,-0.08134032141922479,0.20013716131990414,-0.3204082564414856,-0.20331671577326277,-0.14044528182499638,0.19797861696732846,-0.037401517809938986,0.2618898497035909,0.29802479979331625,0.03488452348362308,0.06736602325644958,0.053315315362122695,0.10729049198183396,-0.521647047665477###-0.025464492539355583,0.4559193525130897,0.1961686945671478,0.037228239362970185,-0.01123753771072456,-0.38787710485865007,-0.18013367241093403,0.040505899303075465,-0.011127575772361401,0.13021525198221176,0.19744072969692497,0.061097011244135295,0.5306735432247224,-0.2177769740892559,-0.41774489356081884,-0.1388134950207335###0.06916766941646856,0.2819613398767864,0.31705620475932117,0.18176220075655966,-0.598751589598822,-0.9306172746957252,0.4228958788783209,-0.16377352692164127,0.43219018691076144,-0.14817331962995198,-0.026288204656375443,0.3821848434859774,-0.38755833902156667,-0.1294463113132914,0.11456075654759762,-0.42895062975909787###0.05240293106288999,-0.018219711662869054,-0.004523156085108255,-0.30689444611754346,-0.5236208561202891,-0.6578703608195842,0.07754286281689379,0.07005995241321666,1.1686217010986424,0.20304489016399804,0.3140272614912584,0.628353472864172,-0.04184546666921155,-0.13008040349791727,-0.3733078198963144,-0.6484995726129044###-0.2822272656009643,0.3655584553248722,0.2107195372552251,0.15701771194449984,-0.23154898838709315,-0.265856912343529,0.10100915729920582,0.3564156257375741,0.7920936587283117,0.04158331033863198,0.4030323061446205,0.3861188442577872,-0.2622251127378606,0.1631796687012752,-0.3154330187813538,-0.768590820876367###-0.06543873342509485,0.09520790212941523,0.38784073174574074,-0.1468542476131995,0.21025535156882721,-0.6711203962283303,0.619569932702381,-0.040701044309720005,0.779478467275341,0.09455025280921515,0.13539194961548803,0.6984590391744626,0.08635176977473297,-0.0701749776347511,0.006759226330832311,-0.502904388666552###0.3590481464986267,-0.4221703136938972,0.15666724390863784,-0.06428642664230648,-0.3370567632743103,-0.4717524493580386,-0.08075855536970074,0.3131207648694985,0.763314162540648,-0.2600753233921372,-0.37356326133682083,0.7072971159949658,-0.24512858713801838,0.06763896031981777,-0.14925601498283683,-0.7342397291362999###1.001115931856626,0.09001965584949823,0.27320299437754464,0.3639318564380922,-0.10830505515284847,-0.6019714219602857,0.29058602097440384,-0.16257485749776943,-0.08915804832375776,0.10881025945446297,-0.0908115127805826,0.4868502245271139,0.21262875200611694,-0.07995592933663594,0.2607541667277488,-0.7936708241289561###1.2902162409475115,0.2510046793076772,0.2692577114937645,-0.5367421173139602,-0.2764419800497911,-0.14248822834264388,0.22703707927470881,-0.21248993557627702,0.6050540106356036,-0.09979679435237519,0.2688832363724259,0.1042594171404237,-0.641712060293385,-0.1504959901578453,0.5413082696277063,-1.1539119015496317###0.9834037033046535,0.10632470940799865,0.5645333013832774,0.14564039388098599,0.2331945141390749,-0.08542550279846015,-0.40788859479030437,-0.3835889161685516,0.03311549706374324,0.09090386166535576,-0.2393608457559318,0.18602363781968825,0.16988149027681929,-0.1857214083285099,-0.24344975124943188,-0.6402514633391105###1.1284931654631905,-0.02642175497048624,0.20309750765259985,0.13266503528240267,-0.28196856256163577,-0.026357935355376942,-0.2609188013573903,0.36984863627964826,-0.03184859003498865,0.07265536509743659,-0.11808364445373756,0.1283965541430744,-0.7830828383639272,-0.14932119354667495,-0.0738436096372407,-0.700857576686431###1.0279849615299628,0.16415733198050314,0.4353871574177654,0.292843636133195,-0.2695806028690505,-0.0409375647354332,-0.12279447629694035,0.37133880924134893,-0.5897864187457266,0.3280665097327838,-0.35969924499749417,0.40107638933179,0.06917678261745848,-0.0410876999011423,0.3469208816141106,-0.1993219172872608###1.2903429923853662,0.25277527796055743,-0.09255790960668808,0.005555749711758991,-0.49277550464830616,-0.3534694288383371,-0.46135418084351254,-0.015075380174261068,-0.26107378255697494,-0.09916372041650857,0.1464620042112366,-0.1878950980167987,0.15484991315381194,-0.12091033059043822,0.31655380750473305,-0.026031459226363855###0.17425323382322375,0.049223924279890946,-0.10091321898224401,0.12090776279350357,-0.20223468561032462,-0.20097135594228313,-0.02371617378122981,-0.1516320142127411,-0.2661249188070146,0.5964989809968975,0.061376421580476626,-0.06413293888951861,0.22856470183384076,-0.09151987156305585,0.49409807182770943,-0.04682979797717146###-0.023641152494475695,0.12581369394687875,0.24942016963364086,0.2541669676819471,0.23172946419057236,-0.2591426784639595,-0.23100605637903554,-0.26643584061111575,4.273293783299892E-4,-0.049181807600972266,-0.25781685466026577,-0.03737764718804082,0.25545178751832454,0.025301514259291495,0.30505303614139806,-0.2769982602179138###0.410936184375028,-0.15578731216664826,-0.35235577647987626,0.12834861598350383,-0.0833365863512195,-0.014451927125642925,-0.15326708484305548,-0.152763679023053,-0.06523425061284033,-0.12180998947478174,0.2999165262254808,0.2976911421770355,0.23367601727535517,-0.11171604997072766,-0.18865739622423836,-0.3809832254165912###0.05390290668451112,0.2855118390829615,0.14857721956533537,-0.047380309692548785,-0.04338689471985508,-0.2757644870186993,-0.08752684661932517,-0.20013840196176755,0.030183662199248482,-0.3470902524330678,0.30433473247603604,-0.1040402004066131,-0.20572760182961997,-0.27044391688911956,-0.11771869341344479,0.09447421243009187###0.43326322319201244,-0.2526324084135186,0.14684212631790827,-0.2671657352711802,0.17046380310679343,-0.1832073241359738,-0.10340210894262097,-0.2743037322510718,-0.5807858641437779,0.19641751749537179,-0.21025056322246352,0.07227791293981836,0.027199319554994484,0.3046501697894662,0.5561194736760718,0.2508928397964436###0.0018308364233140687,-0.4058313845471692,-0.2927614440895092,0.4610218560581151,-0.008080807286241233,-0.2009527213504401,-0.24375112456253317,0.06234114184916676,-0.011572271294037893,0.04072443944660386,0.16652138406091593,-0.4773616839915562,0.04026737799004142,0.2958410318077337,0.03299177602092686,0.3212190817416154###-0.22565451625118743,0.08586245651855846,-0.4552730388746114,-0.009241538608069064,0.17103229906393397,0.30618961992514165,-0.07593081227130972,0.302814107049355,0.2184399136887451,0.018163132846399418,0.1298498640844462,-0.11378389189960379,-0.6206851349223463,-0.2007188573232936,0.36492562616995117,0.39982304456190726###-0.14670652480700297,0.3355102925271232,-0.34520371570760694,0.3859590899363545,-0.3227867206030349,-0.006762902231503213,-0.32449262154573016,-0.09487938452727197,-0.3633036411682022,-0.15998216233066234,-0.14915963082610117,-0.3639629432115558,0.45043244174403246,-0.36465871908505815,0.028273096543918325,-0.18779611867203727###-0.046379103044825995,0.3098470657009162,-0.5224781361069997,0.03840165257201912,0.456673960302479,-0.29772084200698934,0.2363042643463239,0.20151916793937388,-0.45804045234266144,0.26128925471669684,-0.2576796409846662,-0.35801242311230447,0.021309290642417347,-0.009740870806608758,0.119436328630391,0.47511840548732787###-0.18546498504373282,-0.5093367486759716,-0.30951616842598334,0.12150445681369199,0.2595873145834279,-0.14999097243551504,0.15806219389279508,0.10848091919136804,0.19527456287687509,-0.01810680102484389,-0.1287846128116892,0.05374380931833808,-0.3359344751122401,-0.1265096625543135,0.048893599302574975,-0.1770667281862118###-0.07532832180018106,0.1363356964987634,0.07700205249423693,0.32755950790218047,0.10325951073672263,-0.3927406572147141,0.02330805811477563,-0.1958642717450035,-0.5078076186752981,0.023072058901266818,0.14979072863578435,-0.14621355596351104,0.00935215925980807,0.579281703033319,-0.050979709354828186,-0.1261169608870968###0.20307244003868102,0.28159681734683745,-0.2203405728828026,0.26436968766283325,-0.04201304860850212,-0.2719246363591781,-0.33604092784334383,-0.10216257027298971,0.03513720870106224,-0.2604793609818335,0.38376113663179706,-0.19979237780156958,0.4489644905508378,-0.09410544704797762,0.2532952004787629,0.23537885786665944###0.1465794022012096,-0.20064000156261005,-0.3204206762373584,-0.08025804289915629,-0.40735556213925694,-0.17418534384269457,0.07737114624998738,-0.28202628509123967,0.534564443268789,0.12104806884554661,-0.0410086273442143,-0.0901180069530688,0.018046022405010135,-0.16807549895214083,0.6807898903812567,0.15412553448193758###-0.4857175166048627,0.0081303000453704,-1.1125785676629643,0.08581665384355097,-0.14501700205648216,-0.15216536849569348,-0.4109077591834372,-0.11901269716406511,-0.11253852927132314,-0.21197343072584257,0.23999894425691973,0.26509715119251387,-0.09776538985607051,-0.10187541778290005,0.35382350347826164,0.5275508534309442###-0.3676377499442259,0.14003347741794336,-0.6648647855461128,-0.022188912896291702,-0.4598144590694996,-0.4811563372441172,-0.39593182957271456,-0.1710239043689335,-0.3704876717390299,0.41205715852984065,0.03407813184362974,0.1950384110099141,-0.069343782129935,0.20806944313682293,0.3835429329762224,0.005255237209950815###-0.6079359661770847,0.08482617523712829,-0.45720332033087935,-0.14943719788384233,-0.8171609479829948,-0.4364123744090221,-0.3449822961516795,0.11469632424992987,0.4035217899002991,0.12229638276149513,0.1480843811635445,0.2524278619138092,0.6603628954936783,0.34539136262973713,0.048872662532994465,-0.02057934291944451###-0.8962233907886198,0.005154605850844832,-0.6092760065696862,0.48335395574606543,-0.3364944713165797,-0.799306826352334,-0.5442410025821908,0.008751273904993865,0.9204584704457041,-0.15400432392063285,0.2410439003196801,-0.2377085431883098,0.7930976785662797,-0.08757521287778913,0.18353550166422436,0.15622059664908308###-0.9734479829819122,-0.01908721522835877,0.033077439908197614,0.33630460068860824,-0.5982780833806703,0.019305308630461933,-0.25753160595172125,-0.17277917042017948,0.5392609522973026,-0.11743376708834298,0.24128771534901722,-0.19950862309106665,0.6721593344951854,-0.060499907558963464,0.01377000608451882,0.2146694815281006###-1.2822849109672683,0.18679949415148445,0.16527027539920255,0.8674632057263859,-0.2663365066553352,-0.22752030354454683,-0.15010965228468207,0.3112912900613928,0.5320040963046897,0.19591291057603769,-0.34239906240532353,0.35234405600206736,0.7769436383847524,0.10878644249102637,0.1621067285093203,-0.0253413891139044###-1.1866064090770967,-0.04019016971755144,-0.2081345191680107,-0.1138703900232393,-0.35229771669101606,0.0018746807128871112,-0.40237742654399455,0.05650173086733186,0.3740115550159043,-0.27762612986794755,0.03385412667479746,0.9361865351478023,0.8837013171785375,-0.09293951351086939,-0.4253845814770372,0.1085511889206693###-1.0609846530609244,-0.06897210367675741,0.21139033259284162,0.02504540884792012,-0.18322144175409708,0.49833709824254996,-0.05918729150098209,-0.025994603723776693,0.1799634211885382,-0.01614726826466595,-0.1078481585930578,0.3424582651341556,1.4547097981986192,0.2914155272958046,-0.3187554420381973,0.5140922426333246###-0.4959916184514211,0.05779943629869576,-0.213527459784535,0.04602835381674662,-0.695244404198269,0.07111702661576684,0.7392757957822345,-0.013520874833969063,0.3609865714240861,0.5722684419375802,-0.09377568544160009,0.2669909920653266,0.9723768725350368,-0.027558882076965673,0.23447717409036087,-0.24049381920678792###0.1645935686427348,0.3670244635203099,0.05109425677846434,-0.295284560810256,-0.7840520005639787,0.06321042848999169,0.6205424758030299,-0.13291922769592932,-0.3536357048320843,-0.07878784796680645,0.3719068678732975,0.7860725314140399,0.6853173596242008,0.30845619108570915,0.2229178115955599,-0.26911921716381615###1.1077679311057715,-0.11071749538001549,0.00687185224085218,0.34501824542245385,-0.46243634307190784,0.09257236521270663,0.7744740344793419,-0.010566420742542179,-0.22110958517043308,0.4860167313480196,0.1905746083747706,0.6231436457134206,0.8589544358543069,0.06769935394217465,0.0756636137096481,-0.3921915624664306###1.350352562680317,0.44345615276659,-0.018400526824671026,0.31926625872816566,0.13872602912493748,0.5966745771196658,0.2751639699361782,0.2465620973875764,0.5537495294049856,-0.13432737146225313,-0.0668261517988011,0.5284476416050226,0.7382822181566511,0.30995725340407715,0.21982547818363904,-1.6283285455645868###0.7099610129722228,0.07586691853481307,0.34050353054109633,0.012096148571913254,-0.09410383096735964,0.10521792802554158,0.6880987674922702,0.015465745832846153,0.45467447788982474,0.33900378190414665,-0.38912038570924784,0.37343341938583047,0.22945117981275742,0.02404610249675223,-0.11587629398430133,-1.2026070961589466###1.0792448797731053,-0.11061774396590311,-0.24681913908524744,0.3929856892573749,0.12179867515028998,0.5667585524453489,-0.736573648015109,-0.15498861004695427,0.35086651446554223,0.10599775986385158,-0.10899170463219436,0.6875246757078064,0.27664947585054805,0.4684171607022033,0.017701704672818525,-1.3335095976554991###1.0422884653887847,0.13681803316910437,0.2495680534856373,-0.07198156682474033,-0.18054977234763886,0.33410797926487923,-0.3256727255473664,0.3648569047776609,0.31367507839620945,-0.3887138232496688,0.1273752112490139,-0.037946149272838466,0.10257457452988163,0.2678199136125347,0.489167304383727,-1.2144594124719656###1.0049469235500934,0.06954314766288801,-0.40308258896252164,-0.11229243565897228,0.2912540794248081,-0.2048454627916794,-0.3346260068429282,-0.05009315509509965,-0.5222943948019079,0.41910755201782984,0.5050774336920199,-0.13764217352199276,0.41725432800151213,0.020537391158933993,1.1417168055848477,-1.1435009712162103###0.8143383971218059,0.27934859870099615,-0.4437590513676059,0.21936955042878203,0.27361877192314404,0.25124372342823326,-0.6914592403375305,0.3399744632282296,0.0508994203393727,0.32418205036518805,0.12488931350960683,0.009889004581946829,0.5373363618463322,0.6553841192171928,0.36666951484179905,-0.3759161557756352###0.34742796822875416,0.19896014561621728,-0.21036115079975665,0.043408867402882675,-0.1404563736341526,0.020933338872584913,-0.30726807243382454,-0.04298752967883033,-0.2549518241208485,0.33668712429776765,0.04556498407229612,0.02958364779489374,-0.251705612994048,0.2054327794553992,-0.005640284521823631,-0.735688807251893###0.0922243356785846,-0.2040060719805489,-0.027698145858152702,0.25123343670999787,0.09961505074179719,-0.22043748938078803,0.01775348833159269,-0.1076067658912601,0.27146131795286016,0.03159908021254952,0.15099950933300677,-0.18913908828640058,0.2659216329983677,-0.6987334013560447,0.40078500702742054,0.09352817565371446###-0.043313231786716526,0.029489033943304748,-0.3732151819363008,0.1639537043215113,0.2256559423671164,-0.07295118699022846,-0.1533963620424622,0.22888568226378156,-0.11129352182170145,0.31076003289523835,-0.42910616788642475,-0.44117983946321976,-0.08394705585032941,0.37114557426472905,-0.19842257982742217,-0.5063959305102654###0.36321415012365843,0.011831347859094015,-0.2946275561020136,-0.07324261478577844,-0.16651066652143037,0.21754945139192083,0.12407737592774623,-0.33908761394944287,0.6135768761630929,-0.1290204517098285,0.04300319862698611,0.04463083880014996,0.2060557392637809,-0.044468988307421325,-0.019061212274131063,0.3847778413811828###0.09688758521620043,-0.10797733499262441,-0.12346135961272743,0.05102852470166046,0.25177478630789224,0.08895128341255563,-0.43403363316133703,-0.06593869671841238,-0.14597052434476934,-0.08539929212737968,-0.29108258212042604,0.1836075504971132,0.5190753848687775,-0.23938067677953928,0.08073413691103384,-0.21514255484741715###-0.12920686587769728,-0.19621155162936327,-0.43605127803622634,0.27675747039657117,-0.05381612270975666,-0.45379468662131056,0.07251041319514827,0.09359972764702669,-0.22095444516665164,0.07679484152163646,0.1446701558265531,-0.11724995248671254,0.36071277786345224,-0.13673805124649116,0.3260282759650154,0.3436425515372348###-0.26076708911794194,-0.34082707347292196,0.014464290546687629,-0.1103900983749185,0.12089352564106319,-0.6073116924691507,0.10622722973945216,0.27734027805466216,-0.6309983197775553,0.11276215382579577,0.21641465887114442,-0.26291768135933913,-0.14921151748711464,-0.06446328877884148,0.7629114166459621,0.1548620113877209###0.22122785585142413,-0.2110601796865987,0.1062556581086994,-0.17954562580620037,-0.12093982983226173,-0.41779533171354866,0.2493048180021019,-0.35283391377148193,0.27366854845557026,-0.227221459044355,-0.13838720748887404,0.3449479106893465,0.18877254730743767,0.3169235589493912,-0.12682216547415004,0.36655923800959755###0.4467829343397715,0.11913465755767963,-0.7448507221842382,0.4840335272146734,-0.1687333719397415,-0.20707688843136626,-0.12772936384122519,-0.35468790591527843,0.4331090680820878,0.14351901733338704,0.03571138913988243,0.17532448309526205,0.04246095500660143,0.35181814369430003,0.15661699050363526,-0.08402864733096942###0.3003037894274544,-0.1152615713187305,-0.6085386363047969,0.07230823734768722,-0.23243420036919343,0.0036911371163151677,0.2596759240231161,0.13102997867867144,0.5246173717981248,0.49215745281113654,-0.16814533482285346,0.3485566136968,0.05060657106475347,-0.4457941093867645,0.3629614865643285,0.4870304425737763###0.1840370535332651,0.17975602332850696,-0.5910787862261233,-0.0812638440284616,-0.9965431624855838,-0.8171587146429539,0.022289963442760456,0.3962583855799414,0.0991248492365218,0.20728982241735328,-0.058501562852493236,0.49259107017903325,0.31013923034956864,0.35114722272774496,0.03412913432624413,0.8027130668185929###-0.5093045294058516,0.18974920540996643,-0.7467101017337047,-0.024454848744763256,-0.85515581737409,-0.1625116536454378,0.010189033193540248,-0.08426615759609114,-0.049218902405537175,-0.029258792613139163,-0.012757671721381236,-0.32893252346180313,-0.11701341857839602,0.15825605540865004,0.5428709993906025,0.30599528425462613###-0.2501930087021185,-0.1541478883344182,-0.821646087164169,0.41794840066927214,-0.8299665440011595,-0.2905873868228694,-0.46674249143381275,-0.12573507399322914,0.18745135623501902,0.07122442650266043,-0.36398743793647104,0.00391024035908346,0.4543426220277703,0.01652442881906995,0.514929361265741,-0.25584212565642306###-0.9121911459135162,0.04977579884296777,-0.6214758277873332,-0.053729778250369765,-0.8165186378414425,-0.5179708397868801,-0.05884472432694494,0.0439449963570302,0.8251544514639148,-0.09376229167171182,0.20605865728310765,-0.12207535503107952,0.06396142512522113,0.061622484758133415,0.30139630909290904,0.3681195928038793###-0.9262897342586771,0.2574509986889711,-0.006823627190074221,0.35662944027611876,-0.28823904121314237,-0.5023045799557988,-0.5490567037273815,0.12125147744379389,0.5116548902717134,-0.07569423377417991,0.4210297591745023,-0.3941543238008845,0.44403623158527766,-0.014041511074497814,0.5541041208576243,0.28779275672439336###-0.7898624160263579,0.5125045768174683,-0.4321791889891552,0.3898349358868832,-0.25860810236368614,-0.20457358942381587,-0.03985739637273534,0.17704379201396278,1.3274421382115873,0.4764575995280858,-0.0073907307427409025,0.251021971974598,0.7684651783019195,-0.2502906626859702,0.1049834966488247,0.25113823155505965###-1.2279781176682278,-0.13177662971436654,-0.37147550674747176,0.15047907614110512,-0.1297904142736813,-0.43365109704210053,0.2121149056223672,-0.32583039637132055,1.2053950182881155,-0.020334147544498013,0.1687512340237452,-0.116574135690278,1.2285943598349587,0.4913623147221894,-0.7721902422109382,0.624074624979257###-1.9408157436188733,-0.13056815030848415,0.19645422789539083,-0.16779757403803783,-0.854281541941978,-0.7720156821070144,0.4206587007451301,0.2893248086090256,0.9888100711954992,-0.22510256122349986,0.4569145356862411,0.31678942654808984,0.7069908954335599,0.08243937592668266,-1.3663722671046643,0.7312962000985802###-1.669501089753022,0.09043698867743438,-0.3640148568450673,0.213929118357339,-0.9249506085069489,-0.5537565968407243,0.14372176862370728,0.23044469403037962,0.7729980449639983,-0.2013023566417716,0.16345200828594578,-0.24938932292558,1.0966617062755384,0.17666727779410227,-1.649332512609318,0.8120836943198904###-1.1314525653669023,-0.26060097380451663,0.027736624185809248,0.15753644839950073,-0.8138188100337843,-0.04070676837529651,0.3055705052872478,-0.033745692501810656,0.0056937268548882345,0.36287721539732576,0.024277049803172145,0.3634873150893509,1.6762172616461162,0.12696491839891272,-1.3665824618132771,0.6228684764963047###-0.3852886976784175,-0.004927115725344513,-0.5289385840299669,0.328663173395102,-0.3398939840957672,-0.5787099484774246,0.11317063408228117,0.22697302880043932,0.07704641840278074,0.26431392830263495,0.08579125556534399,0.060255406706408485,1.6780318096120241,0.28073357312445874,-1.0612169308007506,0.12706687597508845###-0.2933752458443505,-0.2225237230095442,-0.15737968734041818,0.1946471588588211,-0.127792167496036,-0.218082306616282,-0.1129174842057085,0.3804818121689906,0.192523400663443,-0.09150695385062863,0.06627375903240171,0.3728031686320145,1.7808420918341266,-0.007847005179820633,-0.7408384966917081,0.04663488474954291###0.27027747956572556,-0.043816371134772276,-0.4816715787813179,0.02944395047770653,0.12952366640314178,0.0046755138192193955,0.18470587893197635,0.04825414721141502,0.5862952926117068,0.2667489059151516,0.23547101813464102,0.5740702211508231,1.187193145885245,0.2283893988938614,-0.07151589921321025,-0.56853483784757###0.4137290187630821,0.055066362182817144,0.1375196164226497,0.023994477190452446,0.03751911438000801,0.44280582040793376,0.3249918939783968,-0.25798875155871553,0.8546830049775302,-0.01572772611225781,0.10151193488971876,0.2916998673542265,0.9370723266159746,0.1695514670968785,0.018479660557534926,-0.716368720337907###0.13863145115546283,-0.21473680558420644,-0.24897979176398127,-0.11703916776442817,0.38806524383908336,0.8773104248007124,-0.4668349692119761,0.006834172522038569,0.15912152476220698,-0.2644042133785703,0.193937208036787,-0.12787228189746774,0.6807220850767977,-0.03368795359851951,0.3905460871691334,-0.945648462209172###0.06392969798345739,-0.06276600659858982,-0.5820090809568229,-0.007858397569087792,-0.3472264293454951,0.5746948800156227,-1.3949999290888937,-0.0269654147466569,-0.5501320598978946,0.07430968968093762,0.21040155106608435,-0.33408311275234376,0.8777868506839409,0.048689509724400004,0.9115035959537453,-0.8243006752956404###0.6597667413482432,0.09294649128502852,-0.8904575133902874,0.24188610865688387,0.033407783037363116,-0.13425566391872523,-1.3015474480964442,-0.2713091862283185,-0.48949389043584085,0.04449271187719683,0.3263456870499653,0.12746412540598367,-0.10434586974528247,-0.5613660050438317,0.9405311455041526,-0.38375303408793543###0.5595118739024539,-0.1810403562285862,-0.8993368339047516,0.10066276223326634,-0.05344430731962825,-0.07778910880678785,-0.38616227739056064,-0.0686062955131798,-0.18686488617771585,0.4735848925569682,0.6184058713613031,-0.8859279128644882,-0.20253874895781496,-0.40723424139270953,0.5770715813844699,-0.5039155951589102###-0.017663231785420935,0.16275332255490213,-0.5979838663007324,0.24506282607638735,0.07761948694832159,-0.29065641128717074,-0.7537548496046328,-0.04974814965087809,-0.3332441889426446,-0.2433103787893176,-0.45634080024434537,-0.02904502667148704,0.025476261716329718,0.08141922551769602,0.19608439224056193,-0.48860308473180675###0.4824552614226455,0.03894044184416939,0.05956653214484126,-0.3378383497865306,0.22577487044972644,-0.13743212766899635,-0.11470023947265393,0.25683902617635845,-0.6227799430781468,0.007354122759304578,-0.1486710577234391,-0.048244268441899,-0.17571064049268673,0.287913391117494,0.21212069260756508,-0.26397413921162305###0.3645813442241347,-0.22501321979104985,-0.06875779349809019,-0.28214476472392586,0.3880272950280798,-0.0706529520529041,-0.08088716668216887,-0.06797368706247045,-0.24144159193529216,0.2176398237811418,0.28062359249522734,-0.05254947492320191,0.13509997341812532,0.05314451587080152,-0.09461588449578,-0.04608642990262674###-0.5149373482841018,0.11997903234773345,-0.33019323718191795,-0.05259971122985112,0.06204741899888298,-0.16384754071183313,-0.04645382520390578,-0.021989909375644098,-0.5431799004608687,-0.012762451066620361,-0.08655188670542988,-0.3066246067518684,-0.4132563113917515,-0.5073621840725108,0.2846924460191092,0.08208545697046722###-0.07191340907039306,-0.2373159534603198,0.4084776500716282,0.4492752230365553,0.5302137450116393,-0.565905045815242,0.44908526613371247,-0.36441600046161376,-0.36865879078323455,0.13635511200863948,0.13179546585989882,-0.13841241467518137,0.18191990388497326,-0.3924959640557925,0.1939349890719654,0.49710571888030247###-0.154607700992159,0.4983293584076358,0.01799794530942359,0.4191019775724212,0.3161536069119106,-0.21150486778700994,-0.31918875407844555,-0.07146025052307868,-0.4976906503828141,-0.369106145503778,0.04509249811969711,0.026002516432246745,0.4950654782781201,0.4392364451354568,-0.13402932465454048,-0.16230765728086272###-0.41700896687324324,-0.3819558432984301,-0.7149106036372406,0.4461701103144479,-0.023913428929180858,0.06153811803975628,-5.537618120513484E-4,0.26926649058277285,0.2740415526387992,-0.3712033585901328,0.06902665344419191,-0.28970414369440045,0.07004279990184696,0.01922669033688398,0.27327921306075004,-0.06981315216127448###0.21899309070713235,0.39656489467880063,-0.08285769098150804,0.14226259733765112,-0.24702013973623135,-0.36034026740030206,0.6335890068817619,-0.060125819979410286,0.5359703648537171,0.24585436151498086,-0.20126753059093966,0.31185395641675373,0.15480036050002335,0.41881823986432815,0.10566352180406073,-0.1580174052678023###-0.21060355357244182,0.2738805499970186,-0.19298662008890868,-0.38487315527116617,-0.3470761977220024,0.04855157749913726,1.0852416067663346,-0.5584492092212006,0.17429017893078683,-0.15087445575189387,-0.12678477670088134,-0.03329741357386803,-0.05577954799363581,-0.1586062555626447,0.28970564221993766,0.4996133035579059###-0.11889912933043059,0.14547156996961938,-0.6799691616388627,-0.07328423946699589,-0.7470365084996068,-0.5404791778279306,0.38928027568064505,-0.2185385699776359,-0.3789783777875465,0.05564545628984276,-0.14335771042604253,0.22660337826134452,-0.02284004338536985,0.17754028516354348,0.44498221159681384,0.6211519237736548###-0.4966085488559924,-0.3262367270056235,-1.0685682662497649,-0.20556497153297262,-0.3576382680623823,-0.6281724364601626,0.13906720434174427,0.007907734650518066,-0.03646252055641937,-0.3245928849089518,0.015291975738263757,0.10265611393204953,-0.047471352332746186,-0.2367172674044905,-0.10158060702894899,0.37691362083760194###-0.03839150140608297,0.3232087903161566,-1.4319287301123322,-0.17113775135440012,-0.47253981187277116,-0.7866592408242217,0.25100975006459,0.26757049890413676,0.340145327705421,-0.3316738542805498,-0.043975378169585,0.3853193389700764,0.7831444542858741,0.026922076883296023,0.24012925383854,0.34050858800660716###-0.7098605473671137,-0.061573097008147636,-1.3748214394826128,-0.27331226152713556,-0.689269264280445,-0.6491516170534329,0.002206505281208949,-0.09701321808486285,-0.38261636202072025,0.27109390085516705,0.5243850576512489,-0.2696468271455281,0.01008965134203671,0.1793047451355881,0.7163343991447154,0.27063071845622827###-1.2100598597969494,0.09801487483766079,-0.8306421095017597,-0.3866546021434315,0.30919408111136965,-1.0964859579979696,-0.6268762996708898,0.11207454055546069,-0.17811950986467795,0.032853355871720245,0.27636304830666814,-0.5059982422416239,0.4346526897668232,0.004013070566917893,0.3866675413226338,0.05601071555235517###-1.088047391153454,0.376922026432453,-0.69996239030149,-0.18748051936797136,0.03692145846943832,-0.1670650166566402,-0.069799403881312,0.21209932006131954,-0.09796217666686939,-0.03403522407345066,0.18298249840881936,-0.9527459558629722,0.4268593027601753,0.016833016231433875,0.6643577405292175,1.2360606302789354###-0.6871980264949213,0.5257659109391082,-0.3884106049792035,0.10562635948169186,0.7173809064202645,-0.6468406974997137,0.08794796512409182,-0.14576479495629582,0.5922326666972455,0.35732231170616496,0.09847772097581131,-0.5540917006512848,0.17549445617509288,0.39776939645428167,0.3131922616440264,0.42812957566216037###-0.5940953438553584,-0.21245570717057086,0.17488719870257427,0.028765345410523127,0.8030423929599547,-0.2912664752805979,0.9239576883930598,0.18808563028206104,-0.03568470524927273,0.03648832851027932,0.08846514895757779,-0.32089368038038335,0.02308523593789863,0.15615187087648674,0.5035890691587172,0.3894584717662661###-0.7206434357616405,-0.03677781763320331,0.5565355626046946,0.32935632753557326,0.6233951644240349,-0.8058407527691582,-0.18016667626635208,0.2535496777330001,0.41239016970214826,0.4180501031220593,0.027318324627731344,-0.4776412502659652,-0.2298401250569187,0.020832493033076445,-0.33920405089748606,0.7551972112990938###-0.4352568472023759,0.2911394652608419,1.6499443191201786,-0.003630651735832871,0.9441027888204937,-1.1710989434087138,-0.35545805376899214,-0.09629640140068656,-0.015177701680171676,-0.26192272310867853,0.06115359575305814,-0.9631022947953193,0.07482119685760567,0.1657898474322471,-0.6263214213845948,0.7789352134758113###-0.6751987922988391,3.870309714581508E-4,0.8221032921112296,0.31473388010429576,0.4061725138373799,-0.6610097916002906,-0.21817712620998364,-0.13165809574516504,0.4083580749495168,-0.15153579169694484,-0.06174566526270319,-0.6606628735331715,-0.3161733142879086,0.02351525430754246,-0.47562639342319735,0.9148227871728168###-0.19494724522407222,0.1442886523410499,0.46335337564470963,0.46138836661350296,0.11070593934235433,-0.7903156095356141,0.1867160644467119,-0.12241741373905878,0.08972817467422965,0.05564168767861681,0.30181626579843424,-0.003264345592373025,0.3439479921081673,-0.06092706378583368,-0.4560941505424594,0.40877811454084945###-0.1750033803127863,-0.1855514545364924,0.15764697691487667,0.30278028610469365,0.1736341273711356,-0.6169546053094032,0.30817157685154817,0.018491455712746716,-0.0919518840910656,0.18136879109679377,0.36356553230205935,0.03128861698000478,0.5910410137523898,0.12599443583911646,0.011016207065797203,-0.19341343613820625###-0.4280611770393241,-0.019207011325678133,0.14939957806101584,0.42438476531757946,0.6943172766096174,-0.26537228029457055,-0.2803049422927773,-0.25016663614000517,-0.1423677795364654,-0.07629222433316428,-0.001593102804985258,0.1760696456381422,0.744975330699031,-0.13543886497376742,-0.1724796970551803,-0.3615301754351526###-0.7107268236683574,0.08124406911445213,-0.2981624575313523,0.16702278365470916,0.3923667803626466,-0.30903376542839117,-0.2422252216922026,0.4392563384237346,-0.004537278892911408,-0.10653657626987069,0.4713996022318305,-0.15504839389059155,0.5591848131479489,0.5202274488382915,0.5754747220304673,-0.18288165756287486###-0.9876390740288531,-0.12875750381556544,-0.9547363677064992,0.3754968795196022,0.22793856880584168,-0.10254349072249218,-0.8432124798344802,0.3155049917345611,-0.3268840131876704,0.05090628777700911,0.23141106018564989,-0.18804010878725935,0.8535495720610329,-0.12805703394473475,0.754732415664029,0.1366831635694747###-0.4289675807533562,-0.12921582152951364,-1.4348798853124287,0.3673472106210316,-0.18047641420274926,-0.06707433280115865,-1.6781133276294844,0.2352780265255221,-0.35176647553845436,-0.05285662203411447,0.15043900200990726,-0.027608499750517233,0.6904822473981904,-0.3286003711325879,1.019876783582272,-0.16569633384597254###-0.06574198998516884,-0.43585012980208365,-0.7144682726088959,-0.024700847144627402,-0.401023327153786,0.028987719044741348,-1.374728399290567,0.11085845063538372,-1.311579648066124,0.2952982656900628,0.38936635048802426,-0.9734411493208329,0.6852442444090605,0.23947144692123584,1.4556117090182072,0.22326543227801346###0.030866847564357505,-0.15680076793936762,-0.43435440870912007,0.04055237714827769,0.13740134610743074,-0.5030761442165138,-0.9454961931336412,0.25854137958844764,-0.8346095051388328,0.404233890827941,-0.3129821934215692,-1.364588206969896,0.19472932468210208,-0.07570229817265195,0.8169210601638712,-0.004294485463061164###-0.32462178240975403,-0.43980470337458194,-0.5148334622913704,0.02937242261834194,0.16382262179236254,0.22999089539806736,-0.6151813393353033,0.24632675564956352,-0.6854231866053156,0.24711848843930093,0.5031312670756406,-1.00353342212169,0.23205088105640964,0.13282173120143398,0.2369806291780185,0.20071219414936609###0.07969097196364318,0.2133928762846432,-0.23510162233991255,0.13908704131572328,0.542549688281072,-0.3072021675818208,-0.1282700006381329,0.30033639306733806,-0.1907417076770319,0.21529071498925795,-0.7995096805296732,0.06343134719644351,-0.17899332127534992,-0.2254630811215611,0.49496784380062536,-0.2343942466091302###-0.10474807478694449,-0.33923874476357146,-0.005265460593254711,0.3424516991827166,0.14411096583490932,-0.03667880441673445,-0.1699826681236399,0.21320943147975946,-0.2535262679680423,0.1912231088961641,-0.015048553845819207,0.2866909683376038,0.10750533913323544,0.21812397256672908,-0.2685283206168212,0.057297042901464555###-0.23528407045366337,-0.18813087206648685,-0.20035252038970908,0.08468925623734738,-0.18172940844201066,0.1766089313248526,0.34419455110739466,-0.14931908516826992,0.181085240334285,0.22846012482187594,0.024280948367341522,-0.07325933371087848,0.225037134462429,-0.22411728650516433,0.3049088430353336,-0.1107387019563783###0.020032612472949136,0.018929674303738035,-0.6390738495563848,-0.048031016648816004,0.24640993523481564,-0.2725256264958902,-0.21121044926727814,0.39497813426619455,-0.06704871372752785,0.13312933214675166,0.17818879495048792,0.22077777605502735,-0.0937945472692646,0.05388700642785595,0.26934521267385403,-0.3454515655438434###-0.41330606187334856,-0.43763459624025836,-0.2610761634293267,0.14697212600191698,-0.09890215245244294,-0.16650363214729694,0.1611400609405821,-0.09002659391348038,0.043095103467690264,0.07197683037198606,0.1946904121022391,-0.3411275760910795,-0.19385684322369925,0.363159318282363,0.13507626589429758,-0.11244596111820752###-0.1505641907510083,0.044582778509563076,-0.3240718132860813,0.5445643673472861,0.575427109021213,-0.3839348632020442,-0.3755760495132649,0.2634929172189933,-0.023830626294636687,0.36064932072145794,-0.08794096978566755,0.1349464941127961,0.16907643153241944,0.17556719711224208,0.18585969634971014,0.4738939320787142###-0.7371342394016939,-0.025144609266819728,-0.32891946399237043,0.32853535404017437,0.2898429594661882,-0.4052948276859466,0.42225546849246287,0.030708199327814843,0.06271546718166955,-0.25545184236086393,-0.5603222976371555,0.013707767454498926,-0.04382613729381212,-0.13062947370708908,0.08342002959285937,0.25942278152655823###-0.38712739519531936,-0.12875555317576798,-0.7669706236517084,0.15085372208068623,-0.3526506099530713,-0.6010571318243303,0.7234622654946486,-0.2538024440751827,0.33979033355713306,-0.33776043117278437,-0.17822928291329435,-0.17821641041087097,-0.06036964990836275,0.20110111741507922,0.5873362704970183,0.12955257731647274###-0.23060301667058603,0.29590494330837375,-0.8077956447310177,0.306096908972533,-0.7191155199667957,-0.4428904250053722,0.27769824031539425,-0.19567911753363085,0.18970364039732646,0.046267507933453154,-0.26055041361493986,0.1671780005253169,0.5551688888780328,0.17405694849522946,0.36682793858904617,0.47136833544663226###-0.29639217652763367,0.057291571911996,-0.8748459256262578,-0.20763788265427277,-0.4658202921261438,-0.6044275279750495,0.3086765252086086,-0.15411908240915193,-0.37168985129238596,-0.11188766584654018,0.18586934752985115,0.21468200926342892,-0.29215373681851664,0.16531068190790185,0.026674680749937084,0.21344951873595233###-0.5545858678334974,-0.1395039524836535,-0.9661713606739237,0.0652458788291362,-0.10575707455457017,-0.5904980205945338,0.509357141180008,-0.06548635511871426,-0.17785419876615355,-0.05642636640442035,0.23787643639259823,-0.22377592264467502,0.4887300497509855,0.2074398190089215,0.7065858673337718,0.7512901734191371###-0.5213625426115334,-0.51263590572083,-0.9368672473156751,0.06817939283213532,0.5698739019523783,-0.7156613000429881,0.1681340270976045,0.3839625418255818,-0.3587820957664223,0.11106458480586226,0.12052643810619405,-0.04543205282004723,0.005222751077546628,0.8262462593450969,0.3156264932402006,0.28351586368401727###-0.8018397999017751,0.28487997807667714,-1.0079993345682454,-0.5394081745873605,0.31121409417442314,-0.7492168970697901,-0.06521838453973522,0.23051771374119406,-0.5867885874020787,-0.031984120159554354,0.032808657610449876,-0.3895294148083413,0.3779525355300564,0.1975651235167509,0.636473923562302,0.32648882631932336###-0.7000470448669709,-0.08313095762506104,-0.14730325276289838,-0.11651263358207295,0.7235554894862456,-0.35459917147857956,-0.077776645111945,0.6420868276426231,-0.7229425579934291,-0.21334242348357713,0.2650393941166902,-0.2655872099236244,-0.1573310934402072,0.29040753445801304,0.523430155917286,0.345587185822757###0.05483603456364787,0.05267163091847279,0.04404156048021402,-0.6504373391608188,1.4668994752998175,-0.7907947767548649,0.3603725210705766,0.004229799134675482,-0.4092435182543626,0.06453852291157566,-0.187157829244135,-0.1891294199531019,-0.9879975537178607,0.17237119947581286,0.7371419514549449,1.0617691191371874###0.030322110240119854,-0.11861499831265254,0.4788475467732427,0.46571345410340065,1.432321525954546,-0.9385647723126571,0.36246717241311416,0.07846561314875913,0.21398907980649792,-0.086293685839198,-0.08173927033312935,-0.48117742850196515,-1.0600841725757622,0.12926000316383673,0.7280990250504671,0.8213741950017813###0.46127386262720066,-0.30464933439222286,1.6361025325170182,-0.14648209508105878,1.3565444190101772,-0.4497175540659894,0.889486139995561,-0.058260749053527745,0.30280721119435056,-0.018816090361847847,0.21595186256749305,-0.2901873299349335,-0.9392616396738551,-0.062145233313004145,0.03228872731461693,0.9074657140177773###0.008695102831570095,-0.15080981059828313,1.8233690273721501,-0.04926053474051639,1.512037038510595,-1.0098309691086271,0.169281780642281,0.23061563543733907,0.09744570364534658,0.3490286986882054,-0.04908879116925516,-0.31145880160248485,-1.10786668761812,0.356695853204104,-0.26530463309355834,1.0769466869614897###-0.0859534317948163,0.47588642516248636,1.5786657937042763,0.7102269682867596,1.5288149820190016,-0.620456560017117,0.4080391419734483,0.4025580271150732,-0.004542101050610522,0.13618764006031914,-0.19295806602620652,-0.2903451574217895,-1.1757255385628245,0.2437300290209832,-0.4373956691862102,0.9497298855267617###-0.8887924471917442,0.1939680555100857,0.26283338205460627,-0.05472968998497207,1.0477956132044868,-0.6310634033785104,1.1635896802775674,0.29567118438631657,0.10631273158970501,0.21763358018046433,0.22054344173151164,0.02136341850980975,-1.0027838389136865,-0.14096685759766908,0.3596582635569164,0.7636067508099461###-1.3196134018151096,0.22153479734435694,-0.19733778000896002,-0.031306842712553434,1.0136763576129488,-0.46171806870722576,0.6406572129536121,0.0016900436682644833,-0.15285403030712127,-0.0670368510181604,0.23856845827262171,0.36749839100436993,-0.49382490163090564,-0.03559402626829612,-0.10589390882966758,0.6663390626815772###-1.0247661508514672,0.24705336746860826,-0.20353171128011796,0.07569624409086592,1.070747643092735,0.026449575460498965,0.8603881014010993,0.5224694100908092,-1.0092301526672496,-0.24855848372220837,0.07446381380104855,0.0310255570867872,0.19509910245515974,0.3224955976114289,0.8406972961105079,0.19620790821722142###-0.5858701252546087,-0.06830827868606526,-0.03369404111871914,0.3478850714901149,1.0013019947152195,0.2563827848254071,0.03995257097947206,0.22857669431610111,-0.28649338640232624,0.23551502374865607,0.09289813431014658,0.4174510772546432,0.4022803278199805,0.2342780852402586,0.3492416355764219,-0.05079064508935181###-0.8778632179453152,0.4228134099166791,-0.45334300613751766,0.13991584950918776,-0.2592716796318456,-0.28780735704407984,-0.8256183405932537,-0.17786928962913284,-0.4885056578105541,0.37467829966529614,0.2134896529284636,-0.45272034599634786,0.677509630317368,-0.23427909140721834,0.4123089650316509,0.26982761458555604###-1.0784884530125998,-0.029217326438699946,-1.4549349716389783,0.09548856528901647,-0.5686450410665129,-0.05035605006343253,-0.5221933528565501,0.2977845543299593,-1.0276189420979678,0.32619033585479823,0.4704656683060827,-0.09565003450140756,0.5325857783550235,0.3669407334018674,0.06415430773386832,0.6693749542205484###-0.8506538442666568,0.00784017791145503,-1.3095525397618124,0.2806020056692565,-0.5261403089676105,0.04358566734426785,-0.862148169950689,0.30848194843427595,-1.2230610580898482,0.01589461661191238,-0.0022423172992809834,-0.4635616587607964,1.157098252329325,0.3167399637152614,1.2612852338114524,0.2512536203841704###-0.47729970743048356,-0.2142247545406491,-0.7140864438872949,-0.21946316655033227,0.0944068297105666,-0.09329033649657181,-0.6268781311711973,-0.03364764686875599,-0.9639792533852917,4.7887850801384173E-4,0.1130679677633354,-0.9774184976403885,0.7175471646944647,-0.17838238249822666,0.8888094280155269,0.4006072093933263###-0.2610199956376043,-0.09697023141643518,-0.9777041890171714,-0.0590854174091181,0.49884766101388156,0.16739440271355494,-0.766499943869509,0.14924066648726128,-0.43883846805113547,-0.012870915246794987,0.2609297125355736,-1.221267767506165,0.2984262700346927,0.5923351965430129,0.8065153805411786,0.16182751343531673###0.2845752876052636,-0.135552936751966,-0.31367301684447874,0.01377000182052879,-0.21164303667894196,-0.27432404862036036,-0.39602288651426376,-0.39483709634478426,-0.42939281035779114,0.004208736348239907,-0.28519605879847715,-1.2574653964105764,0.4264673902491933,0.2485403827495638,0.2086806109353915,-0.12996643623382456###-0.32006477749875956,-0.02728932980097642,-0.08451765752352051,-0.6752712716621869,0.15939268907342535,0.2370660800401543,-0.5584794328272923,0.036974262507361515,-0.2673833212823951,-0.1284693511434677,-0.01109604005191236,-0.4411122428290145,-0.37036490609484307,-0.127926828333789,0.45542421335922656,-0.2505145374393712###-0.30251254482200945,0.30669576947279303,0.08418529224546592,0.20523946831129602,-0.33287911517481406,-0.428575732559124,0.17217694971324626,-0.004655170451931207,-0.0061871652414671255,-0.5307541428117115,0.16193291622695444,0.036386812894525965,0.1334614162168627,-0.08457696902147366,-0.16349345506194352,0.07179624560447376###-0.35876703751704486,0.1692378968905751,-0.46351136658586917,-0.06524585000477423,0.12447443401181185,-0.19096820646141527,-0.017734671702176345,-0.021351065314407586,-0.05843232294889299,-0.12200149813776562,0.05508314509587525,0.2390413071390525,0.0412122354162913,0.245871192578182,-0.03855577000285269,0.0331140813964246###-0.5718246779609627,0.18871437888535225,0.0971146370288957,-0.3045457536283255,0.22275048931917385,-0.0573292811162915,0.5120584228691543,0.09156921960521786,0.13963410347958827,0.042033480175214924,-0.054056527405359704,-0.13674225886313415,-0.03927701734088429,-0.13320244980216112,-0.06360640424688532,0.18321960097598516###-0.4206421424440024,0.16910841729919157,-0.2781316676827576,-0.08708099380764375,0.3324666243123738,0.44260872949952595,0.5592337236044873,0.3979033898116096,-0.23428307452671507,0.14014870234965143,0.1627915688514623,-0.019539807832485715,-0.3024286839748015,0.03573045513993128,0.013789457627329693,0.19623426740698494###-0.39954810734314944,-0.22812432248900913,-0.6938860854892165,0.005880076006881607,0.0583517809038323,0.08049569733469783,0.3239301726971012,0.5831323833660846,0.251734702175823,0.6767428942781044,0.04047746043538627,-0.10708605799299893,-0.0606876281641323,-0.10445710456366715,0.352459882276413,0.02793470834664663###-0.8149577797581996,0.20673954311698586,-0.5956157804139092,0.3500043372506208,-0.06049188315294758,-0.15364185685606335,0.9290298603116046,-0.12838474027212912,0.08792583919024766,0.428499478287832,0.18341567737323933,0.03461112239560454,0.1593379616028715,-0.2219801649700758,0.5535356561712504,0.07272984563438402###-0.7192853083432281,0.3964184998332606,-0.8555144393389253,-0.01629130276916414,0.14941010981309966,-0.4052343298310771,0.4367899219828458,0.33029657044348787,-0.714735277098508,0.06645273899912853,0.03533008758049373,0.1975259664910572,-0.0726874123920787,0.19115954623465264,0.03921631972647462,0.3171681573568369###-0.5073506093578445,0.6044958036893893,0.3624374447572269,-0.27123871773181274,0.12212101550780657,-0.41302760598232907,0.33755063548389913,-0.05337025354623256,-0.2904648512665516,-0.41003705108532007,-0.3038104566501466,0.3096173562251112,-0.05495994575776849,-0.07268286102993746,-0.13452598567968524,0.3236108825637091###-0.8075338154374432,0.16472210475736285,-0.691322013375265,-0.24917648809960827,0.7268563628865248,-0.29795028165045173,0.17001442069929082,-0.1333454925623092,-0.932984334719061,0.044008918992864535,0.0630881769561382,-0.32279748043141454,0.15427156300586817,0.4568744092964597,0.17725848933769875,0.673087633900701###-0.7745713953259564,0.1534499204214888,-0.5218544952810759,0.4179562993842786,0.6928374001397486,-0.3170793655271918,-0.1724964418861432,0.2309447374505002,-0.859887356635579,-0.31991143183193527,-0.05729339304057398,-0.1533099771564746,-0.3888328484105058,-0.2944199712598376,0.3261438058197009,0.7633340448637027###-1.0529763641944982,0.3335400459793772,-0.14485108983876158,0.21450869243949966,0.5291918218105607,-0.7751923856492363,-0.025148103121781375,-0.21073030634025508,-0.45251651211516697,-0.09699197557611035,0.3432181071966388,-0.3544474294343254,-0.09885344904403162,0.11324379616307514,3.795967219954108E-5,0.8655563253280065###-1.079662016231012,-0.2137917411086077,-0.5617833506572052,0.46777879239431247,1.1794247392091481,0.06184375424097096,-0.361148917541972,0.10306122659411739,-0.19849268535977477,0.5143593797537709,0.16846969019680394,-0.2987169206260249,-0.10778973510818898,0.2588471360014386,0.9387426735244906,0.2606672393579011###-0.6837802388151107,-0.5550548812570081,-0.19989391831274278,0.24528807923827417,0.8419963820027534,-0.34558345115360917,0.08917565235191725,-0.2502587216542209,-0.1841453762749384,0.15770580057082872,0.4205667457861055,0.043831475447798654,-0.31122467018229594,0.04250646315399166,0.5105815926160521,0.4900573544048776###-0.5281335801940608,0.02291441438514675,0.4572469597482111,-0.003968808962115463,1.5371661622228032,-0.2310526785628393,0.4548561490406916,0.14060094828404635,0.023396388337730775,0.43669151930725203,0.1918189864419494,0.5949028037003885,-1.096589258366281,-0.09292973257389464,0.19817312824422065,0.3036247273719466###-0.8127462554909275,-0.2712777938286909,0.9897018899990081,0.12802610411137896,1.3570027314734059,-0.594741215609088,1.4802045010109413,0.15172210807984615,0.49531384547628243,0.2280046687387647,0.5798134643743555,0.8861064691198669,-1.1239048810014516,0.5279668742105675,0.2960353523822397,0.591398164365952###-0.6570733171227781,0.39168509698266746,1.1305765951238789,-0.0918949575903698,0.9963333068113718,-0.023664639843287472,1.2751590224855516,0.13968889777361163,0.48874343087257033,0.2623803514442253,0.15365833123512573,0.5612808083632106,-0.7269423210201246,0.6188077145221721,0.6736195841143081,0.907066581191734###-0.8954541391455362,0.3802749820554752,0.5157763231101141,-0.37941944407825534,1.8026514190243923,-0.04011948961596463,1.3274833405874067,0.29976729292614146,0.30943568631420637,0.1745892526798489,0.016699970592132775,-0.1473428500147131,-0.889879653997408,0.20562689670890524,-0.3880176627725984,0.33945046041846855###-0.7021889572595768,-0.2798471783786286,-0.051347884422155696,0.4353784292393979,1.3697457010932907,-0.6796433653782306,1.6929743456072612,-0.059852804320814516,0.46837623219880514,0.12290381508309331,0.25813698714294214,0.08630742240365417,-0.27465210950584773,0.07990907576154281,0.23522290776155946,0.5811579090513543###-1.5514363921424488,0.08286460237634166,-0.02405952732126997,-0.19455374297289693,0.8730705754625372,0.3812431177090295,1.0014024128925765,-0.18651516536680254,-0.16534222173360796,0.43879986939327514,-0.3182658176399743,0.27005808550616167,-0.3875248046392857,-0.3845149653227389,0.48733420747676875,1.5054522077628043###-1.5641351240443098,0.29159755380733837,-0.5306544755690672,0.10795983441912888,0.6150589392787824,0.28773271548504276,0.5678513605207195,0.168896259217787,-0.5544130102149504,0.5175671125382206,-0.14509829604344765,0.09538238712967945,0.46595062575817203,0.16042469833568795,-0.1653518805730921,1.3461691538511862###-1.6495563272208784,0.6325640811547832,-0.3536469475618434,0.1602998368121892,0.4975151457490769,0.06974584428836118,0.8152992798773874,0.11612092253705454,-0.10189216340750833,-0.33379732136024143,-0.10462511422055687,0.018095234418367526,-0.018884022840198023,0.26275685163597234,0.3934509081249637,1.628777155438558###-0.9169185477955117,0.2178131467119823,-0.27952119306522577,0.011887227763827229,0.3762710055667989,-0.7333115752993375,-0.08365751718367216,0.01806253755190602,-0.6840464675984571,0.31924534731967824,-0.36883017385936534,0.13177114855448885,0.5001665392827467,0.46268915697767804,0.5146840443055652,1.172298868768326###-1.046647438550603,-0.08012366482745661,-0.7861113095064278,0.40937116224087705,0.0925773428520168,-0.0665631927727546,-0.8592562211774972,-0.06693258616356434,-1.0149653875377138,-0.29539100062429935,0.23958161897712774,-0.05584861516930975,-0.0579035443830525,0.16720185487091482,-0.21455363006306177,1.1037446417137766###-1.306702973849939,0.1879683022692952,-0.7515599237024806,0.6200114908071716,-0.034870536792774416,-0.4519708619951061,-1.049752708818575,0.4416035725069809,-1.3205554856764874,0.14492332438466737,-0.33991463896389534,-0.616122815425883,0.7276609091414808,-0.06447267461090533,0.5057356338913244,0.6222260008333421###-0.9199448240552057,0.46060357642014454,-0.7133733624525623,-0.04989890277757799,0.20395302623405537,-0.5330325973179557,-1.5397455009337053,-0.47786493811887454,-1.0095521660442155,-0.588212538629518,0.4814375585797096,-1.4758663881699796,0.8110781444208001,-0.11168489033732198,1.025348120659334,-0.06657481451863878###-0.7438176105440013,-0.07643469754700462,-0.1558060366703444,0.1567768629682385,-0.06735830744334463,-0.13735815372862037,-1.1731076875138686,-0.3361109857534777,-0.7398654621811604,0.4474082591836424,-0.3038322797255155,-1.4041203925711396,0.5264149032336226,0.037868139952442786,1.2986637366392055,0.31474569881789477###-0.14325510826200777,-0.1856797801225541,-0.21888346040559759,-0.009917779180064291,0.1085570213762201,-0.12269910481382175,-0.221657076623161,0.34257058893400755,-0.18679401301577073,-0.17572367612021017,0.17663291880782842,-0.23154639722885,0.0466164648263291,-0.17539482539911402,0.7662606264106494,0.0690419325408909###-0.20237522644300257,-0.04106542839296355,-0.0860957280184207,-0.2155477688632353,0.3574507304404622,0.30806958647187394,-0.14918836883744485,-0.3620534256427125,-0.3704128247539867,0.05663579131307694,-0.06556371457501985,-0.20233385281898883,-0.19687690306729488,0.09253868868581237,0.07228839978295165,0.23993861875160163###-0.7044630727885842,-0.17702603483010051,-0.2950889609627552,-0.1994293417497967,-0.09126157838359579,-0.20319985583257688,0.269913104357135,0.10540503140202141,-0.2307542117074819,0.25805180624566354,0.06512169106959169,-0.07840987551398436,0.438530390844101,0.1262349695298221,0.045151783542417945,0.5025690897923312###-0.14669606373734487,0.1240770327106248,-0.4910439512640642,-0.1429120238296787,-0.15850749095062308,-0.5948295363750493,-0.27126521004839005,0.13791549456000224,0.07648556097982091,0.1953110486632918,0.3717808579215048,0.4901596044529458,-0.02081195123747637,-0.4346622474556891,-0.33499408517160456,0.3305454068436963###-0.8323264635531875,0.28239201188059904,-0.6106574371788075,0.11250609640905923,0.1996255123451182,-0.7418126767333061,0.1512709181881815,0.3720659292869936,-0.05165274622140646,0.3047938221095448,0.2648384300773396,0.28479572158815364,-0.07316582202177382,-0.38369083221766326,0.18231120996109046,0.2700152596524095###-0.6969437820108976,0.13130975930285999,-0.6075505654731137,0.3545499998477086,0.03654241568477718,-0.20725064798420417,0.8342832975761021,-0.030536207023489123,-0.15971716557544255,-0.08078174642236671,0.09231469932232983,0.13354034886276195,0.03136049653617943,0.29989955534864804,0.1925552328847922,0.6869709190639325###-0.6953190061185133,9.62481804100922E-4,-0.755949185341201,-0.06489719853917526,-0.2673523539486359,-0.8223053554362082,0.9952595823914598,0.08748515762413618,-0.037676361032287616,0.014737398134154448,-0.5605914172668118,0.14519647402788116,-0.06420588292545588,0.13653960404361007,0.035771602623879996,0.4106327615924394###-0.9180658250495743,0.05424163824682331,-0.3041835561599594,-0.03837561620998623,0.03885682164880273,-0.4701455475894367,0.526770035080034,0.1385012803893763,-0.481416872611685,0.09874146098271082,0.028115770560899023,0.3771392480700221,-0.01232952927263503,-0.12885040790759206,-0.0834664252388218,0.34705201486908344###-0.6493554400473548,0.36321836849809386,-0.20534194159849029,0.3221768730211131,0.2062852048258147,-0.6653518655924644,0.2469124470275809,0.14129185074742368,-0.2520062921787897,-0.16137994477210046,0.23108073931628553,0.08721090454354057,0.08580266986784572,0.21651003373889918,-0.39109005681748504,0.5545638820963469###-0.23480177689867132,0.04006411358602855,0.9565611331417406,0.3917968504385852,0.46345000479884524,-0.47869654257701927,0.24721501156571896,0.07438671758824443,-0.29939659814940023,-0.3468152736487914,0.012380875467559982,-0.10810089180894286,0.1360222419053197,0.2672700457469073,-0.7008861121049565,0.0020480941506016794###-0.4547256585498029,0.22184643020388037,0.5728366280279057,0.6074620261099015,0.49145906515432786,-1.05537657070639,0.3155613716514666,-0.518343343722434,-0.6671969862195355,0.09817645141564653,-0.37386062239637835,-0.06086978140382795,-0.13830913693038793,0.1213081387768699,-0.40696085425280387,0.675266416746738###-0.5001693651761518,-0.03752007675832064,-0.22289882371245123,0.04592424021547602,0.5614992964634721,-0.9727863774594345,-0.3667488793553663,-0.1955726520864957,-0.47406723412104795,-0.012518116443621389,-0.0925591908242191,-0.39941692126634837,0.6488912629446908,-0.40524978341924806,-0.30824107509282944,0.06743311678033156###-0.428549893141672,0.05441050100312869,-0.25499808643474453,0.33494492987037305,0.4469672625226667,-1.6304095766660252,-0.3443628090464248,-0.1814510488969277,-0.7323594143596694,-0.10634208600483,0.48067474320265036,0.09430003304450361,-0.33627883125309155,-0.10250872046714343,0.06435791472210536,0.47406868372174255###-0.19038480552949355,0.4087615539448166,-0.1169295250447022,-0.030812343545042253,0.6130083200627842,-0.9985481469050325,-0.8435019117155578,-0.1854804904723692,-0.6618095529779352,-0.10510695592389972,-0.5080039041287965,-0.3272927262645555,-0.9229356298764726,0.23848423355784729,0.7007004564890625,0.3809544707137773###-0.8585202605855033,0.16350290498431394,0.10135137678490946,0.08219962336864099,1.1643148009419506,-0.4477872378636706,-0.12056672458985805,0.3681016350629959,0.048510203150769406,-0.044974134604690345,-0.1735193306482391,-0.4384922483548892,-0.58393894687101,-0.4195610812865978,0.06122778139600724,0.22627130542082682###-0.9132112447341585,0.3354798732635477,0.0014723979534605493,0.4480079077111223,1.12448975597953,0.03261692780121115,1.1569857485979764,0.0321437373526802,0.47735891534315544,0.1391357347505924,-0.09379239238943536,0.9163678981351634,-0.852924785113029,-0.1310180859305777,0.91808292782465,-0.3853731752366732###-0.9529730186257763,-0.009217973478096527,0.1387017966047865,-0.09221003813244404,1.209724779390935,0.23408637838455593,2.3743648544493032,0.018246881763373444,0.7004311985627846,-0.08307201649365675,-0.11596467452313836,1.4944157534431974,-0.5228913594102791,-0.027335731718756,1.1286091360141306,-0.3123404057939048###-1.3267716003092525,0.11681012667321448,0.16024460494201404,0.365719023445413,1.1602787869961544,0.2188863681712339,2.5067057781507023,-0.11848535785164746,1.0958664154369213,-0.058227852544727766,0.08239090642745127,1.8453869754259267,-0.9398933206182724,-0.42305091837295605,0.6139084662843706,0.6473517689057685###-1.5033433107617589,0.4076703803840034,-0.8092098225321775,0.10511976853912652,1.242988339286855,0.3918638002181885,1.569123744038459,0.459745845827577,0.4749207092064404,-0.05375179945705532,0.011810083732387643,1.2756904684024295,-0.7260055155223061,-0.48510475974148176,1.0191115381563156,1.065905524478779###-1.1258144426641472,-0.20615555266138622,-1.5835959894707226,-0.06813684064697352,1.1945361680136757,0.4031229291140097,1.2202755241688703,-0.10902673227376697,-0.11451876560390527,0.3692824826550396,0.03441523518688458,0.930424380811261,-0.3037641613253983,0.007371621631278107,0.6343392044498226,1.4064799801541237###-1.3952969594014077,-0.03305981741343121,-0.7378872786226152,-0.13120948243479658,0.8976279235299234,0.03729407166987483,1.1720907373846767,0.1449421419396657,-0.7435762678268716,-0.3036185496922786,0.13715630760124212,0.4501950256125572,-0.4619861565266934,0.31347687224800563,0.664949269384942,1.6397509210772947###-1.5398287383546796,0.03793609438033165,-0.3871559069280024,0.3596917249198296,0.8404156619862848,-0.2553143554645184,0.35059767053742374,0.21506265567565194,-0.4489823459237215,-0.034257734142216556,0.4961079243346894,0.7748783914301344,0.22568875543233483,-0.3719247724792227,0.07848919344344006,1.8003540323038758###-0.6204720645788265,0.2623860510887266,-0.08025196965354546,-0.016659705085158887,0.42973109877610316,-0.37981631994737397,0.3880337504427552,-0.21445365075235273,-0.08663430399986267,-0.12273591080220286,0.34044684295320843,0.8196650893970334,-0.1745855368312739,0.08226679336926027,0.20887437976666876,1.5414732705295975###-0.7341777605766869,-0.10098494958900485,-0.03942902886385967,-0.1123060116475693,1.1104893205756188,-0.2974300699880859,0.22386949487571092,-0.012675296655364019,-0.6905479033844696,0.3437761539820238,0.17900278100739653,0.2330101147756308,0.0668310220633175,0.3523867569385534,0.0673326594843157,1.2046373204364962###-0.8115715382527317,-0.19204682062399123,-0.42533243374098695,0.07198002406634772,0.5364264918686156,-0.6726206971007804,-0.2704504896755101,0.19330358608177817,-0.9074605599628625,0.4504677353239687,0.305648191425339,-0.1485474683635158,-0.20176663577025866,0.5954405237723681,-0.10646768608414309,1.97806862421279###-1.5842036675057132,-0.24758505794449398,-0.11270294652652034,0.23015279188758847,0.4833737847736266,-0.16143120306189532,-1.0929464874885133,-0.1463008680611778,-1.2222143508091696,0.28883976115608145,0.003032030897769708,-0.8865096236722877,0.9928548885464001,-0.05734142564238632,0.035753089002672,1.1415494224859577###-0.6672917823143948,0.3229388753354334,-0.22606561982204498,-0.19869140606188376,0.4050019418801668,0.21976550013644267,-0.5008020922911607,0.2277969918883981,-1.019269308860625,-0.25967791054041933,-0.30608950215898695,-1.7420378878161962,0.7248156363566322,-0.016388165294786285,0.5882651874415841,0.7926106937909361###-0.6602736569481481,0.11975156791245938,-0.2532022705289616,-0.12815426151101247,0.36578185467924856,-0.20779272480872996,-0.9219353157220083,0.013923999828191725,-1.260874860472835,0.2768981533109617,-0.1294692519481147,-1.3346785393617853,0.45529088668320417,0.46863378316505294,1.2314795656445385,0.2596914067031793###-0.709324480695796,-0.16211496138320233,-0.374664185154097,0.39261664850081246,0.16540253657244236,-0.04091459099089948,-0.2942658194338764,0.5667881762189814,-0.5794852467794002,-0.04255835079199648,0.1862891705835313,-0.4928538345615749,0.2871533494703479,0.004537108078876048,0.8454574315022008,0.1782261154704973###-0.31476745115960597,-0.13081964442241645,0.26271143435412087,-0.42800855163063484,0.21986444054056034,-0.3795318889110828,-0.3014778851937664,0.3271902199448344,-0.3148337695322439,-0.08406751877201012,-0.32796496866837693,0.5355265440306993,-0.2526401209868155,-0.1997679056338018,-0.4425908845216169,0.6290925085921268###-0.07754562761782144,-0.009648559415039419,-0.1506168534698011,0.1392767526524766,-0.019260475315178622,-0.33059179266386163,0.2633280535106303,0.4383160236083356,-0.0907125741156411,0.32531507336240195,0.2095650246630269,-0.23464858779096306,0.12894097069866825,-0.23440865623439205,-0.2768313830653685,0.5113519394646151###-0.06814102324692618,0.16268126392043897,-0.19105489035883894,-0.19409820165035735,0.2572773162074273,-0.40632858179117914,-0.06993437010028715,-0.07870044646579835,-0.25560553771785754,-0.15494154583876016,0.4173187604442185,-0.10529891265091565,0.0630368551086715,-0.29794666316510077,-0.22131044813260356,0.06561826683923946###-0.7887301464853742,-0.35703311592567977,-0.4785676600397614,-0.3061011503596771,-0.10118639639764021,-0.1571332535323559,-0.14063415627268597,0.007154448850916979,-0.5278288085087187,0.09696399918180945,0.15012083050169847,-0.01095698770414293,0.06060237849594162,0.46618543085079867,-0.21272051560825278,0.3553150215268903###-0.6262301891743367,0.06616330720324352,-0.7617517271086849,-0.7991978329770797,-0.18335899247859325,-0.12009797655512279,0.6376412121671059,-0.33695376635808133,-0.04687359225772561,-0.22847373087982223,-0.6066017945856916,-0.3244960093731175,0.10859925258456662,0.21233551026685976,-0.1596190119307174,0.3462797086159284###-0.23201899361839456,0.009478069007789854,-0.609284342364399,-0.11649712461978232,0.16356835466593805,-0.06796811572156128,0.4913516898004521,0.052305937364327114,-0.22135463739874017,0.24813295422531711,-0.14949131971022486,0.3343335293414511,0.2760977336497791,-0.5621796388249408,0.6346143348535266,0.4045411503454515###-0.3942963394678257,-0.19174522173061662,-0.10592476710042405,0.07493290896948657,0.46894234165888476,-0.5062934460658866,0.10134630819363324,0.12511152139134193,-0.26958702319795647,0.06931586003343713,-0.33195031620042115,0.007513568210390645,-0.05039976526406362,-0.036885959919143826,-0.020652516119219824,0.3110942396138497###-0.2112990105999092,-0.04112849205714124,0.9804946581139011,-0.22765662612682225,0.5370754440768418,-0.1767352525498442,-0.0157364418947328,0.29514599958980064,-0.7007114668137424,0.12464900684546569,0.32717191771434684,0.04859690233180488,-0.05730512588867758,-0.1370760190550999,-0.43325709398020606,0.28898128287183494###-0.11724074149997507,0.04009414109945534,1.8335206349497797,-0.04465280906283292,0.7844971576843643,-0.00353932492317038,0.4462049072981776,0.1324111005845767,-0.8022953266588219,0.13978023069959877,0.25474412709771876,-0.22904083188850577,-0.12366921681773085,0.44253151808149344,-0.324359818622108,-0.12783544727035986###0.16889331759043028,0.30427222861439945,1.4227499651354572,0.08106597922181424,0.6378255005159612,-0.4470797296298751,0.007562439887791593,0.01445930412313342,-1.0393891993069626,-0.1133867433128412,-0.39494298937479144,-0.46741762487508765,-0.035632692328921925,0.014725030891940853,0.024723741822076598,-0.31650113898840493###-0.042798204804035865,0.07185166222542892,1.3804932669357937,0.4359436454802049,0.6327911067361547,-0.8264857755557425,-0.973686225992969,0.07220307758772047,-1.3107095017348687,0.1493891599065823,0.614082230105928,-0.2148231108935555,0.141257593275126,0.3095499073525968,0.44242798236497954,-0.27958876862422055###0.10689094524659962,0.41372243459556635,0.4395473541388756,-0.05687621971541867,0.29908053995081574,-0.7477402289219578,-1.8423569916481726,0.001796012117721514,-0.9122753990008268,0.09736170114524312,-0.01977070168028939,0.2602366293939897,-0.4106620552554154,0.21368295039654558,-0.24157282987235493,0.05137224176032016###0.055215209673043955,-0.02743940856418069,0.13905962875843972,0.14741241192101295,0.31173011731116124,-0.8224332552396497,-1.2738678647452968,-0.06278606182319289,-1.278835595786351,0.3644286480300347,0.5869640199799976,0.2571651393062634,-0.8518256586552253,-0.08798286229331266,0.14374602635516712,0.08562783674851043###-0.16776227777590644,0.23087203755594216,-0.23849734476288914,-0.3213112424650863,0.44352321831679326,-0.19805244859800997,-0.8585385111133143,-0.20366315707197727,-0.5578676737928329,-0.1610660589742464,0.05600349944588641,-0.1493188201965301,-0.5745786946953252,-0.09275184445651076,0.51621304846576,-0.2214092946307342###-0.8141695544598448,0.2709366586664296,-0.24657407297704945,0.31803903457325244,0.9869140371361333,0.4799326136130135,0.6249688858935922,0.2385087706475664,-0.08380382971029804,0.07618679515072155,-0.022497623584971448,-0.07041129767771845,-0.35699194177808,0.4882786033643827,1.2930035996559959,-0.2825324021253905###-1.7555902000563006,-0.20496955449550033,-0.5664304479273377,0.23289679926040235,1.7232531857817999,1.2945599450181275,2.6732937389156612,-0.21370195900333344,0.8855744224513343,0.25387513478328566,0.38937081778888993,0.7378583594029167,-0.12797856989370768,0.2244831821283959,1.069471415545693,-0.5098060520240699###-1.0286874586711383,0.09192643743833406,-1.3115620124113772,0.21078507515838832,0.9644369658294609,1.395108706094065,2.7466372056356976,0.2001787656906502,0.6181916917678696,0.09099664863660434,0.0941993850337007,0.6799030785889992,-0.2453896467382035,0.33362854221376326,1.2812413731292005,0.08175770969142011###-1.1761402765844806,-0.5404899789544021,-1.4313134255249471,0.2042894233650577,0.5980468503076362,1.3646771772708237,2.441464739164594,0.021688909482106587,0.16597807747900994,0.6188184418678394,0.036464332653831436,1.0710900445917702,-0.7013626047098733,-0.06287665886500961,1.0868444958857075,0.3213067125520259###-0.7042799446783693,-0.007988452993100862,-1.4353570869217094,0.28913529133849364,-0.2968277370764606,0.44938728957914154,1.4304636595405256,-0.3966400183091364,-0.791637120349889,0.14621615613740416,0.14930948702767155,0.4880008991248485,-0.8189815970477777,0.07506678503913802,0.20403915228124586,2.1855083465625404###-0.7654532927384682,-0.2377713878315245,-0.6923604282124446,0.29086238359570166,0.5325917678226716,0.5051405884464729,1.2330356146802832,0.7955208861421682,-0.3296631357491275,0.5615676047874923,0.5226183661336226,1.3193632592508178,-0.6459704607485502,0.3667948464690622,-0.12212832421926618,1.12943418555717###-0.47052583461359104,0.1953446498961563,-0.366255102730158,0.28865456737000394,0.5994028322577734,0.36202483135907476,0.8123419657115735,0.5074202424605871,-0.1029211519486317,0.4789287456410998,-0.0657821461092835,1.0911661324472093,-0.528804910536984,0.4609604489334301,0.33211668867181116,1.149939812676319###-0.05907493783680259,4.1198387867227994E-4,0.049934756608802686,0.18964487983524042,0.4652956729096357,-0.21426952746293682,0.8655826918912731,-0.27510628400052645,-0.4574378064029616,0.12292261926995657,0.432891953631502,0.4699855477775115,-0.48202854644685605,-0.22815271497037246,-0.7246695055553098,0.9053174910181528###-0.38720654101973445,0.12809516925449024,0.2606870280490794,-0.09304656051890994,0.6979605981514525,-0.23895160694152376,1.0277744498053893,-0.06176056394220607,-0.9010692747025502,0.1941354660044693,0.09133442855602696,0.3220331349098081,-0.3610901038534029,0.4318322988363209,-0.9544088638605597,1.0831913838468246###-0.6178870876332458,0.2767320974897396,0.06851875029490687,0.10083694583696515,0.9039356099613931,-0.22504580789712367,0.7784062982900533,0.13948185472224744,-0.32062952561705454,0.2524841011636597,-6.199906885400933E-4,0.45120033432096324,-0.46698977779384526,-0.30871729419836796,-1.3733098506924646,0.5352330882381933###-0.5383305029005361,0.4155735633520025,-0.5127715478632224,0.545407054401157,0.9216829337406011,-0.1277728936093079,0.19014873893210177,-0.39999916836114996,-0.2950170883648593,0.424282889571798,-0.3865452231121932,-0.7782539351411658,0.524243796806685,0.0916059424582611,-0.7555438139432741,0.5359289402693981###-1.1078811771936956,0.09798891630483356,-0.14322953199313332,-0.11115993767302179,0.9180301463214054,-0.5359838029642705,-0.49663987793002984,-0.016611197583507032,-0.40151124491096635,-0.5191872690204866,-0.18057010843666857,-1.0201869413786209,0.4839662802557492,-0.21828569893421174,-0.21876335544598385,0.9038017944972101###-0.37298936758980517,-0.19072413105227073,0.4223051018461192,0.3299079412022698,0.6743216472927783,0.050652338502135755,-0.5612045904259018,-0.24110598737370195,-0.6314826125065209,0.17888931345931253,0.7210063382900483,-1.0038811519976425,0.2564034234349393,-0.4358833300896267,0.33287937275874685,0.5111386746626224###-0.27892160794036436,0.057731606180657376,0.3240640013764933,0.015661206442383578,0.29242597861704644,0.436992684517218,-0.05075547958409763,-0.295238355438146,-0.5500035309715686,-0.13078780876699148,-0.018763669782748748,-0.354129507638092,0.08602950121156051,0.4027000127522852,0.8107480142142421,-0.45836758432411745###-0.40439590362402283,0.21538025008635214,-0.33466256850639353,0.26086947551684964,0.08536874010789611,-0.1978067194203923,-0.34407574901417853,0.6149854483613761,-0.6135998628383086,-0.28753420812752656,-0.5451225223287907,0.22426707599450327,0.14989813648484757,-0.16193702618957748,-0.08253283186717665,-0.16285372554391575###-0.21846799412879364,-0.023925843338796233,-0.058542297534230674,0.34444185764610485,0.06009168179506606,-0.21278739500406887,-0.0863706113030991,-0.4749560793060428,-0.11254267653662159,0.1900577230741522,-0.2611514581100484,-0.332900826856938,0.05267266957033846,-0.024191424283164856,0.11786539795338166,0.3522061695716898###-0.6351213137996612,-0.28655813599163815,-0.041881764000575084,-0.2226236504849791,-0.05484187800366641,0.08420019278629814,