0.3400321983548831,0.5639651283582532,0.8597769023552181,0.3249619693763976,0.5193382168683857,0.05309759063888633,0.10069174383151867,0.3848171406166106,-0.3425347793280943,-0.40203320241134455,-0.22680924789901744,-0.4122404656660022,-0.5786957871282457,0.08716725333570718,-0.15973477812045844,0.30304311226948233###0.3000984368211791,0.17218866509463812,-0.4304789857271238,0.290814516915219,-0.1443055001765708,0.16226006178415422,0.29313602829867047,0.5806079989849083,0.2061158941671487,-0.10321066914668768,0.10652897690510703,0.054876634331555076,-0.33868741979881456,0.20151386281850797,-0.38584179519242856,-0.4309188987407611###-0.09728213407314054,-0.1641419069070861,-0.335493282981343,0.028621171952445013,0.15541129702113196,0.3868748845233941,0.2873487190970022,0.19538854733181377,-0.06914058792429943,-0.08697013998333385,0.03059388899045861,0.11337177114891131,0.3321196814793504,0.11701095709568086,0.23377688850883077,-0.2750897664184586###0.2272480293538597,0.2661881937384922,-0.029019739289698844,0.1974275370249128,0.1562255764809645,-0.31195421495447484,-0.2626873129974954,0.2482652098822107,-0.07923847638824706,0.41856307000014226,-0.0017859800805225497,0.03656795519229679,0.626833022289146,0.04421817703348926,-0.4374896091401233,0.3116255503355978###0.2393220080666779,0.09035231102553888,-0.15598072457087783,0.24762644330412992,-0.31803599952914524,-0.28847033341519707,0.2691967449321511,-0.04934283473612017,-0.12858244425745405,-0.2746462666166493,0.04353851478449506,0.18950980005764426,0.04788116012546549,-0.21413450483284321,0.2700526478303529,-0.3072766870967551###0.24570770805180844,-0.14554132132304723,-0.17775877185573385,0.2599868429574727,0.06762867139705488,-0.09995028727619233,0.07402071927143163,0.30394171157844635,-0.02762591577466813,-0.03707573713637323,-0.4446533957924231,-0.30159983995266204,0.4461795053809569,-0.008876863078375624,-0.41055244904095395,0.4771234408459725###-0.023783515871903187,-0.3618514895589345,0.4693928652885682,-0.014590611777269238,0.21706197384934028,0.257295584932249,-0.2820683742514589,-0.171882857893603,-0.06200458537067463,0.22343566908781343,-0.16299657748939533,-0.2963840605531601,0.6838792420803473,-0.0021900599092095174,-0.15788536811641893,-0.1836235522628682###0.29088238466498173,0.046204843891448626,-0.04212021798438047,0.2481212268672747,-0.23602222738548043,0.017241784188285637,0.019389243838974692,-0.5677444338692805,-0.10791170490954874,0.21728842967963743,-0.41829966758424164,-0.02556963901993134,-0.49710451460934113,-0.28554229561126815,0.20919900302742814,0.09424995193872296###0.01837771498087619,0.14277441614728933,-0.26073963545940043,0.10103438670918541,-0.6100987076019828,0.53799692030222,-0.11905640080219716,0.22337789766841165,0.036573061177453736,0.23795654582435752,-0.05666364775488623,-0.14385338436105852,0.02393346736913022,-0.046934539394723904,0.2842510055486175,0.07731928982383694###-0.14743997449505544,-0.11170643291525532,-0.19607243183104156,0.4357404197064862,-0.29431351245705484,0.10068540834446509,0.3150274073002094,0.07487027203306461,0.3824752179341701,0.11148672146505009,-0.21233956231407583,0.36660878573172256,0.6980402177063602,0.46844329866997486,-0.18961183018131955,0.19692045822307713###-0.32369791362197603,0.18734562194557888,-0.2401501842964531,0.4266402740341433,0.03502254669499523,0.038632575162381756,-0.01056536079143339,0.09038429312737742,-0.002984956627166961,0.0809274923086526,0.1173196388038897,0.05012868709362739,0.504983905078371,0.14285077415860972,-0.12675353781136614,0.2708323965860713###0.034778808268442256,-0.22682255470288076,-0.06306525348212284,0.26229562345227375,-0.3176072113891058,0.3555748236282293,-0.34570489018160744,0.1337110785846377,-0.01988261099764861,0.34365102459657143,-0.09301287865729617,0.060189374945031036,0.23036358194980147,-0.19174754897882368,0.6261848031907951,0.16223057653642506###0.20653844683760153,0.016823920341551807,-0.5266241242152543,0.346681433172857,-0.41162037425751963,-0.2369017880555816,-0.06468243508570397,-0.2336891790480587,0.24103756763604706,0.3006479807076193,0.3593935093566924,-0.06963175442110886,0.6693528023333588,0.1320350021747228,-0.34325025014705407,-0.39855940235202003###-0.025856892113467114,-0.111365631450683,-0.6716728670752473,0.30516645937331793,-0.19682758237522763,0.0724560001386299,-0.43632936374199655,-0.2483907983781679,-0.16131292897578284,0.4232441915318791,0.10185902409967093,0.12544704102354176,0.3744600202567672,0.10398620743679314,-0.7573717780332642,-0.05001790394576534###-0.11654589633526495,0.4158893437157836,-0.05435673120676694,0.4806364031607006,0.25949063766132413,-0.41283986050541804,-0.44991839229675623,-0.082485207283941,-0.15497280889386605,-0.13691098207967764,-0.12077923592495968,0.1529970682416371,0.34748007424841004,-0.1921237249921496,-0.33329292038553315,0.037458517879500795###-0.36661216335169605,-0.12321789257318849,0.01288180073849351,0.2999579147534,0.002249127039048872,-0.24572956578934257,0.296375880839985,-0.6519395783422949,-0.05607346676368711,0.0934236170394625,0.24645410176141933,0.16744408338401937,0.3330765023354471,0.07741373545390914,0.14912233315794182,2.872182203443579E-5###-0.1476783370274865,-0.10066551622801818,-0.5496758510077042,0.27086016885478004,0.05774257367816396,-0.27034510302885956,-0.028031979371265437,0.0825544047723295,-0.2354198566751183,0.9060911928704131,-0.3342037268931557,0.0018215770577122436,0.21896632567353264,0.09025470215585264,-0.2883835780109093,0.11055843726622838###0.09406059404138044,-0.3400839768205286,-0.28810186969408513,0.42798204649154376,0.18845199320470246,0.02558481083892126,-0.07664517551947396,0.4829146281420887,0.1378596276399449,0.008964894144906161,0.30684365973018113,-0.23185740041720868,0.2855103847980597,0.11920480026939843,-0.051548427064450356,0.17160730580375502###0.18357382991747598,-0.08968314488910084,0.07597326792528565,0.5481937432019264,-0.1419650827593527,-0.29760001836814176,-0.16002578813357332,0.5133927676558054,0.14870654576205222,-0.08568964734885448,-0.008420571943506143,-0.03145614899570932,0.09016720004563415,-0.21091246321248458,0.04006555163354215,-0.30222332908986627###-0.19861373289735007,0.3844261984682921,-0.3860715822237391,0.5514880201393793,0.15911698909614444,-0.007151544253824443,0.026671326899856337,0.04551463258138056,0.37163483343530956,0.45515458478274623,0.25553219197542265,-0.07687588333416104,0.3969436102681042,-0.09100007391763372,-0.08165831291677692,-0.18717634579410508###0.07688438335096355,0.16162244227045602,-0.4318601437007562,0.21145501551477683,-0.15346576576741056,0.7340478125171591,-0.2940208356980897,-0.020060225732314852,0.19661497122971208,-0.05070592298138355,-0.2991485371572564,0.13412230388135246,0.5051313204763492,0.250377637918263,-0.005056422580577209,-0.2309264356391503###0.17236401022332545,0.11001248953698879,-0.424106908455886,0.32948861436266147,-0.08628768445018123,0.1700439068711177,-0.29435423272103617,0.10280172805720034,0.19811041186542583,0.12820208738362798,-0.11185837384081623,-0.0029371568358878748,0.049579849712597386,-0.08406792206701681,-0.5711723137771504,0.14132671843514347###-0.01407119606093173,0.4522942921903533,0.08382807185388252,0.08188949787193286,-0.2901636251240533,-0.2825702151090594,-0.15625999213186145,-0.06521035727190802,-0.39043865574278097,0.7334277888747911,0.21486792547748465,-0.23404754336378175,-0.2923808584451783,-0.0333405503491531,0.29843471793253673,-0.06809772394847284###0.0989350379928278,0.29091044059355015,-0.10217068000729594,0.49516053717027886,-0.23567386190977438,0.15153881441012154,0.3134230352482204,0.25605966584630185,-0.4552939627331674,0.36982755950687635,0.17353708180273122,-0.0721812870199501,-0.00196594490866456,-0.17438640283315313,0.044632282983957786,-0.03861777551114416###-0.2020236106396353,0.30736751178985033,0.20800134836595693,-0.21921875063434781,0.2984972796305377,-0.33346634859591395,0.12124052660956838,-0.16282284315669096,0.20261040284457563,0.006182913088666188,0.2309739112744938,0.027649537638596323,-0.30580079840119856,0.05216682600903568,-0.0380073843162077,-0.16730655459315652###0.46906424561536403,-0.16310673010877882,0.3187282367238817,0.42061866042367263,0.30898288393156137,0.3047950450250061,-0.6209876464213229,0.04758434550199749,0.19351052469106317,0.17529824201310262,-0.13075760197693942,-0.26276307885004996,0.41992495236172134,-0.6864027020134175,-0.1780119363714177,-0.47237790258554174###-0.013867852151148503,0.3058070516489571,0.1736036695703786,0.1085478252355842,0.4765165143299453,-0.12231109168967486,-0.5836162832764972,-0.0881634354339552,-0.18104415989655534,0.4339700251473138,-0.05568409690609286,-0.2565241026433941,0.323375980794771,-0.06203484309311522,0.02720962336978202,0.19493588238671675###0.22436913224802554,-0.18389044546579092,0.835474248507085,0.0958809065452696,0.0201702800863732,0.009411131714840626,0.10808991901407675,-0.1923593832349622,-0.11979547610961301,0.5848221952372017,5.774243140520249E-4,-0.1108321452730025,0.29861881333447526,-0.2138337687713266,0.14282502363430513,0.08279364321107271###0.18259531023298506,0.31204254665810555,0.1713289691863191,0.39766739386787225,0.012100486020531423,0.47361248891891683,0.023425874098542944,-0.4309620064930052,0.05897740613733162,-0.25258978881039057,0.25331664258369907,0.2828781761611456,0.1011057763263763,0.05651576113686787,-0.05068889125315354,0.18192495829919955###-0.09429789513758687,0.10959428076846262,-0.3600824379600808,0.06427773210466509,0.09977391767110246,0.16185811087832455,0.08328925944062725,-0.10582066945731718,0.27818595817311237,0.09618497438653555,-0.12941127923271367,-0.12807269079031314,0.15209698417793788,-0.21328063008569673,-0.2668320235639962,-0.03886131463820846###-0.09616707933012068,-0.015579366706577114,0.3288930672301375,0.27094841041045603,-0.17655794968131108,-0.27801614044035416,0.3029665930785643,0.17968453692797712,0.06199642277913699,0.42728602817642414,-0.1715075555444345,0.12029789315613247,-0.01317375122341934,-0.11366784399431017,0.4976023561335583,-0.06710056369808198###0.33492173829386795,-0.08868882051583817,0.255531872002387,0.7123161819166202,0.23802694409112005,-0.19950276111246706,0.17526780129773104,0.18184578729446849,0.005336851026467194,0.021088817810342067,0.2671844637818525,-0.04183350835097216,0.23818189593120767,0.0013666066759028738,0.09709785802934885,-0.04692447456811347###-0.41001547169715336,-0.05476094176450062,-0.2529543809210091,0.12310961842643173,0.23195099413857434,-0.006637215215845238,0.42673947985063126,-0.6173378632117054,0.12233432616765084,0.051695628141910074,0.5324350250997819,-0.16804115704910255,0.13411198043277078,-0.12917342481303323,-0.08874005719315685,0.3676584712991141###0.21819934032083196,-0.35591716866131984,-0.44310506694227386,0.22436009360466375,0.34825385006225756,0.05676494403864383,0.47362411840553736,-0.07746645464398384,-0.29397800389622114,0.15048053591155003,-0.01194782130776634,0.19192789329188203,-0.18462292278628661,0.041510648975734796,-0.322930814897746,0.2839381069113778###0.16725209523971543,-0.41718103910387316,-0.016600486794883813,0.03332211856388842,0.036337190366040044,-0.12564603872792865,-0.14571597657940955,0.25277750205604227,0.19321789387940716,-0.27733369601885577,-0.48613863928896905,-0.09183520079441049,0.368225729850484,0.07023016792726433,0.34339007047711634,-0.15101671058943866###0.002534107495186759,-0.43650274166786157,0.0330412424958161,0.253744334282695,0.30489569692754054,-0.23375329585007962,0.14868483013996864,0.4168746879642424,0.0555353685486122,-0.37963169736557345,0.5534026110345557,-0.3647954670433015,0.17879760983569967,0.07527629863629642,-0.32578891797509196,-0.2819882534474795###-0.0874783045279592,0.17021143903312372,-0.6121692471460201,0.37614943760117,-0.19502319576731797,-0.1278207094550371,0.38276999696467595,0.009787245225701109,-0.29179619522132594,0.2829753338001432,0.07755409196019573,-0.055903935679476276,0.23131842139092443,0.01066022729923991,-0.20073212864464116,0.08717615702206076###-0.12018520758629452,-0.2584327512056523,0.20661595672420727,0.45202270746865525,0.38194360202397726,-0.019082723499167602,0.23355147716896266,0.10112480197729362,0.22572891265686718,0.21903183862877124,-0.49215119082641345,-0.31646147836187455,0.5345668409815498,0.009147949988272445,-0.32504827011945914,-0.06924221873963186###0.3169262629621924,-0.5404129422986915,-0.5546285251548949,0.15486622879790396,0.1825712052285823,0.25867658708337654,-0.058977902170899016,0.05392815548417113,0.17808504701702446,0.3680465060275713,-0.28966889746683083,0.4027773485359747,0.3188096904174551,0.3283272262880931,-0.0593731859756898,-0.2129749490238642###0.20270904405051535,0.09107655822763483,-0.4720684457681098,0.608438356509562,0.11849533274512718,-0.22111822932049152,0.297408236426147,-0.054552757121201556,0.2644400361589569,0.05022213970748163,0.23785297298469318,0.18660348496615384,0.45401024004346247,0.14868046223623335,-0.02719092616226486,0.04341119536198847###-0.2228234797716171,0.4841709621666494,-0.23551270447773004,0.031267697713211515,0.37700648479801324,-0.13986850007545126,0.3974290012675612,-0.13013699730743578,0.012875962914166376,1.4773050996340958E-4,0.11368602532271964,-0.07939311938735134,-0.2588028756466023,0.006873786526010198,-0.16418674336222336,0.0871836237944764###0.23047297774471104,0.02905272527518158,0.03805048950092423,0.19151114779078096,0.29510536355090455,0.2335154568545513,-0.184401659539853,0.05624475965261522,-0.30301478764104034,0.21833182755308883,0.1265927349652703,0.2559147988290907,0.3493489276428301,-0.48392426877974387,-0.10530020779375554,-0.21437403448996972###0.18469098150913926,0.12057597456980984,-0.4415761893354172,0.4020319604169995,0.1480953791429819,-0.009169510135444148,0.5777526837517117,-0.2651313513857422,0.4616512019078534,0.0754880777131387,0.1016830965775653,0.22124521342976775,0.5072460876445645,0.09925762904093338,-0.008562779008273052,-0.21026188233844462###-0.09111801885538602,-0.10620943269748477,0.1990239796814764,-0.019438356291046947,0.38164990260060744,0.30783501589736717,-0.09608275997257848,0.16225755930627406,-0.10328223171785367,0.1644256529466931,-0.46156066560902176,0.31179756601297937,0.36274104942174573,0.3705608475463566,0.035208744738833245,0.3953956884481765###0.04758160128238745,-0.04546856632773975,0.22044984834479897,-0.3272915796215077,0.027596925701893565,-0.39012136192195185,0.23985513235238579,0.003033691592152825,0.053743786205827905,0.3183152362924932,0.3119599169012428,-0.019481773297292067,-0.14055856013485588,-0.26413144120525134,-0.5486592924323989,-0.2296289944868258###0.26592136048687937,-0.13652866441386277,-0.4529939000401352,-0.21776248715941696,0.31555663759961716,0.17342596523464926,-0.0963333495324099,-0.21897210101823872,-0.1901439830915014,0.026679172775862986,-0.0780566852086882,0.159784703589502,0.385564998700312,-0.22215080990428968,-0.3703864912491096,0.14585828520932087###0.2652573192854196,-0.023779693191511273,-0.07207935130060317,0.2744697767449785,0.4053189824282489,0.20009991627222148,-0.5093032931744651,0.05561362006099054,0.2799626605180159,-0.11576720303614221,0.06297077657596373,-0.03709302489398017,0.6153118380305768,0.017601881578624967,-0.34139340652988687,0.1347623531790891###0.3177122963081154,0.08915143252652513,-0.10567184830789512,0.5039368346323878,-0.09256723605296821,-0.19702614995758935,-0.37825429872819905,0.477844423841034,0.3022228149200328,0.1185727667814026,0.1529304681478979,-0.28230093616275326,0.7295940090975167,-0.12793947800361485,0.051851318500887596,0.13643335631332063###0.022512733942277534,-0.29856896565829816,-0.042816685851463115,0.5356097963123232,-0.16056475812959775,-0.5171414672212151,-0.21270215956920452,-0.08648707538600672,0.2706854671557596,0.23353212202898196,-0.24650084485026613,0.030784563531252078,-0.08701915264884817,-0.06356444467206417,0.18636338653781567,-0.37013009127426943###-0.49782464100861124,0.08319986677544634,-0.24287794379172503,0.27543032466179157,0.21534356249788594,0.025003768582445348,-0.12767433837610956,0.1585263089274946,0.014467521595173964,0.18440072866926888,0.12469082678789187,-0.10128566621990279,0.38622358645779165,0.05205917493848431,-0.29453349795531086,-0.17101008812126708###-0.007999807759485875,0.7864343696843091,-0.0027100813316374398,0.4087419427577801,0.14290929991871193,-0.048706027089156556,-0.13873125413231613,0.1388187382783483,-0.16139920291643417,0.3131791601714059,-0.09159054109065844,0.16698300937097146,-0.06296598236101109,-0.1962685797297908,-0.127984223723242,0.28309692606095943###0.29674071084407594,-0.3258690572762659,-0.11638856728231045,0.27117261685435035,-0.517946283200201,0.17369830638767472,-0.3079785824633116,0.036849902431793195,0.02775310138459272,-0.08546365187260106,0.2454616920343585,0.09066112068536034,0.18342948432952877,-0.08685334657032764,0.17751661526962068,-0.07517942809502859###0.2043290990010722,0.3087407064131563,0.5939809349298348,-0.16978269637385734,0.10583136729724546,-0.1439742576235776,0.208899837419676,0.10180878087170837,0.9750032903932606,-0.20491392877260575,0.42224108931830745,-0.261635521673744,-0.0025553202919618417,-0.17449939028993178,-0.135888281610328,-0.2353046999549311###0.6139991703793148,0.10315626491631077,0.1891178453858144,-0.37946729509514265,-0.09113678581515418,-0.12870757665243238,-0.08601254172856986,-0.19061174615822885,-0.15955648992413324,0.014442565041082532,0.1067483108427617,0.3622518386132649,0.08737584159416903,-0.6004877317582968,-0.2962294103148469,-0.07546307206210741###0.2117961086930074,0.26967232615009457,0.06001158973012509,-0.17358356502616581,-0.30638993590348557,0.01854359721497348,0.28821360044590705,0.36372317132813553,0.17525289851008308,-0.32461434137874495,0.020638858742012704,0.24673485941662504,0.6930615705361581,0.024987725764178157,-0.3753128089813321,0.23039461252484866###-0.45806473587296914,0.046973447540844544,-0.0018632721455373172,0.14654844476347778,-0.22480868256882647,-0.055304460906991156,0.04179814761950618,0.23459055116628913,-0.19600210356972103,-0.04454150484621017,0.40478781004333964,0.2673663510942812,0.22440277423078606,-0.4133294183850151,-0.15458643029481453,-0.34015925461565916###-0.12978757003180474,-0.44186107386457085,0.3867495941404508,-0.06820712811917487,0.052454672150849264,0.19581619362902747,-0.11556284897544467,-0.11150739407290194,0.008722328244745373,-0.37331562192016626,-0.014208647506029315,0.4261194227648138,-0.13582890780106424,-0.24606788610021166,-0.09201805450466811,0.1713382158842927###-0.18779974701554258,-0.5481684860104221,-9.827862327526798E-4,0.29227279922538574,0.17145443800927843,0.15575313112644412,0.42631832651363355,-0.06471910970919613,0.32025997448332766,0.2863811781621586,-0.34482412597224116,0.01273032393988573,-0.1813054136028218,0.2717949750305836,-0.09217458748977286,-0.03911774090290318###0.15953386644475986,0.35761905400410504,-0.1709788125943234,0.2079167468985065,-0.247155626697621,0.2893390683226129,-0.14516594153561183,-0.27472973645794574,0.17635160580679413,0.2514326040662708,0.23714469062689325,-0.0018994326628071574,-0.07520720707210836,0.4278858350882511,0.04091117489132673,-0.1991263620670477###0.12845763013114347,0.39117947320549507,-0.4422563637520012,0.29270433919786304,0.28762681415135744,-0.259975755378046,0.160101374625949,0.22740622921698783,0.017652752488037392,0.0340821412352904,-0.011052749987347047,-0.15275054934129334,-0.3459195104243486,0.634820655097531,0.01641836151551784,-0.12256363969849839###-0.19920874586794637,0.10498644940593964,0.0030614342250709927,0.6155003762043674,0.04005406456958018,0.17001292574611254,0.42537531579038107,-0.10448130462497905,0.2003610853939517,-0.05619651117076382,0.2829978434492524,-0.15520807940332043,0.3417991584948546,0.11326915075976567,-0.26179307266259194,-0.04651475961268281###-0.06299688354177671,-0.11275140887593535,0.2525079580982951,0.3710185992553607,-0.19290579408134834,0.07105840494691798,-0.3317988210723515,-0.059626247940640836,-0.5114489754632762,-0.04266288107066982,0.08602341894490041,-0.19474527972947264,-0.33981706425394326,-0.29966230859170623,-0.25440386418226607,0.16692428037854629###0.013653550446699173,0.0859073665826162,-0.024400357823498524,-0.14923194767432443,-0.02045061332840366,0.3229464975906891,0.1367977526377522,0.1246780748397419,-0.23165104699584038,-0.033556579087655206,0.058871368235624645,-0.042588990029439784,0.02388374702224516,0.5058657145659481,-0.15487236242713942,0.3320690512468263###-0.15990943319809348,-0.2403132632304112,-0.07956700258209726,0.017223846009823792,-0.10999715195952989,-0.34552251632789954,0.29593812199910274,-0.1412408526273177,-0.07719985081448236,-0.621599401576655,0.4804708309873321,0.07589051486126625,0.3762691801791653,0.6672033288896588,-0.14778465760544132,0.40900858030342463###-0.22114599981352762,0.38089568602975804,-0.3423290090712349,0.18891032522018186,-0.18310551469482894,-0.023577072815921758,0.583239218085235,-0.4065500631103721,-0.37024574141488936,0.29377614417676134,-0.4613971440580085,0.1544501068025129,0.6999924400915478,-0.23768475248973425,-0.43568732718615705,-0.12900208113490047###0.05990587819544771,0.28966085952722215,0.06038002627193018,0.02018002014742588,0.3969706888036093,-0.23578629715747015,0.20936193975695044,-2.2711204640248647E-4,0.09422157794660627,-0.1451614661644333,-0.24361087916088672,-0.08211842925702341,0.12382809553173274,-0.035894201038441945,-0.21587179267987022,0.6401335065011923###0.28869779386765215,-0.44495515736333674,0.28947133267943287,0.023903933296907296,-0.09959555895765657,-0.05683031756972702,-0.07133065079700361,-0.2598679231579116,-0.16876419761870617,-0.014631861413813983,-0.17576930529087081,-0.1963678647506043,0.08629771441544795,0.2579692264409902,-0.464409392468058,0.1574704795784001###-0.04366254534240447,0.13199906178097728,-0.24635710665727786,0.0792009584364507,-0.15983135651538688,-0.265749873503016,0.4293242818219482,-0.3736225548288431,-0.021899252495838184,0.13834780049390108,0.2406115666693847,-0.5457637393789021,0.07254705799792041,0.13225825458193163,-0.30229976464030184,0.1145474382264987###0.023176534824212485,-0.03386420429018369,0.044947625051713465,0.2062483281818418,0.040806355688381916,0.17162034337949955,0.1704519186749659,-0.15364309076134505,-0.47605070325149595,0.17666830791230148,0.09655732038523968,-0.05984951792973368,-0.4780636311452719,0.2249605602126254,-0.29314253762541126,-0.29529793950844846###-0.40518778190424465,0.031105774099719565,0.24317266593881337,-0.25951345533600106,0.3034840115918411,0.26982851456591944,-0.1398802353665969,0.10286333017451729,0.4899139581670364,0.24444378286108875,0.21069691052719108,0.20649299286765543,-0.07952965961141137,-0.17763641596195567,-0.2739378524830785,-0.0603464054371595###0.5080711144143043,0.21673117828526614,-0.06498331626428748,0.12896831610102336,-0.4441085755943908,0.06527193117289266,0.1504344461939294,0.09173799507766506,0.13341408515717154,0.7438382247710013,0.30800353810842224,0.3424308720045879,0.12262071392309146,0.34964526544941793,-0.25758346318364866,0.16575314161275093###-0.3220205364691647,0.3068441200127951,0.24592535114524083,-0.1761420937775231,-0.26315358019133095,0.016827410347709463,0.4349132008580753,0.3559307884666978,0.1768671806440901,0.40817372159268067,0.055226609482131615,-0.09244557114966549,-0.02930152966835069,0.09723131391323642,-0.29965779288491046,0.031140428832080718###0.23635426074475185,0.034485606568863715,0.6248223586569073,0.027088808508868533,-0.03903964506595201,0.7002909337394632,-1.3947106830824902,-0.1843564189258436,-0.08757624517039934,0.10206250351033141,-0.2705756348731774,-0.1916446165133593,-0.22263727506800682,-0.1325876175754193,-0.51176122727773,0.5589305593720889###0.17021930190267812,0.060810621278430906,0.4035346755622655,-0.3153751604139478,0.24585828310975874,-0.05905397516932799,-0.6334427703139656,-0.02412360415186824,-0.10067372995943605,1.1575774087627522,0.031540265977604856,0.16149705903381956,-0.2501648407286514,-0.0075087779316457565,-0.293899430929688,-0.31152678134225886###-0.011859592163407429,0.0809092073283475,0.1646833609586967,-0.027590642080255683,0.21058631529254082,-0.0779438718083489,-0.7598924956221802,0.17074279832992595,0.16347136771125723,0.745416165047087,-0.3555066541348565,0.13376821357394947,-0.15912172218861115,-0.1675074285842223,-0.21982442107551547,0.20177376359782695###0.22133966173423889,-0.1596265520553153,0.06417898909109712,0.28950533230393377,0.19054417657444864,-0.22384791760768075,-0.29532375760018503,-0.12743483351318471,-0.03184676368078622,0.5075899929052184,0.02708363242108189,-0.24207379568659715,0.12480139201416585,-0.37915474291766776,-0.35823374676065867,0.23345391168214652###-0.49119393021531293,-0.20080180195049274,-0.2330891849396106,-0.4457243732433067,0.27373434387930434,0.19363480998544785,0.2191950339814893,0.02891557646632455,0.15385838638607932,0.17277720297795987,0.13345117611344381,-0.043619359257294536,0.08768955804243345,-0.608671299536896,-0.4218191949892775,0.12323621068632369###0.020585196378308347,0.5806736194309692,0.12634065669487926,-0.18531646251426354,0.06989229927689314,0.06939466285044418,-0.1909859080041423,0.0031926934874661975,-0.3831196536649778,-0.28722222167594624,0.13602836261624893,0.044470218976627146,0.34632532478152755,-0.10527043738987392,0.07203420964859182,-0.031047609497497304###0.412370449464551,-0.1110662797952523,0.22690004429356328,0.38942090571585447,0.287409061053025,0.5067428534028,-0.2575886075328644,-0.12211393318139169,-0.04055443087021369,0.38389869232696483,-0.13026325551990822,-0.3658644400477587,0.35140768183022636,0.16471323891894074,-0.392037111638288,-0.05933912678781529###0.28038160826270286,-0.4344163196190203,-0.29843155498826546,0.5285556967117915,-0.014556721102463548,0.25710861127621304,0.0981513043473548,-0.10169044968180567,0.005587999835930884,0.23084104468507463,-0.27210411055326134,-0.10834072544361852,0.26985882109348974,0.07357377439724831,0.02922683126288107,0.2393285229680023###-0.25532010727098275,0.343213269026585,-0.44385897077010805,-0.12601485875786722,-0.200438213525333,-0.06982719645316467,-0.4385530671926257,0.16671726946554352,0.06574983538398729,0.07417870223043868,-0.2762905320957544,-0.15277923589128703,0.44972320486283923,0.04276632700092188,0.09757490527776452,-0.44650730302897956###0.10145507400901974,0.1583000742404687,-0.3874424713257211,-0.0780622775574693,-0.37417251762027315,0.310919782695113,-0.3451316043516976,0.2232733719134456,-0.332158235386374,0.319364669880308,0.0836502504013211,0.026195006094285534,0.328870594639619,0.046085904674384795,0.30299528498537004,-0.036304557234203866###-0.05395371463840281,-0.10409114898151255,0.2552334988834131,-0.6558878103620199,-0.09322740073513325,-0.02328547805050897,-0.12669064725979906,0.2532195425784384,0.5239269802120321,0.24665890207550634,0.09234894411346962,0.2692405984929541,0.1110342821049672,-0.05497148550991134,-0.42822436795045477,0.2459139099883908###-0.06873584865051045,-0.040829694842114905,-0.43809019990459397,-0.3904121538386525,0.24254878327070442,-0.06778495253322861,0.40668059384883437,-0.155424729003771,-0.10178770242272754,0.1699136739884303,-0.22024825583981072,0.19649965226000476,-0.024585633587720684,0.12002176796459967,-0.3731542131996756,0.1365131962849558###0.18199537919051656,0.21192129798883846,0.3054302833657985,0.1170934650758141,-0.6922153594498827,-0.029123766533330597,0.22814856523994267,0.026376054460556395,0.3597078463305352,-0.19003115371367046,-0.17322387221267724,0.06397421530360653,-0.11030988851489316,-0.02268535218481811,0.43551338802544337,-0.14990647307916516###-0.19149877045180594,-0.19709825084817137,-0.08200006564220003,-0.015358990286842324,-0.1832484573154487,-0.14456062078244594,0.5390129859947846,0.363647541163148,-0.05848973631211169,-0.14992266161020404,0.010754601807441647,0.16057317011444014,0.27173549911669603,-0.28282972869310546,0.2611726170249154,-0.35635223948712325###-0.11871665579562189,-0.3970030188439809,-0.1460496395200812,0.15230857764562497,-0.20508746033713382,0.2689290556404188,0.38095016619981176,0.18046484716414898,-0.06496656729859478,0.15623444317555432,-0.2572711466180319,-0.3189562490375777,-0.29497961449235,-0.022908032815196447,-0.06976120273239306,-0.1640941407986202###-0.2535058774756664,-0.5502601247464705,0.011200391695739815,0.08429751545981079,-0.1886692337777886,0.11377969080210464,-0.0923557337716667,-0.40882908811498186,-0.021239538979307672,-0.14597713589844605,0.09598351142717271,0.07033216687486239,-0.15793101868271495,0.2900435366731279,-0.09391444363681921,-0.18662034444223236###-0.2349490185659684,0.25714329552882925,-0.2358772867864983,0.24252668158320323,-0.4595152071499593,0.16158560419938778,0.0393255902325147,-0.08433140668265544,-0.5006755237691864,0.06703039842527868,0.12680564583346288,-0.22396719553406008,0.016786266201090323,-0.0024095819476036163,-0.12493621165382669,0.24634645665507726###0.0018350883122144302,-0.24668712420364217,-0.08789975722114308,0.45804625567807344,0.07050066267316071,0.25018482944391796,0.02873892581325578,0.4686523460542783,-0.38745873126482605,0.0526235506561775,0.4175341944849594,0.15333955080220577,0.1746836135384634,-0.23712321460419772,-0.18101875846255328,-0.3759141475103544###-0.0022616362695637216,0.01287927317177031,0.10555078555567628,-0.25653551705264527,0.2366848233496331,0.008814268099430166,-0.23729459050810556,-0.30867960368483893,-0.3789754414629694,0.08517137832907384,-0.1236268271794517,0.05660274467196177,0.2538089201906919,0.3869899157451517,0.16295632016970346,-0.23491150046248369###0.16705201232041003,-0.05345078853134601,0.40556573351818753,0.06042271993901576,-0.13864532135412436,0.2579906372186728,0.05799864553674649,0.05655674210236047,0.3746433126018859,-0.48446587633721655,0.3468234960821876,-0.22203233576704823,-0.29705195165220916,0.21656468215711566,0.30188816990944617,-0.29930916487674886###-0.042426076289020544,0.38978370909494237,-0.03969412872737246,0.0068882501660036816,-0.15544734206365485,-0.41333924638930036,0.365536139170538,0.05340268560214773,0.28471468983067044,0.5249813678162489,4.2547652518885604E-4,-0.1338261952195007,-0.1354684876792921,0.5949912881907482,-0.19317916577045488,0.028337074020471698###0.11293554120109951,0.23449071558987805,-0.1972013493572653,0.2245447860094901,0.3749626601156963,0.14588971726747516,-0.15088113062889666,0.23989218484615601,0.1774645242931693,-0.022433250915980262,0.1691082092981448,0.20523949355655102,0.2335048979252095,0.49017086849581804,-0.4137036265417731,0.1691232960609998###0.13107578599313266,-0.10806206563774864,-0.038729780011747074,-0.3665881483867416,0.07543034231713505,0.2939403984186041,0.14918408740109257,-0.07959849578957857,0.3123566229175046,0.1785885073130189,-0.0068309558559532324,-0.17499227101940992,-0.5219556896448365,0.3259100549697731,-0.08060441430167048,0.10691217345840251###0.526577551929221,0.3491955387973626,0.4011935240626167,-0.22004136980213662,-0.005731023166187041,-0.35330183563856166,0.4179181576859867,0.15189701033344577,0.17772896799284305,0.40137659238946705,0.08696419397527855,0.056659964120217524,0.017265308998796212,0.12578257543685262,-0.12535667567891687,0.4539952884443393###0.4813819935773892,-0.23936815194837824,0.03181751789087599,-0.8687952171515007,0.049963880321094244,-0.10097343185015147,-0.04421663329349241,-0.5374331104219336,-0.016746287444708897,0.574713171638878,-0.0746668985339695,0.31952564237782144,-0.18291017969284112,0.3554472198423859,-0.033060384349744704,0.16757740257899328###0.0377603184551891,-0.07202792451502689,0.14072526297820065,-0.7619553946146829,0.05039356650498717,0.04708333935600481,0.4635783836471631,-0.18504394243337408,-0.19321222167298668,0.17666678665169155,0.189254075818323,-0.3100031897751647,-0.37777080622677733,0.2818006280047225,0.001145351504365896,-0.08782482870054012###0.357764983818403,-0.03629283467846825,0.8827842605459972,-0.4563482398411581,-0.4092728845336022,-0.16378664890353128,-0.008288872139426775,0.06820803063961918,0.26029127960977805,-0.39568991668323467,-0.3595058364891016,0.343307716932014,-0.3293167668745964,0.29061774201545043,-0.16259449839600273,-0.19843433006641079###-0.13791747952130404,0.5063618703048588,0.17290855794003734,-0.6315274465413697,0.06185431409737364,0.02082019977172001,0.20944317245797475,-0.3266478502538924,-0.4292732317716656,-0.2586721798194045,-0.07352118998846252,0.46646277087884586,-0.6381458080107412,0.2875767985042662,-0.10610667675039005,-0.11321459051825077###0.00993480833556432,-0.07643014057517811,0.46109511941875747,-0.5492913770753103,-0.23318792221653536,0.007793533397058232,-0.32202161828990344,-0.10341986749065755,0.0024699708632206913,-0.11884908027478919,0.22446224254080763,0.18527631466738376,0.08890763023188404,0.44726661946083907,-0.03961739119613887,-0.47773374776592165###-0.21287611882514443,-0.13876076978982993,-0.13979909476319075,-0.41403977953452664,-0.1292463418362847,0.3928579258806344,-0.8832845182676059,-0.4710174152966889,-0.22046646365798,-0.2110271940387005,-0.1516801316193013,-0.0015743522657706073,-0.7802940720452738,0.17744689528690846,-0.3171394630045963,-0.07748159609676639###-0.4114393993245536,-0.02127846139348829,0.2840827704565136,-0.45879831346917366,0.08407931701660533,0.14158583179033735,-0.900904027313153,0.2814190323852213,0.2564804646886664,-0.0483502624257372,-0.08423171649780767,0.1336101967723729,-0.09118406287939912,-0.316208554567099,0.02317396584180249,-0.051928040340366424###0.097631342069962,0.22220412511711093,0.3555049010226278,-0.23560300393343997,0.18218178039789806,0.19159817718052283,-0.6637359651311645,0.19470322028232817,-0.3449615845117228,-0.08518714538989339,-0.2991971223576996,0.3343664466738488,-0.02213263113275309,-0.40457285763526973,-0.261503786998774,0.23127261680145475###0.3329339864413794,0.18400698549355982,0.5019625217691004,-0.11594943623862729,0.09753203888694169,-0.15614516289405905,-0.6917853094403579,0.22080859848658768,-0.2744073761364979,0.21558482327082193,0.10079092394029422,-0.1116836133693695,-0.07555179208133388,-0.4057356298676016,-0.5503000753079393,-0.2186892976427829###-0.15895560596072106,0.08890612500067925,0.013294322187314075,0.26883560767261055,-0.25027196138981334,-0.03572819247243608,-0.6615935427295364,0.0077197870442290446,-0.13330205368297293,0.7531554046076648,-0.009909584846494866,-0.18531013700971877,0.25325826999890727,-0.07304197483859226,-0.6093242226120643,-0.18823614562394358###0.11772342696098569,0.022109534266720784,0.10400854304768618,0.3451646813055467,0.2517804952130113,-0.09139755031051713,-0.7428056352149396,-0.22270473412293376,0.0950431515475452,-0.10929718570982917,0.12458889922681152,-0.04996749613160058,0.007830332423157008,0.17291839698410444,-0.1495716673068576,0.05136036687858079###0.2886483014664846,0.07211199011108521,0.11005910966153225,-0.10595309989802698,-0.028676169387021527,-0.11876424513887536,-0.4724554141739384,0.016082585236469653,-0.11332092062345116,-0.07561058550334619,-0.05731201681617042,0.329911527071804,-0.15977900000783468,-0.25930374075285995,-0.039068581545824474,0.12313115114130384###-0.2905658962179611,0.4408132950449303,-0.1588347399029316,0.25415794288747373,-0.12374290379481193,0.5275100408189304,-0.13142647949272285,-0.10399815154217855,0.10601626037444174,0.1120533876940706,0.3317067326138693,-0.34415218276255777,-0.0016194991919618452,-0.18407340865211574,-0.06433733460400314,-0.24034161253948422###0.11019199155567182,0.11496891921508019,0.028549036753410122,0.16422568950648092,-0.12389202051927285,-0.14667526223065466,-0.3832955857500439,-0.07993454029575307,-0.12964106180486523,0.35225860393232816,-0.185139683538357,-0.09601566505663216,0.048561963692801934,0.027134557364925985,-0.04194138888123383,-0.08339610181327299###-0.03348534117791155,-0.3285680077745329,-0.061935351055093325,0.2888835104998955,0.11853082032459378,0.04513139151640578,-0.7118937848026912,-0.024406470777008415,-0.5692633471641326,0.023513861949896093,-0.5437776943800727,-0.043292276700855455,-0.08358093416330628,-0.23449940878079087,0.04161888526832044,0.028378865729508096###-0.12250294145896465,-0.08047804344567308,0.044161849642200976,0.3043874291215674,-0.0869519698099945,-0.2464762442601226,-0.1016486720333805,0.25012874030044585,0.01606675299754556,0.4476486612284481,0.20244182271735453,0.12442358214129554,0.25848936867169203,0.15950198098017118,0.23058475344608081,0.04439105761135786###0.020388548082074978,-0.08378845434036587,0.05776980624275415,0.47699240918747365,0.2038445363092193,0.2076966402447444,-0.41688421859059477,-0.5058838879689624,0.07461897752654126,-0.3402161688838687,-0.29324284533742906,-0.013318142228453103,-0.11036258788802658,0.06060229096235265,-0.053531686121960166,0.31358746058775316###0.4814493703521361,0.013064361813348482,-0.2015735040874331,0.6166049140838566,-0.116237601983518,0.0330042568086809,-0.4487634225420697,0.5147629365345356,-0.2806223583086418,0.04789955338973193,-0.020149797794659603,0.15006309085492414,-0.35733272542714845,0.009893485514202011,-0.0274867473117585,-0.054333072388072515###-0.27983398130864356,-0.1495482088784516,-0.33752384088300436,-0.03276940133879221,0.09825670350953691,-0.014218230426445476,0.13771673360269318,0.10768254969934887,-0.14051210584699989,0.024387535681262142,0.03047253229197089,-0.06269291146485911,-0.34132128048605276,-0.05968262074405766,-0.0694125837735103,-0.11212899564621912###0.3173463003943026,-0.025292336071639422,-0.172900833455702,0.14344828616575034,-0.25204590373341645,0.024119431505385452,0.08733332592687928,0.028274697103075005,0.10669510120809841,0.364312143399099,0.0684579307281928,-0.21825564822354168,0.31943021725035314,-0.22159355396536906,0.11027575348527775,-0.25423068167280394###-0.5555462194406641,0.40954946104157774,0.16338052489034754,0.024336024166843252,0.35494052633415457,0.05054071357381579,0.10691628618431633,0.11513047459190073,0.40128896989232626,-0.06232154039813015,-0.33805151127247407,-0.15291647238486958,0.1092232126708031,0.11105095796788078,-0.27053359773564667,-0.2551849042607746###-0.05320398089238648,-0.08040017829390324,0.19761716449241307,-0.023397286766695367,-0.06897087152713055,-0.12569147652715126,0.16357927386430188,0.15535216202601534,0.6268098126140508,0.10950001266372923,0.07447538607863138,0.1520535760152045,0.24512759757659805,0.24099994406079803,-0.2816479413857568,-0.4421728868355108###0.6533951280945058,-0.10857271385948458,0.0632620330631204,-0.11632356411654957,-0.08378065059275946,-0.04609965614665518,0.35413948995103023,0.1629790041259915,-0.2477446260508878,-0.36887266394432733,0.10634914939021443,0.10977362819487699,0.37324630811806,0.06408119351603234,0.4624641301241177,-0.054659189123777464###0.11659961378532094,-0.019768964574281837,0.11221973953558483,0.31048308085022674,0.0708249080568329,-0.25656024889321377,0.23058830858687918,0.004032855529850626,0.2627883130747812,-0.03532486081948112,-0.09770252161288873,0.3638218396509404,0.3791642947368502,-0.22272481872885697,-0.6680265713662261,0.055299294609868606###-0.30346247968460277,-0.2096736819247667,-0.12614698395226823,-0.34889146967871615,0.09262222846881744,0.2964686471339517,0.244760680224683,-0.05379647895287874,0.1302163870610681,0.005341122148301632,0.08591444703997829,0.14079616147214782,-0.04139906953683238,-0.24670388790791795,0.04195824875030928,0.1357057331440257###0.225575772582974,-0.2141538308836256,0.6194996789765974,-0.13878691800966866,0.3919933921858778,0.16694447606735688,-0.26723941553198705,0.6213324647498563,0.15319137216922582,-0.44207404827948515,-0.6057251283100259,0.1682171412779608,-0.5676054119110467,-0.4756181950324703,0.08273290385731219,-0.13949042154986788###0.032935800123681976,0.2894461706363973,0.8224161396128039,-0.8454972675374195,-0.11948060868219054,0.07938886737918953,0.370625823481595,0.3524737262312411,-0.010297770013646604,-0.4142701456004021,0.2019379800705669,-0.2172962928917975,-0.6741123800176961,-0.07175563097729803,-0.055777549505211924,0.2295559248011391###-0.11918058498977908,0.11884294272392049,0.4507362055867328,-0.6824242206222888,0.17159811845077225,0.1925021205694397,0.8753204433696499,-0.04710618168855205,0.28287305152905745,0.6067884443406696,0.11055171762605927,0.4544372901021222,-0.3445897273007115,-0.7104923018312125,0.5331004916034654,0.21385141052714493###-0.48274660463614893,0.5042884684369607,0.3683278626769412,-0.294586389378244,-0.7728213185212273,-0.16616124441621855,1.1893365491521755,0.10622988459032187,0.046670646221121916,0.008488069612917662,-0.24733554015131753,-0.014737614680322253,-0.44426954013399694,-0.03596514772869537,0.07760124045336247,0.12919104820815003###0.12073884661692931,-0.08940336307655547,0.2607279095420648,-0.15840260112360385,0.2625895940839086,0.24569117731680015,1.5103563179818396,0.33581814566253637,0.23670642082859922,-0.3427807622732538,0.4212047316831489,0.020712540276542485,-0.4507880819026209,-0.24274447942439004,-0.14398359053338303,0.2445915090704729###-0.20325245115924792,-1.819933488242849E-4,0.08082215126741309,-0.6723729496734606,-0.17768769680976046,0.381901284634749,1.115033961820738,0.22051563676360447,0.49568584483451283,0.05871080570597622,0.13952529875809178,-0.06133181024976097,-0.2385471955358767,0.4957166354215054,-0.6610689146319324,-0.10889931237773567###0.5313797105898554,0.13921509388296194,-0.19230124015505223,-0.541129085303776,0.6054900034339741,0.163534768226601,0.9777069430167582,0.7337028850236342,-0.11164463990737976,-0.09254850594849225,-0.11755356383661593,-0.0617328791110877,-0.1572758603571488,0.24933186136762928,-0.12347044765489264,0.021409830685558386###-0.07854482853929952,-0.15058039405779333,0.41970618474889493,0.020253979614394256,0.3418178053359907,0.28797789837693405,0.004697666850519532,0.733451910095394,-0.2245295654361362,0.4094112014937734,0.2080728097886882,0.6901644775628261,-0.3922116333245412,0.5030980884808706,-0.06402476318704386,-0.013110832105487864###-0.21000974310552886,0.18512054971303568,-0.33580606330457563,0.4073228857425928,0.22705650455886017,-0.06763621954829357,-0.3475302140013904,0.6072971983131777,-0.07970893762250203,0.12531938919451588,0.2877749260409575,-0.0354270898546886,-0.03445512046221604,0.6304056187181037,-0.34968345833675046,-0.12663443906312086###-0.11808623344941428,0.38835843408126725,0.15731742639253823,0.18425379998808028,-0.030253090733694987,-0.3532789111461364,-0.6248860127660818,0.42598047929132715,-0.07803901970016264,-0.0553637472720702,0.3052737705081793,-0.0892558981016669,0.1546530697533997,0.38250635299008023,-0.2756293451829562,-0.31477459273329345###0.07109633051627931,-0.3711548416433268,0.38219414321776457,0.1295805113871813,0.08863077512365108,0.05476324460244809,-0.9263723524208196,0.06516764886946606,0.32759448495432864,-0.1405779789635274,0.13223635840431608,0.16481107956000715,0.02671869351679504,0.5956529003804478,-0.42597655469169143,-0.23999730458760216###0.1738319813419036,-0.21314741825111413,0.9881621236475542,0.37557721379549386,-5.897478020181621E-4,-0.024581532079827505,-1.333530208458827,0.031044543356534768,0.42576319780249705,-0.28320444495019403,0.3760397472661852,0.574062221117083,0.5640641215644375,0.7477620212263002,-0.7993933473979102,0.05271114997945737###0.6664686675595605,0.21954865063590523,0.5821052088885863,0.15977126039930611,0.15927942281831795,-0.1786691001310274,-0.7461594632031274,0.21047497056713538,0.10185664952573106,0.05928793754075752,0.22033931809985524,-0.1773970227214275,0.4194515287952448,0.7732975185202081,-0.42347437698938284,0.12105218605876143###-0.25179593692469815,-0.14868338039849957,0.313070153447072,0.14910152639647112,-0.01151962752720773,-0.008073596615461573,-0.056472630645587094,-0.002487096895694452,0.16606049906503356,0.16690867121347508,-0.21229344304404973,-0.4175456565522936,-0.3521744362479217,0.30457127495892344,-0.16160992440077698,-0.019851602406617486###0.2957206471394314,0.03431004147214548,0.049972486678505325,0.789320842802744,0.11131118024408501,0.05143046901205451,-0.3208907471570118,0.06495129509870073,-0.19937390489749918,0.7997545350711779,0.06981702418341132,0.011471032789636522,-0.004199415780934062,0.3281926998786097,0.061282569484033385,0.023402229280496692###0.005702794157853476,-0.7497193248605801,0.1145894291149268,-0.46314677682393834,0.22896574343001877,0.2357571948390395,-0.08034212944146917,-0.12316738039148016,-0.10986672390425345,0.2832204822067855,-0.009360680963543153,-0.26073310314140896,-0.479425709810097,-0.30082043042037343,0.2059514751302113,-0.08966463777366017###-0.45313551008975905,0.16606181197433223,0.11444020162292926,-0.16751193197635464,-0.14001062646430343,0.27541066557501626,-0.38618538840365585,-0.05490905612229763,0.3485378713972586,0.21920203408845804,-0.08741083068562427,0.34966148821102894,0.13680966894529917,-0.0532079055116479,-0.22535888648934885,-0.0355784758054729###0.2491890229746607,0.13209229402767464,-0.03744508349151429,0.22799445244044184,-0.11135025339790242,-0.17076032414258482,-0.39317383405960304,-0.05301954382818629,-0.15249312324474293,-0.1571931935123522,-0.11145266462690705,0.520024585550048,0.13398854834592494,0.012754040751806356,0.2861941320263907,-0.32561587551535237###-0.24184582935016094,-0.3093240072672068,-0.005916680789341494,0.17156604523236474,0.06710380689457444,-0.27048967846024824,-0.11162272345845525,0.31610272610818996,0.06662483798789248,0.12792019268544289,0.004492450586324499,0.06148432665190343,0.13473182536148226,-0.00185792548005006,0.25013183926939464,0.3246586143197746###-0.019741287278699712,0.22711263110836427,0.19586000018312333,0.20785688097874108,-0.08307946270536327,-0.2643922000513262,-0.038983341972846954,-0.10919339041647695,-0.15595034364817106,-0.03314727897601691,-0.1931248667917068,0.16111383787090344,0.28526817655320147,0.035355088062540334,-0.07095244654214908,0.2561100210992844###-0.2010346359068352,-0.0018985274839081476,-0.46666371006072344,0.049844235376218106,0.022890657907977424,0.08723189179590544,0.07494511800779072,0.026599520027183923,0.08677233053471232,0.6346099441148716,0.3678169479596056,-0.133486438456391,0.1837810219992564,-0.006012637748277969,0.29867995391588714,0.19236525006261423###0.05172354344780289,0.6442501492111019,0.5818248107030742,-0.3666052143863963,0.028147188090201447,-0.2997832326912772,-0.04912321503079578,-0.15323587793899957,-0.10293234406162866,-0.20996866977931855,-0.5132270576669561,0.07356336172706437,0.4515097001313094,0.26098674103216485,0.42788426629253856,-0.1284541267150193###0.05403846785308451,-0.09207094218402875,-0.09269795744300899,-0.04981180286145393,-0.22991320219792374,-0.1150265343855176,-0.015557645931227002,0.01225708133644475,-0.08515394205991175,-0.2566127356352755,0.3592420563781568,0.21378977328642818,-0.046514693074963094,-0.276524607756903,0.49785221156328774,-0.07038050784228753###-0.06527636819964076,0.1391306925641939,0.3818143882651819,-0.19871211712703613,0.10319217543532075,0.264429531599334,-0.10602316571798073,0.2632748489974096,-0.02956632327182957,0.09870267135663936,-0.2536154748018618,0.08438961960667021,-0.12796427664169577,0.12037091471338192,0.3154813769883572,-0.12157420581276862###0.3198341585407573,-0.22500635817806613,-0.08056982737854326,0.004422529450508395,-0.4386558279353882,-0.3601777137447463,-0.6181997345350643,0.04867606514798154,0.1312727098567717,0.10978200909146774,0.06502938883003603,-0.2214268570047946,0.2535954702058526,0.37075268966180086,-0.2504092060009506,0.0919366231221554###-0.027819920585885165,-0.20464362327176197,0.11410626969449128,0.16220677554546933,0.31444061064914813,0.24257036783580221,-0.9795278440837374,0.24218463813758614,0.3694452611739858,-0.12846087572898052,-0.2801107062284578,0.42212870207756137,-0.2880404281713276,-0.3502072352882752,-0.07580509502774395,0.3138336051190339###0.14730620405101622,0.05050865915729222,0.3142426051389995,0.003443391363365929,-0.27701790870050175,0.22282110369997735,-0.25891282673100996,0.46495582761907717,-0.3244875250384862,0.06976712223615651,-0.06427560237035702,-0.35740487814257954,-0.23549759681586332,-0.09082284274059059,0.04289768721746001,-0.11979035250064939###-0.24367888345948321,0.1005505789368722,0.7690723649443274,-0.0027241762191050453,0.47320715455770274,0.3032789355626166,-0.5450549369804998,0.20283977135447168,-0.035229161815868985,-0.14019098225604917,-0.12254157471663947,0.017410684698030914,-0.46806863625418327,-0.45004100236025546,0.338575060294027,0.045393069217207836###0.3231709929739642,0.12841658488247154,0.6556432144354838,0.01498328507436823,-0.2205484560615146,-0.0011685360923942164,-0.6802343800483237,0.47615470469001103,0.04200463585495338,-0.13392744356717348,-0.03184868975179977,0.23531401547147468,-0.41894817929910233,-0.7051904337185472,0.2806091609698239,-0.17117014898649952###0.0036743015143706637,-0.3388304308953544,0.8384339112459638,0.01642391700517034,0.20037423040108907,0.4855893643573994,-0.09506358598376824,0.6615258355029602,0.17867615093872652,-0.1307814687132895,0.08679306034061786,0.039846299510920447,-0.35638999998491033,-0.7192236798593169,0.1908913076014781,0.8091401688496058###-0.2019519911054038,-0.16940000776454228,1.111690586548022,-0.422103182330255,-0.02386574673584142,0.161361497123331,1.2051730052422427,0.35046942959718796,-0.10980857098701031,0.06568648598109239,-0.3319531761513362,0.0022736071949918577,-0.4425445376799397,-0.7544972242787518,-0.11806961230811716,-0.22091926107973475###-0.11162515571086278,0.13943489956868638,1.0003847349298136,-0.41493434311850713,0.21961064683037076,0.28101043284260396,0.959593419709528,0.42392195228032264,0.09868097314527234,0.18464399718419822,-0.20904454370438716,0.46314804615436683,-0.35240888620732597,-0.6217967823082968,0.4369797923988975,-0.008049912014845098###-0.16112928132928744,0.4673793130583722,0.5718397690887113,-0.24553162845945398,0.25613014151603347,0.2458611500935661,0.9744224770242059,0.668064243720421,0.31170686861587354,0.3564766223373842,-0.07494127771802701,0.07638270719879876,0.26493234365823604,-0.5438791652234457,0.11977831332879138,-0.07026457345270157###-0.10657565305972143,-0.15473135348497444,0.0986282393773035,-0.5713495545194759,0.2461694592467691,0.04383440689763576,0.8058912137496042,1.0314768684071292,-0.33242267270216963,0.7371658863246827,-0.014205460909828658,0.05205321949489741,-0.7689822575367964,-0.5915746764848705,0.002962854929655603,0.03589902854955927###-7.911016347984682E-4,-0.015168507364464281,0.024223552167598163,-0.8330798944957791,0.16244129549281694,-0.14904513923914195,0.6001547805156635,0.846372113901759,0.002463388064390851,0.4087447397311666,0.04554149037910881,0.04395944574153033,0.22440041161576574,-0.8218685487812819,-0.653612412031781,-0.2143206889885389###-0.05797225995551774,0.2663269970118504,0.24422992223008663,-0.5053574162977885,-0.15962450040169687,0.4737480631244731,0.102498854858446,0.849922766873068,-0.06148866539917074,1.47133734604367,-0.026128980955830532,-0.13727424290021492,-0.520208819106534,-0.7006985934087491,-0.036901449090260025,-0.27640296532689995###-0.21937397126376312,0.22861718293103114,0.7037657831679373,-0.8201407280176983,0.12178461302689894,-0.15648260458089597,-1.0430760414643752,0.8803168049986669,0.20742030034940284,1.109788654090063,-0.10676400376429238,0.23175357144238623,-0.3867008055184376,-0.7451177793310806,-0.14374970766535347,0.6338877409087192###0.2330007141282752,-0.19422132823534588,0.3094711149928672,-0.33798006006159265,0.04259598914273072,0.08205461099133139,-0.6871946604259082,0.9679466471896004,-0.11730654607890775,0.7454005445957983,0.2448852498867355,-0.21975372072610797,0.1995756596480342,-0.6419234605262085,-0.3706925058786694,-0.10719467543792018###-0.2831729118291157,0.4189525255407818,0.6540842182565524,0.18798340945680864,-0.12170982241749756,-0.01503822670085891,-0.40106991425808697,0.18031901348384868,-0.013674323631458629,0.5447947370103146,-0.27819406539219,-0.23612221624585883,0.1779448661296813,-0.14104034188562256,-0.5444902275253581,0.13961741386997126###0.5248705226625714,-0.2153120811599802,0.3747538509359801,0.41813045377162034,-0.07568030818553054,-0.06254865338573949,-0.6461888011904133,0.7636444802339064,0.18158882626083026,0.3456431461228599,-0.11074015366594331,0.28717323721958843,0.19754597068186006,0.19166779875007245,0.012019783616023136,-0.06349380526992604###0.2326147883720475,0.024021265832604277,0.4470293981522709,0.6612743773327414,0.08146827912501363,-0.461454310334743,-0.3977233064041615,0.26123239046097385,-0.3786432466888626,-0.29928049208091434,0.15231001317691167,-0.4567432174368587,0.20697604153398844,0.3420754878143795,-0.21650394667834694,0.28499605477294204###0.15308200942795963,0.08021006913426376,0.6562353079322791,0.13579051494582914,-0.36417118908623936,-0.014817295520577914,-0.4131827603209888,0.38194996161070444,-0.08623769594002248,1.0589103133218376,-0.30477533014711966,0.31916538967202207,0.7071271004345365,0.16034585622499958,-0.16153217206237222,0.07185544477995794###-0.001346175612927919,0.07384076097132289,-0.15987928305537435,0.2313935055115366,0.39793146139417956,-0.14312595624552849,-0.23657700052246855,0.3566825493780077,-0.14719564184690276,0.7000408027910758,-0.2870246540569019,0.3236136567597711,0.002205568542417048,0.11321076815167519,0.11018997083334921,-0.2241654050595127###-0.13514541586634762,0.14704317987323834,0.03714698390036851,-0.011229084663134742,-0.18647711760865793,0.6040270683119392,-0.43252838434051105,0.3253411403154481,0.21468432588556238,0.3596300151513373,0.2168458770886422,-0.007070959039152204,-0.29348679755210916,0.3576026163041979,0.05834482907954094,0.08979236501882958###0.16818027979053018,0.027777436813160947,0.2203699953734193,0.235630445982937,0.009457024666048695,-0.09348871482215322,-0.2289008980376107,-0.1845611587049675,0.013659716142470555,-0.1618735819891869,0.18436509107930737,-0.1311016288703014,0.09206297584997157,-0.05052783372945535,-0.10722345151931,-0.2403373892642864###-0.02171135458384416,-0.48940001051412185,0.02286486795751265,-0.3005907016819524,-0.283481296133182,0.1426496069828006,0.3152551371195302,0.3256429478421661,-0.24807709819381152,-0.08710245323938802,-0.18745812522198724,-0.10901030270116582,-0.041166612430808304,-0.12308882824854327,0.08518601981098917,-0.0877947040430077###0.0584192139015989,-0.06038826717360758,-0.24790625246307998,-0.5209209115898987,0.019372177203894763,0.45476280798809177,0.06117313297361506,0.2813040176888119,0.10217584727754105,0.07376595488650954,0.36460476917659074,0.19958524337822875,-0.1969530551605166,-0.23908424182908336,0.03462250204379013,0.12765739050292674###0.42295713733444246,0.23182836635564774,-0.25833658395333214,0.14931880013995935,-0.006798922509551641,-0.18026719273252692,0.049799808508396194,0.3231054280018291,0.7040331687214177,-0.009304621134110366,-0.13637436900736635,0.2746616854741535,-0.03536879156289551,-0.007196019684461645,0.024232248865487704,-0.305291735321907###-0.19081470443362894,-0.0344794168649756,0.4389376585356812,0.2639467490299303,-0.1251075965619728,0.13065714779930776,0.4605120375845601,-0.05917061411949633,0.18557601812409666,0.913788643116233,0.11969076189401473,0.19745596581897498,0.06890247154536976,0.14660555486532445,-0.05758882858354899,-0.1275594451393203###-0.17289052647396996,0.00672213187225736,-0.23639013239177195,0.1534192462607494,-0.042039447954211225,-0.4742848054627795,0.40159234370180213,-0.1595348633521445,0.08716359534852067,0.34978354332244865,0.03123501331438451,0.3314205797967876,-0.1655819627041608,-0.20421205056157932,0.7166743703814454,-0.2390323430016586###-0.4574231920697888,0.2140786977412745,-0.1294830363577162,0.35026005601367155,-0.14092709708119766,-0.2694836996156623,0.04408035322944816,0.31375705148202304,0.08309594685633269,-0.21829553400600948,0.0970508005345347,0.33066219805762387,0.09836399660779986,-0.026556207464434264,0.616961300054616,-0.2491438220638539###0.18871011823961908,-0.16257473224979826,-0.15472548105544273,0.33908028136056423,0.12964785969598613,0.06238640266058048,0.06433810237505613,0.030947916937317365,-0.34384061176205166,0.05149921366709962,-0.5535088022400689,-0.12955624978959618,-0.07594284030394167,0.1306405606633743,0.3499265333781778,-0.10691698002891038###-0.03642252071039152,0.018225839016415793,-0.3196970582539415,0.03717401107943736,-0.3197201624850873,0.014979392443890797,-0.04756030649291393,-0.056815265585503476,0.03300747515456637,-0.24241939179928298,0.04376296344064046,0.16435627248722984,-0.3245420229999377,0.29246973637381285,0.27960992842467214,0.1289951456661278###0.25134522846184254,-0.13205526141966858,-0.3309527016654525,0.14654833942444248,0.032154084896424635,-0.3040386137116265,-0.31235329995866323,-0.09661681142836559,-0.0826351332866341,-0.46752333562020565,0.1738451921376163,-0.029561480767291155,-0.32160671618574976,0.3151061055876885,0.6081031179177265,0.29947853004224806###0.30118882151333387,0.3453179118249063,0.43379017900770644,0.15670108072404926,0.3292173071719402,-0.23342164391633688,-0.4442362729784853,0.2139339301148116,0.3271310572566554,-0.6019440240318961,-0.3826742696480806,-0.31762565776131785,-0.15366512452987743,-0.5661395056992654,-0.29168471051006617,0.11348880542478733###-0.06799109231096381,0.5454208329036884,0.009533016651837214,0.4042313140080324,0.0015179562845060778,-0.10078733461002252,0.05307105212395224,0.6443935581563781,0.3754658320891248,-0.7370908678433111,0.049326737267095355,0.40327687338462875,0.06907159281616561,-0.3303378027296058,0.1532357177443154,-0.5533800702629966###-0.06122594533973184,-0.16072040230344123,-0.02348984413708185,0.5395651066193011,0.32430211173070095,-0.34826125579425593,0.37939492351874154,0.15685631731136535,0.21749628538420998,0.18659575419328325,0.2033485345246681,-0.0015190104527066032,-0.03381661957009945,0.07004346367711019,0.20657863223656725,0.035914994882313034###0.1393817943913831,-0.04576015494144231,0.5099359267714235,0.17892564105116845,0.016386364424063077,0.15654011757201422,0.7864418903197328,0.2656064862324864,0.2575045216100408,-0.3699633797085745,0.32988815524800386,-0.12093510013194181,-0.14393214045821837,-0.37135955155498984,0.5302647366755457,0.4074427848833379###-0.39621435170103897,0.14897523848095284,0.5580974228059894,0.4090148730552022,0.026412375193745598,0.26475182426687294,0.6583795945096237,0.5460665920121525,-0.1967803639864948,-0.5824449363762614,-0.2112160495536648,0.4635003403309787,0.14344037182104102,-0.29909527964115695,0.38868785481118784,-0.43386159262992785###-0.48904082944408644,0.024623757171285305,0.22206881132322062,0.6632980528864403,-0.06915556706066237,-0.3010151560677833,0.9089377165739064,0.5187592999212908,0.28543993895638103,-0.6915560461646966,0.24407589576111918,-0.26092339290258915,0.20213723770936695,-0.896051661667095,0.7418506691149539,0.2389815081816581###0.21775958883183916,0.271833931806317,0.2516585446353241,0.6273256328747119,0.5380005888520689,0.22526935722170677,1.2233142970771598,-0.038782941333180186,-0.134707091841352,-0.2639666961025426,-0.16261883238362,-0.12802634209627006,-1.7066590605232978E-4,-0.6952390599865952,0.29631730474742385,0.156001982249041###-0.12613037084958398,0.3170649225527924,0.4052133920924016,0.06710532530177876,0.1352347938842951,0.24682082791830584,2.1351444844106897,-0.7065245510256145,-0.1428822991702272,0.09901521068830692,0.5580383852616287,0.03961437555429021,-0.0913518674672171,-1.417093941804041,0.5386065010947829,0.3604478315620469###-0.18882653531843116,-0.36479350062884963,0.13790502320025064,-0.38451860298416374,-0.040448729592818686,0.11690857626842074,2.3036693277142684,-0.4348580090650336,0.7590543329893946,0.14013595050732153,0.11530752506515622,-0.030377321236942274,-0.43028138139060534,-1.1568061491125816,0.3957693957853359,0.08343127703490054###0.09188490325251998,-0.21477527435581786,0.0890847814924807,0.009681716034548486,0.16125469306455453,-0.1555638443009445,1.4436929214336378,-0.21670451047661912,0.5863415955156942,0.6349144253858398,-0.051378598332712265,0.23526574067421274,-0.44983822722838196,-1.6299393729787373,0.5379790393538213,-0.11670644128106916###-0.07339136878967487,0.35505866356999327,0.32253264101165774,0.12347904961621374,-0.09950576503807293,0.03346963092598477,0.9348186964830727,0.41893729588513184,0.34668330490791605,0.4096160736415068,0.6960095863558654,-0.4473250140801941,-0.016340373868603958,-1.1441876097972767,0.09239671128544451,0.42783565638244336###-0.1797577045214589,-0.46678615139823704,-0.22029221697541415,0.17975694989712496,-0.05935731774506963,0.07848705108563704,0.3873751051624666,0.592099514581994,0.2780339780787011,0.383648099863821,-0.054658490324997075,0.28906872656600335,-0.048796074129564986,-1.0863946744960105,-0.061261071918404235,0.3021894380478255###-0.18637495591626357,0.2738206956877562,0.22189492985971707,0.34223055549776954,-0.22327553112905682,-0.05888969857413697,-0.065984118436164,0.23348980939811662,-0.019142270198374056,0.4963417548553743,0.17805672341573725,-0.13146630113266058,-0.026116032320305797,-0.17354588121884576,-0.23748682701635154,0.23342451375724338###-0.1542904704986794,-0.3247178491557916,-0.15289580635800631,0.4961366516948414,0.100207371490601,-0.0560502934570257,-0.1913672091819197,0.37236803149688097,-0.21121421700823026,0.37311266724541015,0.026637324390547345,-0.20136649796051403,0.2057759235368201,0.18960370823287032,0.12291126963491203,-0.15132005344620064###-0.26647337377306574,0.2534046462384377,-0.2273065905312373,0.37896946475149057,0.1803250751287108,-0.2177753966662612,-0.500675736605525,0.45365720346836963,-0.24559567665940088,0.4741950872177089,0.43536336678207166,0.04884121914008139,1.1847992181962854,0.3011278575929433,-0.0953722041523783,0.06213832325023504###0.12925067823140596,0.073352637442298,-0.12329828796118282,0.07605142519905773,-0.1736780447694759,0.44842547246430187,-0.3621572696709604,0.7116607343531107,-0.28587710251303394,1.048423159685574,-0.011596454681410165,0.2828890246452792,0.5966142288725101,0.22354466292245578,0.2950842598186531,0.09364045892801161###-0.20132051586125282,-0.35866667583385303,-0.18836842571274293,0.559414318061407,-0.3189420225683168,0.4540396568202815,-0.4258104509597976,0.4659247572973723,-0.14408232963441284,0.9777034427343974,0.3825962306660535,-0.05603752358055131,0.15010582798783,0.16269292040616182,0.22594782422584078,0.23601047044101123###0.11831088781616149,-0.02487323953854439,-0.194761741430551,-0.011959228730054842,0.07032808384432775,0.34988070814711125,-0.2836375430448381,0.41678869360821585,0.16650647885325776,0.589139728093958,0.48557301474295167,-0.26705096932555245,0.36146224857758585,0.3282911182180525,0.6383592391688748,0.08721205165163448###-0.04256458692475034,0.0070306583399118066,0.07544687690094401,0.02050620518620533,0.184926086177366,0.055351859165694156,0.44719241022210166,-0.15318029887694246,0.1033706807556282,0.5094691163527552,-0.07310344860077284,0.3763900998866259,0.031888481367903,0.053664798100473546,0.5330041428982011,-0.2282952545404157###0.10123575981425782,0.0412834033961502,-0.22568339489670533,-0.10862291984460816,-0.043344740487186055,-0.012015320938407972,0.41922572993185414,-0.061299576354864514,-0.1609722580769196,-0.15695733660149674,-0.2153167727522987,-0.14859619068145166,-0.2130370819056755,-0.1489856394848851,0.22158681020759755,0.011260891366263326###0.008297126115511613,0.2142499856963543,-0.14680176755865557,-0.3208140402328881,0.09644878169682909,-0.021032313566385175,-0.4476696731953435,-0.10391216278298032,0.019392140626997505,0.22841790557933497,-0.19916476512230025,0.07733525860738003,-0.06549225726014032,0.05978813981025718,0.18980894904976175,0.2888252820932844###-0.10561726053403533,-0.13519099975087773,0.12493615358473929,-0.37189910138886084,-0.07092810531676666,-0.046709031621640945,0.4749149160438175,0.278426274061072,-0.09032706791712475,0.46667245274905284,-0.03573106182882419,-0.17251737975764123,0.19724994073474836,0.3081879432417048,0.40255038661750814,0.34736055877611527###-0.1843604962199746,-0.04478382785789753,-0.17404716367841144,0.15771289639550115,-0.0752284600018778,-0.07877012212736942,0.11399494455618078,0.3750639644697967,0.1811071372837592,0.3969189832999816,0.2413639381094685,0.3984378234314015,-0.1279150348504867,-0.025394567333989176,0.18116005501615168,0.327058227641558###0.12747076543292107,0.07447521891534595,0.1658446287476157,-0.06181683586336801,0.4921295613735959,-0.0518365018564581,0.4429149019081978,-0.07239461578257932,-0.2921406607471045,0.3305233829978852,-0.17035369490244942,0.3813485845480142,0.3357225045231978,0.37929012215707253,-0.36172011264011733,-0.2865162368571417###0.4491936053381987,-0.015962085554426783,0.1900431154501288,-0.39255362883529954,-0.1604063638580616,0.1900655868945581,0.26497163973139165,-0.01703530008107172,0.35055357769233,-0.5180585433150915,0.071925819707392,0.18792018427299792,-0.07721770412292181,0.17565553385392224,0.5155870155084319,-0.26087089758369575###0.2907379406302923,-0.018286873981496355,-0.31956868426970286,0.5256100086575786,0.48273934956439635,-0.24716157797553112,-0.039990877654201194,0.48410607065604394,-0.1589055167083024,-0.6768367464465982,0.019132231379318937,0.15305278236584577,-0.41807273801384126,0.07429428321458506,0.15595713177152062,0.15804924048254845###-0.4601964244275225,-0.5538269525812491,-0.2521778265045441,0.14561719957546002,0.4510817628773183,0.29991228142329507,0.0016078157987996613,-0.10861172050736952,-0.3587791749013229,-0.3120257833173582,-0.20912274238255726,-0.14017347746944295,-0.2908365676732456,0.18754143282986577,-0.4263172775781273,0.13382317459751597###-0.44590234970260045,-0.1551336412643391,0.12079148716740998,0.39506416655501353,0.3734437565293253,-0.3892988102921918,-0.1334669280772552,-0.09575073167492557,0.1287263955303516,-0.3630773713008552,0.030488918946523953,0.0430534311639252,-0.07366492892410716,-0.03211532722742885,-0.2684233719046155,0.43626812411101007###-0.0064680613076012194,0.07958388974369575,0.01346946443586568,0.2809213454172051,0.27822270722147746,-0.4553359690326937,-0.3861241128238245,0.4950950117933267,-0.023180385505192358,-0.5211034282749505,0.43119168834268234,-0.07133371693751653,0.2763587043569946,0.14985947710615924,-0.09031918366449809,0.37546286962130154###0.29056520991165313,-0.17736873293945596,-0.060862950591372346,0.5870284635453115,0.20532259868598737,0.5127547319866181,0.11728583007995538,0.433869687230119,-0.12911524204141317,0.24458035514250376,-0.19974031839377265,-0.17942931897785577,0.7586854079285775,0.41955018076052275,0.283904393702992,0.21989691685140922###0.18780635965321793,-0.32340200301191335,0.3482399084850354,0.6485056881649405,0.504513145936204,-0.21191340327232042,0.01800970187392238,0.28898115822782583,0.07145960218413716,0.39813033021157246,-0.09377667352714986,0.0966143777171523,0.7811332805720707,0.5839215340030904,0.5308968443099044,0.28057252969689905###0.18394977639522211,-0.09238018561764552,0.2695920460814112,0.9931016253043252,0.2797828698691653,0.36015315059862363,0.42858060017691607,0.011425496851350492,0.11434029767998852,-0.14961346456203303,-0.18568535742816197,-0.20981203786368052,1.0236270182628595,-0.06955643389946939,0.3611173174871198,-0.20408322940810047###0.013920779214015742,0.2547178705115454,0.27864648726860136,1.480607103643005,-6.146738419188523E-4,-0.008094014435962922,0.37071905117652887,-0.3541076336146947,0.27325935952822816,0.0682198936179952,-0.04019913313457699,0.09675413232617666,0.7394295892087918,0.8709187306112358,-0.04375924861161976,-0.0030644534890860295###-0.009359742562001913,0.10932489425342233,-0.571750419935976,0.42824316326571965,-0.30060014386256523,-0.19843637572446496,1.0989312373150975,-0.024173084090828932,-0.10125878484837375,-0.4232550397474437,0.1320101723431256,-0.09437461177870766,0.22016867592107242,0.5639463274671923,0.35590542077455184,-0.16946397318679898###-0.023564162722318066,-0.10004918051058279,-0.060987225769051016,0.5025298014977517,-0.324626589506134,0.17895631934208484,1.1670489567704163,-0.7765274896848205,0.020506282060445948,0.1070730090002835,-0.30053049547487615,-0.16700814924635618,0.26400895261161256,-0.8851832749622037,0.8671458032920464,-0.17053853874289332###-0.026024251214536758,0.013803324738326937,-0.26047252391350517,0.5515682602432986,0.4993735994179397,0.06133929077605651,1.9095066497057855,-0.8171074156396435,0.13762034968177211,-0.22876921729605543,0.14882288618810505,0.19075173794839342,0.1372263937424492,-0.7130570717721169,0.6419792563690422,0.09477439715445053###0.2433430182261111,0.25984154877205023,-0.27698712151379973,0.341737580806811,0.43653196501126607,0.028463282498094912,2.3725679764902385,-1.3040936179913716,-0.6912589802076626,0.02218276712745051,-0.009589843028591711,0.11277794368936812,0.2537253885931706,-1.5994697663588375,0.613571899607133,-0.09655041312269534###0.1696232806458811,-0.2603772956154735,-0.11660892899785599,0.34009870810354276,0.2233130675288465,0.2014456950611803,2.783920132472023,-0.8827719594995769,0.23171231302878845,0.20593984508493035,0.05619398111305494,-0.0840255055369618,0.23564123114593988,-1.181633806844205,0.4560096679075977,0.2942225762863924###0.4443352729272346,0.357467990413306,-0.26496525508663527,0.8299478213772415,0.6162482575100623,-0.12265096253397396,2.1916712921493366,-0.42791510653152587,0.14530342175347377,0.1276685830237121,0.18832506474506053,0.2779781660374087,0.30817205302615075,-0.6250320574475348,0.5289036436108485,0.13954827643609968###-0.028112544576687555,0.35024328095901114,-0.29312733888612397,0.7568671172519535,0.19182191466583481,0.1066119999961314,1.0586572211859122,0.25082915955191104,0.28258181333690335,0.09484246787143086,0.21236559802008173,0.15446220604832117,0.2990326974498842,-0.05281165852438402,0.10909954479554022,0.03186512748722971###0.042899960174231394,-0.02190277133817012,-0.9998642382634503,-0.017352332400966248,0.08701683945422244,0.4896208119177124,0.826407417530788,-0.0423004163140209,0.4499063691008873,-0.1392265399513528,-0.2880552785557312,0.5718578926745792,0.5466265568561472,0.28012392810654674,-7.60421858832976E-4,0.3568832034566659###0.38325827350410246,-0.013727741877101731,-0.06432413729773523,0.7479793222745893,0.11512843815493949,0.24897773617858454,0.611434521597608,-0.22692167961373694,0.017115224433204044,0.17849353267836301,0.6379427508772608,-0.08732442772637701,0.9507101811903808,0.14541794388049273,0.07192662050748691,0.3112844433220921###0.12674858426479688,0.16159555130162692,-0.8493975494956476,0.031141523941287316,0.31486622923701346,0.017441102752217198,0.4361026333953154,0.6485785844172115,0.5605430598121605,0.15180842868072136,-0.008339960239250996,-0.43981910094701315,0.4772692247965143,0.23231258509470382,0.06234964943781837,0.5295215097372928###0.2698245534993293,0.24506629358183143,-0.41061985174072585,-0.018835583151329105,-0.35477541065987533,-0.22089368871009138,-0.26879102611124017,0.10323153033692044,0.1294320499569344,0.14914018670340282,-0.39243647887454225,-0.037162332884129685,0.4992918883065173,0.48697176409531145,0.4306712743754422,-0.0565890885885033###0.42842445813273544,-0.3405599653506326,-0.8883264065303162,-0.2279537347902647,0.4507655039531253,-0.05838221108629252,-0.47494854333263703,0.49414343074621075,0.215185386232975,1.0478718835600422,0.13467287665277847,-0.2222549565377785,0.2604445470925795,0.4613785462828164,0.16416754361935265,-0.10083044390758567###0.07229825598140403,-0.041777722774320555,-0.9319926609409842,-0.22070179807765128,0.15160550390217936,-0.011993451898183509,0.42393216869248507,-0.1619637586679367,-0.1351795318246801,0.5044862238943593,-0.38049051128150563,0.38295106172053367,0.32037139171466045,0.2919090257667482,0.37404945641684745,-0.1965542840459678###-0.05479890662734096,0.025655491964445755,0.10217375360524476,-0.6381795928206778,-0.16745206060520978,0.0484878564742458,0.22255202401180318,0.17581195629742505,0.533657667293136,0.6035917448766498,0.44725297445506185,0.05280051268899483,0.2321404487744649,0.33006329354809505,0.40895282524158844,0.007280644102250338###0.02620113065595422,-0.24163177260507043,0.2289282827305749,0.011270565114247837,0.07008938585655224,0.3697905511189685,0.027533647700120862,0.444890997763736,0.17319778132120228,0.17467651551410437,-0.035617646321411185,-0.19579663412336268,-0.14846180870588183,0.3994394126920351,0.025601605353890097,-0.1887809563308921###0.05459635792723785,-0.07322012015315389,0.0993626053811651,-0.22571239526513703,0.01556656168378638,-0.4274707366180599,-0.38918604300149323,0.37670774117436584,0.4367438258897023,0.032755676443207905,0.1210409664195879,-0.22315737111004308,0.36535388955207143,-0.04144245356652517,0.45895984631319614,-0.4264813680590321###0.5682463820988279,0.3267159994210667,0.19594445614337927,-0.6177089189878562,0.2576279615265762,0.5186880764854204,0.16906187791095978,-0.5281943126819046,-0.08633669742121818,0.3078558024669573,0.5429102430056795,0.10298356116558603,-0.12154796067518157,-0.06915759484237058,9.836654521962547E-4,0.2360511042563627###0.40585691734378865,0.15119506737239383,0.23645840157341297,-0.4182913587797503,0.018065096726019227,-0.09829678803389243,-0.29486167485041476,0.5664825477448651,0.0851436166623434,0.29436391568635406,0.18032146625805154,-0.00455698620731439,-0.14837405860503003,0.4943349435036888,0.1307784561740561,-0.025297141401499548###0.1362558165853216,0.06254974119217503,-0.27608901752970416,0.025429174455933793,-0.20907514041604497,-0.21040514632594645,-0.006462887472796387,0.7816396993839502,-0.2082467152126742,-0.4113294464499494,-0.024283191766600633,-0.17146796855399035,-0.03290193102431617,0.5259346014228262,0.3790546400146247,-0.04006291569555004###-0.4702626241463164,0.6305225955280681,-0.1581488409624258,0.2909769264133113,4.609486498392792E-4,0.2399725420198674,-0.10750482528908424,-0.40582005676787625,0.04550394511727786,-0.06355659633317698,-0.28942563940311256,-0.11344412893697954,0.0986228917022928,-0.13637369536251714,-0.6953561649539378,0.20270086027924517###0.058468270606394736,0.07458364453211362,0.49752168654524637,0.18780250419425845,0.14529467474389138,-0.39466213736205624,0.3151382497964794,-0.22813668320986183,-0.25554710451539014,-0.5747632493254557,-0.13345243700341933,0.1836428719939545,0.26535054623300247,0.02055583392859594,-0.04117959432946157,0.11732090761429936###0.07325749096795225,0.029649996891490154,0.35853450270996656,-0.2767806576420203,0.5739648373357242,0.3897131694221642,0.4524921080601544,-0.10819467150939635,-0.24795470739328512,-0.7226301728823701,0.05798290388159979,0.14550349190342848,0.5684638037673838,0.42294160418708693,0.034643374175041736,-0.3340168468836989###-0.16306458163962176,0.30011559159230367,-0.25829717385342527,0.14825081929361472,-0.17583870111154656,-0.7579835609102709,0.32787193463326647,0.25860686213858197,0.15611080122902832,-0.34859978236510286,0.14476393290801157,-0.2258848412182736,0.6601445685837503,0.6831306826087715,-0.20158046401908428,0.5124066752423286###-0.08258114304800326,-0.1014908830059596,-0.48651521745603554,0.10374262924704174,0.2036520644187566,0.13460230654352012,-0.04547039944203726,-0.13384222958810033,-0.111371381788658,-0.441917729183821,0.3112737212574291,0.027664197177910358,0.7792222614622609,0.6388496786669146,-0.38381751662174435,-0.34952221293355096###0.09744361173409519,-0.32212328781082833,0.16690753556819757,0.6135470335479404,0.1740548399776977,-0.028937231434782208,0.6648347714622989,0.00629239092502163,0.0856915335933159,0.22748391449886277,-0.11344690120331813,0.1548843890345998,0.5079682522971131,0.6993696461179432,0.5112645384062878,0.1472133546782606###-0.006359188532583844,0.322830540721874,-0.20798476541998112,0.4191714405291043,-0.08239791441654705,0.0022340759514652485,0.17992400676897405,0.19640096813381433,0.7138232136678937,0.2453660817472069,0.017654810410902805,-0.17346669168497256,0.5124667654155645,0.6441655916903666,0.6188097375701409,0.16529749389364515###-0.09488398432387082,-0.012271981207025402,-0.013475979583926122,0.21587667291827264,-0.06298143106045799,0.32710982834475,0.34907536995225447,0.3385269560783594,-0.11478838982773372,0.7592742100672712,-0.11315214780035315,0.5850973467424051,0.15578705450810504,0.2779805312723846,-0.12002300818312141,0.356325745919191###0.5044869608273366,0.26744819059179403,-0.0665502693454072,0.580800412567414,-0.051272724838747716,0.03569150558840344,0.8780494680902237,-0.508648289188184,0.3060935594860954,0.07645374961765047,0.35324689065151504,0.257519778247365,-0.2630151651112636,0.7332341429997903,0.5846318695928678,-0.0824431095479456###0.3037968386614251,0.2044067407429528,-0.2480371425562214,0.7361208802314678,-0.43561766531887064,0.19615254657022105,1.0996865939518357,-0.4925593689576287,2.720111568459776E-4,0.22912688608059067,0.13667027904121265,0.3067803323745292,-0.10770856854105726,0.6334685679745511,0.49699659056676343,0.12736714141628971###0.09553762683278491,-0.008960654714878282,-0.3627290407588788,0.1786953112200451,-0.02303966718180581,0.4621306010893068,1.349850163415607,-0.6927795573555007,-0.04644813019257497,-0.16864012854049149,0.047310483250324054,0.3618129127837968,0.2989445488000443,0.5943146198394864,0.06948056346146972,0.1093629200291137###0.023998707489470972,0.4181832579117168,0.07089610834751293,0.14545590971420178,-0.20911529170744206,0.17812984838282944,1.9210035321289172,-0.9888214470099449,-0.6612205595564694,-0.6680784666795269,0.17975076564987197,-0.16090278884110049,-0.2266182469486805,0.414609702891636,0.12821135560640445,-0.20324939899653113###0.2879884081720418,-0.3039663030131176,-0.23483012203386522,0.5488290329107479,0.672007888251469,-0.025702717225233655,1.8535765607295482,-0.8691888547266303,0.19928668821169743,-0.8472950735301624,0.16617997860496556,-0.3304705838918414,0.13650714531663105,0.2682155527981815,1.1839547653315847,0.14809889918624677###0.38103073727346964,0.030205786036667466,-0.43468753077845396,1.093623482587295,-0.13742712402291635,0.1240009752681239,1.8360861828403583,-0.3819558377090605,0.11584548690005665,-0.07165815113319976,-0.22761256581831585,-0.008337113477502149,0.1616068398858357,0.14155085119108649,0.9162906675602023,0.21776961403771666###-0.05363033142576917,0.463761907097944,-0.7941723676647875,1.0809599461046282,0.09604329234876252,0.43447957385449437,1.4895001911853964,-0.33516370822900443,0.11381590879673399,-0.5787693448184741,-0.1512785041277423,0.1966287237884377,0.12443625784921714,0.8984303928938393,0.8881457077308952,-0.2702623972086686###0.5217855566429394,0.012363448025103231,-1.4375197860313236,0.49141030753001463,0.019134150142609125,-0.1008452054278925,1.7698775808461136,-0.0041049227350228885,0.15087555588549248,-0.2497743216749441,0.01987820096131228,-0.07013137644016819,0.2035204350185823,1.090735096482861,0.44126593998365726,0.11494239008953502###-0.19515059051340605,0.07866879827961658,-1.1456315392570284,0.4615672776677795,0.02448993488361432,-0.036656451055248576,1.0074089584017831,0.1804170315748003,-0.08887261598971972,-0.946215121114898,0.32864674173148156,0.16362515149198376,0.13616463026367687,0.7895623998631389,0.5007507392623056,0.2615961999727417###0.16791581119677587,0.10022255762145332,-1.4144750199912124,0.6336362233995445,0.022524362929644402,0.1835850795744399,1.1616885199398708,-0.13310552592716632,0.40804056962526153,-0.8062539992683533,-0.16677199229813303,0.31150493102318105,0.30643231338972765,0.3977117241705261,0.35486417018231226,0.0913128665735722###0.40712309244418654,0.09734617555979014,-1.2118449119716084,0.22095696685239982,0.10162252840005581,0.05496856147125602,0.20086629201004003,0.3189703507011804,0.1746538786178765,-0.041034415055170984,0.30578751274236626,-0.06680797264912604,0.8271694775694508,0.5404240191482215,0.20760910544294545,0.2373535156171839###0.4172037253936182,-0.06512883491040493,-1.2105954089263873,0.24674177200200872,0.22763000830115032,0.580186633738899,0.261122144839196,0.5704640336006361,0.22536483334100835,0.6416685230055382,0.36672672189222394,0.49356223892849566,1.0646351611559228,-0.22964790431905155,0.21316659626512854,-0.31583262596525463###0.3501186598075307,0.15036629314539057,-0.9175141211964079,-0.1619760573699935,0.04632343215035583,0.25956407291888534,0.38899498637562663,0.6751964527819101,-0.35582452143970184,0.49201019768153864,-0.005221179772792755,0.10963956580832235,0.6820028372611892,0.20459434170425098,0.1831785795343255,0.5692580287203746###0.046267750634236285,0.19028614714566522,-0.730962141833271,-0.2345337261116745,-0.2562956262039573,-0.20020525456985544,0.3959702961624346,-0.04637836064089787,-0.07026421018217067,-0.005452484162337427,-0.45495464555244447,-0.11473724724066219,0.2703096000854957,0.06613693399994534,1.0376653595619039,0.3121653329797508###0.5789248501768307,0.030978188495831397,-0.6572950170488784,-0.10021223756306995,-0.1546601592846927,-0.05080458749993414,-0.010741339143983892,0.12055710278188561,-0.36508673587330126,0.35252312956249493,0.35967965254176426,-0.23673989455848213,-0.2924949850849441,0.13829167445890256,0.6346599323595733,0.2748590648614719###0.07908255300576264,0.4315391081651807,0.17974008743515565,-0.19230509422018036,0.1894410821272401,0.034204544867560784,-0.08008199162961661,0.36294595399509366,-0.3996893676431505,0.29388814570639615,-0.16452448867444344,-0.004515482161208795,-0.5576061959773891,-0.07144350828203702,0.16525065997285865,0.04230770394884001###0.11957386417108641,-0.16276491451275427,-0.42120142239677444,-0.04900182768622304,0.6328806915367481,-0.3248347951074473,-0.17092625073131312,-0.24420290857009652,-0.15512653477546257,-0.05718407582005515,-0.4598111367635608,-0.09525522527173863,-0.23767900972988593,0.2847357411548888,-0.3049952510754692,-0.027122785249741557###0.2946649274510459,0.00806533712093402,-0.11139991822056097,-0.25865722386195694,0.19821292121818032,0.15427288034712244,0.45158294517459463,0.018587979685988652,-0.18539661134253074,0.010729620626008934,-0.3469330123132251,0.2437932307620696,-0.16832034321257716,-0.07104501748265034,-0.21591878287616054,-0.3741338469146195###-0.3527181874293655,0.028736539056334696,-0.006568869411701244,-0.13234475425858655,0.17324695029000803,-0.21871906390047816,0.10539999420070251,0.5623105916105187,-0.26128233183249644,0.25789214652607473,0.1329091039295546,0.13098814062611983,0.12431324784447785,-0.2480470887190185,-0.238401410414859,-0.03448964220407243###0.20724643132302084,-0.10138097931844652,0.24674458192098384,-0.12018481308369236,-0.4651112970453773,-0.41318048893241766,0.13550469654087868,-0.0698646425722425,-0.14740757571525784,0.059138085167814276,0.01207829453996758,0.3995569342815536,0.1289411589780291,0.09848467567036617,-0.23225080770737477,-0.0640212480704283###0.1598679095538439,-0.23365277168226542,-0.0314216315168824,0.046435089726450225,-0.10212618442294766,-0.5245355335536523,0.29511551182569773,-0.3645402493505851,0.24159354093034396,-0.5649131283889386,0.0769225948489902,0.6007323794829594,-0.4718322773809009,0.7530591611390742,0.417295427547084,0.015631694558678886###-0.01818553689638637,0.10323746862653234,0.380113219809863,-0.05335843250578701,0.5064645991774268,0.2513327001003221,0.09397245140099704,-0.03594809359277784,-0.324335759878029,-0.4553005492254075,-0.15280523743622984,0.05856641795831343,0.428918157926252,0.4483954991937902,-0.2512764094447366,0.30879484116482453###-0.2637364632602545,0.2603141382557765,0.3244208687833314,0.19518718865055518,-0.26697272690404994,0.30416428431309567,0.0179488325055867,-0.1767992391902156,-0.05499161917107714,-0.4946529021991094,0.13919331363268989,-0.0578608826570738,0.5258304928068339,0.9779983100845718,-0.16980676669660716,-0.16273809248120255###-0.1769361421108943,-0.27614674313103305,0.4023175350635058,-0.006072046332694648,0.15357517745378982,-0.0017099343965942173,0.42822959191580845,-0.2515149446313736,-0.24030202734651823,-0.6356348704335004,-0.3154097652800918,0.442076023582578,0.4933570925831216,0.9187277718645703,0.01627359773570439,-0.12166281000594689###0.043297491322171144,0.09422609767741359,-0.04693336434976587,-0.31113586427113915,0.36835718389444533,0.33444518084063063,-0.23357424238277985,0.28871605575392056,-0.2442757370646948,0.1299159547288425,0.16832014005713494,0.031030442046070174,0.33171904843524946,0.5079276823100215,-0.21379813170877562,-0.15530509683383886###0.22041843172711384,-0.007085471694398014,-1.0272657153066465,0.7244277346161221,0.09282387640451849,-0.1566587250671894,0.19667605315555017,0.34630045626441464,0.1256374437985685,0.03742606942396785,0.08220998243438703,0.19198725721316193,0.03889718437241659,0.44393594516241036,-0.4163878754618692,-0.0012455137465050884###-0.11286068816244169,0.06647431840077048,-0.5774056398499884,0.1962027667510218,0.12981547311887168,-0.07606382618302905,0.3168709955931463,0.14468745302276814,0.03846022277485108,0.8547546882913202,-0.2973827908420421,0.07857665699138003,0.539625619340532,0.5450842726937987,-0.07174050187742352,0.2768391852637586###-0.06554644854750412,0.15441595155401233,-0.36081798929774733,0.3646910393291156,-0.19272113622313036,0.6374451145069373,0.22016779972785785,0.06599338664828505,-0.05815924463739934,1.4681397804409813,0.22740531668211864,-0.3548907108483832,0.19441904932469017,0.20993833379829613,-0.1467420233835614,-0.021887820368436253###-0.01111630705369555,-0.13308325478592048,-0.4993626550308152,1.023664874502291,-0.04396456759643928,0.13948251354067706,0.2346197184566086,-0.6784794562768398,0.03619280820855362,1.0514375108574445,0.23810300174235147,0.47905694962300344,0.47968807659961155,-0.013620827725324712,0.18613244161674442,0.1799128561620988###0.5197560117880642,0.20239823757266936,-1.06038800837065,0.6509977073033089,0.6531865435157406,-0.006419894783982308,0.7510296500640985,-0.5447606055046288,0.19221000577567401,1.2734879179575864,-0.336554100702491,0.43714507881684317,0.12796378930262178,0.7017481670464378,-0.8331668053843134,0.018723330652918705###0.09507284949805175,0.25327960173313585,-0.6709787012390526,0.7527850254185211,-0.29070553365201734,0.1891024043836747,0.2372357110245795,-0.14878589176893198,0.4418223327989873,0.2967341684383618,0.28204835729723876,0.5075802912423609,0.3771203280586748,1.1572840787201577,-0.6197951655277937,0.03894760691224784###-0.22136944140137496,0.32571773463699694,-0.6058331924223626,1.0283531154894536,-0.17084398840835305,0.43066626487273624,1.7014643226505615,-1.038185794762131,0.2763817765897686,-0.14970073531315836,-0.2689832385025749,0.40380306804053095,-0.9869300971082945,1.8104106328926102,0.07969446448821202,0.17328446720811297###0.4029485638491867,0.026889821990877794,-0.7551296550116673,1.4284509125389704,0.08828702081075866,0.19347390442004928,1.462747025226231,-0.7301531157641474,0.01055665262509045,-1.0557895848477488,0.36671475523006525,-0.5156701744622618,-0.3464779472072591,1.6959746255760695,0.5900773878115894,0.3519010083521714###-0.1367646448110192,0.6884687866869315,-0.9252220626081101,1.4800181390723723,0.14396503220229465,0.5389540529561346,0.9212982782711571,-0.3452163756471706,-0.09892212915812891,-0.9202057600281512,0.006436697727488338,0.20617759381922632,-0.3082606559332718,1.6093153748538802,0.3663282061591758,-0.06380763980529458###-0.3186701099632099,0.29812138761978774,-0.8002205366237706,1.0944850218711697,0.2557086912125874,0.1248759747852195,1.2595738450239693,-0.11507775454699402,0.3761627801023825,-0.5369924843366318,0.051587324412259994,-0.03627549712668981,0.25698111081676983,1.7960146421205472,0.18760461283264002,0.05821433472357067###0.08975320029336135,-0.04461984963139022,-1.4497614520830466,1.4902545097905389,0.14306671577418417,0.4188288876318839,1.480251997358984,0.2257940094639617,-0.001966905581560324,-0.5119059690010681,0.176013267066088,0.4768055702599592,0.4167420327758507,0.8516946117082742,0.1800341802714657,0.014112408228306202###-0.05794990425622643,-0.18133510543186485,-1.1280605846580827,0.693486121082192,0.3407973890920406,-0.4969085335949973,1.2992378780408813,0.020315036561968196,-0.30990946657359747,-0.5021903288341455,0.43482914091563457,0.06042234423910709,0.023716457662526693,0.569377717548614,0.90567143053103,0.0689926291695224###-0.08073537122341906,0.4377072534145184,-1.117932512537169,1.172107061298307,0.08080630756170741,-0.3283485020618715,1.0687205291782307,-0.026408396758145592,0.21041369511440441,-0.5424256985764233,-0.5940068410619476,-0.3469845687365611,-0.28492706557548,-0.1365673737214622,0.3296607415979568,0.04332986428622852###0.29483738625255473,0.00595296670487853,-1.437452728804436,0.6927363791990961,0.2719136831939577,-0.3531253018558147,1.0837823909226043,0.1479579531884614,0.41277157889576943,-0.2885635193934398,-0.23955794078278053,0.1323773504597102,0.2539862337751937,-0.4006366377888732,0.18100073767374464,0.18482367241034647###-0.20569543879346305,0.17960088940463234,-1.3211474999772428,0.03039851221983101,0.15614948275692028,0.15816063547031867,0.5843421991909369,0.1553828208881332,0.08462179988679411,0.7575761138025736,-0.05705158906730334,-0.3885131144822143,-0.12738254119200604,-0.7874255598334682,0.5166264237409008,0.002329831456475828###0.28031331212657706,-0.11233218981817235,-1.278512898844844,-0.21225927221135968,0.2866304945467287,0.5189992026113674,0.8506320213667184,0.44938779061548567,0.08035693064257296,0.2628175272452401,0.2403570546905242,-0.3330314835634948,-0.3130656274640863,-0.594864163232901,0.6923673496617249,0.13319833758343377###-0.08327937358208651,0.13165029801302436,-0.445293370119578,-0.45793474324240235,0.05336927076342484,-0.11909005643458248,0.8634097619063315,0.5081639280439296,0.2740474578419524,0.0611299841047105,0.3146536113753477,0.3202193463044381,0.33652557393149785,-0.11354334336923866,1.0460528616000195,0.04663612489792329###0.07557139096349855,0.3483836101009286,-0.18180112445879187,0.07285124303226345,-0.08587348822006435,0.32284210292966203,0.8124411380373927,-0.2117094981775799,0.37671291228628406,0.7304056214775705,0.23136033453437618,-0.1020651181541734,-0.5886900545414171,0.3233708393842368,1.0874505251432263,0.21685533818154612###0.22858735682679468,0.15995831851455142,0.16904099395156202,0.022517870458528398,-0.08987641287547697,-0.13138932373779405,0.01492549425217151,0.015211130184741859,-0.08667051434845995,0.12980016175378808,0.024129689875497438,-0.6387103918351926,-0.14137123738159657,0.23258456401650532,0.46759550750951967,-0.0012143547788294664###-0.0016009274135646023,-0.014890749863368755,-0.22797875436559525,0.30571756611097356,0.026327312714296277,-0.0033086998521686894,-0.2624952360863766,-0.13207268870755995,-0.2543258118931098,0.2010106314781538,0.2606825790541109,-0.06067900390370557,0.10535001782250668,-0.0560324696359017,-0.010135100770662228,0.07925322276197254###0.45753603662790504,-0.16580357927557252,0.2430559759970915,0.24966554738714278,0.24716778528269698,-0.28307260268910117,-0.24035574321921668,-0.05736858767339633,-0.17195914683320454,0.12363870429907153,0.07750117040221578,-0.47922248061081296,-0.19843255636586812,0.2724575927241176,-0.023127675176889687,-0.47373138862883607###-0.3898560744902967,0.22031655852965215,-0.04764188068050297,0.020007958537057315,0.009064329373513426,0.10852826469666346,0.02031245107273688,-0.00841200056515229,-0.14612354047040185,-0.26822941655746085,0.09638942109721964,0.23399212119168758,0.26483349754666835,0.4531433026774438,-0.09903646381121149,-0.10850597763889372###0.07351804049498546,0.10798527282406628,-0.2567991807304046,-0.03352299270951062,-0.01766446125897018,-0.3158558377064774,0.01481279607686589,0.20589627486111092,0.033028202734109564,-0.6937357313984677,0.03966774886320715,0.0733804398944872,0.1899756078191914,0.29770506943960096,0.47654777144235916,-0.14855166587232876###0.27559262892474923,0.2892995450123186,0.02501714366505839,0.30657039299456795,0.08637289403887297,-0.09330443049716663,0.3181123814149207,0.15319609858274205,-0.15925756182982329,-0.023098250133912174,0.40011623298934645,-0.1699358819615431,0.0982920643466928,0.34251774142642655,0.0774364188608414,-0.11714328069647897###0.29116275667295277,0.31699594009035853,0.45818146389102377,0.06562549846233262,-0.1994447652862241,0.36069077299686386,0.263789911616396,-0.13916253688517205,0.17263418917886406,-0.2714160964648285,-0.22893596432348703,-0.43952710033142844,0.35181139443233356,0.36517060386122163,-0.17062582174476112,-0.15105066657882066###0.21755940269990195,0.26162059616783756,-0.19093226299634694,-0.004125671427598241,-0.018066500465240984,-0.5081152892818613,-0.09901492962286607,-0.37710997912141114,-0.02683975092527351,-0.9292883195726607,-0.31509184247834,-0.23134786316314282,0.03042264690286665,0.6195485298440997,-0.6408177286951701,-0.22346392840566076###-0.31927931356104206,0.1978735276183157,-0.26807169109967316,-0.3743861861222891,-0.20291230454011522,-0.08689287284499828,0.2706128599137792,0.09349303746076829,0.6465005776752121,0.13543290072644948,-0.01938130939084228,0.20274631447974892,0.6025044686039461,0.13679193859152944,-0.35313100030539113,-0.0702433393909538###-0.11534870821163398,-0.06313527415589375,-0.798288595373149,-0.25974978208155436,0.6019818262780366,0.31314362511143884,0.061370180311372306,-0.1285094643415448,0.18365597548914186,0.7820435206743251,0.21269072441539083,-0.13631810795326374,0.6949192173748976,0.01728673937458376,-0.4632400818233578,-0.2892020460346441###0.15271363559754647,0.3297012735337442,-0.9612715615008766,0.2246516635207262,-0.27053162399193753,0.10610548948693373,0.03389486993672905,0.16088105770429093,0.0585320192222428,1.6936330896395593,0.061173884491218786,-0.3029011186466489,0.7678519257407586,-0.008399919881592763,-0.5300785473320694,0.2862435448345653###-0.04357445979459326,0.3193256826690279,-1.057638939588324,-0.409502967705949,0.26936275678094274,0.08058990041092812,-0.09221612153166335,0.059860104747018764,-0.11501935578119248,1.4810548959037642,-0.23123329474572982,0.20409403178981694,1.291666355353726,0.3875271699800869,-0.3282235078644127,0.01610624748500443###9.332419647798078E-4,0.04896832083663395,-1.1649467171420624,0.29017931151808074,0.33699888098215514,-0.13689653522733514,-0.0905995024443057,0.3802668808110239,0.17177228326731547,2.312870070450652,0.09639609258164665,0.16194512880522113,1.1516348260877838,-0.2752748760851099,-0.35796539997950805,0.4670928915547944###0.22780296189207713,0.22936282880781955,-0.8777365098421703,0.537484702570751,-0.1289945371589985,0.586261950711598,0.3449311298974229,-0.40353241254023187,0.17381748535379327,2.0092510582530303,-0.15776694419980952,0.3210704434435107,0.9960320568225952,-0.3793562929518128,-0.42510113800340554,0.16234792931989264###0.13849251622676384,-0.06876116126626274,-1.4512581828575342,0.581575595011565,-0.43530775917686926,0.03952784770606445,-0.09828619414105813,0.012596585325181446,-0.027950666002474582,1.0509950833584605,-0.1509160241496964,0.30955294464670396,0.43324913191287096,0.48092479436266256,0.06966755448966139,0.1261062267432427###-0.014134793337681029,0.05790516130243768,-0.9873652152197204,0.5423946728270921,0.401932518564272,-0.27820782659345344,0.5125612763583561,-0.3416117796380068,-0.06127609977348987,0.21858919394246634,0.3216592895173002,0.3485207440472259,-0.5162410162152844,1.223079841612987,-0.1954865016249561,0.14256319851135985###0.29643957184080527,-0.06900245705260515,-0.2034844065812059,0.3729212450594277,0.04891775848393815,0.14739416158350793,1.046540047493669,-0.45668278889071473,-0.014114629179712885,-1.4349735490951854,0.24961904029331558,0.2973981255921744,-0.1568740702398656,2.3041190086349053,0.3980787727733149,0.5167767802547292###0.45426556867729123,0.5764328350570179,-0.12028891829535968,0.5990436906754403,-0.1556868912351626,0.2508352728314527,1.270888113294926,-0.5508329901404926,0.49823695365956927,-1.7326899648253224,-0.12138986296024964,0.4631063821103139,-0.0768738181678634,2.6590887968086907,0.32093124123156247,0.3680953132791876###0.38484545057911784,0.007308441247258889,-0.7275029365403174,1.6143861634440484,-0.038751767859344984,0.13773403055514355,0.9740356190740672,-0.6250027456008952,-0.12058246997968813,-0.8507929673901233,0.2853280157562951,-0.11913495107037858,0.1863365693679992,1.5229227556652634,-0.09693754478093987,-0.09031814897714585###-0.08462876816877721,-0.10951126428064938,-0.6055588756119015,1.320972290700037,0.04949658505346111,-0.0595890095288233,1.0729576583750804,-0.4195773336146789,-0.14965412417472745,-0.8571095357191886,0.5375875469622066,-0.1953920021048768,-0.07475196104108546,0.6412419671237126,-0.3733845868486667,0.21812420081630296###0.2736158422253338,0.2910776859248198,-1.0842201234912208,1.3166367706528816,0.302967973491788,-0.023230881701135814,1.1368678216214927,-0.04403915225725421,0.03628213826411378,-0.8973083069295629,0.21225034100359272,0.20730333406638574,-0.1071944724186219,0.44895046041452225,-0.13526548357027762,-0.3799739441096654###-0.07729951236944231,0.06644472612225347,-0.8132877493640825,0.9033632098322918,-0.3525290714216855,-0.17846047520944583,0.8540830371365575,-0.1876265617596956,-0.1580025722474027,-0.6346160555362726,0.13813069009877862,-0.07791750758280752,-0.1574208190376988,-0.045784353776506304,-0.47363489390269464,0.4738033633137302###-0.17475004153175605,-0.04213197623929409,-1.0683227010210559,-0.0022554926949397373,-0.31801473348516535,0.13629295328297292,1.2738462469198855,-0.5184915430087272,0.034261998382774626,-0.2820049546711352,0.34191066427219374,-0.5084004854032976,0.16139262496666798,-0.20549567041844227,0.23323682892851566,-0.10161733918723598###0.025180348530562075,0.18396704060477856,-1.4177987203345106,0.2933054444261661,0.09319071140484783,0.047353013435660785,0.7249188558007382,0.2635038145963432,-0.16336563372303808,0.41748228837984236,-0.23878717563215876,0.31133830539545043,0.2105038327496902,0.0364989464656095,-0.27431619684193365,0.3128601991679318###-0.4532452556871567,0.2531467470182946,-1.662823992030877,-0.10902904578855736,0.16426177743394227,0.08183034076935926,0.5885937307366474,-0.4187253014883764,-0.02282650218203541,0.37413920180743043,0.07671821049827872,0.08526618055131628,0.2166848810618821,-0.1272615539065772,0.21363752776316228,0.015235783873448832###0.1353342472674073,0.1020489396012538,-0.7019577806235389,-0.07679369488748537,0.26257109496296566,-0.14133853654915904,0.9894112741903931,0.5096901581344041,0.16191732796849084,0.2582342421394822,0.08146983650919455,0.7327762931560516,-0.1641799921467763,-0.4078051498412727,0.5215836256280835,-0.15571687019703453###0.07879471348496023,0.14584710026196102,-0.11304097284183813,-0.07467125244769243,0.11703363357501295,-0.09613351175085427,0.7206975334958344,0.0345312044989865,-0.09031032604302525,0.39281036468672764,0.0535310930803949,0.19991266571258406,0.14827139662276073,-0.05656904520864596,0.9654861451727482,-0.2794106880572638###0.3496084372617965,-0.5364610956878497,-0.37595541528308946,-0.2822163690288135,0.05608823522493669,-0.2905777311132249,0.47190620638018377,0.476425398931253,-0.05872325143026883,0.5910787770803241,0.005074362938268745,0.15251058085790284,-0.10644260892578608,-0.08774277473812901,0.28978438840042303,-0.300786926941803###-0.26005684470828094,0.1055747424656524,-0.09476728763552864,0.05314065798387758,0.39971732263733123,0.04120020857715547,0.3324585211112409,-0.06838615041082732,-0.3001624927865629,-0.150653945543783,0.31546098452759425,-0.4206699535260198,-0.29038885260376796,-0.5376224257725811,0.6179554313724889,-0.3858747784959151###0.3619043329976724,-0.16667715430792643,0.13297679893126094,-0.06412391447128764,0.02027936403300763,-0.18341097728774614,-0.11678148909685865,0.09744729202126397,0.31482159208804866,-0.39346240860744913,0.2611604455653949,-0.18212174144437415,-0.10647292072691407,0.12811342312157203,-0.5460591396008239,-0.3243223816448018###0.013379790887926912,0.28560067133366773,0.19596504854905075,-0.27541940106878665,0.12217042923372705,0.12415036333995419,0.21971491807368476,-0.44649356526404593,0.1965570372613776,0.1159835551673173,-0.3509533038364176,0.3398406287605653,