-0.013272699044124564,0.022649177468622165,-0.0871665370962118,0.03238410988660014,0.0465608241742312,-0.08673709321810476,-0.16257745471299018,-0.008799284603719176,-0.028767035273804736,-0.022159982911525426,0.051469792160645476,-0.042673279923205014,0.1020184834154281,0.0894724394029915,0.030230009896735577,-0.07545540765279936###0.06078451373309698,0.03378511640136593,-0.15617004685930927,0.05672909641671445,-0.0444368254446441,-0.06403873721962586,-0.16776442549214257,-0.03702415409072185,-0.005738925637167955,-0.0354262950475655,0.11722814757435777,0.014767948024160024,0.17152276262658434,0.027330344848027967,0.04327199993923682,0.03213094458593365###0.0798054572155129,-0.031442740818273474,-0.26396752586561234,0.006158833888747096,-0.026529078874610677,0.004699937636521305,-0.030327067856408093,-0.03955499118282814,0.01985699245540207,0.04490838060115175,0.1072191351252195,0.06263899783397632,0.15556885212563365,0.030474395096466288,0.02279096239685884,-0.06869794683040524###0.0022091978653237298,0.03602935402158655,-0.0932464120224815,-0.0028895086562272473,-0.016298021613387694,-0.007083208063168738,-0.17199765171260706,-0.07029254508466053,-0.06009524454299187,0.08828062976087091,0.07930082598583962,0.05286304871670295,0.09452175616898201,-0.035843974486137,-0.026844256195136397,-0.04159025371909317###-0.038147361164337,-0.06270028685563432,-0.11984598310777189,0.030702335565360554,0.05078616919667486,0.04961935529573265,-0.04553657211401399,-0.06753218390691376,0.03356428334272247,0.011928512607025514,0.028186140615768195,0.026348990360670777,-0.08285957627197829,-0.19172426534240708,0.08742325347589985,0.16580167160406534###-0.001426739083864669,0.017278062872413288,-0.12995913913578405,0.0026795102542465036,0.019287716053585577,-0.0480062640339308,0.0092007741654487,-0.07504730568419647,0.02181557070054813,0.03997940871875345,0.1013394584397004,-0.012994813556579462,-0.1327116311956473,-0.0196201701914176,0.02329097220537069,0.2532516941354885###-0.0020529079926650093,-0.03334897025368606,-0.16878439129753411,0.012280247042677276,0.04263776232865499,0.028355696458012194,-0.021542887078192293,-0.04473434391962086,-0.010005809639215107,-0.1256973131585537,0.2675087563281411,0.04690156059364495,-0.049376831886007014,-0.10746701328589633,0.03627877871559635,0.07104463670380295###0.04546724313728735,-0.020191696137362422,-0.07265693763555807,0.05242259579454423,-0.025340964945507385,0.001751047887199828,-0.11191498126425374,-0.04774422822349928,0.036002822336621276,-0.16739829497082281,0.04012732546532925,0.03739076336079128,0.16808582742648812,-0.026279372941033143,-0.035339764672017514,0.08660592410123527###3.331953101748954E-5,0.04842533211029651,-0.22629536206484013,-0.005643258878013556,0.016262704254125165,0.028298203936376852,0.03545359752688132,-0.04395806569263052,-0.01820644431105231,-0.35910018787060316,0.2762888102903949,0.050008395713360465,0.13293632716265447,-0.027992915081818663,0.061647666425729726,0.18503214987022087###0.027009354665191596,-0.015792891043904574,-0.31072282181884847,-0.017104803652936356,0.04951894973933439,-0.003093751245601461,0.1364433792161697,-0.022821193469454923,0.012595872404249286,-0.24391233548933058,0.31117703925151313,-0.027195218455253207,0.10938260558317205,0.12809120435658208,0.012065022785715572,0.37194646824780775###-0.024711486392679973,0.03410451212504744,-0.20806361845611487,-0.017266931963312058,0.003644089520385407,0.05415733602370779,0.19523578252946283,-0.034625170494945824,0.01288316293604914,-0.14963159420496266,0.216320515586376,0.056069223061497975,0.10131303114854849,-0.21295406377762752,0.032072120451398255,-0.05264896208482566###0.008688982480675816,0.005988029102085025,-0.24652739591184977,0.025605151313078348,0.018101063617261735,0.04627239174924523,0.1423524068168564,-0.13301790442308267,-0.05939970880140197,-0.31509083515835884,0.12368538734309176,-0.07280409606423822,-0.14804702677021767,-0.08161583801088668,0.0012007838976302533,0.2899155204648429###-0.01155834063041087,0.00708670427763723,-0.18269252255952168,0.011135524207003868,0.0979596325977889,0.0432289332760484,0.23057304480740867,0.15023264924167254,0.018035445988399054,-0.18481459351101684,0.22477324217225553,0.01815541095130191,-0.08373268501176641,0.2097904814339748,0.07853322491013555,0.3972312621282878###0.029989230930220177,-0.009085517976686967,-0.043939940281598894,-0.03306538430513528,0.05969766547865981,5.272283618565409E-4,0.32047236708617527,0.19845432531597051,-0.006600674643057391,-0.31288220985910453,0.37722440354081066,0.017965618198334147,0.09622091457429822,0.29540888681581456,-0.024921129540806313,0.36436151191584143###-0.008714924258254089,-0.02709337263297367,-0.16781177559300486,-0.02081897144709185,0.0864658043385557,0.04250777882188604,0.24291693875476386,0.1716271200078293,0.05857008845768987,-0.5146794510030854,0.4196360786546299,0.018544453830368665,0.262170622069053,-0.048852123847237715,0.015607655898139495,0.3199561163020174###0.027737931297165615,-0.061232221466821155,-0.05658988914455251,-0.05999599681297106,-0.006848855142427432,-0.03759040277890676,0.1728234921211603,0.07967792273278392,-0.024725459566530064,-0.5562049628602279,0.20512134449686964,0.037083004927124255,0.07453850865391415,0.011484693855649484,0.02332783104648153,-0.1094176453884677###4.7957896539432127E-4,-4.2487854796365964E-4,-0.4069704675517843,-0.014613364864203476,0.004039498914320304,-0.018915381937578694,0.42900195841978117,-0.04932033398719537,-0.03477023753854702,-0.4837026834160074,0.3386916336160172,-0.02001652081491142,-0.04036259681485972,0.11530795022699304,0.051763361499494,0.3340398941648454###0.042333175439406456,0.0427561407556801,-0.008963871956915068,-0.006089508750808973,0.05462164224332638,0.028690025694839534,0.043054325612115384,-0.12180250633011126,0.030646174164110918,-0.33125143687945213,0.18128369705219735,0.010666960712093951,-0.017012712071850795,0.2340373011761361,0.010003788437527519,0.6743236691067594###-0.006699934206152905,0.06332690068543093,-0.1075486912896614,-0.04194464734983598,0.05758477197678337,0.04859134189715047,0.24532300078500902,-0.07459496856465216,0.03817021709144058,-0.22540030214122073,0.13874739141451217,0.017286132643519914,-0.041432075637823966,-0.1936004031213564,0.05218225871383353,0.45426348378242454###-0.02779957676804008,0.11375718765770296,-0.24385145965904811,-0.021382393238959102,0.004619650445201104,0.016259673877868284,0.029015601720405335,0.046514264677749474,0.014915382206965408,-0.46839345519204506,0.37509741315116635,0.0036816725467516288,-0.1004183079204528,0.015591570666169013,0.03202386924272288,0.3976846281913982###-0.017161676201913015,0.022208289673776523,-0.013754710943181012,0.03298438372543434,0.026722695919813844,-0.017190667005782315,0.29900009094996866,-0.09560753248477286,0.006451284763503256,-0.4651403729909624,0.29590901947240555,-0.04149933130928987,0.019544925745762942,-0.13146086338309598,0.05643380102811745,0.16561596039785229###-0.015624465286466525,0.020008428510051898,-0.12293085877767837,0.009526819697322797,0.033072695520325227,-0.029061287606939767,0.050547046550649496,-0.024023340791648484,0.03415692022037231,-0.2751576672920993,0.1417696496502947,0.018315987377712374,0.09748217042091964,0.22016423004366129,0.04116088313534214,0.23307472142335517###0.03231030622013822,-0.014732181800816304,-0.2644905728323115,0.008874965515880351,0.004787447350845313,0.04162323311179001,0.19494813665709315,-0.019286904530530943,0.034054009564853036,-0.26569376136201656,0.015470598614474921,0.010423994018418163,-0.11921312302052825,0.0019357501376043049,-0.0015971868243115864,0.3121747826546991###-0.01155026645184785,0.017858373256067886,-0.002240983754497737,-8.447682174140117E-4,0.03825764984290122,-0.06585131297784674,0.08958727702814592,-0.01679338132612905,-0.005905812973875143,-0.45062781828016657,0.08919071758082935,0.021214254098615395,0.13373276477219023,-0.14404704827782394,0.0416509786643277,0.16935643562342476###0.009802046736863407,-0.05398335293929194,-0.028629957924900144,0.0131526563629814,0.008939467312562193,0.05618527402834029,0.03161198881382971,0.00584092822120109,0.005194805859204554,-0.13178887704830355,0.037274383696670535,-0.024289236815701002,0.2391565843870999,-0.1784692166110354,-0.026067717785181608,-0.09232387965073668###0.05807379003139479,-0.00813849064345371,-0.0497018948570363,0.01345321857361755,-0.04280546204301361,0.015924871357156603,0.021373819541741786,0.0079086452343124,-0.013297518055377789,-0.1458679264579823,0.0026448442894450707,-0.019537287472773227,0.05464643371919782,-0.17221894258149475,-0.010746410445044579,-0.08150639820829882###0.020201734118647563,-0.045950126892655874,0.04020782305413245,-0.029181373009309706,-0.002753079109588924,0.02728168941934824,-0.01111913697916887,0.02033462198610388,-0.015340858315260851,-0.13577814394391174,0.07825574130691859,-0.008041249086971765,0.14010279700920542,-0.07579028066892363,0.012940621765584208,0.07875570743221891###-0.022874793300361785,0.03927250708791257,0.04934623272505366,-0.08436944426003826,-0.009682642586986643,0.016666925804413358,-0.03540787854615461,-0.04748974355960583,0.004673862638936938,-0.19523684202606117,0.026761240162337583,0.014810472663954959,0.1177978809353655,-0.08261421608362922,-0.05716676346889333,0.09034173022128068###-0.004743161415825817,0.02004299555476343,-0.14021240937813076,0.01106926618108668,0.07733318547290978,0.012494204809124412,-0.25408741134236906,-0.006627053625288991,0.022461220783030957,0.001842090102487834,-0.013501438984775882,-0.11457421863292341,0.17917503931516257,-0.10445355378183163,0.07070150508736459,-0.16099880783204845###-0.0674227616202201,-0.03416771923754352,-0.300982979961949,0.02860793358713021,0.03834044204455382,0.01103531989833106,-0.20883529838670267,0.03657691798646621,1.196581450437247E-4,0.12770176322742785,0.11173615230357309,-0.059118798046518296,0.230941971190769,-0.12748588657222001,0.03234324532700687,-0.021616552816664136###0.006860328067895111,0.02039576722421401,-0.2608440294710894,0.008590786924515021,0.018502845542867612,0.050402744254002825,-0.022317998857086917,-0.037881763595204905,0.006648250180346712,-0.04471798101860385,-0.035538417826062506,-0.028332714705960348,0.16797065922164103,-0.062030738232032465,0.034631857678059555,-0.20167358022231427###0.01616603749078644,-0.036716733666500405,-0.20213269444263032,0.06215886097450791,-0.010386344424234261,-0.046887999119635225,-0.07339387545218291,-0.09695575589736107,0.02950864419725599,-0.11431275806539744,0.02348185380107673,0.06757037462781686,0.19501942276437498,-0.10385684315023747,0.00889655721435495,-0.04038645466641711###0.059286811862993234,0.018192804063411318,-0.13338122425803178,-0.008528666726046127,-0.009137139219476861,0.016773400432365655,-0.2902760277988478,-0.06525116264997897,0.003826323796040492,-0.06706249480540022,-0.015853332849618238,-0.005624607691036492,0.04429828767668247,-0.004427588385312624,-0.005172138269040877,0.2629138914044164###0.020166887800202524,0.03271877992590049,-0.09396760564919097,-0.043059421794559946,-0.00711249765168462,0.09500286543056626,-0.05476029799596378,-0.07563720999021172,0.010185580492412265,-0.044380579502532054,0.09297822392071112,0.05326571725137479,0.0010620787430751422,-0.017298714110091283,0.006137519746536988,0.17001467506534726###0.043189573394606176,0.04535516842696322,-0.12711300940296177,-0.010310604535225911,-0.019520485772474783,-0.026110334287884254,0.016228469189873758,-0.11246689653362052,0.06362369009148221,-0.010320225624948188,0.1759268667716697,-0.08626776614464221,-0.1390996432817493,-0.12281533430890385,0.04505454970935078,0.1193879774033726###0.03380638467456816,-0.011896254547672819,-0.06856620494846795,0.046705992152193745,-0.017578715455388378,-0.034984504285131265,0.009763285244085575,-0.10489745614952159,0.0548510269485343,-0.18695913247304896,0.08378566731559692,-0.023017378495634493,0.06780455815814253,-0.18362417823674246,0.0661058167370409,0.0326219365925869###-0.029632985770893745,0.017721833321395746,-0.015482168699852661,-0.03964455229816726,0.06834480008698395,0.07336272919106897,0.10780149508868456,-0.2179941180906427,0.012766964706588663,0.03397387043846741,0.29988135134829097,0.05007903707824528,0.11668499200117348,0.005773695799190979,0.04860093422155012,-0.0031648974512605197###0.06821560849649946,0.03943400427042738,0.04958890573046281,-0.06122803691267716,-0.0171335860788537,-0.008136972350379001,0.12965347255887438,-0.08976623478898815,-0.015160901863151314,-0.2120506603064607,0.13609201967596687,-0.008834048473557052,-0.00845388895479395,-0.037671021416858894,0.036989245708712225,-0.06356624222392429###-0.05495177444635968,0.005422605900414841,-0.023742681602917523,-0.020325532447193498,0.0035534092904669213,0.021453433690536757,-0.012483387045883023,0.11226385260824735,-0.046757284157169184,-0.13365195892126916,0.1361514550495323,0.0071994459496756945,-0.07549471676051323,-0.2603194241657893,-0.0058804010384997975,0.006505067216284399###0.02874858562094598,-0.02953783084876401,-0.3637217676634804,-0.060215054537647486,0.006759400146115306,-5.6926863456467E-4,0.06589781689336582,-0.0723885711360918,0.13009346574327402,-0.5055017652836732,0.09683172192423799,0.014756648082714765,0.028715870339480108,-0.3495053897063786,0.05118444390651522,0.09641661880440494###-0.0014202467366400482,0.037501385997855664,-0.259988514420604,-0.0018810499165461073,0.06387675515802653,0.001270802076599473,0.09553728549101428,0.014746934431501471,-0.007404326688614941,-0.26256493557356425,0.23035788078014038,0.026253522211810747,-0.17300945635637682,-0.3485038887517668,0.05817839669913008,0.03966314231762953###0.05634157855636136,0.003235914025863001,-0.07981479667387581,0.03166591386060194,0.037265038385110354,-0.021038730774054853,0.12424389200732303,-0.08254599199687086,0.0035558922226729475,-0.013017073446992721,0.09176158669102673,0.019972566273704032,-0.07820596954399417,-0.33652349604695103,0.013278642799013918,-0.014000806482665986###0.004118342873684647,0.04177279012435541,-0.16767622536451962,-0.002744830642688341,-0.0037047809101095576,0.08617584870822645,0.24424632378711375,-0.10841182113774539,-0.0025721350312068953,-0.44730234143200615,0.19981648187726903,-2.473359050941077E-4,-0.2270064710042937,-0.33151076331038815,0.08812927862974947,0.10272439497865363###-0.06702521203832498,-0.013557868640813224,-0.0989361707225592,-0.04608863972294134,0.05788717230990026,0.019592156043090524,-0.062261925805309905,-0.030782216613746034,0.022840246891743084,-0.6243884527380427,0.29781979336113923,0.058568815698717726,-0.022550009246819346,-0.24892973761776893,0.03262665535230478,0.15415504113099188###0.009252783406236408,0.021331779649241846,0.15997368985886057,-0.04526294591212266,0.023550698922587168,0.03328681190096464,0.12639389161489667,-0.10367213796213459,0.013613062041844301,-0.5086172656543796,0.4953584991132736,0.0962355110853145,-0.04204137840708258,-0.1392186922872044,0.023637142559563906,-0.26620035160247807###0.01216495215098201,0.01034414034178824,0.18800086706121746,-0.037971473268810466,0.04590340398861676,0.036761150555102366,-0.003949157256117102,-0.013220829169619079,0.02842820870145544,-0.46759708810956985,0.17181231839400912,-0.011597332869633905,-0.22815367434327552,-0.11137560843843149,0.019698340616304297,-0.0010624863386492344###-0.02072737300817736,0.00999109330089486,-0.07191533676008141,-0.013976185449672522,0.02403429495975707,-0.00533148049346235,0.018670108512557067,0.08119286457154419,-0.03847473088265874,-0.4297441722703298,0.11414619273376972,0.05541451491097064,-0.41173360594314584,-0.26041429949151185,0.020679718635974547,-0.008413853463309987###0.09950756259105079,-0.00905728030086551,-0.15646128503189918,0.05236926467042958,-0.028754430093441228,0.025465178733135405,0.1333166125960935,-0.05001435963582393,0.004662755449799526,-0.46995210766706463,0.20956877274820424,-0.02705592824175231,-0.4189232425010693,-0.13306124545630565,0.006719871205383226,0.2669946640338492###0.018384155041682365,-0.023185301873117826,0.07436752733905647,0.00688034560440408,0.06956240603400755,0.007530225842656643,0.21646048350635094,-0.15120505205759832,0.007848772322454595,-0.6557758414185436,0.3331994390814602,0.007558933141973571,-0.13828053469771873,-0.09299225180715634,0.05444392937430136,-0.019435125431703094###-0.058156600653334334,0.007933906063916602,0.11628047129133531,0.01670218597346333,0.033345270026829736,0.010703957686412868,0.40126511967221296,-0.03031866164742489,0.06326842177001409,-0.5447821384153069,0.20451049979893357,0.0348546254328329,-0.17390192661529028,0.08633760554273127,0.01846116187914782,-0.016584553405088447###0.04257162555770257,0.010731492201907233,-0.015995330225511126,0.002150485617210915,0.028943020098302442,0.006001423050401274,0.024990479888538288,-0.09967836327823844,-0.01548718098538164,-0.3938284879494725,0.18402514171355067,-5.313161638772399E-4,-0.14045463882734674,0.002592276370888325,-0.003531774677224828,0.01403771409199341###0.03025381699827574,0.011422538930360205,0.08417096690260395,0.028698677300058473,0.004831495492895262,-0.017582746877612222,0.006197491075496757,-0.0300917333182638,0.0282466298130876,-0.22301038822728883,0.23084328330071557,0.01578250378815413,0.04319300274283822,0.033278807880544325,-0.003750273505657785,0.05216720501001163###0.051084623163796035,-0.021190046473385835,-0.022372441201770055,0.0466964794786428,0.0060789898441461696,-0.017420282509378805,-0.02007495357731721,-0.0743955197979401,0.02221087878385751,-0.17169924295690595,0.09937048954150918,3.719348984277737E-4,0.26315947584927507,-0.1743282508518238,0.0786587800246829,-0.08818261827719376###0.03263817109798793,0.09212130123310323,0.060604652035817747,-0.016694371860615412,0.004221829174162058,-0.06008016648560989,-0.015988272175691435,-0.06707024192731968,0.053941676436034564,-0.17600259594277856,0.12650918642302464,0.025540937618945176,0.09874956499737768,-0.16266199256159414,0.034884236903965866,-0.06707919995978505###0.010460149725891097,0.0036373567087852536,0.09590755373948084,0.01491358732428593,0.010554902155760859,-0.01625824759494874,-0.06151630648258485,-0.06282207401670126,-9.849430377230522E-4,-0.229182231750506,0.23420420069022382,-0.059200301016817565,0.20100448825995865,0.03798711669266629,-0.03326171960233997,-0.04642765108212582###0.011744706623720057,0.04966632385967049,0.12765485167057591,0.025890007393794347,0.02424744733548151,0.015805722926249162,-0.09465256993461041,-0.07551834803670358,-0.017425561060362586,-0.17812204836129658,0.06576043588320585,-0.0062448400445390476,0.16893890693613267,-0.018211426043290242,0.002977413797346656,-0.03797658082660224###-0.018858200754446434,-0.023963233853306665,-0.14868155873394492,-0.02070052535272956,0.05142303158948565,0.03872124817476492,-0.16775640544638068,-0.12068326418634093,-0.006035336168318998,0.01843965485788001,0.020324270001259265,0.020950273754722328,0.11431145505514285,-0.12371115839535932,-0.02884392742925226,-0.03040284609431176###-0.057721586000405715,-0.004843521986436335,-0.08650497769001474,-0.023805940411966056,0.0720539424595794,-3.535404125098508E-4,-0.08424334101507498,-0.031654213483845686,-0.05852778197721273,0.010758319296560502,-0.04530031108066314,0.04913207471852177,0.13106449702831294,0.14938885372723576,-0.009523572200595578,0.11850942784140713###0.03527360731695603,-0.007620639605924503,-0.09729970949214184,0.005889690372393647,-0.0036887737274264023,-0.011712064496714195,-0.058665816087580626,-0.02072639910132214,-0.07596981651989043,0.00974399599625714,0.04309138130098454,0.034562826345893014,0.24129431616902178,-0.012198961411089225,-0.01467425788106141,-0.022893939373723665###0.030333450627645905,0.08711127328170684,-0.06902819335337147,0.007376979241299298,-0.04508180372797494,-0.0673243887640355,-0.028785839605283903,-0.07383830235292065,0.09291578571660289,-0.00843712481482168,-0.07189775647400351,0.0016741660464199678,0.3306885083048027,0.07099497314524846,-0.03361840436446227,-0.10761248796610343###-0.020681965109340412,0.043116273789409305,-0.12219956230778332,0.05569692882815647,0.03260533039026324,0.03605686403277914,-0.1482862867687683,-0.05137417961004599,0.001847490389477651,-0.05729868459020154,0.07111008758852361,-0.03673690320704686,0.24607575111991234,0.02503298312013669,0.05901680536248459,0.01507381935662363###8.302206642899506E-4,-0.02482082314058681,-0.2212445314013113,0.0868370591835023,-0.008466613880882781,0.019454144010364015,-0.08255302246197739,-0.07430365873926005,0.014002912131727385,-0.19890748575516476,0.05198047060056671,-0.00833259847889654,0.14162379743957693,-0.030347751202810976,0.028622230287894256,0.08935797719802833###0.04740171886518119,0.021222855682716996,-0.23766659656805958,-0.06736556094565957,-0.06577122536795199,5.729746355941486E-4,0.06159710938761091,-0.07018281505593595,0.07278849048823048,-0.1475348439841959,-0.001071953252884621,-0.04049701169193014,0.15715224849552403,-0.11144812104994758,0.015947320485971892,0.033027489451113244###-0.040791520835442345,-0.015555915219870283,-0.09575469299748243,0.01536308884154995,-0.014191902126005698,0.025831513982041854,0.29814249993742925,-0.02662446583045408,0.020469674545533115,-0.16970901326937207,0.03631844168716017,-0.09720760449750931,0.2737297180882311,-0.14729131065725626,0.025304878578185728,-0.08902290933211893###0.048457272909871854,0.05116725534566859,-0.19945513582284424,0.0016482964511962698,-0.017720118053522083,0.025942399164479147,-0.025535793190414716,-0.14863646098038694,0.042422148192173464,-0.30364507072772423,0.15407019307080555,0.007529274807335113,0.16306948328715826,-0.014580533501919507,-0.022177087023413762,0.053624722191165826###0.015959672863530453,0.026704373231688,-0.05027872873533734,0.017583527898742582,0.07377234440776041,0.02503063045647678,0.1796793174131679,-0.07752220074086238,-0.04170537864265194,-0.3520074687542826,0.0889277389515241,0.03657279295136009,0.036779823668843976,0.09081797219248844,0.07511676409959964,0.023235385386106994###0.02178256865808397,-0.033433390377246984,0.11097958593649952,-0.007974425244300394,-0.023175928518687168,0.04745632885773164,0.2962497892275625,-0.06945130972551718,0.011938761081047251,-0.39236714045435606,0.1583052842734466,1.4388478373280044E-4,0.050397954969889275,-0.21692828804314362,0.056583963347816235,-0.013220821695669729###0.037051491968440084,0.02436252829790196,-0.15502289649793685,0.00873980503304581,0.041574355044728235,0.03448857937807117,0.40269924727834033,-0.1899010327943819,0.05969576096272831,-0.45808193174823036,0.3216244506006459,-0.00537200334432459,-0.09920128903111848,0.06142773552236839,0.045421380846542805,-0.18743644055686035###-0.006904216565654049,-0.036649807606130215,-0.12252036596652666,0.023273388539754056,0.010610986684499788,-0.042181129225335116,0.4282562046033645,-0.13634580868402496,0.03489056905189231,-0.6103462639986842,0.3406033352600648,0.0618873634799397,-0.028455255560220216,0.11488981259038365,0.020202817516080333,-0.14318187573580213###-0.0277054732709702,0.0035447282762625315,0.14884202101528043,0.0037639426286090426,0.05507768895778471,0.009620902005018288,0.17590745756411313,-0.047225856614503826,0.025365360413584507,-0.4869696521560455,0.4433779815392556,0.01943801166728724,-0.04289958986218961,-0.032722376627625796,0.06919613424000838,-0.20990003351272707###0.05214577232402593,0.010848830241624948,0.01951518371456621,0.01457877229467911,0.03238545159809122,0.01090546377045334,0.4454739250371775,-0.15342604906551707,-0.003766457060829968,-0.8894572267538289,0.6378533044579519,0.0037816241259168164,-0.0774683079681503,-0.25843889975480017,0.005607872803388087,-0.6173243683652194###0.020779255253741972,0.02449395551029771,0.21312411123625077,0.02110461623369758,0.010248456465254492,-0.053915563625289896,0.4999919531827813,-0.25216958852358384,0.035667404760013274,-0.7524604500710274,0.3497484583843499,0.010981230156614407,0.2854798019108666,-0.270064778309999,-0.04817647535935715,-0.9153450904878304###0.08909251168413464,-0.018237699941099434,0.1606284436397083,-0.034513594734611505,0.02710516224385806,0.010001092163842587,1.0021665681120882,-0.05934474491542012,0.006752908219220134,-1.1163165481882438,0.6616651135407853,0.044339412754360465,-0.27817443689173976,0.0034514269158886167,0.11323856422579275,-0.8009421228265855###0.05776267900295106,0.0033431813660437545,0.4165337688110401,0.014451126453074153,0.042859649044677504,0.0338253750930323,0.8276745935882476,-0.13677837786686475,-0.007467694475873473,-1.353228391667323,0.5016072448343095,0.05418673803543206,-0.3665281513292707,-0.4639680209836355,-0.07666941269542046,-0.5156441866990845###0.0331068174876121,-0.02435536009784954,0.30756969517020927,0.02927453225728899,0.04225247079603448,-0.008844630758565149,0.766773815350353,-0.05342733341672359,0.0173707218647749,-1.424351567023305,0.5314711531513233,0.04267452170026453,-0.3723250884763472,-0.12017572285701958,0.014736744302102141,-0.3497583834575651###-0.02669829632746677,0.02468777962757066,0.22441104507344203,0.019137909870827953,0.056416180599668846,0.058500742751954424,0.6816167335635258,-0.20779485622672922,0.019502381955923367,-1.371243320874934,0.6003155405658761,0.02389794020536119,-0.15139711730640876,-0.5216249145008873,-0.0033326921662646795,-0.19990132472333672###-0.0036956505680665057,-0.011278237969396416,0.3953139278366366,0.0017178667177535588,0.055129523669619915,-0.004432093561588457,0.2606060605737447,-0.10369727407406999,-0.028461147737870597,-0.8896786812701812,0.5391913660566585,-0.021628314131076513,-0.09616328838092227,-0.41775635698333946,0.033389768726954726,-0.33393909716642023###0.00882648175051181,0.0284802440292825,0.18027973979644918,-0.040910000753860525,0.07688128756842273,0.022178891652454787,0.4226948742154249,-0.08469464721243476,-0.022358358071102844,-0.7840554621521716,0.27446360240437,0.02437720844538942,-0.09811731976387744,-0.264622998440891,-0.02828394181763804,-0.30293040537275034###0.01936046053036968,-0.012942339538342928,0.32397300667374773,-0.027693535874632424,0.042008687631794266,0.036911024507708896,0.30192456218781955,-0.08209786295670272,-0.006824750025884535,-0.7676924357731106,0.20157198652585645,0.032178393621914,-0.157908475146297,-0.19307794701107223,0.03363841781202977,0.08906359483203118###0.006151542217354604,-2.589715012396032E-4,0.15251730405364164,0.02852654759303216,-0.04622017943651071,-0.031808010249101716,0.0063444889413451794,0.008973250654208466,-0.018160998125469573,-0.38092170095373223,0.3653240708990338,0.02526101044255647,-0.14774194539473912,-0.016708612034817546,0.015487873764468524,0.3198478894262425###-0.04263087535447821,0.02301612770721103,0.05436472008993525,0.019714953227822175,-0.03250678727606479,0.0137656162424925,-0.043418279220198176,-0.08314670045020726,0.006267294411463432,-0.17785189066982446,0.09082859872223797,0.0554502552306954,0.0013827154849296755,-0.20331550057007994,0.05667380864168644,-0.13262646930675367###0.02699973489477342,-0.016204171793684923,0.031069439020386398,-0.07018809432794233,-0.05894416125491016,0.017487777511028323,-0.05788525986078925,-0.05610974062997585,0.003745555964989497,-0.1742254456616933,0.08734419401348524,0.0010549814829337724,-0.020266680521728208,-0.19610690584765988,0.0012032565124563295,-0.06902278113855909###0.015680383611692435,0.004173909139625192,-0.0033742981580115517,0.02365596469094783,-0.04502367370469847,0.04755080966328907,-0.055364250444874696,-0.06514614613281301,0.05381871815342276,-0.14578771334232107,0.20535809102886057,0.04075666031584029,0.15398715583297773,-0.1104959850472804,-0.022470867794812065,-0.17054164968410762###0.0015018399148264622,0.10060186666876614,-0.02747655956923935,0.005652233697595416,0.01983369298128899,0.03555929730892544,-0.17696452219268263,2.2522777408509116E-4,0.012630876186943765,-0.1790612913676117,0.16894338836870396,0.017409585889422475,0.11687708650766916,-0.07261731532316963,0.006560775221424017,-0.1334034015068587###0.07169080511032956,-0.045442378410319534,-0.226139317311603,0.029597242983642694,-0.00405614970752587,-0.07678149838566599,-0.058354869359771515,-0.10508080472381302,0.005770310216508838,0.03542497342573131,-0.004989803856690028,0.0020489696426261536,0.27085131703777915,-0.11929324932377718,0.03173145289672411,-0.12331046068885357###-0.05796029203729028,0.017294490980446525,-0.08298185054356039,0.008055522594813276,0.0011291460813020716,-0.004139473806442051,-0.13059918389315406,-0.12216679847762828,0.045199050561292684,0.07410911966777216,-0.017258573658927415,0.06002486973993646,0.20535260755775586,-0.01999917126230245,-0.07830512054524699,-0.05585406267690937###0.04970737028774543,-0.04291369838190357,-0.03954393368689423,-0.011942870652183461,0.07113301402930171,0.08955972827663028,-0.11161700374702385,-0.0245903432926328,0.019604485829637235,0.09277937550766571,0.0800772428369933,0.04403511591917454,0.07688199965254884,-0.13931298962795777,-0.023677506042718247,-0.011482779812485293###0.003491035974997297,0.029000647626453015,-0.02416578825971655,0.015962875167089385,-0.0049205661214401075,-0.04420102830797396,-0.024441487399961142,-0.09652788379426971,-0.026695182987706432,0.054595450827594504,0.007317489266059291,-0.006263786127094819,0.17962139055470436,-0.0034761267964520132,-0.06351535138897269,-0.14575715002663436###0.0030462615234075493,-0.002740413762865279,-0.08585295110791788,0.036280109417469696,-0.00557732773062901,0.025124109939214212,-0.014084639909391296,-0.0540644022439333,7.271745253462664E-4,-0.006277084979734499,0.06293864307970495,0.016030185586123284,0.08180653457497566,-0.10992467522756001,-0.004976632350493577,-0.0557359957496234###0.006564168556631968,0.09863682406171893,-0.02266658470800976,0.0345173796449797,-0.037770014447045926,-0.005733879199056151,-0.009551027854116855,-0.036786857249660534,0.02470660969345959,0.177467889835245,-0.01697295099828543,0.0012381325780005427,-0.09085386385331336,-0.04257782975011927,-0.008388769950163731,0.03518488982246914###-0.0167858628955336,0.007203270136171772,-0.02922074543594712,-0.0031251924545310744,0.08361018009598647,-0.03872920914220745,-0.011933442008392036,-0.08955463392562298,-0.02283969995302496,0.05616087669065331,0.09414000348637402,-0.05568702064309541,-0.08353902395076471,-0.004236461468577678,-0.027834670712299232,0.08876040413514308###0.058695110760027834,0.0502845945696427,-0.039740401825745585,-0.029329394280624654,-0.003125585072681267,0.007068464106122555,-0.014592564119007181,-0.0891110494293744,0.021582779046293105,0.07012661493055836,0.062276492653166905,-0.033665952376699344,-0.012594132409290337,0.11378454469451632,-0.027056001653749277,-0.2295470824638073###0.025204711048017036,-0.030946856260491883,-0.15341439529795178,-0.01118482451383933,-0.0560697666572192,0.017334734724957574,0.2346887119248909,-0.115911096015372,0.026601221762300405,-0.15646173816042336,0.02112586037878045,-0.011786411423169966,0.09480154029350304,-0.01183271606687831,-0.012506636786699535,-0.16561832444953462###0.01577301837198242,0.03486702602593138,-0.03615001302708314,-0.09374936701824631,0.02260468159900781,0.03435471277109121,0.11662318101315139,-0.05654166770920504,-0.058577075813266585,-0.11618787365092387,0.021592860449153515,0.02810839986751989,-0.11595846150778462,0.11367395568678199,0.023917484303206456,-0.1362855929338405###0.04707561149044484,0.025255033095820043,-0.05582782751160974,-0.006903719469420447,-0.020279543128997952,-0.02994443821114098,0.09265547429527664,-0.1189445624105163,-0.028728327811921993,-0.12636949368172545,0.12580163682942544,0.03608285219829699,-0.03317024895809102,0.08200117944163737,-0.015148056653155401,-0.7018316034596436###-0.0253969509781814,-0.04563688492121743,0.09592368381934006,-0.060868821517505854,0.037853801163153296,0.04534927438022606,0.32261828134859455,-0.07394646826998486,0.05765553056436853,0.12746052168357033,0.10079422074001804,0.08815233185274263,-0.09678804087918165,-0.04765921387126065,-0.028417674310565844,-0.6991478348346025###0.060545224491104416,-0.01287032017069696,0.16536405379598193,-0.0181565621628357,0.019645803314111403,0.06067632200523741,0.8197952753056452,-0.19406206665740855,0.0747961591667646,0.007071318761022564,-0.12977651659455522,-0.02037718841210676,0.0410107206220359,0.11118961152858137,-0.030989709448922324,-0.5804415030562289###0.03401875195133869,0.015592620705726668,0.2088576983075482,-0.05905519465564533,0.07171940262007143,0.02705393618402633,1.0474007637326277,-0.15436950439477812,0.0393124015667764,-0.37701592393347855,-0.2502522817878884,0.05108044265243844,0.19304991818205106,0.1824322354191319,0.012702305293119293,-0.9817036714102747###0.04179907272609815,-0.00974616572941305,0.06374217118629344,0.0672640353039039,-4.1895142944294614E-4,-0.008769450458809527,0.984295286705663,-0.09946435723103156,-0.03979361131401562,-1.0790968738816429,-3.9748522526552254E-4,0.05571277220508168,0.2750217345067321,0.014273515358098565,0.03658126353523789,-1.4820858170103395###0.030683020153431627,0.0046480707055470746,0.12158010404853738,-0.07536848728142145,-0.011732400229887884,0.010317706910391456,0.920880834972406,0.10435193098737694,-0.007695573039428474,-0.9171479463706669,-0.200655835936963,0.05613509763682584,0.2203193719924034,0.28826278469245403,-0.027306987028097855,-1.736892964458591###0.05606613624428053,0.025876791517483337,0.13762580704403993,0.03512274872614685,-0.010255716336151787,0.03039769152624408,1.7204058943401106,0.06537423639995281,0.05688141181125531,-1.2422562447832033,-0.009635285574636296,0.07095338756687011,0.23178248504585647,0.11813983588828185,-0.04442405648835889,-0.9834389727627313###0.029470723281019316,-0.002324166699530879,0.43996579957854426,-0.07656471270582006,0.03193712581313881,0.016740772599292568,1.9259113998966397,-0.10834708385859455,-0.038525852787306226,-2.0425886126699644,0.6077517428580386,0.08865273457788887,0.206952007644675,0.10258875848364411,-9.333211586042726E-4,-0.8094297925271413###0.010757811719191894,0.02749650121811608,0.6019615549807057,-0.052103947609087146,-0.003712873858776775,0.0207844233770493,1.5325772893878806,-0.34610906474229847,-0.012067223820537994,-2.6679137917974782,0.43198092538550187,0.05852780341111121,0.04891700551117897,-0.25826954646954453,0.034253123738785765,-0.6313460746841681###0.08103705221709787,0.0282560843449485,0.593193405007525,-0.060733843588033715,0.002389848772428116,0.05955040063464093,1.09356475961671,-0.19918408960604936,0.07230833721474336,-2.151876711482777,0.4290405493206846,0.04911752578626334,-0.22419112699851151,-0.44947110080453423,0.03521214381282398,-0.4618044093203313###-0.06134962068131191,-0.03129052925849487,0.5239758427354939,0.00798690254393466,0.030961925473189347,-0.046106967974314905,1.1105715174389033,-0.2719156570101956,0.010595428553054393,-1.66435800241769,0.4025260031822377,0.09228738782304634,-0.351688885499586,-0.2984666111871144,0.04718939254191002,-0.37715840891814284###0.03862397951880387,0.07647647944826293,0.4595585749830044,-0.04058940963654435,0.017595559969306535,-0.004323143292894427,0.9455426968235732,-0.141025099209643,0.07449576472029934,-1.2787127835967216,0.37120133129020133,0.030446378435580165,-0.3357933329733812,-0.006075458292914373,0.00199384332885227,-0.2365307986328008###0.10037524528469545,-0.05537093980074013,0.6572414794027914,0.01797698459741025,0.03709511712246519,-0.012496731605373075,0.5738625870688033,-0.11999464877690935,0.008254035323639438,-1.2410933012511112,0.19927454486489385,-0.054901285421340956,-0.246911554493929,-0.13328319392320906,0.0353773389770173,0.031504331599400096###0.0034556098324630136,-0.01959934308666032,0.46297945094323883,-0.019646142739368003,0.025456281153956938,0.03617483421859409,-0.09707466592794539,-0.06391252915014846,-0.008576258723414146,-0.8163823248204709,0.12708353759838803,-0.004890182299923477,-0.08662124221941193,-0.047322751567953306,-0.042430768360684344,0.08543842258542868###8.406921693708861E-4,0.028207217890322486,0.21326428110766285,0.003566298416408676,0.041346334639908326,-0.015175630516253825,-0.07519162187737774,-0.018230066952399787,0.05367479329119773,-0.11956261164008335,0.04311906491042342,-0.06839768530074598,0.009700055334120081,-0.3031160393474148,-0.0027066601554003433,-0.08939549501644184###-0.05353471197866259,-0.015719902632799546,0.20230789257945234,0.014212888904928491,0.020706052357978764,-0.025635243734831198,-0.07612071910964036,-0.09399690689908785,0.05942579005422003,-0.08114396441556265,0.09036151296949593,0.07520830909303446,0.007374251748135985,-0.19438900424649402,-0.07609901908770035,-0.18146624069889394###-0.060797876452307074,0.04737320103413282,0.027236673403263256,-0.05695598458213048,0.02801578142734175,0.015118134662207931,0.019497142795802225,-0.044799439304520204,-0.06924956462344443,-0.0706130044433934,0.15758298292705392,0.04756583529522786,0.012478433843022085,-0.1170041070608923,-0.00749810910617646,-0.0757411676620843###-0.029509113278429044,0.06410578037356696,-0.03639447041486157,-0.01575176078492264,0.007307730609226423,-0.031801768757537374,0.005175676343528725,-0.022245446273764697,-0.06924566184759878,-0.1791979360889544,0.18423045631614415,0.07753648836596695,0.03725993242102867,-0.06749653930408939,0.026511531807442885,-0.10382283086331873###0.029571063410997796,-0.009365319102483902,-0.16739462718458845,-0.03191264245952816,0.038261113233270645,-0.02219423136863268,-0.24852359218283235,-0.11632891743636617,-0.027068302272609687,0.08361307224043246,-0.02756270425272761,0.0332494568049123,0.06611210985033256,-0.10397431519206445,-0.04079214007294607,-0.08129977502848924###-0.01205250825227445,0.025100994663767695,0.05887043624169392,-0.07122432776550078,-0.05084471006350109,-0.07108764833559644,-0.11147623818775108,-0.02401780201685167,0.005359359623593613,0.17918971904794448,0.04929869858537934,0.0027842139437713946,0.13541417260836972,-0.01410926177371842,-0.051576204986866145,-0.11372400525836741###0.13121893710840898,-0.04666736480359735,-0.02857977316464251,0.03479457053953298,-0.01694044602747115,0.04135824365046794,-0.14750637589517399,-0.02436727427231698,0.010004068444797317,0.22036847524740324,0.13462256224844518,0.03796426524915857,-6.487877081100319E-4,-0.1053360935766499,-0.01092761128234616,-0.12151742836828942###0.005802273945652341,-0.0715709758357626,-0.07644502117777853,-0.0797751872044151,-0.03454628912844352,-0.0055516740354064845,-0.04193160174754301,-0.025039336489549258,0.00154502062888308,0.18131554480467812,-0.014046455473896746,0.0029059742839665013,0.05702308596265164,0.1114314472335697,-0.003662793891450288,-0.18965716224470702###0.06166195353150804,0.01843455115985044,-0.12748227535039625,0.037816596646015006,0.04888552503083651,6.682099590583288E-4,0.1554599483133009,-0.06932223506183266,0.03575533573450755,-0.03516207691646994,-0.04140085493992086,0.08099430517484933,-0.02155608165346931,0.09824143162929784,-0.0027407374457502375,-0.14380987931492972###0.005306907050093423,-0.00930840489292307,-0.08779625578158787,-0.028338967970089134,0.032060876058742645,-0.07429278295719347,0.07614478559698486,-0.14263415977626745,-0.03259202088442842,-0.051094380020714834,0.003449365057762274,0.010922896619276437,-0.17642269651371909,0.012142062448440868,0.006730825622086085,0.05642843047082449###-0.049660119247770626,-0.006626429603803204,0.0350091924492378,-0.0460061090637998,0.0117257801602227,0.024934213083907787,-0.03862437022601167,-0.170458538540175,0.059891327307438236,-0.28346930753904226,0.05500490257880371,-0.09068181059592804,-0.2605527002258055,0.14390264781764342,0.05407458397354277,0.05287559640804748###-0.029358430321449896,0.008804330824792705,-0.07273222319275495,-0.023848128891800047,0.0431818227894171,0.01221063875747102,0.03361001397313533,-0.2236631226493344,0.04433061211662765,-0.33911082838874346,0.050886634453245275,0.02887972081811459,-0.3876408090066086,0.22364697358238736,-0.025230061199923166,-0.15072005341668065###-0.00713667253151752,0.02477200424123851,0.33067252565288285,-0.017861104122163036,-0.026579937751764586,0.07132349385130854,-0.07870126465425335,-0.26350186457313984,0.05035658599834486,-0.12027352566273768,-0.406247791176202,-0.016182322360621483,0.05517747428321899,0.1834205366876613,0.008601352354132246,-0.32416758956189934###0.021680674462534022,0.017732026078669808,0.029913039767320994,-0.005944062039591723,-0.004299843697358595,0.016781676999312826,0.07074350294237508,-0.16146451384974178,0.01858554060808531,-0.13181468369778546,-0.48949653499451573,0.05048431606927118,0.12321958865175875,0.04816041530936055,-0.012852666015909047,-0.264105969769048###0.013582320318201882,-0.007286587259283246,-0.006363289875072021,0.03977884626970587,0.013634175693234152,0.05738586043182894,0.5235761440669713,0.051593833908668965,0.03342160261981265,0.041775173255946714,-0.7251649743353539,0.061089784656807394,0.21074616908785973,0.6010007705476597,0.011775802149554707,-0.7276175653100231###0.061178664173012036,0.04799624346428594,0.15480161869100947,-0.0849592463411595,-0.04820310311752611,0.07423457721747014,0.5260768121530492,0.007165413485434501,0.015461464037068275,0.4095115842175935,-0.7057456247612685,0.07171022411747062,0.23921878463564872,1.1547590782229282,-9.799900233230824E-4,-0.7230048525972935###0.07825683697139597,0.011063594476798798,0.6441682176817378,-0.024646599672812422,0.1009045776820966,0.053790137848562125,0.3030524262454138,0.16193598583639307,0.010108916382117254,0.8779376565612629,-0.8155368471803967,0.05922231382370711,-0.12747129939130733,1.4683725671786683,-0.0063987147553315705,-0.3749954748392363###0.06768201696008336,0.054101168944979135,0.5526427067782904,-0.055044280169224934,0.09087524810664632,0.05959852601546909,0.245251398996434,0.07089422454070193,0.01772224891773807,0.39366015472100396,-0.9806314442465228,0.05176605999500762,0.18668029315821916,1.4197691241438661,0.08344140511398743,-0.2824007937357357###0.09059744639069188,0.03520284676993167,0.4492764215949463,-0.04372491446007528,0.16576948719473983,0.03447350095688244,0.11120173501538748,0.027770653495988947,0.048674617224947404,0.17733644530034498,-0.643348176508641,0.10731749002747025,0.14534770567119645,1.059720110978672,-0.011794687391604051,-0.5481029731183789###0.11019908656142201,0.06789868495623984,0.3523955804918372,-0.0810662533910092,0.1508803972277186,0.0813290320580878,-0.13319874206323973,0.07802383618629401,0.07705708021139918,0.11346907210820292,-0.5171175132351469,0.07039028342329669,-0.15304124245067058,0.831914276861172,0.11096983543442153,-0.7823891012249813###0.08645129168248715,0.08239035986141162,0.47126474548223635,-0.06317141319575476,0.08442313273430692,0.06575797853681123,0.27242634587964604,0.2821569838217073,0.05490959626437452,-0.316402409652273,-0.4125240066641971,0.11879903359451326,0.35675374279675237,1.3190815721842406,0.007491422452177603,-0.4281587796840027###0.07201486771215139,0.03307554188357203,0.24368646341991815,-0.033873501690761434,0.046565167509084626,0.04973738921295712,0.6727648780173514,0.24210847375036662,-0.002950851250379225,-0.45946684891571515,0.33528475245990974,0.09079731092689777,0.1296661469979382,1.3022239873808785,-9.377334556801849E-4,-0.5121835890033689###0.09546097471587606,0.08752441051618137,0.34144956774645807,-0.030708659511297014,-0.01959577425435431,0.09357222394286929,0.6350371075056553,0.12626945846720727,0.062230618027475225,-1.2830681974865286,0.3884426329380465,0.03970626138332759,0.14414127528246046,0.8691898108117471,0.018619511334969037,-0.3013578567895531###0.04502282694226667,0.0310686127344146,0.4750069784683443,-0.023040538320606267,0.08749476488245005,0.02002285737378765,0.5573454813520201,0.014820387480735634,0.07392136346332187,-1.475826156211479,0.2165669410567037,0.06390294860522781,0.2434056353227392,0.31369348640821965,0.09096929646959978,0.011332019156534432###0.04881929736519191,0.0066648650300199265,0.2830089742511666,-0.06495085633772923,0.024503433377866656,0.03019128762930661,0.7045806185127075,0.1251587535247995,0.11497361025976337,-0.891319482557887,0.25259592789273844,0.029552452347630462,0.3415169805663908,0.24167965878163927,-0.0024574299121319114,0.1475546663859069###0.07416086275361652,-0.011891941751423806,0.4652442273483569,0.011637636607496935,-0.009650475543798775,0.0533298586693963,0.3931329247679958,0.1880544791252432,0.019073185633143128,-0.7292209755228363,0.4150898160455687,0.013598360771392816,0.40790098824655596,0.26057883302326545,-0.007067098547951457,0.24436134114262587###0.07834501823918363,0.05284805817126191,0.4946924253992909,-0.06564062859306097,-0.01792169150146528,0.02103285415740934,-0.16741144761506774,0.11790332880298773,0.09150858937986747,-0.7041250914947259,0.5684411451824039,0.03429476270902137,0.5312520270799214,0.2498265618287232,-0.016298086053493137,0.47967139212141585###-0.018767046373678067,0.09725609804095818,0.17901153145482773,0.006217414684769352,0.06538016246697212,0.029335967532784887,-0.280329299952209,-0.06750609120387917,-0.03719400011083168,-0.5796169547336188,0.5314660433661785,-0.011706930422474051,0.35568780432155633,0.24724476357307873,-0.027062751853303483,0.40126810806554813###0.0046092059490038615,-0.013151931855987287,0.08050969506662344,-0.03032517463696473,-0.03863053916781988,0.030779314429411612,-0.4069434159337215,-0.11258732251053023,-0.05435984258658202,0.024118602496316827,0.3626805601294672,-0.034292848924837784,0.0662904887073191,-0.26225333874231704,0.03338978860448832,0.07063401930773214###-0.001733937909793634,0.001721462302193681,0.11165063493385217,0.04266731710288655,-0.07449077640878551,0.01588701924667955,-0.209416751328213,-0.05124865433160795,0.01970725384883677,-0.001586399435690065,0.1455569804205391,-0.001486689452921908,0.08472696266535405,-0.32775755452961813,0.00896853415733689,-0.019830570605045377###-0.007898053275619604,-0.021030217709621556,0.00664079091756283,0.04630667312254665,0.008266092077984453,0.04555933828344266,-0.15813214611344614,-0.05542718956812993,0.04904664151808027,-0.053170405085416456,0.14372352904070793,0.02313742095652362,0.20622279063323617,-0.2190603611833505,-0.026030944928013947,-0.0663550843343836###-0.027150129012349852,-0.04597089573940757,-0.09813567542356758,0.03447303572572387,0.03297161241359455,0.012307652103470752,-0.21024502278148724,-0.04350806090649153,-0.02279155923667251,-0.0872607580927321,0.18049251120489543,0.011879319562306876,0.16427639825869983,-0.11232260595800016,0.012326067441975406,-0.12292630463094645###-0.026675423084105816,-0.025449691792111186,-0.11013977860397854,0.02650860927920098,-0.026972100852656215,0.007733117694362734,-0.29743602745117476,-0.11031699601735447,0.022930067985759698,0.2779067704876268,0.06659099222009743,-0.023194395863340406,0.0762379712728462,-0.10990138676879996,0.02980660149726478,-7.810572073435422E-6###0.025172838765530278,-0.011624449721414631,-0.0796687780257865,0.0435266079458065,0.04350102007355048,-0.03255873617341082,-0.18027574419903114,-0.07207348358292752,0.009194894639151945,0.09931471246577868,0.14008978285244436,0.040306712256848995,0.16586675243401947,-0.09635077063352733,-0.021444455518370025,-0.11605832304559927###-0.03162666938767424,-0.10045308150897302,-0.22248196273496068,-0.02433917102278435,-0.04139350705179736,0.009881288887861172,-0.25390968993868757,-0.09134550860296903,0.03866241949553762,0.22621983186144734,0.17662557567289675,-0.009883313842772782,0.1425539670183132,-0.12254821140997078,-0.016431361805929478,-0.04055208775772954###-0.012357674876762944,-0.012587790288174142,-0.1892795834491895,-0.020851582385473487,-0.03999678040358402,0.004068106990629758,-0.08188000422389531,-0.09934384975524017,0.024751636171757577,0.18080047386912257,0.14989949671659727,0.020646799872192638,0.1343551924250727,0.007423827862079878,0.0010753908748455416,-0.17395573922332572###-0.033764032003271084,0.024188494956668992,-0.0768758528931115,-0.018887745578047458,0.03256273852295574,-0.012502690226823696,-0.018032362823078296,-0.15265499660764426,0.04801779658797949,-0.32379540483054287,-0.07515439942641171,-0.007047118990621279,-0.12460230287601232,-0.0035626974709591346,-0.0446067058189652,-0.2008126026512319###0.0264816559712064,-0.005102449812177714,0.13512021043390382,0.0049449358427078,0.003267774017039573,0.006362424994534307,0.06511353796419442,-0.1721139324871233,0.04471744219752586,-0.37334754548416565,-0.014672073960666422,-0.0071316682076627445,-0.23970376761043838,-0.05398137652099339,-0.001319839136658665,0.037113211887882275###0.03618515847410539,-0.11232329097707067,0.2817896788331695,-0.017711439112170768,0.07541486514866129,-0.03257410424130499,0.2988816447197837,-0.24754592479775303,0.03900269102869052,-0.5402708068831216,-0.03404380534343357,0.02959036169288373,-0.2509088775355097,0.23401029210088237,0.052719917633962395,-0.032540230573453545###0.020545445928490193,0.0023626437666207567,0.22366131204557219,-0.010543190825453465,-0.04764578462800034,0.024112932085992692,0.16624992535657893,-0.24519635987914065,0.021642249009644093,-0.4469589055275078,-0.14166497224729635,0.0631059904573488,-0.308282238523395,0.3343454760698057,-0.008496171574853372,-0.306846173666067###0.013143092785022601,0.08747198375977779,0.5937852124253935,0.0290876293799903,0.04829143362909296,0.022846702581844795,0.14382409839029736,-0.3711226384881561,-0.009393539388454435,-0.5409742601102652,-0.5799119904817509,0.06204874350518473,0.35023507317879904,0.3837236586603434,0.02699969190374859,-0.8464486161569186###0.01764563282788581,0.001992818846326468,0.7818223997251424,-0.03328207467324369,0.026832936515260527,-0.03035825991211888,0.5064414777239022,-0.41937749189943246,0.0559866546182267,-0.7752156147851523,-0.48628649655988787,0.011023228858303601,0.12195967639842303,0.18422777245360372,-0.019076786317087903,-0.894922589529511###0.08233712899534379,0.035534742275721606,0.5800647760715755,-0.059453225575119215,0.03758456922506782,0.03695149022255501,0.4001296901790466,-0.28511098895306464,0.0215508787890983,-0.49151928779106707,-0.6670163794490975,0.028035564457611083,0.32018649879154765,0.5278653560778565,0.07054573907953013,-0.9887447227964927###0.04123222077488188,0.037380377366464435,0.8192814921084327,-0.039401354206554856,0.03427148292047906,0.043560160254963703,-0.07884797319600576,-0.1597858812588777,0.02182507306855325,0.13437067762615273,-0.8732046937700898,0.05990146719041131,0.3033873118482565,0.25918658718124415,0.08299878600315293,-0.7508223333170794###0.029740554061344116,0.04278012378452411,0.9614510669877219,0.005523758112070028,0.018426296843537037,0.036823007714777,-0.08253322547532577,-0.039188955570746926,0.05031740295697981,0.9650525510950684,-1.0830360059923148,0.08779089138326208,0.046865920774760525,0.36338469520053956,0.11044567649737748,-0.6221668950546304###0.06098339218030816,0.09327855306123846,0.6947999088297268,-0.04774112098663653,0.039441812283674674,0.09388557981769372,-0.2491084700545838,-0.08213919028228166,0.061868960570521665,1.2986289852097102,-1.1325857766438125,0.09511761246150008,-0.047578304214188336,0.16824256217629482,0.10872181434439045,-0.14254780274322001###0.016049845998774334,0.1462001996899571,0.6304510714449517,-0.08131297366335222,0.15681871463521357,0.049309443363118544,-0.14727641209513512,0.02692543441163785,0.05384740349945184,1.4600758565932563,-1.053772475687773,0.02689400194135588,-0.5005109291621033,0.20000207152130212,0.12893216640688673,-0.11010060160495545###0.08602834562997304,0.13342507951242505,0.5115609540379666,-0.008365999819566003,0.11711369620578155,0.18344893940480067,0.14006331907946015,-0.02901581253085753,0.07642046820110356,1.226753219440718,-1.043709469702634,0.0952727276697547,-1.1075078152100204,0.166363009778304,0.1471953550352665,0.14011605108803452###0.06153659931521598,0.05566103773947205,-0.1616645902318612,-0.030477020709159013,0.057291232717928964,0.07625789795775137,0.06744249705643465,-0.3070690462544391,0.10207649888488193,1.0178751324742663,-1.042963802395882,0.09210640521385287,-0.7021782054806075,-0.2069201595729945,0.03593415741413057,0.07348614873651312###0.05303788430518655,0.13144704839564877,-0.0994015366094775,-0.11661927948642718,0.08686839840638354,0.0690826140553974,0.1593278491892158,-0.12286925841910792,0.02880239993961807,1.002427328951299,-0.7518045136566379,0.012700015950440574,-0.8354164085041097,-0.16170920293464125,0.08131367746286974,0.013230361355861779###0.06965464664744772,0.07521064120600125,0.015513229866335113,-0.07464900765335564,0.07736437489991317,0.06395896155699383,7.28874826692717E-4,-0.10920206989805335,0.04566277963502378,0.8194290936362346,-0.37219484465783925,0.08055356989090152,-0.7068882850825766,-0.2707238624681493,0.020199298124691397,0.23350774300162042###0.07973482672545784,0.01032701218987008,-0.016516777887474382,-0.0272794629514449,-0.029266559654302828,0.07289647672941364,-0.1669406785522657,-5.895334794067262E-4,0.00982239617323087,0.4529424426869785,-0.010866774825609535,0.05002286999398744,-0.537583276166944,-0.21275882165025733,0.02131195188299722,0.2146589003919537###0.05149304675851467,0.06856707521918023,-0.24999984145327442,-0.0018571868790534358,-0.007397314591197655,0.018255281323070725,-0.035841745658570755,0.2100927574633514,-0.02401231946238334,0.5872114395344538,0.09675960501152164,0.01221090215167089,0.026267416298603824,-0.2035501734957445,0.07079987967324472,0.3375362485232756###0.05227521423508807,-0.008927633820288718,-0.1627257983058576,0.007088297454935281,6.33594961978844E-5,0.0356339386177773,-0.46328729582704925,0.3389144756924834,0.03989881572886499,0.3072346410281173,0.20947208001541734,-0.028471292804493523,0.346523977178545,-0.12791930952899905,0.05578360282513121,0.41627198479422484###0.005313725502206547,0.06692513380241756,-0.3947074669111939,0.05478289497660987,0.053442767018851874,0.03482133546738758,-0.367397002654724,0.2270424145783449,0.09597656956696347,0.06924256273121995,0.8707990712723704,0.060859232730459734,0.4792644891550128,-0.23178605118740764,0.04523026168056408,0.45837144953299114###0.042671228608082826,0.023839923991817932,-0.3371033714833719,-0.0373897710092437,0.06555929685069063,0.0625780107518788,-0.24841603768586207,-0.05206480779889105,0.004673284638964592,-0.13138856294338705,0.9501723191002236,0.014907683810315682,0.3621867636632107,-0.09248276674661493,0.049214692072508164,0.437726559920938###0.013162252019277296,0.051874745177295574,-0.23529155905891785,-0.054023931705675925,-0.038825645586801065,-0.043192710780323045,-0.5078669007530878,-0.006455572895983269,0.023081300915011583,0.19218331224501586,0.5722413926446281,0.030684159017099196,0.30145217436191457,-0.28931973584461795,0.014536919032813312,0.24237088086573574###-0.009091143827571422,-0.034844571634026315,-0.1990563685097441,-0.04485789807950428,-0.07337493086273142,-0.006072003684672635,-0.322844562048138,-0.06673442910701358,-0.0047362366186009365,-0.003659567286464253,0.3942264553695376,0.0424005233684024,0.4632530788798068,-0.1701294213295157,-0.00958539190640471,0.03631123010669239###0.0010946441098470669,-0.03531570063399931,-0.13127913161237928,0.014619942447757302,-0.03314625605137675,0.06508322234725557,-0.14632834181567245,-0.07301361781191627,-0.07141989882596558,-0.09196692108494622,0.10757611912453727,-0.040820543704525106,0.32193526544823625,-0.10693716995729632,-0.012594538125018265,-0.09956516608212153###0.006865211220155055,-0.09011515425842645,-0.15036766148556502,-0.08775389382688886,-0.018073286604448787,-0.08501473260060746,-0.11746536820390058,-0.07584710256603014,0.06364004182268705,-0.09832087354823588,0.09806207671289903,0.038484692647074305,0.1974132172096051,-0.1744523811033766,0.06047176629485301,-0.022450494636930468###-0.10720176089771302,-0.03549768612313908,-0.14919195887343023,-0.04354616107347185,-0.003829011282985535,-0.02232843749371929,-0.23361880687990091,-0.13501792736744725,0.04586574335726099,0.16958429978300524,0.0736873336419268,-0.022013869872108387,0.2861227412646517,-0.013119576681489853,-0.06282104136721788,-0.05650082064744925###-0.001774102558770006,0.017056877414109644,-0.05915588200634775,0.025343882262283835,-0.027011022759826947,0.01819279902863861,-0.21736489606610299,-0.11127468639234328,0.020424213150839157,0.06300625399487983,0.09069479704776913,0.01344877392970755,0.22809208962427913,-0.1189401308091351,0.019291769615679077,-0.12696334334858408###0.025549487437567516,-0.0038358686027272584,-0.1331451217788141,0.011768258985801297,-0.013451223106456885,0.01940091096650062,-0.21676337530231313,-0.09972372692739905,0.05227695223336483,0.028014484337052403,0.0946096848096827,-0.005925846445651328,0.34897894676256175,-0.05183302001872411,0.06473359827622009,-0.1033149835593622###-0.11496778581277435,0.01754163841941535,-0.18525622857201215,0.08383944640591381,-0.027374827581751974,-0.01682006811402274,-0.2113357775567665,-0.008705118262666537,0.03201510569902179,-0.016076666512096337,0.12043297834673498,-0.0731890831341183,0.3147006988853647,0.09768528400842622,0.005421417470999439,-0.19505499942530338###-0.015910490189426786,-0.04307673013554328,-0.14708481450428135,0.060446289289453094,-0.0015390212077272811,-0.052441450488527434,-0.3197036701342956,-0.08550400004982361,-0.011198687087221519,-0.5323055154888491,-0.020826329571049924,0.033510468364977744,0.025592408699608268,-0.004477635621160885,0.014782281522452048,-0.12408355200984587###0.020852000788647043,0.03458771592741171,-0.0013190305599435801,-0.04146110357148674,0.019813733895119725,0.08112235377591283,0.12836175601714178,-0.18145421217311383,-0.010097685916966184,-0.6843066454694664,-0.03455518020417209,-0.008789694878004503,-0.10149995854977507,0.10009585403655231,0.021915628537264444,-4.6992425813276346E-4###0.06023923102878259,-0.027271256702780453,0.17062948273046533,0.012544857664776532,0.02953086258824025,-0.01758178772246456,0.3298107737600812,-0.2239386878456018,-0.1301478440942518,-0.7224184152215586,-0.28750776419893215,0.04292354512012913,0.06897803253093283,0.3203753690302471,-0.014767311647474565,-0.25436131073314094###0.027943431646740062,0.020906582632257944,0.07328685319710239,0.0011573273673748687,-0.002086510778168814,0.007204014043270801,0.09332273663297806,-0.3515449794956353,0.015589811424619088,-0.5794772712655759,-0.295703812120416,0.05507994851654678,0.1527855954416851,0.31838492392741496,0.04382601906361346,-0.44828867943078665###-0.012268727586961735,-0.018793150207827455,0.5214977726003985,-0.09060332985519681,0.013898068782649152,-0.003692082255340304,0.1251379664180821,-0.5183009046381265,0.025618795337792048,-0.796828618681366,-0.3753903254179207,-0.030435570602746768,0.270017113405612,-0.11712407018716689,0.03513449923684432,-0.41106127692537814###-5.721579818980933E-4,0.04713209401195793,0.668003398330882,0.04956672883138373,0.11211268772527841,0.03719854403675437,0.26236270190218725,-0.6808440986294135,0.0020592179097250886,-0.83667108801845,-0.5043866036511612,0.04616637818226696,0.3421453224647649,-0.3578870477535981,-6.90240009902295E-4,-0.498137288760847###0.0933826106934525,0.056649536553958504,0.5885438686660518,-0.014353565646682614,-0.0025659023420090085,0.07406601605003423,0.2571237518266349,-0.5796196915283435,0.1100621401240817,-0.18172056638661183,-0.6228048098403494,0.009529884174716277,0.4665750198896081,-0.20313503220799917,0.06771148773805173,-0.549354203359627###0.11998865877821747,0.00895883651954093,0.456254106416717,-0.07194840663537148,0.07218718311411114,0.028610272113884234,-0.17748697864335058,-0.47397517525290056,0.08691513704753714,0.06878571586638889,-0.684558334715597,0.019962893680904936,0.3150375650503207,-0.4112548359789196,0.05431812454113606,-0.4660326267921566###0.12457932536635603,0.0462640440928992,0.4128129839957282,-0.028343151488989943,0.1052243701192576,0.030673994399896445,-0.41043764417119105,-0.3556437866662037,0.07572850182206828,0.39530575399752965,-0.6676206219740842,0.042334887208482316,0.7031141764915845,0.012055667826242513,0.0804100978572683,-0.7490486417340034###0.05246300962891181,0.16334431149895828,0.2428902735739917,-0.033041633307791494,0.10783795538998252,0.07184001693117852,-0.7597747490562784,-0.3243481354360965,0.03692716235017754,0.5678243697445613,-0.7226533778543304,0.06794566023991039,0.5687392244573832,0.3049246795910663,0.0697765025915438,-0.3813700000906784###0.09291622907754474,0.16322793534723715,0.3819971001298615,-0.10172429239124493,0.1813694930512238,0.18575173114392166,-0.8249225978240293,-0.5112155262544116,0.08007199535360475,0.5244570700271705,-0.6626506946328967,0.029539055410087264,0.24643057953071362,0.810905263437055,0.12633940588748713,-0.5359055419580614###0.06749186809613701,0.15940578483291365,0.47968976802998625,-0.17087699636763815,0.0474775406515178,0.05093000963727147,-0.9251748302221048,-0.6506726620944611,0.10196809195728061,0.21688547185396698,-0.6260474807967886,0.09888367087214602,0.010528581602200857,0.872989985401439,0.15835185400267807,-0.3503529811292741###0.1323703140817492,0.14849422229392523,0.38932329376173785,-0.09565420524531577,0.10193457566376737,0.13573745309128793,-0.5324175274628243,-0.798166902956477,0.09518075792995086,0.5055178680492391,-0.45689321438036273,0.126666141237138,-0.2301394023943152,0.4447900278938952,0.1445883050529974,-0.14799032650458996###0.0893976408298614,0.11642429359536377,0.17539263671075003,-0.0943018507105291,0.06371091806937078,0.08293711013560279,-0.6147005361992834,-0.6082469169953201,0.061269676381173435,0.729356934345917,-0.5140231867795005,0.06484123380558363,-0.20475365543441487,0.13311163347491947,0.07664165050227653,-0.06316595888381481###0.10123528498869139,0.1093234697350843,-0.2857538483245687,-0.05449183345642615,-0.023366745502668162,0.10552538425320075,-0.5594983592783989,-0.40580123215018477,0.08160843888010706,0.9568474839483554,-0.2217623628017772,0.03149725472506061,-0.11483295934223672,-0.14265907337465633,0.07802947439155819,-0.12115971784983096###0.01494231523232173,0.05836378433366641,-0.4191433606221175,-0.043433257942730216,0.03577307279024803,0.07404760103574745,-0.5881512800619759,-0.04502487677963672,0.09229677381597583,0.898180141135729,0.07882117534981217,0.04909254807290109,0.1784556574065201,-0.03317331543251146,0.10892206323953763,-0.163528338243475###0.04824847869591697,0.02202804925292104,-0.404046645583869,-0.07075730323080898,0.08993957089409642,0.05980632384660854,-0.38660374857828006,0.06342936650910448,0.00613322756167443,0.7392927808347362,0.2532578193793648,0.02422617558609368,0.45481370077442584,-0.18959737234198407,0.0733343962243288,0.10324249322032324###0.03434238791580013,0.040718717657375954,-0.42539944976249733,-0.07789304856403824,0.019843956182391563,0.008878768298822665,-0.7532957800193821,0.12675885212482418,0.043607012695611486,0.7158397136802193,0.4047377901328495,-0.03160427781242018,0.2788953457696627,-0.5797388831804582,0.04498568624491396,0.28671897369404###0.005767886237369066,0.05787722546606448,-0.7636183264258558,-0.06345569440073195,0.019185575860128992,0.06569636030342114,-0.8815644840539844,0.07626558252727028,0.06576102674858855,0.832207086265619,0.864963088987504,0.08880579115286187,0.2998490670831795,-0.745455100400617,0.05366416551471747,0.001974593628989613###-0.005613572943742685,0.04652640070942597,-0.6957772664318783,-0.026618923222812695,0.04456928817950938,0.03286190524744498,-1.080893081014725,-0.07875207764772107,0.026547646102749765,0.6706629116701978,1.2990726445912806,0.03227862578964177,0.7261800443476167,-0.5022298255368774,0.0166358895075077,0.1984749874563737###-0.020445542512738717,-0.018793736372522817,-0.686246218882819,0.02843848982426326,0.03201407873144033,0.015214302670782592,-1.1381518921440599,-0.06525521877992,0.005368297715515491,0.8007004460104803,0.7780113773381588,-0.017101735373550923,1.0481135093814142,-0.4633771466700009,0.012156380423302018,-0.11210533908424826###-0.018265546956898224,0.03257921209079121,-0.5155733302137041,-0.045688048064567846,0.06790627169379858,-0.02668929759706819,-0.8098480768147932,-0.07930504461245526,-0.050677416880014474,0.5166877424310237,0.5135512356071976,-0.03316628563579432,1.0696207045090276,-0.29525275640850834,0.0019555142357770812,-0.19022777912043495###0.005010839155482304,0.0666597455077011,-0.16918569370059677,-0.034676991256668274,0.03780311131679178,0.016369439554159627,-0.41071259296816504,-0.035653221808007916,0.011497046679421976,0.03640063494669352,0.18978359883671844,-7.164579169890784E-5,0.6496717286975985,-0.03917868753873607,-0.028866836217485294,-0.2518542667753298###0.017784096422663563,0.032290208574166396,-0.08497404048681317,-0.01824936173541204,-0.0017293076512883586,-0.057689366645384425,-0.2769436919121041,-0.054396168622844104,0.05710041981494465,-0.07421305576675642,0.1837251513319594,0.019920564234842102,0.29011260415321255,-0.05214371480174831,0.04710117474596761,0.002508810018551646###0.010710846967530404,-0.028910300757261576,-0.22792526968775556,-0.028208154530531146,0.0053238850319571205,-0.04377881858337083,-0.2807390064464852,-0.06345508255235616,-0.03387825889791058,0.07423555932697362,0.024523733392292617,-0.0072516797472621216,0.2516336032384813,0.10638326249119186,-0.017506938746683243,-0.1290242637890054###-0.022464164408889608,0.058058349952179004,-0.2365856026438223,-0.007918308174085231,-0.05033826526235447,0.0037083085065711227,-0.1694644399359032,-0.009226140556588084,-0.023449822242598384,-0.02565259904404708,0.06047007133604005,0.0017953493827051609,0.12485188037757491,-0.06253338976096677,0.05961597356405922,-0.21526175375670215###0.05200294020301857,-0.02663711300707025,-0.23779653551152877,-0.0030661542709491804,0.05693756696905327,-0.03821748774284202,-0.1176747332793225,-0.09211269525659348,0.007120214966579119,0.08386691822058603,0.13401216377549502,0.053226111996839395,0.22200510313134814,0.06480842440069176,0.07820926714375556,-0.054111566968212316###0.03940183406692258,0.030741587347178426,-0.2259159616408634,-0.028672677932244376,0.08297201596431433,-0.020871611679630524,-0.1340047388691431,-0.13817812658635137,0.024718005579186995,-0.03352806970579423,0.06938468924414118,-0.004231917591914297,0.3794792439229133,0.06473243235823053,0.04096469781063697,-0.07375241027206232###0.02251355448005043,-0.05730884339513608,-0.10869822656173714,0.02609777081344033,-0.026264817957015567,0.02205614849672151,-0.15196020995077542,-0.07990168668627902,0.02418835034077178,-0.5062347473641804,-0.21240507854421,0.08805635964559562,0.2985207323864063,-0.04469013715806817,0.016611170994178012,-0.15863029297530815###0.003783228011587573,-0.018209635576896702,-0.2249320217266183,-0.02117324007189828,-0.020801262877017362,0.07156220529676452,0.1695791729675335,-0.19074615653581628,0.04554052537572484,-0.508817349229329,-0.34127229767977235,-0.03337166626423501,0.16174795155209584,0.18199192881225743,0.040838657089187,-0.17949438998866732###0.10284799082850893,-0.008405860692090589,-0.29322135330597715,0.04956279701258811,0.04520561140301874,0.026088880637884476,0.2481668442485657,-0.3145196271632673,0.012360990158388542,-0.45432837435626466,-0.2946859503452156,0.04673374989676574,0.29171072397174663,0.0917844918304775,0.057597081122619014,-0.1967049767159683###0.02785646619850858,0.010992342011079731,-0.43971838275075426,0.008317930594939325,-0.011247906719470341,-0.0016843104584114686,0.052579706248992115,-0.37195174071120385,0.05701939701585683,-0.45028398937192454,-0.22430505039170645,0.03969718945349408,0.34220315560711356,-0.07530415798808815,0.04591808238405266,-0.27839551833706566###0.04257589982867712,-0.005757523924726397,-0.7184036933805368,-0.018485094075711243,0.07728022411988533,-0.04105047884397467,0.08389458270361569,-0.633286783483689,0.05560313515609632,-0.6036147329027888,-0.009910665916939513,0.03202459876726747,0.5911097814001142,-0.5777031547160107,0.06389278215246642,-0.298028891003887###0.05030319794013018,0.00793294847820982,-0.7776917425326343,-0.0838935443405923,0.06051735987879834,0.03331091248625359,0.2749672013985133,-0.6767628485064373,0.04058765113672387,-0.5360743382484701,-0.09382645845250709,0.03808812031421145,0.45557465370438466,-0.6134157154449364,-0.01572095821507033,0.2041165361740678###0.09069227156621745,0.05178787677593173,-0.6891022727192017,-0.01755452701029476,0.06021516141169958,0.03737465465493532,0.03782269796386729,-0.7189357557453114,0.0702771442115505,-0.11796966134031547,-0.10521026029249005,0.07516718868964264,0.28385072793195554,-0.41253592928156013,0.07529958174945767,0.17220440375996782###0.060425079276652735,0.05510632943420327,-0.8206186831643912,-0.06413118053065227,0.07949943278752765,0.008232905865949665,-0.3404562493686865,-0.4461873574571549,0.07431068964721411,0.07479141238733548,-0.031968930545710546,0.1020862351471127,0.4700794340274211,-0.31806250398138836,0.030538967511536005,-0.36141145725951707###0.07958719960017706,0.10924519586238353,-0.6494964268293503,-0.14804328215438403,0.12608226495330072,0.11212811338839956,-0.3998275190494594,-0.4653403910632555,0.06019962836645208,0.17501715106249846,-0.07156847236130669,0.0979881524100457,0.948689907962398,0.32905066272119127,0.10548683765895564,-0.6638684643799193###0.08379296582022104,0.02300471744486064,-0.4412684397206569,-0.14474157495714954,0.1336241261243463,0.1364457380652491,-0.7101799632413405,-0.49679242811731605,0.06706141673426412,-0.12494257552161624,-0.22327147629236774,0.07433742504944028,0.626278808838314,0.9477538905403766,0.09783640260310066,-0.2747299561698417###0.15912677779657122,0.12179796753281996,-0.2754131628426514,-0.1064676228265586,0.13606909432381797,0.13230147851014157,-0.532728730062641,-0.6056297967905402,0.10965872540109974,-0.10003329407151995,-0.32605396419493127,0.1348779994214992,0.31545773680865,1.2727988400911912,0.12523429755081159,-0.3010296387096214###0.13347446739923036,0.0816621048700775,0.0596882639782661,-0.09043061598400498,0.15046864698547746,0.13208582136974734,-0.6000084021389328,-0.7938778015543544,0.09443234667948869,-0.4366384129896904,-0.3261854564225402,0.07058695559593861,-0.05937546866984859,1.2930841184559656,0.07798470281999932,-0.29215352035740444###0.06224702390283889,0.12915161407445008,0.29563835881768186,-0.11925643436499431,0.10267750815478152,0.10731369713681183,-0.38911304191700763,-0.6713973137772224,0.001417524707205753,0.41397542958429673,-0.09179755201412475,0.13443375623616616,0.18010000103886328,0.9757104321346478,0.1507781208017166,0.1291705105686203###0.07979859319491651,0.09226421075062054,-0.14137880412425058,-0.123092232625974,-0.02754033540230522,0.07699255800415884,-0.5606628845712102,-0.6775869526020998,0.051005098098124334,0.5313856364372647,-0.2160245594290248,0.05615906009014352,0.20322775559303552,0.6380603946603854,0.08001619466467606,0.043674474944713035###0.08826202474988705,0.07609320682095887,-0.7230169601925344,-2.803626774887879E-4,0.09138537349088059,0.08349364639409218,-0.7554310873003136,-0.35656518037981194,0.03446620977654681,0.6904390650382122,-0.11429598616117213,0.08751158051251341,0.1994562618107976,0.3931528776755704,0.06738717621347598,0.4401679292346161###0.09514191435531488,0.05113821277166483,-1.0170318646133931,-0.049881655388273986,0.08957673661484067,0.11910670491884219,-0.4874018148205865,0.028933522145249847,0.12558109092734876,0.9299930799357153,-0.04627413179399689,0.026788492809974102,0.8068763754353945,0.4750900150165612,0.07843701236467192,0.1069379794253896###0.06538582583224609,0.08614826708192898,-0.7538287764150593,-0.06646852079272812,0.10288081306793577,0.0780516354814988,-0.45437289321125146,-0.017185403986668523,0.06280789489205615,0.7845942871148766,-0.44420326941402244,0.014386628690180276,0.8920645443160502,0.43829947127920643,0.047699444567525284,0.4137518998358958###0.01168484753786298,0.02953431750201134,-0.43366440489004787,-0.017388451699594014,-0.00737818651594209,0.1656596637922896,-0.41523179387589515,-0.03294196450039827,0.014887802908370638,0.564036804494609,-0.24203429606105964,0.012639461552928782,0.49718630574192413,-0.37071766123658,-0.05610991134052172,0.417562164261396###0.05102420917828927,0.02541397746546518,-0.7670858827275836,0.024054751704993552,0.007810962807697214,0.07325250431108209,-0.6047573212262267,-0.10916541833737317,0.018395237551384096,0.7846497412805254,0.4194549429455936,0.03528542876133496,0.3709933593127925,-0.7238635955499662,-0.023663006607384546,-0.021655998896374967###0.05369646967834141,0.005146770809446484,-0.7827117206352769,-0.053479934884625775,-0.008600544472461695,-0.005863484538868888,-0.7847039636921485,-0.23304242025607383,0.009491914179533115,0.8877456140759311,0.8054272764515342,0.03434725770945325,0.5704354878629833,-0.636681674149124,0.06212930728356272,0.036620779673483116###8.975493845742802E-4,0.015147524449939019,-0.6813387040500545,-0.08281043308542403,0.025859223721069694,0.016784494894839762,-1.1480939659123615,-0.15321694574770114,0.02069972511816625,0.8074853238425139,0.6224886727380166,-0.007271778992263076,1.2702164199435664,-0.593924266994388,6.768467160009006E-4,-0.31660891725786267###-0.019222203723862682,-0.010983837720294263,-0.5401513888270075,0.0051330709318536845,-0.014324132948114675,-0.02424134357542378,-0.9407495557594101,-0.1069043336858408,0.023701913990982402,0.511856284273473,0.4473595061774815,-0.021862416851332694,1.1999100280488686,-0.39134659460278937,-0.03290923255153266,-0.4362619070800529###0.019825035755100105,-0.004674277978392448,-0.20951826281113173,-0.03244016446268617,-0.02592328108543606,0.06750265611552926,-0.4826449035020246,-0.07727861214675441,0.010936424127021076,0.10818233057779156,0.28000424612268054,-0.024545117671383256,0.8406861208951075,0.013034784219285217,-0.031269913155079966,-0.34278438694230445###-0.0284275439383804,0.03315244963122348,-0.08886060485033671,-0.06179216689091246,-0.01510970979131901,-0.017374901695535357,-0.17137094573606906,-0.058132654762498695,0.04518522968798274,0.07665092637074226,0.18946482496598901,0.007069552471918158,0.2609346367360637,-0.06507074869069152,0.021761391340137753,-0.05887036594052571###0.024774790406005047,-0.021759390285049286,0.012036372833920372,0.010005642091880542,0.029658193224746554,-0.05333469106230005,-0.07298526831235227,-0.04798285648283276,-0.018169745430395956,0.438975582695581,-0.11417076745916514,-0.03479606374756489,0.19567639341218232,-0.0043237182447053435,0.05392578680615915,-0.011411994855578575###-0.06964524674407714,0.04764790653076573,-0.22263005065244526,0.05386137115457477,-0.009828904997153238,-0.019942158019866388,0.14065435394743783,-0.0930933581451736,0.046379691287388405,-0.0784706701184497,0.060884527950222735,-0.010978958854802755,0.021355851315793515,0.08768686411230069,0.020610509308570675,6.374540865413018E-4###-0.05996075052362068,0.06407701206687995,-0.3484520550511042,-0.02083720713488274,0.02028544036266475,-0.020818883137154433,0.03168839038053354,-0.1378713902375481,-0.011329583537998282,0.08809321684910149,-0.09512415570487033,-0.030133009059728297,0.19102220049038038,0.05780633477171786,0.006039167911037188,-0.011052336961468194###0.053394406945508184,-0.03397591931764377,-0.33808011454259235,-0.03957065369601911,0.044369590530301345,0.019792963151272994,0.30252586706630863,-0.16627962298650212,-0.04391579780290637,-0.20634914880963942,-0.13854408153462955,-0.021430927083593572,0.21381029852860575,0.11234074874234988,0.02904642026802494,-0.11260498409510857###-0.012953943343018207,-0.004412962422085786,0.056229557348770255,0.013708290615432996,0.04784352514516971,-0.020399231632714655,0.2104985621113655,-0.11498369886819129,0.022396468457945174,-0.42860782878245013,-0.3466513543980811,0.014138468910842276,0.360766182766015,0.29567222279792765,2.7802151417866973E-4,-0.00911760274845532###0.030557162273331558,-0.005642790569134099,-0.4433731116851002,0.003381262607154377,0.03015017484042203,-2.886191020955308E-4,0.4780837476021044,-0.1341969221931441,0.05674465478757996,-0.35711275383872715,-0.2677291704696958,0.014008493941374925,0.557407582080441,0.3619713710833776,-0.0033753840948970684,-0.12979763548695478###-0.04147719968313205,0.004653874490962561,-0.6970024492780569,-0.054879526504315816,0.04985681668200014,0.02008318459759607,0.2525350501141077,-0.15823563644082084,0.02369588067587463,-0.5121652988508364,-0.38777235500201157,0.03188507601616177,0.30138183793688417,0.4439035895049,0.04409626662554729,-0.08034102638199021###0.005163998134879912,0.05245486939124779,-1.1197683411823893,0.004664840124517024,-0.016925010793446327,0.017846667355364932,0.289546189921561,-0.2505228790494602,0.02443066520274643,0.04439064286386138,-0.11559047348091928,0.019950634612943757,-0.003900633763405641,-0.20077037513214138,0.01597018443104551,0.3355939284510457###0.027860685682784762,0.005336934315036922,-1.437487319467946,-0.0688364463716696,0.033439390725331225,0.03096500340047551,-0.14701615099141627,-0.5795198977988858,0.05646623207742131,0.03481482919985272,0.42797717648656447,0.06371649564854977,0.7348031816738887,-0.7707216828986552,0.07542673515008907,0.042384316164043576###0.009910016088381815,0.09237171033598207,-1.1068008249026866,-0.012292191814974415,8.577350765796717E-4,0.004435699774882915,0.01673355379346681,-0.5188034355333621,0.07403988141108887,0.04161836556175719,0.31531645210068776,0.05215570259630208,0.04489718930084371,-0.6829501977804155,0.10699654841206212,0.4203924156893589###0.05666368540302106,0.02803734474058373,-1.0305505048909351,-0.06105970609301888,0.0410132469874379,0.004073736872800117,0.21750082938292703,-0.6833916778981854,0.03830487849803052,0.24529933243167792,0.559341574049616,0.06272580803413659,-0.04336229782926529,-0.32111915604568286,0.10032220374915685,0.08776346724236964###0.06369453922083015,0.0016552895292835034,-0.8781143528564811,-0.03718594783467435,0.011780977538841771,0.07414741225429833,0.19387316702776952,-0.31837941366034544,0.07161677086653669,0.1939302949562869,0.5509279222474595,0.002126228085710372,0.4551778913437552,0.24643596941989226,0.04664250092157614,-0.8063971341754469###0.0314368203798486,0.10615890945439085,-0.8574930655573397,-0.06987697149768213,0.034803269969858205,0.05341446843180262,0.07362611448859867,-0.18092251544924387,0.07739938147654674,0.23324520250183672,0.33686786977747046,0.055492528546585866,0.8689791517492224,1.023239164376998,0.14754445597963,-0.052728032894144135###0.15978746260958002,0.04598475799705412,-0.9188141279444613,-0.11525803045684463,0.09852264149006047,0.05728516762809275,-0.16228830288862245,-0.1805598343038836,0.10431749225037301,0.24648312800086528,0.18358286906584068,0.1390739272577099,0.62406237573191,1.342884731602468,0.17553686858451248,0.27244680684385675###0.11317771093100215,0.0644036521126177,-1.1644885551383013,-0.09869739938249782,0.09738809974724899,0.14394941019219903,0.3962991434020343,-0.30416699346182946,0.1343620659018988,0.03189120701282787,-0.18584428693015814,0.040826137240999275,0.4496559017555551,1.5081346113685747,0.13889561737424705,-0.17457885392704123###0.1125265601829889,0.129233451569197,-0.8577591600494373,-0.10658600444504227,0.11435445618520207,0.10729876235594588,0.22483339005592598,-0.2419449239969039,0.08871607280917325,0.33916137525288864,-0.08039510586808594,0.10504626122716078,0.13820574416220585,1.1055049777604786,0.11973933331042863,-0.5175546557312254###0.1032363405995338,0.049608577112945605,-0.49463106935903706,-0.12792192539502206,0.01628132809081415,0.08797586211098714,-0.25411126000806356,-0.2893457357412339,0.07122146594616678,0.4532882578292944,-0.10998183384077055,0.14089369048959421,0.5768993588149686,0.7887652081865826,0.1340451860937218,-0.3368290068014011###0.11617593397008358,0.09424440023597172,-0.7502007055455768,-0.1593945599094682,0.10971569439084101,0.12297362859420216,-0.3297346722515693,-0.2657317008166847,0.12449551004837746,0.5108551167967534,-0.1605681506041995,0.07584761113664927,0.41484966361076264,0.9563528690367736,0.1526661686696338,0.6466716819048001###0.10733703533902805,0.061657534230993835,-0.8883438058308223,-0.07424380632075074,0.023857287017966505,0.08481852898009894,-0.2917699377534589,-0.023754767480793904,0.08326602985693085,0.609778421040485,-0.06321447645546897,0.07673818330394609,0.2771215734712999,0.8365579488149599,0.09870558905978494,0.7013575243925685###0.018431043181716286,0.04022968468839635,-1.0461518797427118,-0.01568383477041421,0.07694094257895095,0.0966148997480574,-0.4309419858099218,0.015064330964971197,0.0963210022008189,0.42923403942847693,-0.33432581243669673,0.04081662387698949,0.5047401226652609,0.9688869830685589,0.07289907026702247,0.3248488319353764###0.0792444376576285,0.08237873899379038,-0.5687392694322526,-0.03632057718357935,0.03562526446440487,0.04751144576702124,-0.18633528373966526,-0.21712890823921546,0.012012499196330267,0.13369387079849,-0.29988821602794274,0.0765964830003544,0.8182118143795314,0.4398064113578183,0.08080390544055432,-0.008946539011061277###0.06894822885125805,0.059392871613683375,-0.4864573850925846,0.039576320143160135,2.5783774090184787E-4,0.027872403609340984,-0.18829880769211838,-0.3677332119110228,0.057915786096249644,0.39188083975054416,-0.39826807140652726,0.0957069108098783,0.3111273690327003,-0.21752286260744474,0.059653750274611686,0.32125035855176604###-0.007780255125842538,0.03902222577954098,-0.4905732450981765,-0.025718038277398582,0.05418728843454511,0.10809114672271256,-0.6508567152234993,-0.34603524970899935,0.08278124144750816,0.8519676306619038,0.06702166686352358,0.03307310215696667,0.4624018586878422,-0.602284240344998,-0.04508499500418061,0.03302887316756093###-0.009991033298372233,0.08612720458348619,-0.7501190726468094,-0.06616175945829575,-0.03297398895580544,0.041915205009901584,-1.0499766062811569,-0.2639208352635813,0.07609645155899787,0.9840198829372393,0.28889461829068164,0.10585740532647758,0.9737655764601459,-0.7164178758542029,0.0269658977737246,-0.5427893555508874###-0.02762439886912398,0.03617604648718932,-0.4591799823540062,-0.033210351229757164,-0.02224493482637557,0.04650411993544867,-1.2328275037323069,-0.3487595918161019,-0.019164928991267573,0.8341283890134317,0.5224347820874219,0.06999302035582788,1.3587699468948429,-0.9044389030216756,-0.004811131629516477,-0.5319707795196509###0.08646392449523799,0.08472676137841856,-0.34457732610532843,-9.575435690668665E-4,-0.00667327150904502,0.01849537809627641,-1.2000468118987258,-0.21126258966127529,0.013683858373061018,0.5646927450190375,0.47038622224970755,-0.007906493772041301,1.2621992205041883,-0.7850590414242149,-0.05559321796562226,-0.7235219720068929###0.05711782184881761,0.017105055085845016,-0.22374067834057892,-0.01457398735926023,-7.629971435507717E-4,0.03711914708142592,-0.4890703701393565,-0.038044240870537906,0.050238732509862265,0.21571338355074457,-0.0018158352602056637,-0.03357680926332394,0.6787660066400443,-0.20339737741006733,-0.00252681680198324,-0.42535667224304###-0.03771461707838306,-0.018099643416085373,-0.12118578895403392,-8.568414638401596E-4,-0.036420982348050815,-0.06176310733512972,-0.33857231230391205,-0.08544499753141879,-0.09216557854817038,0.11301994513672697,0.2008589903840799,-0.054319685575586196,0.2690607469891745,-0.18206174295301647,3.971666890577499E-4,-0.09652842151220341###-0.02025559506405845,-0.027835380175459612,-0.18714844164904335,-0.04349327144052747,0.006879251630029385,-0.00835313239452666,0.07693600324929077,-0.031504538880250475,0.04698944577175461,0.10203556745375482,-0.11307891740220144,-0.0205712505371027,0.23183912987034164,0.15948628281066116,-0.0022291667270291295,-0.16224153115525275###-0.025931592324819577,0.03728742887626505,-0.144938104608627,0.024963444463709773,-0.0101199308006349,-0.04201219359374916,0.17768323055688148,-0.17380896187353312,-0.0284952162393692,0.17864531359081853,-0.0394861317741734,0.02537140861807446,0.15758219729173975,0.10295027798184211,-0.03766925539914163,-0.13421357577894444###0.05667035906971163,0.046173521418442366,-0.42297326530099183,0.042012747924839076,0.0888305931491604,-0.046167923725959424,0.08800689870572703,-0.08271885290774951,-0.042899672362549594,0.19128074856523541,-0.17901071708432442,0.028122349976060963,0.29000065719020623,0.27698732546689986,0.025932206404262383,-0.10265374512071433###-0.0027721128480757105,-0.03324353841965446,-0.6133865235889476,-0.037734743141768654,-0.023727284064251793,-0.040541386451200256,0.3216391132964633,-0.056405019103547074,-0.035213045392008396,-0.025227880886040086,-0.33870162831855055,0.03670385685136877,0.39258000603107135,0.44909297885335003,0.0209068853795183,-0.1724214628253209###0.003012666202801595,0.03099984746645575,-0.40164106246509196,-0.008568599557283079,-5.596442874236796E-4,-0.03160113422303548,0.24754293164319813,-0.17292704433331757,0.02076440440003403,-0.17119856514805087,-0.29387417056213655,-0.015316257313866198,0.44227920460753106,0.4088744519620283,-0.006615539266427151,0.008290713534594357###0.027980457841489212,-0.024433418970613473,-0.5236667483820522,0.019183460438576386,-0.006004551110882801,0.010136272460724148,0.634328596781947,-0.06445687131612701,0.04546255278970985,-0.20436081125412936,-0.3873527961017099,0.05084213272962602,0.36456585722361956,0.39314565127226453,0.05284085026380063,-0.12929016396359586###0.04621262907126463,0.058427089748358876,-0.5517978753530091,0.07605459989850513,-0.04653058283936766,-0.010767577221996167,0.362056949367484,-0.13758461811580167,-0.04926658240993953,0.13680020375251611,-0.08109831974809352,0.03245126596367275,0.013990531827797005,0.2476787439746854,0.0772928744501305,0.41532451403860926###0.02451236551014361,-0.024834732244571573,-0.9277444788451111,0.05079948782284927,0.010761913031981075,-0.021756395545328416,0.15390273855531722,-0.13897835520525947,0.017529720546598123,0.5747772641502307,0.3312227396728082,-0.0016081322028331764,-0.3290338687673791,-0.15582758329117008,0.023576835752720907,0.633321399495963###0.031145547632075155,0.0962003702260466,-1.19801041838103,0.07517527060307445,0.10001966819681632,0.011837907470487468,-0.17063413052043816,-0.3758884755335406,0.07650800999167369,0.5790644946424909,0.6615238145194059,0.018163264787215718,0.0250500056429815,-0.3092690799628653,0.05316166439499772,0.9936593366870518###0.02441871714957455,0.045187837994021506,-1.010255999298942,-0.023641789691567053,0.018276254616978932,0.06318297080654038,0.013115829485344463,-0.42896922166443824,0.04582709600708211,0.9320082979425444,1.1274711397726045,0.08883768401117959,-0.6226932585959423,-0.27027734315903235,0.02931185360186514,0.8973751388956374###0.07386047634846336,0.09429814819230317,-0.9720081574445218,-0.02965989679130908,0.04626330273863863,0.09468706799226353,0.15544986672668362,-0.7183800786580553,0.04991251184093104,0.30683917032643726,1.4946022402846415,0.015200213878985108,-0.6202862492169713,0.4302725809466353,0.08319354524616626,0.29874704213091635###0.1043205260695578,0.06386568526473523,-0.8022989125703229,-0.036850089276472084,0.11608143428285606,0.05673150578394621,0.2967373292200636,-0.38454809830125647,0.10574940260098936,-0.20989184147060766,1.607293215256441,0.12476079124436432,0.19401825446503138,0.5245344416029919,0.0788988651963897,0.0896565942334624###0.018843167893331483,0.0951813041507304,-1.1452890586652067,-0.09728057769368255,0.11593278007652341,-0.005414767635322222,0.6306541364956196,-0.11487062252191231,-0.043865876540051814,0.22582702652225062,1.1473518675341599,0.13539894930823085,0.4527280304938061,0.9022498026074495,0.058410344348586975,0.9934292072804829###0.12130492247769922,0.11026753698246503,-1.023412545168228,-0.06804150119091192,0.10644301364154872,0.12014112656505196,0.87207298406901,0.12400963542121075,0.09359657218404531,-0.005717062609560537,0.8623377850159406,0.13314659830726125,0.3334141223354559,1.2647644334656347,0.05235397884284834,0.7420694408301848###0.04667209441093949,0.06486740624117411,-1.0272201277848045,-0.13944441346345773,0.04563596971255969,0.1915782629382594,0.739722952311119,0.36768399096017806,0.06569666556032919,0.042891126205211114,0.01314383690175456,0.14817424437022417,1.3212336551264388,1.7644676129136214,0.1124824945672679,0.008418919875938135###0.14260964683317448,0.012819450121232291,-1.0168596146890905,-0.09841503697642122,0.12283310704633932,0.09942942356361197,0.6688293509140923,0.5385092991666205,0.16797164015935853,6.968902448278614E-4,-0.25241507269284424,0.12083576751003272,1.3207370888034944,1.6785086771089908,0.06233665670535747,0.12201244669733897###0.06601314498514897,0.09825425759428898,-1.0155057407032855,-0.061096185013132444,0.05457973095863995,0.06710077257606512,0.14372528321502262,0.3449269382536015,0.0757192710355281,0.45716065500445946,0.008721263664887404,0.12442874261381597,1.1345208147780115,1.396315264599506,0.1014587608679109,0.361141907236396###0.07450753269638566,0.07770872399665898,-1.1870936188605863,-0.11013382440625603,0.05142724326767101,0.07817314261502296,0.3823866574110213,-0.09230958733263021,0.12642602228290015,0.12750376819292492,-0.17894186766467762,0.08503311492538132,0.16334284524042733,1.3877798443322964,0.15456673871704676,0.7795059396921914###0.03140253546511626,0.06541835409714036,-1.172865061799897,-0.016911370802638367,0.12181688340319688,0.09783693145994933,0.03586004587132714,-0.25150193138826094,0.1005866058720328,0.4580072065809888,0.23441996917965313,0.14345131380764775,0.008566579465785727,1.0647157654052615,0.03157330268117932,0.7792825313251338###0.041347390727777794,0.07951470553045471,-0.9886678148294403,-0.04524554581017357,0.06969326673097068,0.08339518307057808,-0.1488160117712003,-0.18007596498003134,0.11388407817864765,0.3788700122101199,0.08425314394561062,0.032764119531142805,0.40967823807112874,0.89277970779088,0.1210160493920069,0.3513997924610795###0.01741294988995103,0.03362058132040263,-0.49012073216911173,-0.04427237803926597,0.057549561770767386,0.06601729579193609,-0.22359099847485422,-0.3962255311674992,0.06019628081640318,0.24079089505460277,-0.25352710914379056,0.01717647292882682,0.3480034715659596,0.45889784344773277,0.06875288343246501,0.22429597121616585###0.003599941738976781,-0.021219549372293128,-0.14649024036261518,-0.10171000731400237,0.03236354535034558,0.06569337574263837,-0.4572827170754087,-0.4967128558046971,0.07513927349811593,0.28864242270287466,-0.06392733159917033,0.020348327997553314,0.03227162168872312,0.04020065975587693,0.05008308264027258,0.34170391831237196###-0.0046856730919218395,0.04158657707541917,-0.061467959338823076,0.04195903362218546,0.049843754188830046,-0.014748941427918128,-0.5896868660306143,-0.45221455999788357,0.036946311356189324,0.6287768840155479,-0.08800278423420949,-0.011331432963309122,0.14884501516354823,-0.385614745054724,0.011683632202105361,0.043252808268199945###0.030193936056564636,0.07856386574624712,-0.6266540651259493,-0.043642755469985424,0.018744108609634075,0.006107468023026117,-0.8635653216553602,-0.47278711310812843,-0.010250557719063278,0.7780900410517265,0.5305536039569766,0.1128226515145254,0.32287144807343443,-0.7740740875803732,-0.011948158355871107,-0.8823175310856242###-0.007770543438340845,0.09987852276174178,-0.4228989149213097,-0.028631022018235013,0.026440884643392663,-0.027973296219023138,-1.4124329953315697,-0.3244922035511058,-0.021753799709519434,0.9561083050112367,0.541075801812258,0.011824953038223006,1.092049883750981,-0.7896267175041474,0.03559727330868476,-1.0425760767591932###0.05317651387010564,0.025278865757057692,-0.19633605076144203,-0.013228002322576019,-0.018143375744654754,-0.045414759998934205,-1.1901906995391909,-0.1624688470373676,0.05868746001965324,0.5103621850973479,0.36941357800460173,-0.032640251512838545,1.1830403616550975,-0.5767437690721751,-0.020013567973132827,-1.017906962732085###0.052460596012616934,-0.054255527582518705,-0.09586950473627187,-0.06591156101446088,0.012358207883194335,-0.009034046729235416,-0.545999993754452,-0.02331202276487651,-0.04476048133185343,0.19067677283394338,0.11751024274991309,0.04958729953909297,0.6630611757759364,-0.29456736115545795,-0.03079453223050604,-0.6583619954835349###-0.012266983000342799,-0.0121929747923951,0.0028015434543522183,0.02447092156274323,-0.08335568160782982,-0.049112305619897316,-0.27471408881995657,-0.07623453196020019,0.027887944399814908,0.100881267955492,0.0739226261638937,0.022485649610508716,0.21101742669130155,-0.1347972495865408,-0.027617979946228204,-0.1713959098963427###0.026425092424704425,-0.015041167894777737,-0.12464418250803723,0.009068304535340136,-0.06241397143491641,0.019482922678190597,0.13475728612789714,-0.0329544728171746,-0.0411745478083641,0.17393558008302645,-0.004353082144339806,-0.027935979707874915,0.22412213164661132,0.030575985977924523,0.043602764565858224,-0.1759043752856331###-0.03311959311948568,-0.04179278609528126,-0.14631160699707943,-0.03972637371831912,-0.03379067365475237,-0.016765595513280822,-0.0762759724979874,-0.023352754020873043,-0.0462510658910617,0.25722736084221964,-0.00842731103300943,0.03889059470271935,0.29101662648914434,0.18652950770436397,0.04150905501698418,0.04982044775909287###0.026345099285740303,0.04205966644388418,-0.1605429369133412,0.05356893728557042,0.061319866584414115,0.099955440480138,-0.028289822321446174,-0.01541328881840626,0.0076824211778057485,0.0973650103047047,0.0232200699847817,-0.006030173059180501,0.4012150963985863,0.21421545143365778,0.026233053310397058,-0.10881123153302906###0.014982389170250498,0.039987248249323676,-0.5163348100018976,0.05148794356041022,-0.02272185117535009,0.00613338755895377,0.2722902979712497,-0.038748351178580435,-0.01627037487972926,0.24372927712629222,-0.20840698828120982,0.06938572681693823,0.4359023677564338,0.5953112976041695,0.0039442026260387425,-0.20585815927224843###0.056811798984177035,0.007383095283203394,-0.4327859120877934,-0.038573329817015715,-0.02027773340827758,-1.3574209266222796E-4,0.19502045264450268,-0.15802814763295453,0.02839214281138065,0.01125765416533098,-0.3548649812136307,-0.03502871132761044,0.642751704816741,0.8813946820620133,-0.02144585546947497,-0.102824277647509###0.11675389058445762,0.044128520022045176,-0.3116053661398278,0.0255454159467958,-0.023749096158798347,0.004110888037974186,0.34346918050651426,-0.15591934710803643,0.023748245826138152,-0.02802089052071635,0.03296898810319523,-0.01571632958377512,0.45994366187991115,0.6227919985666724,-0.05335896478324458,0.21645060922135803###-0.0599277317276097,-0.06158810498306469,-0.5868893653838353,-0.03747256699627746,0.03138765740238105,0.018687311356252203,0.23007964047185459,-0.04543167403513012,0.007875650998149318,0.486491257289748,0.2512654130224327,-0.014776995809782933,-0.06406864286223021,0.2144366215874817,-0.026638081419730356,0.9545790023254437###0.009660792967229116,-0.040015064918846974,-0.7351592540377918,-0.023174418923644666,0.0969466901148508,-0.004065389397004016,-0.15791290360786348,-0.22910688698128445,0.05629388902225101,1.063468722687519,0.6112867589152641,0.07504895307063256,-0.343650399823902,-0.14690819215604664,-0.005207087015999209,1.288535346634123###0.050720508432043926,-0.024809059734968757,-1.0793401876954527,-0.049193070173284205,0.06326323947888528,-0.018561132417529814,-0.3947374550515164,-0.19355326174941476,0.07556789280928788,0.5090206582310692,0.9414209569004797,0.06910619069255808,0.05198966711344182,-0.31659111583620436,0.1023310534033625,1.2985840230157653###0.06575433848393357,0.06478784755686312,-0.6291891236515751,0.024835476281694448,0.03505937598448309,0.06445806538703772,0.05258123538516321,-0.3239133356950757,0.0377961241114056,0.8908309807680994,1.274463131839147,0.0488915770676001,-0.6635654779418539,-0.07415670996646354,0.106741517715793,1.414183000510204###0.04300816281837602,0.0819387892532315,-0.6872482015237553,-0.04899108466715773,0.04189729031760245,-0.05004233660471418,0.10688152126368759,-0.32651839799823684,0.13345242430900556,0.7157958744530413,1.8073698520615427,-0.02458022892844515,-0.731841507081616,0.3186158446592934,0.11966358104395194,1.0868059811349913###0.04887812240568179,0.052606979425623264,-1.0398439989799344,-0.002048952608467145,0.05908062462572649,0.041067967473769104,-0.4196498224061585,-0.35710829299853075,0.058099297995683245,0.11771018745206811,1.4420020989499016,0.07834291183427569,0.03975820342189499,0.20758435971072176,0.038016013500148264,0.9323046079468427###0.005368540210034238,0.08898202657909747,-1.1471291128117689,-0.008279695084846245,0.10487408778066441,0.07428229259242333,0.17328699776468418,0.096943960315111,0.049450485576004795,0.17080748514757266,1.0391876085446607,0.075043745098255,0.13567737330129453,-0.12062991478393907,0.10513618209366642,1.4205919860019172###0.04041815281850748,0.06936366634155859,-1.0661202610744245,-0.024483374990910578,0.09876082378043176,0.09799175398734725,0.4043537854625177,0.35698749167087584,0.09091673501247834,0.31625826074957536,0.95804302432675,0.06951453702243172,0.8322313531340277,0.18463666532638434,0.08561865753990201,0.5693420137202054###0.07237756853363596,0.05820599660630186,-0.6630585381394958,-0.01130265599909993,0.12605090254413823,0.0729644955742265,0.10396362899542645,0.9308383255939675,0.05482684126129202,0.45988723260474923,-0.18838211923330658,0.12488539659745676,1.9584253689732212,1.8603095988574616,0.09340398433092538,0.24846518645938073###0.12130723257131384,0.005851486154096508,-0.5400880338013374,-0.10435277332213423,0.10559472412975397,0.0801814909571453,-0.03593320635445162,1.1124488232672118,0.04177987042176004,-0.11164910853976423,-0.37326239286317575,0.13982390144645876,1.4943508507375276,2.244457840658886,0.08143625592511528,0.45169904722283494###0.1357732113770214,0.12833260299040264,-0.40916653536390996,-0.14429611461835704,0.10872763115312825,0.09820886930362292,0.603442986779665,0.5775431145381371,0.09428156340012962,-0.9484450661777654,-0.1604721081073002,0.06643824374125079,0.6718919145706278,1.6521313017885169,0.09171420718465337,0.6934540807883924###0.050283048550581896,0.003970227474868918,-0.9013755120909003,-0.06999331694471511,0.1355226601463433,0.0914686792539318,0.8710677988871196,-0.12888870114551115,0.10488352343620642,-0.6739047849965055,-0.5593214407112634,0.1350504083419508,0.15820429949587309,1.2875330066141828,0.11135815852295453,0.8913490818232459###0.12675398989337475,0.07166082075059409,-0.9820081296447256,-0.024789806458867428,0.09678761213182044,0.03443214882351815,0.7330249406115323,-0.4079202047734233,0.024773611618761744,-0.03322911656997748,-0.7452033992666993,0.04874038385954143,-0.24608371413565158,1.3542840486598775,0.09731067817564597,0.5236199532563718###0.12262062797109285,0.04047144918283818,-0.30563943176043884,-0.07241067303186387,0.09639173703206284,0.07404185816649211,0.40403884627840686,-0.3823027155393093,0.07018380610575566,0.12578478976286322,-0.4095935666243677,0.10976007898931395,-0.18450110128860442,1.09650192588146,0.040101959857266556,0.3379938475709446###0.04703595397804945,0.04670520595590829,-0.05580167579751869,-0.040224334716169395,0.02530360704918775,0.017370935156019077,0.29421840296058965,-0.5155709218922176,0.08594061909363211,0.22702199871948853,-0.18998559646520574,0.03896325118802534,-0.5722228261465345,0.7490235632088755,0.06249146264875507,0.5888570864256829###-0.0017361614492904828,-0.028523859484543602,0.33882344859770713,0.028809233309832243,0.023000119303745535,0.011644357538876693,-0.061123866574567774,-0.46711348604077313,0.0521765357186352,0.4729647535694346,-0.12576449185644217,-0.04472634627861703,-0.9361271315433776,0.44553170253063196,0.06748537396607128,0.9544490420335985###-0.002395759223526559,0.0024013332792261087,0.07874022706401294,0.01400952396018956,-0.0021808202496929685,-0.007571090506498085,-0.23903875185880216,-0.40239265194150875,-0.015409473027803655,0.6338823179413859,0.17124045515132,0.06332116719594853,-0.9452472159322679,-0.5696489880983203,0.03919387729250587,0.4348321329420532###0.04012570338024376,0.03632282472264336,-0.4122114652221937,-0.08835346249987171,0.006036603574757113,0.0843485924607937,-0.36882828531959155,-0.23518650771359464,