-0.17935511127319814,-0.02534349720610743,0.1724920949955594,0.0434590743175791,0.3895492355306237,0.0028418568784785775,-0.2144625734088686,0.17552707322314595,0.2922504248492045,0.01995121764188962,0.6594459815518692,0.4640035564239954,-0.1687465433735891,0.03949113222812866,-0.23962329852300776,-0.3911526343721062###0.20890157358263078,0.1866613694813134,-0.061627523626453934,0.2631271969308699,0.1898655929222573,0.04409081266126582,-0.29285595630958283,-0.28614882822828436,0.10051434399766676,0.7724602740991583,-0.41476302962437944,-0.13680682074215478,0.36589449781231453,0.2301957660913782,-0.11753583861460476,0.15946999244373866###-0.053218685957791965,0.12164293626980055,0.17356959609505307,-0.2369311160928182,0.006585508388932905,0.05879010342655589,-0.35670563023004076,-0.3092306077148924,-0.2626324799650167,-0.08881634119592559,0.5363505849195481,-0.5844348306157544,-0.25207497609417545,-0.021756062030556186,0.22031963761872986,-0.33148558255323657###-0.6309967519174619,0.22767909808352604,-0.015692619168870915,-0.22880164671118264,0.18581721192768014,0.4274259363753449,-0.1853363545419587,-0.17196800462488757,-0.09627094560743119,-0.11298308522198768,0.40463857261648833,0.36453712245153924,0.12459658825314404,-0.21639544518621653,-0.24716613715556837,-0.33199967728998103###-0.2721989150180515,0.37945071667634545,0.17036669665447063,0.49862881763528244,0.3254829472088372,0.06961788022540441,0.2809711991473107,-0.17800553770327446,-0.03496147346759665,0.06847697025004462,0.2010919727591897,-0.08353994487219368,0.07842030308429457,-0.006671596030244861,0.3792706755090972,0.018833891443624715###-0.2676067423932406,0.07875870608128722,-0.09331074173545882,-0.03473431350973749,0.004339921485098777,0.053540300942524356,-0.3131337026260441,0.25006947487411385,-0.25277535749190233,-0.31293807948269003,-0.09384548688448437,-0.3646933352457153,-0.1430286601963806,-0.052919898563385664,-0.05057862764688928,0.2683818122213856###-0.13160796143693448,0.431585247684793,-0.0070055735945139305,0.11622361296895717,-0.2852423064440284,0.24394504324501814,0.5425622730023957,-0.5797059492200956,0.2766534690970371,0.29699914205108524,-0.12919773524683195,-0.16860796632483782,-0.11070878031532533,-0.11446116430785772,-0.28060974089280505,0.18625870041181727###0.09990825158391274,0.08841712124714858,0.296975305673163,-0.625728379657544,0.3365125331089792,-0.09804331885374243,0.3711899938269342,-0.04186606250660582,0.27619058014279996,-0.47998044535375917,0.3867911140298546,0.37558925747521077,0.18039622383888973,-0.3205509044568748,0.15233360926415962,0.02176547774541938###0.5081044833799927,-0.1629210930257946,0.21680049841898527,0.06950873321539577,0.40683169902712096,0.09267983355084145,-0.08757559005348799,-0.08049228881729571,0.17776182093578788,-0.3621680297062457,0.15407767339033426,-0.11451612046728367,0.41728548174643715,0.10373834097928164,0.006507670763785047,0.34586343360972693###0.2781994029871239,0.4384320863553653,-0.07151607778092706,0.0645661821243894,0.2011762027531371,-0.1252726665572252,-0.11393412373208603,-0.29049280641332365,0.26417604668150596,-0.013332478407980481,0.03747165185949205,-0.23607269977849052,-0.25450512841148637,0.11334133306470733,0.2669959790023367,-0.30153251722343916###0.4415666008516898,0.2940633899241374,-0.0435160373095557,-0.012911063782276888,0.2981108022664442,-0.10562166070316048,0.2593181725974189,-0.5621536549080839,0.09191751072650646,0.003388807719525333,-0.33297264533993404,-0.023432410629262424,0.20215434367113416,-0.22030496953111597,-0.255991370972492,-0.15693176996980773###0.14497417299771115,-0.07683222986509747,0.0026632001763842754,0.03189647148708118,-0.11073845239346368,-0.4030984051950334,-0.007866087326588861,-0.007804196864496839,0.1559029224839072,0.07391818202743253,-0.33434305115140744,0.11083559105630252,0.15667129608718078,-0.024854348600694753,0.3126753047763383,0.004307156018584709###0.31699895986179005,0.18869367505056717,-0.02222912680747889,-0.06402107161258326,0.20547205891600662,-0.41599963766758086,-0.2964875279629523,-0.40344473159469546,-0.2390164915326132,-0.21886650491217502,-0.06646331985578766,0.5224197887871384,0.2463437776610166,-0.4953937072410947,0.29194944413487633,-0.2430452733507346###0.760324000011617,-0.10760368438702521,0.20585944472979786,0.043001060222860904,-0.13688159760352114,-0.5271101294157245,0.4025354353777885,0.09728713188567513,-0.28883191150793935,-0.31159260379522474,0.1072146387751105,0.5517282764882088,-0.37933494376988774,0.151505474996421,0.02990523834903686,-0.13403175419781085###0.5206027646428437,0.33828462490015765,-0.18999493362187223,0.59687853022405,0.04908388443460478,-0.2778431667164349,0.2557526702182431,0.024009009566875763,-0.3861694405330463,0.16449607309797126,0.11475095964127056,0.6995995198353202,0.1548637317627208,-0.22131128564631353,0.1686293782942018,-0.07201616513063486###0.18813211277297093,-0.0876622116857922,-0.26432788184348477,0.1378389354333054,-0.11586243025960963,-0.2944826925442985,-0.09100571699595794,-0.20359393315649663,-0.08846050059934865,-0.6419935204635011,0.04580349272386217,0.45895577660252207,-0.09850397710799752,-0.020644110762967075,0.00975210109299969,-0.3534176352175401###0.461687978699279,-0.004502784295085563,0.3648739517343395,0.4413466547132713,-0.023794584529809107,-0.4257863455300218,0.21377945213022403,0.12279659938646943,0.16324973878475088,-0.04588956838626049,-0.04903270596389214,0.46332344239981293,-0.02264013738351009,-0.17055491968825506,0.15597879957246083,0.34761740727325463###0.27026273474812085,0.18964158016179664,0.19046682851307883,0.16404408989115482,-0.28473344903575987,-0.7531019229738801,0.29277538120304847,-0.5021073481995548,0.18087019728016637,-0.09310270568582224,0.3887787352228037,0.25928496977436855,0.6049924911734083,-0.06015473950021154,0.11763634828046092,-0.017258849977255478###0.3534711226001884,0.3785782284859519,0.4302427227298039,0.3212141077736366,-0.13994942184629325,-0.5842941991590828,0.03212644052157197,-0.4535045894130738,0.1829832536936925,-0.030875970495176614,0.27535914419187724,0.0523848595503536,0.12770206267890624,0.46086136325559346,0.3552160486977385,-0.12189519210776455###-0.2449679906243394,0.2850937886240221,-0.35806563838684763,-0.07948948274740832,-0.21552138799162235,-0.3937762429807742,-0.0020177906702379123,-0.2184826284800948,-0.3234122606415363,0.04143772059359899,0.030399621172319785,0.05831042607568446,-0.1203413158517402,0.25805571606860284,-0.03767345762167097,0.6140409370247734###-0.02954941776643746,-0.3545260084540482,-0.45247370403551296,0.2665748750616877,0.5910822636902902,-0.43469204182592397,0.06404078562313119,-0.12450870452577872,0.1678543308619714,-0.005305777083666652,0.058285824258923605,0.1002640979512346,0.32592808329321604,0.08616536147505294,-0.36564955284866413,0.021923834019290146###0.24135486339469459,0.3203344124028762,0.2360647926504221,0.4123081335829715,-0.41802871951342413,0.2910343905070533,0.3180866951968103,-0.015362827881908894,-0.3350815245571934,-0.16700827510052732,-0.11304651486895326,0.3690141859636558,-0.15191587017417624,-0.349555121215902,0.31844404506479607,-0.026488215723605085###0.02872400342573699,-0.23181276983823548,-0.3254514703785929,0.37665962633028116,0.1675999760474709,-0.031040292005553614,0.21272746787183092,-0.4396265305584432,0.10122439926111186,-0.2046103381921194,-0.38441643666823755,0.18352415713452033,0.19321268473927078,0.25665531344356196,0.4776352434505954,0.4718625890362375###0.43268562613852657,0.18042954768538702,-0.45210345821844644,0.05357739284278188,0.007135731918847323,-0.38796603155651666,-0.14161395124677625,3.426566361947448E-4,0.14971741889576382,0.04498472913959295,-0.4563559896376718,0.1170419294668135,0.04096306587063352,0.04275069093802069,-0.10822125972135478,0.13267525512474887###0.1870876398527124,0.01978277578238187,-0.3917194097078664,-0.02453157761979104,0.1932726146882581,0.10877922411371617,-0.4506350309669003,-0.06012874850756053,-0.013084710417459339,0.41302329895292694,0.11884914806402468,-0.02125907254218183,-0.11692149728812438,0.27748232410568435,-0.07808656247652894,0.20700502699588655###-0.008986302914801184,-0.41110508386436323,0.20735305085998879,0.03003721249813634,0.21523910087767947,-0.07472048653487141,-0.14439983752085506,0.1405380368270623,-0.15979653530885568,-0.09678694975064907,0.17393004746946727,0.17892092086326983,-0.4099801824456106,0.2790116638776557,0.3260770383902894,0.2863859258383037###-0.06444809222628596,0.0024434152022285473,-0.035502280697265486,-0.12501129564181412,0.32438848833191863,-0.25325038804192523,-0.05484593071218975,0.2081624452248458,-0.2536474783297232,0.28797382049527614,0.07262736769208994,0.3284445816390711,-0.12469433060303255,0.07156049531938725,-0.24931879655292516,0.31107090435474316###-0.3375031007091414,-0.02569909322267187,-0.027239535544721565,-0.2706549224455171,-0.6819443476525465,-0.21199574001186355,0.43679258600442117,-0.45634480404322775,0.03773765831403896,-0.1734136976492095,-0.12756683927493917,0.055290933425700156,0.4754422528237598,0.4359799894486097,-0.26805786423700106,0.5007640227206609###-0.020561091114422794,-0.16831053786835753,0.27077255558123575,0.11688413633701203,0.0503075099053349,0.2447272023562489,0.005650251771033109,0.35420703923316404,-0.11017822522710068,-0.33462930925577516,-0.44587962473524884,0.09818516292464208,0.3061509433672816,0.11989783980286683,-0.6388391671395509,0.24223924732276356###-0.30959182053784234,0.04376930008936295,-0.026959128233768396,0.0839578929983487,0.07611123453752003,0.1557714749181383,-0.3656294321700643,0.268169439145997,0.208184413351056,0.3985597431616461,0.08726614106280371,0.11713858506885531,-0.09131212297284615,0.05347701277166556,-0.26180880139523305,0.31281954076982443###0.5630383834995912,0.4306234652094381,-0.21819552481039883,-0.14650178799190736,0.23534593504982895,0.06127760706692941,0.12081471139425697,-0.02130687621381671,0.015041229900606343,0.2932087342469544,-0.28080076134525805,-0.3347534376981135,-0.1640728093322466,-0.3761960000464396,0.23160027699384148,0.1091739035265056###0.8275187948810434,0.08374589726001826,-0.06316380642703366,-0.2621608076301052,0.19007003782632595,-0.1420908255986513,0.41995976979491034,-0.4304145236094346,0.3528833439380619,0.12297262043316134,0.31638867699185097,0.0703087582612224,-0.4617084089525425,0.3641874262271496,-0.01193051580089874,0.43330073397300395###0.16703772811068304,0.37423235809706784,-0.05438494525627598,-0.14243026533464448,-0.06962333882101018,0.14196931331503024,0.15087228464982141,-0.39457773906284443,0.4718511445705595,-0.13865075924967063,-0.29327162253741074,0.042928606833272626,0.26852822952064326,0.243613483675518,-0.408599963337588,-0.07712208367882249###-0.07009404625505457,-0.04925451421434029,-0.25263173358931124,0.17264464449038275,-0.010812315332141697,-0.07141703135441813,0.28511805044275845,-0.08155259246143971,0.15520451520119877,-0.15341533750257538,-0.2065393150823732,0.34472017186047255,0.006620588903573331,0.06229754744547178,0.3675548243511064,0.13160612499538912###-0.34930471497048465,0.4122417981215458,0.010677605467181342,-0.011259105162124602,0.26516653969837656,0.32079912643132447,-0.17906387514078564,-4.168402667222003E-4,-0.35779200075011064,0.009305452806220391,-0.009885828791474295,-0.1083809907162554,-0.2728197068792066,-0.3305720132382397,0.22911069215714377,0.47755523579395953###0.3568534217105115,0.1752966401439216,-0.40227102668442055,0.27052861212166773,-0.16337343164729415,-0.23684451269064916,0.02856391215756752,-0.5038075020636524,-0.2093110324449751,-0.2664754437482352,-0.4670222232854368,0.22305349538878627,5.053383623788241E-4,0.21718157320946066,-0.12108708196699981,0.04194515377716814###-0.010845059739197327,0.5690288660860369,0.032793486208410265,0.10153876188272178,-0.2677650416172064,-0.25142463924781033,0.21001630082654266,-0.38559128892411926,0.5061413248204961,0.13441251503019364,0.24516730153373112,-0.15193664278607447,0.38049019805794865,-0.1870201275230214,0.05679501995934411,-0.2221864323596508###-0.10057310167413236,0.595468319209893,0.08082901272347819,0.23470584561388752,0.19088565392185133,-0.19031849376353235,-0.04522423378120838,-0.10375483734097735,-0.09329647586821982,-0.1575832957234143,-0.5693599379247563,-0.2155378432536047,0.1098696118016171,-0.33427015484921513,0.2938958176657969,-0.09883548769939615###0.010582251194607751,0.36840335823811715,-0.42146490988935364,0.33815042115342137,-0.4738709160891953,-0.2656855996139564,-0.16009501910851198,-0.6837195189010673,-0.12224109900474495,-0.17417381175558172,0.1163463766566482,0.09968107365520336,0.4682200657969161,0.29995855486096534,0.31156851810076713,-0.18390156609720015###0.18560630405306042,0.9025424228401047,0.2883541171683965,-0.13397431907551913,0.03375896394793805,-0.34780819785978295,-0.07447142675877871,-0.18134954975642512,0.0944171536080037,-0.5629238372327979,0.05854468576081772,0.32151196803964505,-0.0018701378124383154,-0.24436597877994326,-0.08236257292651576,0.13335987547299144###0.21267775765363514,0.50579321754416,-0.15636169987774345,0.27934964803565676,-0.2659889914022953,-0.0529865122631351,-0.08375288453034796,-0.0396451535114736,-0.11201292046165294,-0.18782586374849,-0.28246693444219023,0.1919665736287355,0.05162703329303813,0.1740370445466336,0.06454916131746839,-0.13414196383013732###0.4958159757287257,0.5465381128020282,-0.12184191466665693,0.46179511593306244,0.2837019166351026,-0.36035689573200147,-0.041260214880005315,-0.4177755135685922,0.059485650129726904,0.08758959315007017,-0.5313319370612763,0.6079286304290015,-0.12176920859982805,-0.4007482741931547,-0.29993823327122426,0.15861740117851578###0.7387876245263024,0.15067927082001112,-0.42540135794813694,0.613450831258215,-0.042938276187956655,-0.6469716462975643,0.6888377632943287,-0.18152014670962088,0.6707542520100347,-0.2335671243406651,-0.01219994801562138,-0.0574376174205269,0.19123001466688086,-0.03314834820013573,0.20736494302032288,-0.017664434584686504###0.11511323286780274,0.037390231225394116,-0.21167716239544113,-0.10133553631661363,0.21059410915049032,-0.05330512158713211,-0.23055741767473,0.2769401856222673,0.3064227416730356,-0.3683597021129332,0.011528143318829726,0.19394387433498292,0.20405091215359195,0.5989482731924333,0.11686224026920593,0.033693581310549885###0.3361716729261188,-0.5412241326766264,-0.36857603404890854,0.7125504506981846,-0.5315287670689314,-0.5881814637693811,-0.2126632949238811,-0.22923618766535384,0.002442854810453217,-0.009769399321217525,-0.19722417585667917,0.009957289426684834,-0.21674909555076308,0.06181516227966967,-0.19592605995461446,0.6190752696282296###-0.2490981455833891,-0.13342303763873187,0.1827888993480698,0.5546556778318907,0.06266600395726399,-0.12804658096850277,0.013052137367411887,-0.2534075213797031,0.1494948719015735,-0.04628573921561478,-0.031586644043314106,-0.009096952524088589,-0.4772662544522583,0.15070787664047544,-0.4040821885033842,-0.11639280559525192###0.2168671379192992,0.1287361269599822,-0.06983564655747489,0.23735028614603837,0.3440718665583767,-0.6028361253984322,-0.22973542420066187,-0.14732814097104474,0.41525946200053915,-0.2841301376583406,0.09451254455828613,0.05857779364724887,-0.03366675852898698,-0.17869670942309715,-0.18748762264374313,-0.4589405259788475###0.9394855975271448,0.008204193154210948,0.46109943198518716,0.11196319400208518,0.13182907477388017,-0.6418689070082724,0.6669480367794101,0.1506001952797313,-0.714050267648905,0.16884650795700046,0.6171162556075753,0.023245480367406098,0.17610052006956686,0.24399072635941013,0.09596203688344322,0.06238095776194906###0.6564279523729742,0.2411041427458979,0.12622588514227892,-0.21948227131627102,-0.18957428445243396,0.13181521899207949,0.136696676376983,-0.18686882599350665,0.2965425222828835,-0.11625576615699817,0.24083617045831066,0.01629836140513292,-0.26228915763889776,0.014262323666645899,-0.2238708765309453,-0.4100151245429959###0.1566026915989545,-0.030673359360790305,-0.13603706617817085,0.6254245923567647,0.3247829554985893,-0.5811160569963604,-0.06046793574511212,0.1274024883600535,0.45808438510041627,-0.055912323293991845,0.14122316859564235,-0.23203944292186032,-0.1745806426621152,-0.43597959730723784,-0.7829887577170569,0.21529067990323617###0.12650236946756416,-0.5274321207867458,0.23517270638657123,0.4054386345915248,0.22337876463637987,-0.342395583022362,-0.18566005911291938,-0.40613323311454014,-0.33828881111775283,0.36010043380667717,0.29562581052407516,0.4510479140879363,0.11524165233415504,0.4887091963621813,-0.1779897417779207,-0.07364596323185779###0.47117172605142665,-0.2265282739579867,-0.08180644598811458,0.4283161419579534,0.021162742901143842,-0.2328961387748055,-0.09333236951236817,-0.16973826022409713,0.2586459937682552,0.44623101068540544,-0.4555051658127149,0.3602606846925945,-0.21324984847442197,-0.18747678108106317,0.16432238241674652,0.207457399951664###0.05240426423862839,0.17410898527881938,0.06132273618030967,0.1799473404501754,-0.02873883091103792,0.31004174258362877,0.22731170715689036,-0.16527264522905133,-0.3599862457918074,0.5633185565115829,-0.04751524099734544,0.23037927449040718,-0.2297460681277793,-0.005826149377433772,-0.09505712635165973,-0.11001870067248155###0.16777955473699516,0.259783104245109,-0.025861960389686002,-0.1659013772077804,-0.057247460734524414,-0.24670519469612334,0.06159538038492818,0.1923142144090803,-0.23974129836028926,0.11674047661567101,0.07311765313840525,0.025195545353373518,0.2631072216178335,0.18218542165151166,-0.33266359416528973,0.35188308904461757###0.4936221394917574,-0.07611416670651036,-0.2446399710186498,0.40433253661322643,-0.1138621823124571,-0.6731167723104454,-0.29158082495562665,-0.1953376957138815,0.1255743588651457,0.05709117923796066,-0.10931169751639451,-0.25438118179039954,0.24630932692154808,0.18737247068648002,0.27249239640387707,0.1604148719874238###0.18448327152402685,-0.05489852615195421,-0.06030894817043539,-0.09966158434584219,0.2348855110083698,-0.18070840643242606,0.3199971873527695,-0.3726319928450722,0.426192781009065,-0.17929600345594712,-0.14847913723226414,0.32924410965533063,-0.36244027753955776,-0.1556337167128671,0.23052696465478828,-0.3505700458428762###-0.21092897560175694,0.27617397108899455,0.17612303488567302,0.22880743014219168,-0.06876936341329513,-0.2729334832096568,0.015122282663390538,0.2268483255336619,0.45908874342839595,0.09663474086347794,-0.16385468399206043,-0.09095204616350261,0.1162853570244458,-0.03578985391550876,0.5444796545274433,0.5116652123032154###-0.10656973263285588,0.32707455404710245,-0.22798100130267177,-0.31978624061733746,0.228255255577087,-0.1742090046858991,0.3090069676216368,0.15944068411970985,-0.33262906694982536,-0.11572122883178403,0.28345418650769105,-0.28812799677520445,0.3558482952738168,-0.05796383557054083,-0.6150536885008825,0.005360041682132754###0.1831995993231518,0.4418024689478716,0.1992192538401247,-0.32997788790648697,-0.21648324663936142,-0.2543778544834249,0.19122258216148602,-0.14634192934925036,0.3345319226136177,-0.44021159609437305,0.4628525437910548,0.16279061628793495,-0.14525011905981,-0.17773528673179126,-0.16073267767796337,-0.010942835433984019###-0.022473479931037127,0.19651394532068586,0.20249611228317707,0.3479363337408477,0.3614961405936634,0.08728268331535982,-0.3056104915055994,0.3807480330066647,-0.1904295226511488,0.09105797726124791,0.267254684694245,-0.05475112824800614,-0.33257118161883154,-0.6663354809316471,0.21338253747492797,-0.1531853152168471###-0.07804623932838135,0.3854039654357383,-0.030585710691409626,-0.6123535517333595,-0.037620803903620055,0.3313091649335288,0.1567321530242285,-0.20799327768678463,-0.12096027286306771,-0.5304219587281206,0.03625379326836295,-0.09456895740683005,0.15299324468305814,-0.35674405913808466,-0.07032811554149497,0.3365212090480121###0.35939526303542774,0.29122179375217755,0.33594593045923693,0.15014856393788265,0.09873742240789986,0.02934587029348118,0.30173829091207416,-0.00857606435521189,0.20013773818645966,-0.11303451892118155,0.224989931803962,0.20103323210959584,0.010658182289136281,-0.1631648934741063,-0.32900689293735264,0.23826633931475147###-0.2231784392788984,0.5113180940026009,0.13037361786633028,-0.11653800786138505,-0.034377037286691094,-0.5865119577632859,-0.07585251809615046,0.16348070110710375,0.05444750869373754,-0.0498322024097056,0.09219390918918813,0.09691082694711758,0.014497972058000465,-0.769775636586489,-0.4877529224494266,0.21834530410433126###-0.27868815279133036,0.6749505947610511,-0.34552588761335784,0.5019294977107035,-0.4425313405228668,-0.11921358044254503,-0.11226593877619567,0.48086380661113287,-0.4101927036292251,-0.09021358257324025,0.17625961241221194,-0.3202235968975992,0.44604843266249095,0.25065414733109653,0.10319240765216053,-0.32705859448815744###-0.2593781493049473,0.7318922443626383,-0.02934731801291213,0.1196339276555255,0.01343772858197145,-0.041880643567785286,0.3082355147594823,-0.1671721780503016,0.21284696746558632,0.3649404754676929,-0.05496143689858099,-0.09437075113350776,0.13684744067478458,-0.20927683972345335,0.4244860771236288,0.23711742504293426###-0.4259398969934384,0.23138389213707283,0.4096255795823857,-0.09905641994152203,-0.1888210952798744,-0.03627085675934365,0.0012451126777015757,0.4095570066539631,0.05296728194259947,-0.5043095002343729,-0.05189345537224903,-0.39240040968732326,-0.1344883132785196,-0.36791650819133076,-6.953082456764045E-4,0.13180752109050964###-0.31182975067323837,0.3718746276714776,-0.07474429391950366,0.3084871850527732,0.45321580597970795,-0.3955597515732355,-0.03330978947448544,-0.33332455373929604,-0.08186696155467955,-0.03372462617973329,0.0034770627008651124,-0.03700619266183746,-0.11428670836953497,-0.29020665018141345,0.22492878245421818,0.10997866216632285###-0.12774189421666748,0.45723023745707037,0.06269858127292172,0.6226983814534046,0.13768653751128473,-0.5618405625467575,0.09069068341163446,0.026594587144131345,0.08205651150294321,-0.01617429902107604,0.08381847051605233,0.20575487993222225,-0.021631260960291162,0.04286645113033336,0.2545662711814864,0.0742706270039137###-0.4469913081231569,0.5297588329530636,-0.09465808596134948,0.2904133911211776,0.3155831569420847,-0.5660302964680761,-0.10641843747888999,-0.0015858094711715784,0.23541167372303382,-0.20258842557789772,0.051208096054461055,0.194500818837161,-0.07705367622644609,0.03724426473502285,-0.11478719274322521,-0.04468873356944506###-0.5954552136870007,0.8397722288850678,0.17980706277185496,0.5566640227578358,-0.3021221870359053,0.09764005070448949,-0.26113024634782367,0.2887090095272845,0.09471988141217412,0.19657987049095463,-0.15411694035000612,0.12641874674408113,-0.4492181936280971,0.01111292242342106,-0.01085154613144224,0.29012016563525195###-0.2879949834610475,0.17839571246553687,0.28972840730828,0.6234752689081191,0.3719083801417495,-0.7195693750571442,0.038433437918213124,0.10099563144384045,0.11075736243920843,-0.06314095951117361,-0.307416917264286,0.3900446678572801,-0.5335473795974236,-0.40363627141129366,-0.011657637446471109,-0.0311712466721458###-0.16224705307551593,0.9361354278882652,0.164492166822364,0.5296750289386383,-0.10938633691572473,-0.027975362752910068,-0.942615705858459,0.390292457966651,0.13275794839105576,0.10012003058799215,0.339630963969496,0.4943769401612043,-0.9099237005287553,0.4444175280652619,-0.36840880565866474,0.4834779785272032###0.33357602008458603,0.4981414667611205,0.226761136295987,0.7504746864990208,-0.3891573315827202,-0.7804048079433302,-0.3002103700131354,0.6443339057113359,0.4465451832959026,0.39364433544262595,-0.12092919820790034,0.19042848218815486,-0.669692300360497,-0.02235208223535858,0.4482108382725731,0.10851971482671026###0.911954103688217,0.3085046078949069,0.5770486153520133,0.5952699168578153,0.06535525033341498,-0.9958303412906333,-0.20591828571451315,0.613803346951422,-0.36278780472904903,-0.1638524002645224,0.31782612751846623,0.2088334397746012,-0.5097778095119724,0.21524238848039579,-0.22555827940746057,0.45196346792484055###0.1639089051424377,0.30546010956393127,-0.17623447421933908,0.19436487695923693,-0.08093952865082293,-0.7489962689692929,-0.07297079330211194,0.7296397839740831,-0.06287034134216112,0.08853800287953496,-0.4100344840380958,0.13497660750047602,-0.5011809933288898,-0.01941017462188835,0.0877394767139607,0.662569924970668###0.6025259852324376,0.742247885197051,0.12853531726834613,0.8331934309681402,0.09271622843559645,-0.8394022672368637,0.361618964025895,0.04165993258808607,0.26474581641176215,-0.15392674881682528,0.446834857165051,-0.06262573440495953,-0.5952744799821794,0.10299985272656186,0.06817115761345714,-0.19738125289041863###0.912842067550241,0.10814980330311334,-0.0650712036095923,0.44754742474225456,0.18761043408023179,-0.4389614060500217,-0.07499438773408992,0.16209348622654224,-0.11528107251847125,-0.33147686946642596,-0.036155135427965834,0.28292070742164344,-0.10368993979365172,0.39360870467059117,-0.12837967372612713,0.11614962740829747###0.48640892507507355,0.11045142114937405,-0.07368840877219737,-0.1996260212766017,-0.13777624618508566,-0.6134776537017022,0.1468568794686551,0.08116762330482676,-0.2288099833222736,-0.04664159935235067,0.04484761725574815,-0.2026468554631548,-0.1074712487518014,-0.06466529059907034,-0.039280689714657493,0.6622447083780343###0.20119569003303925,-0.15577898671790563,-0.1924972301080928,0.09682605227943819,-0.021681675927304547,-0.5827797719173785,-0.17801230230606968,0.35589719312300905,-0.195486884814242,0.4434903511868702,-0.13212756745466933,0.11984645943617618,-0.04524082028701243,-0.056333241538588555,0.021154277517355626,0.09562619111977423###-0.17191500235208368,0.06526809976412123,-0.09461107684695777,0.7536397345947197,-0.015936498446774593,-0.13870559443442337,-0.12447704313486563,0.41125852612805275,-0.029790017548967287,0.4304523002366019,-3.038437224045914E-4,0.019717060807813762,0.18167020988001245,0.11342485175340679,-0.3467562044294929,-0.1967670627326863###-0.040582813708734344,-0.43130091898793493,-0.15083929895127296,0.040747261856266606,0.10594685616665962,0.1023827023749677,0.07971987803361089,0.22035469317675746,0.6285564268874813,0.34907214469311115,0.020981133449496342,-0.0017487127475977592,-0.1655929236396069,-0.011454274863044699,0.0631362693726241,-0.032275432442247835###0.1098760869644053,-0.13485513024401333,-0.03875350311203712,-0.22300977812317194,-0.07788456676801206,-0.4583081857021874,0.30100195336688784,-0.0856822228341701,-0.035017718298603465,0.43805022971013113,0.670458526216302,-0.42550707389192155,0.17005064663916888,0.016457793448126208,-0.07326073460779832,0.17584923313275486###0.6155451748123555,-0.21742338813908518,0.1810522393515094,0.03823712312577504,-0.27664425716445057,-0.18707409717716522,-0.2540892262024077,-0.1282265770585617,0.2616858252934297,0.019697394140562447,0.07351130863711393,0.3603854664617349,0.016652947521723502,-0.4054078883182121,-0.1817360900414185,0.1218124942149469###-0.057429915568886776,-0.08716516468124776,0.289832028878134,-0.19979743976909847,-0.22935338773957284,-0.04702245140424652,-0.04788273637252772,-0.2283771797983272,-0.3531256433773064,0.052049926717962665,0.08121401336157452,-0.19561508250334014,0.339613249537957,0.13462460531370338,-0.2473733594378767,0.11073406947123682###0.34039722097149416,0.28336761487321543,0.40988330701142334,-0.5884279146767114,0.1396276818075253,0.17489363347285994,-0.26271491728756335,-0.5677736838893209,-0.5998328857902671,-0.329892387510286,0.055896503790738,-0.2442702062238053,-0.031388617972565494,0.5462168193243505,0.5253689047708764,0.04919225268049622###0.24730240992920413,-0.08412313605955489,0.15577148894811402,0.05016210719819437,0.11451266556716376,-0.11294705799560667,-0.4266116886988199,-0.2538970565657579,0.1200685553938904,-0.02702161953953055,0.13800193622243753,-0.40105979544296455,-0.4931907820517744,0.19603321180974437,0.00581255988513569,0.2687188285386934###0.0062174399368318525,0.15834339533230413,0.2661340576217017,-0.3263286342951435,-0.1778804575623826,0.11291478282743861,-0.3241628009160732,-0.4136621628539322,0.3388282810071805,0.19548308387198865,0.19065102891176436,0.01661072421373435,-0.07967136299917744,-0.16067942926776435,0.12007809856003185,0.07028399702776114###-0.183234895942834,0.41068009348624146,-0.28029973113746576,0.10107342938165714,0.29826254110150346,-0.018883774733435103,-0.34673205300522697,-0.09222474005923412,0.3678689709083976,-0.20393735608484395,-0.5136286684896568,0.06630596032790159,0.12295546616161417,0.042262880830981266,-0.44920778513064863,0.2057036703464595###-0.2044428938101094,0.015046792718807394,-0.19301675913005367,-0.24148845065914795,-0.015755487695142924,-0.2755332478753226,-0.05980356165491827,0.05040107448817131,0.24253835934272663,-0.15611657531894033,-0.07522054465731438,0.3553764724390352,-0.09051147425288081,-0.035953681750809964,-0.09283667017928976,-0.19904122084585085###0.10406826118126436,0.2924646305478661,-0.054135280906327105,-0.1402861738924177,-0.1826258521556148,0.3933168674224337,-0.1464827355764649,-0.17704611029220815,-0.23401478833855585,-0.48995999834675863,0.10584139949361952,-0.09219075032205387,-0.06577371565169818,-0.527572683248339,0.15385595287132536,0.3640025001833104###-0.22269313149396397,0.3097630153657836,0.014553129269205321,0.1683951078973209,-0.10071089763374996,-0.3977273506603531,0.13667455663819003,-0.06615476995835824,0.1711730272630782,0.2090002320424272,0.037466674348547814,0.14000147168802407,-0.037968911592305886,0.23192372374126805,0.06363457355971648,0.4043045281513384###-0.03556827166092854,0.16010980760123675,-0.11674740724362757,0.08282781892244441,-0.2902469481997066,0.41908954280917815,0.09275939528112011,0.4270667149678441,-0.41346073226910474,0.3036117142517304,-0.014275465226619054,0.20286755870555936,0.3099467704275774,0.35145563150068543,-0.14215203954658057,0.012166955316743104###-0.6425245688416925,-0.5210892128855407,-0.4628111299693091,-0.08757599157358299,0.20458456867167596,0.11869698920192369,0.2192432327353353,-0.038080246254455344,-0.13657571140382468,-0.29801040369365556,-0.28925068460379344,0.22649810878225285,0.3578052816094683,-0.28040320131983454,0.044725320202653455,0.35593584533759787###-0.34871612427558163,0.36657454815236784,0.31611684163487097,0.32710966946908504,0.21774815995232558,-0.43793700569528754,0.2597705306344363,-0.1437243246965541,-0.03482115375320691,0.5129963249529148,-0.08737227539064199,-0.2762416520975504,-0.2826716107303478,0.07473837021625364,-0.1935475257252299,0.2173520029884241###-0.4989513335830353,0.2358867139002729,0.07225335941854316,0.5200910797725893,0.10986597687270815,-0.13962386753335365,0.17556024485370994,0.5602889331880767,0.023952362066331296,-0.26142013460347946,0.9397758347245782,0.07907874061188903,-0.5875585232629421,-0.17824191501396536,-0.5079762607514099,-0.2538122452486669###-0.6838130954903824,0.7922955804829485,0.3721893008993025,0.1101760084653902,0.3226127955585604,-0.4378109634856227,-0.18353662316435868,0.4242488164764423,0.18596573564978622,0.20672307731799908,-0.04152807644445951,-0.3752146430364723,-0.29189473157454104,0.07182177597961492,-0.15384924470096112,0.8858016589116714###-0.3358573562409144,0.5068181522526606,-0.20900425225950447,1.327881561561774,0.21779408381960552,0.09643479680734013,0.1016529888637835,0.6877992785528962,-0.19125408388304665,0.0012890120107618554,-0.15167090045926687,0.24324345944165196,-0.5914721508873143,0.529573760769298,0.26725144792965655,-0.04566031560093176###-0.46736346529105366,0.7899352129994764,0.03704700961672978,0.4586337091634386,0.37645608539982944,-0.538868441674808,-0.18781814970377836,0.9313641246078153,-0.07030770952405828,-0.1877790276637778,-0.33061248032855595,0.33739130209626655,-0.7158071676758492,0.05726101261492534,0.09851027046692508,0.1635550379759232###0.38975384032984245,1.2063525883827986,0.032533022235001124,0.3813462581171263,0.0855447166506174,-0.4750228860408105,-0.0663049489386626,1.6333139611415577,0.09317005189843722,-0.0343382959076682,-0.08257352001994965,0.08584452189250362,-0.9929117564995603,-0.025934926627800052,-0.40601984890159604,0.20299179829690528###-0.15244149989519035,0.6500497612171029,0.042182957571437404,0.11764479794000812,-0.1078372379543981,-0.6936970007795193,-0.10451485532192213,1.6819654987835102,-0.2606454958983223,0.08147953349436642,0.2362954084822615,0.005247589806702671,-0.9436524751499419,0.09464772799556403,0.2931520176061991,0.3404698681798697###0.6716286115820755,0.7919264421303556,0.13383330553068737,1.2723676145579852,0.29491231554128083,-0.6833121434199572,-0.1391546001112102,0.9580953245046291,0.10677040092061427,0.34496318179438434,-0.24256213727985226,0.3048981302710894,-1.4379163413573406,-0.01941251552407176,0.12788005098347519,0.17489967253658723###0.5660867675251529,0.5643041366141278,-0.07875649463661769,1.0320897285302313,-0.03724794041948654,-1.4958109454310191,-0.009644883365824324,1.279853426499357,0.056946245224198194,0.019415655658733762,-0.09377380880996405,0.16547446316646286,-1.5856586625532276,-0.5058965964011916,0.12447105521414775,0.015460698715894117###1.2130606657514391,0.9313379740832365,-0.42654617501033676,0.9630439332327034,-0.23744945233002232,-1.1653087111358622,-0.45422911329955984,1.239811731136895,0.23421420613415636,0.12242155426793376,0.07501473560573355,0.27663116453496966,-1.0797861598521874,-0.1260606331718544,0.30930845707280413,0.33311097175983184###0.7097098484099106,1.3137566894108266,0.42649435781638106,0.8221360674656848,-0.32521082989723005,-1.1586402752315337,0.14471836619604425,1.5518268629721343,-0.33115633794239224,0.04404859671232786,0.058573932129449065,0.34564737133232165,-0.8695149615296528,-0.22034911744600164,-0.2591713261523335,0.07780466217369725###0.43810074957536377,0.29804905423442746,0.03915963591901563,1.254185145818222,-0.26223910845163934,-1.642133853260509,-0.278245525621647,0.9931583798708831,0.2137302413164123,0.08278037345749821,-0.16969805087035697,0.30488696461756964,-0.4522275052882629,0.25432088334258146,-0.21848295639627568,0.37099386300086895###0.006906059714167428,0.7151010206817275,-0.07945160132829822,1.0733554584953422,0.4419861905074326,-1.3657071397040679,-0.183817331283206,1.0177836960244506,-0.4030322512419546,0.4656613583491685,0.22957856167836166,0.058806812251305886,-0.5940118004329187,0.015480237991551004,0.13147006917805443,-0.18971386686609293###0.64924160432472,0.295234598635444,-0.11105062213897389,0.623655047773027,-0.12192162956556675,-1.4790549277109202,-0.2206534196607687,0.5797219558065492,0.3396893766619757,-0.2949827214718368,0.014307295613444333,0.20083954001279042,-0.7207780386373731,0.2434880318010244,-0.0042235554755617405,-0.11159534776795618###0.5450485085074325,0.30788338181543023,-0.21343181346776394,0.505422811222238,0.15886988024398083,-0.36161516270527755,-0.18480932500454517,0.01206509072228347,-0.05895492280222704,0.1486978810340145,-0.5361954644407735,0.00270293413729295,-0.33208500537793095,-0.03830958038254214,-0.05180722311043736,0.07060632479604452###0.405773721120296,0.5119362150460679,-0.23461047704396726,-0.12517589055704037,0.0493275225103714,-0.036851534022887045,0.04811303177980554,-0.03493208096314965,0.03564900952624671,0.43453026650691245,-0.36143906541964427,0.03167869176089497,-0.440772987074272,0.1390929080712622,0.1485448156806263,0.21054747594242249###-0.02083991447134266,-0.21939977035235977,-0.16373898648459007,0.3873551431095789,0.14947974710800704,-0.04881906913104002,0.15375541918761193,0.2330636729842198,-0.14077346510797326,-0.3692296021597936,-0.045802800771827565,-0.05081492702580456,0.038288853644923015,-0.08018552142694041,0.40787834183170907,-0.061059955748458176###-0.18367215517998928,0.18712383793820642,0.32121111921665163,-0.16197119459772902,-0.2549663566784934,-0.08634806538869619,0.012799521459886378,-0.26992009178103366,0.245619171647388,0.013326389925823934,-0.006147963079551881,0.21493114864421164,-0.1246302301577739,-0.07009538761538554,-0.19570223475064574,0.7996379016123658###-0.06547698132272195,0.0853126933155654,0.09121623309572156,0.38112120352976453,0.049822346962492825,0.33694914911974955,0.06091776439573555,0.2818297047145016,0.22898662465718195,-0.4003356218718633,-0.31479715015623566,0.17596840343648687,-0.05840845609587501,0.3327691246015921,0.3319537020876612,-0.23190780787959697###0.299320461723811,0.15349368791032694,0.25810066593144243,-0.3516020334002079,0.07212194521878904,-0.1616509412265612,-0.16457468620730525,-0.16417496529234624,-0.07081626987114663,-0.32601951351952435,0.18219709890549557,0.5397784987182482,0.1549891306941148,0.33832612163307824,0.053436316579453885,0.6066580891767368###0.5073472794096148,-0.20842915271149884,0.21421656666405056,0.045449375097559204,0.10587613104982473,0.4290748659303291,0.176970170483283,-0.16732108046585142,0.040466455502594305,0.43700036839981515,-0.020746955857712145,0.09651049638036363,-0.16272304752529237,0.1504907558402343,-0.042388830749159744,0.1263116508504834###0.07672102790158213,-0.24108841691930624,-0.1152090634791168,0.04844972913960339,0.04570607329339721,-0.13095048490218808,0.20163846155303217,-0.08377781394024604,-0.014246751286805226,0.030620536262321477,-0.04907886289927694,-0.09426027201269169,0.02230535375862835,-0.4455981595743642,0.06447796903024341,0.30095481301250515###0.045555771154296515,-0.15927531561544142,0.12749716503909253,0.048233197895954184,-0.3763545164678099,0.13121069505282487,0.2554863059767341,0.14224229621176457,-0.24012089555699714,-0.3474913823704548,-0.2526392436296925,0.1124893105993546,-0.13539341344805864,0.16053841667526972,-0.07518271128648966,0.1956233643133392###-0.3976829732857123,0.34035287917536877,0.14461096210811572,0.014816773240439505,0.598161380593924,-0.3292435797458179,-0.12108053328075943,0.25221499244094076,0.171080995759831,0.0013013239903684286,0.30751638587101404,-0.171123106561778,-0.2953776216570577,0.04634218826960557,0.009463063018679841,0.00928451613859181###0.40576844763599484,0.2730359202348091,-0.0915618452178401,-0.01816094145533271,0.02639988899041842,0.06924646084044604,0.41842261762760713,-0.14598459130508518,0.3255272504313097,0.020467248575797143,0.3153881549588883,-0.16234734134689985,0.2381820338682704,-0.10494184508967892,0.028375651367732665,0.636905359187324###0.2746816617303493,0.07657759983394255,-0.13800272128820124,-0.2669488054698258,0.4552083993651522,-0.1453076751521769,0.03461577393596424,-0.010485541701452376,0.2806364916148869,-0.02810607878045506,-0.015218688822609737,0.021893908023938022,0.011949146907270974,-0.3412821048520027,0.38014184184006533,-0.22150000290055455###0.6116155840475029,0.21455109499163125,-0.11636913745830377,0.24957403765223368,-0.02998466411650882,0.01058063919924647,-0.48561910655299884,-0.312936904847564,-0.17386223378352986,0.05885743191158994,0.33802911555069914,0.006691917743386232,-0.19485931798816708,-0.05018776786201175,0.26401890751645607,0.43043190595295727###-0.251273855930834,-0.1492234094793792,-0.3745660148963333,0.013366654205391553,0.029677060070009333,0.1990419834753136,-0.39115970769663344,0.08058208755339795,-0.061362629153328865,0.3855879011233343,0.36637233203944175,-0.5335930094338898,-0.1935366954961367,0.2638167263334793,0.2657162756163099,0.6413053675847686###-0.8173543491418539,-0.35279702250396244,-0.18242653799402875,0.577581123655751,-0.04850434604834759,0.069075646010735,0.6164488388126476,0.6113091728122678,0.1070805301927695,0.5966568582763974,-0.03744485084732186,-0.39266951222158974,0.17347402764417674,0.32066925302255395,0.17036712096261783,-0.06147895522136868###-0.4385699391073921,-0.2193085282035956,0.044261345818474254,-0.05732508425977979,0.35612062958510426,0.02057805561078106,-0.1460185397796095,0.30032743546750634,0.17503774099253264,0.4153969793578654,-0.40415157636278826,-0.545294952550942,-0.7193580793023727,0.169041074119549,0.34980719231929336,-0.25771948259063543###-1.1738927291202368,0.013454197765713126,0.09778902161311231,0.4565466269701358,-0.22011226277995133,0.36430981854746597,0.014570744281645133,0.43085593183116655,-0.18951396963314962,0.20861280100438695,0.2593613839515834,-0.31076855019014327,-0.26896978264747473,0.49953265402777763,-0.2011981264451181,-0.11141328192458011###-1.478697821347461,0.23744951930281383,0.17950870451642986,0.12752248088279494,0.071938135936064,0.45648010696992525,0.24974223651379865,0.25758491256139654,-0.3234179975926725,0.25135646162918807,0.32206298413115836,-0.7504591193434933,-0.05419305795833307,0.43205597005110347,7.381626186733696E-4,-0.12686638473805967###-0.9027894222095084,-0.059322352267707705,0.08148770123681573,-0.13425900179206804,-0.12052482434670662,0.36489949943806727,-0.3196290483195479,0.24345901620156374,0.3450097952625153,0.5260096513771343,0.02707446386383855,-0.49512254834415975,-0.07427972951953751,0.6700724788755433,0.03991384861802896,-0.4027785062717685###-0.8475782422712012,0.4840742394035976,-0.13817155931629493,0.2770009476504275,0.23046224548110045,0.7584168487056959,-0.08946790209207987,0.37761931942734217,0.14867198397021694,0.10122632257033161,0.4676680156487809,-0.3980459547886993,-0.2119477611441335,-0.01910277296267356,0.30228346546048857,-0.2038147049275068###-1.0119912771882047,-0.0908954366707932,0.131500338654156,0.08068998078332223,0.08861304058264435,0.5360557105920902,0.01656259319133287,0.14115181199040952,-0.10495702724221544,-0.3172127494235244,0.0021702420402257877,-0.3620542231049089,0.3163341524120464,0.48933377480826357,-0.01689670676428808,-0.5415807191039148###-0.6756096446049209,0.5997489965870407,0.16158369149981527,0.8381254181048508,0.015286536113737701,0.24019929789349467,0.11037703997890842,0.2671935692559627,0.21205328273524668,0.06202236520628342,-0.010881353432311974,-0.19675776943075413,-0.15342853495433978,0.682319364482727,0.1273655406164172,-0.10872639491756486###-0.19202496560567703,0.9777908810869436,0.1356181659989406,1.0718155581881021,-0.049629176124913,-0.6262208766091757,0.07066995895186669,0.02269494724307424,0.08703575441774149,-0.47544374966473435,-0.13895209894682267,0.1489513584343394,0.19568101293434045,0.58736865023389,0.029761726090123224,0.0793431469640617###0.7145942902948739,0.818224917477335,0.17574431939281965,0.9790897286482381,-0.26773624944124463,-1.4444791404921866,0.07818644594593892,0.5199155518288054,0.24890368705364155,0.3346681270112405,-0.20803372716945887,0.28984841402313344,-0.7325757383914293,0.267208546941008,-0.2640797722958958,0.12697980008114687###0.8738067449935684,1.6617492478304685,0.23048518685302125,1.1580301287241417,0.1277918211371446,-1.1112476662416948,0.07967325013474688,0.6036936498232495,-0.15417894942401297,-0.14255143402206816,-0.13096233923611392,0.22864266305361672,-1.3884946133332507,0.2266114787299369,-0.19570215232665134,-0.14902378374484568###0.4322694091121478,1.4386854965760276,0.43920848276683994,1.0432078739970496,0.3040832694713038,-0.8039700431008164,0.062294802648896606,0.4270853824872863,0.12502661821067268,0.3042395649340431,0.10691506495976318,-0.02669484757151648,-1.6393883422319553,-0.1024840525730437,-0.08434172475627225,0.07194475167336699###0.2120721538727474,1.143815739078348,-0.4307334203001455,0.5613506539021669,0.3117651834565375,-0.3417721074445436,-0.22003067350859157,-0.17855244677893403,0.36136214285139995,0.2964249278205601,0.3080950976545764,0.0030053036369324412,-0.9519930302801176,-0.013940289784827465,-0.22883021402964562,-0.6163039219566838###0.43509510737394685,0.3205709765024573,0.32672749302810616,-0.11490991200839153,-0.15240422254654368,-0.3420664370448761,-0.2586744249038415,-0.40886329420212913,0.21443781744949056,0.07619445365331984,0.2195180472043039,0.4340945627562933,-0.6688040148716013,-0.011424780765646863,0.16681876014045627,0.38989708306193505###-0.07580272459854147,0.054223877904946455,-0.16028523955739551,0.06815652795973061,0.048231659264688094,-0.35191573556834277,0.36290215995903746,-0.45474608153013596,-0.19337448315452788,-0.003027935107055334,0.017166304876875874,0.04455121921862684,-0.11346856856924696,0.16881183188501706,-0.30266147667341237,-0.14283835479914195###0.31209567660659665,-0.050441373622846786,-0.025717153326914422,-0.2998023629931726,0.08000182118243565,-0.3296060759339367,-0.21588542932541988,0.40115329155033985,0.3365612864223076,-0.15630306577365047,0.3385872513009137,-0.011889427468031363,-0.2582878262067862,0.10523914060216862,0.016607684796069968,-0.34495766370618136###0.3026547447559122,-0.024152976039090317,0.2412823758358034,-0.02997669341963089,0.30927625869050773,0.12190035287285848,-0.06468043095182902,-0.1595176382688436,-0.24338488414542,0.385502336781945,-0.02098623722402004,-0.15866169081895812,-0.49055792478978655,0.30008693358908733,0.2910987068181487,0.050331345736468025###-0.026131743241498983,-0.12286472076397474,-0.1164248967281103,0.11225215508276719,-0.18335847672703093,-0.4153222669002582,-0.08101202956810462,0.11151093735739605,-0.15931775165102857,0.13280266674178726,-0.3385884330520165,0.0874756747288805,-0.10431631721699632,0.11624823651625907,-0.0876174387092445,-0.010819585267065055###-0.007814244362654548,-0.221281054625869,0.20844054937579443,-0.05734427686819131,-0.03485007862602929,0.20367577377007653,0.5085787231226379,0.0938788869780118,0.13704860476222855,0.04365567563526155,-0.17657158698398043,0.047421148957364864,0.04293996546985566,-0.0204144401106411,-0.07313515405583244,-0.11319393244253145###-0.172163195470428,-0.4809008925515021,-0.11271203620750582,0.2823524783249576,0.4415070583561218,-0.2212033084165113,-0.17541842359768514,-0.0747878532237566,0.16161445713331582,0.27061441447071616,-0.1921129960134424,-0.09060166632561714,0.4366559746323156,-0.4564001317074848,-0.11380940784314415,0.14850720147135774###0.23665422511863166,-0.2652616034331856,0.3381809056016983,0.29813402215363305,0.010494442286919948,0.5074524046119756,0.12113320717343849,-0.46786280194450036,-0.045508892763961174,-0.14654261464597687,0.2067848499025045,0.03127487385055739,-0.41484921085757703,0.19784405338453634,-0.401769827885102,0.19788522321376945###0.28483871627625634,0.042417620732095755,-0.14115720807943322,0.04547656685177991,0.1063808795532449,-0.028186234845248404,-0.22694740937176427,-0.5017446898091646,-0.47154072522772317,0.35554224237708304,0.03912003811718895,0.0014472207830674973,-0.2563031951106238,0.12213400578128808,-0.2621607473850193,0.2144940197363298###0.25800555449455426,0.44801780468544955,-0.10778742718431807,0.07812769498807684,-0.09890471780210679,0.23796183513754024,-0.07707818857382555,0.2574571914908433,-0.23832156938226162,-0.20451161333705822,0.5194021012703257,0.04468883701604515,-0.09731037740169948,-0.22332958195670477,0.03225169816559011,-0.03147199009940591###0.36405367649921105,-0.25619467909828014,0.01726927792946323,0.17382988122772128,0.07236274513042239,-0.04915043726919015,0.03371916872757591,0.021717589858338382,0.12007770791923533,-0.11305257919877615,0.04929274464145527,-0.21114259934376753,-0.3770129081162625,-0.013638451375084164,0.10540257487415781,0.31821778364315584###0.1722590270741576,-0.44734002064707606,-0.0303011039706306,0.20919080881553273,0.04207260128431245,0.19014339784146414,-0.32138090709282807,0.361045925179365,0.18413512100937388,-0.16452261579854097,0.03326979488482639,0.10239992334189943,-0.4470152593098785,-0.17221613153230284,-0.15508899333959197,0.3984998858185387###0.18280618906605806,-0.35878328729963305,0.12631246775363697,0.1086402198688197,-0.18065160710136233,6.018457349524474E-4,0.0837778786649236,0.5121275820534691,0.18490413928668778,0.3137635970059869,-0.06329878450359343,0.12608392390452508,-0.3453893316797416,-0.2808699266610169,-0.5228942345680414,0.34376823499858533###0.7564407109332149,-0.4327223307009286,-0.39118378621673466,0.19044562227117995,-0.17926358000583764,-0.45042152344985004,0.03260581601326453,0.477432138896183,0.3695292631062104,0.4137065039205116,0.2140829540162582,-0.27494560561968373,-0.614613889818147,0.17204630789416203,-0.21502655801328824,0.27242865796657906###-0.0821475789787099,-0.5224112935828347,-0.18984050451220233,0.8989506194403685,-0.18692762029300314,0.055608446570125494,0.050605040795642646,1.4726707022661516,-0.03287723508265574,0.8821155989642036,0.21320975878446038,-0.20223623985700076,-0.6797335126202863,0.2582990894360771,-0.3273530877187597,0.013101601728601664###-0.10768580310675228,-0.46078038627780615,0.11306835325000815,0.9150237066471645,-0.3256916233560425,0.24765823045179455,0.20269949349119343,1.0669103924234549,0.16929546050736027,1.0324882817744256,-0.025829259151325827,-0.34527673699902267,-0.23932586351215876,0.46191448135837054,-0.13988083511245694,0.5120550359845442###-0.040876696658989076,-0.11914929237982759,-0.08579511431391995,0.5043979513358486,0.1899547408023548,0.031404556780725595,0.5708407106553682,0.5076796959780301,0.022534658540599425,0.16200865926448238,0.5424749955492802,-0.33593268327243303,-0.6065168994848285,0.25828603359645924,-0.11908169678247668,0.3749624367416972###-0.819880180206817,-0.1734581528758777,0.14279599867889042,0.6775867823520985,-0.40448051544829505,0.7951809032412308,0.17527973064844113,0.9598506141207475,-0.03903785934788843,0.898223669462205,0.0458021055605256,-0.7045592312329375,-0.22407955373316002,0.6518308326623905,-0.33238310855462105,0.24591964005570474###-0.5487884485181466,-0.3367747533236977,0.32796659012480295,-0.06439012412514844,-0.09077040451721419,0.6828536840347689,0.005888910279403432,0.10435150929971165,0.19304784207754885,0.7623473226921268,-0.14764708961284478,-1.0410671293009361,-0.03278881077110275,0.5427168187500533,-0.23652001452650298,0.2996387889618661###-1.0293295631963655,-0.12334073992445894,0.08240353622229882,-0.027147978002928848,-0.11238588571440514,1.2707599443673245,0.19239780073225138,0.526871190500041,0.0404482843495628,0.17987292304867922,-0.07256455724898879,-0.8511085367343528,0.04539350200280365,0.34780129804146226,0.2651503408717834,0.4927927733654266###-0.43181922519506055,-0.20166676668500252,-0.30711961820334727,-1.5027296544040865,-0.022998934781532962,1.4451922683745317,0.2275851227689193,-0.6041710329117074,-0.2607950996881918,0.06339953266964451,0.3138456145737502,-1.068652408958013,0.5513318348720933,0.5244825127893874,0.2996072657998413,0.20720957581049387###-0.14448573537982093,-0.02183258831776217,0.09357756126642777,-0.7077231083326903,0.17543277340745947,1.683025353141425,0.23479153616426876,-0.3797698615290382,0.3625116951282537,-0.4684528895863087,0.4100027903607861,-0.7998620532312374,1.0619750286890706,0.8053345224082772,-0.002521608374178221,0.07934560963241837###-0.28260585388223625,-0.3721866599313586,0.26967670175572667,-0.36057910762193845,0.3763760878516747,1.3736007195090219,0.38781417955588976,-0.7559958404277132,-0.02752499831222825,-0.6056262100451879,0.364769170378553,-1.4275295102431869,0.6823974557525205,0.7125155946975985,-0.35171098228334086,0.4117191579099914###0.4634195869155459,-0.35913744061513564,-0.02649159903461953,-0.5670179437679831,0.055417731997207315,0.20263127176010284,0.6791761570177626,-0.11693945803858474,0.18219653841497804,-0.44804723162834625,-0.043610672099308634,-0.6054663310465912,0.518495821823912,1.1732166781521927,0.00452320474053291,0.4418990401723261###0.052034273128158594,0.3607638212487661,0.5091852697105607,0.07113663674014968,0.6446545773271561,7.664914645653633E-4,0.1521571285476887,-0.06589711440346777,0.40040398923209913,-0.6307297720987102,0.14479898664650262,-0.4261436704448707,0.031343460586127796,1.1105797438848035,0.3866749119178452,-0.05307350268841719###0.3593214413110127,0.3232954248142881,-0.03891975777292063,-0.26229117383839223,0.14782649650877425,-0.12937770246194946,0.22271436575278258,-0.17138089204066012,0.07373631287581549,-0.22556754470902263,0.45432848985112173,-0.3122114851841218,-0.3271478265308279,0.37303569971229167,0.35838606493513403,-0.16602142372211737###0.22207807613845934,0.2270189248000604,-0.02393064343110561,0.22471013351969443,0.46062467806272994,-0.28064366613432123,-0.12152624706206626,-0.6208012091598376,0.15763315251817525,-0.5775026815439654,0.32968295766872063,0.07238163865388396,-0.14297237190747308,0.5019105890507868,0.29266441391749554,-0.5526502204741227###0.4999349004574812,0.43129905876453734,0.396545137239297,-0.044453536215590214,0.11893595259370367,-0.2796824751845332,0.2401611243687214,-0.3318982564312224,0.08011417964710994,-0.11968441610697993,-0.31079434427457114,0.32425035081557324,-0.4678222002599,0.2610072979605316,0.5353200511062168,-0.11325003285557816###0.8458470525927634,-0.06788521746497099,0.42084398295226405,-0.03201174511948103,-0.1479919465385893,0.19589385332677897,0.1937042167521037,-1.2494450095428131,0.12371472257063525,-0.03217251335232609,0.10371560086179646,0.40702435948727356,-0.07534631480451004,0.3245046041673272,-0.39687996527381897,-0.5398347667759302###0.7642214448904036,-0.31475732744730717,-0.128882984178968,0.08009853745547106,0.2473837378950155,0.13608501996048714,0.006303507135626886,-0.6479253905870108,0.10466697492040923,0.646800342767069,0.3030784234856476,0.24751922617730954,-0.1436952073061011,0.13085460082723413,0.09019820554228178,0.29501559461283144###0.5926375513518072,0.04761918139032304,0.021686771963716808,0.0015214239957645594,-0.3199159874135947,0.18186027414702766,-0.096010314466606,-0.4565822284100427,-0.1207226754836941,0.32675740366993067,0.24317345592405654,0.29765924507435065,-0.24631718635714392,0.442162948757405,0.07664863397730198,0.12852350847725738###0.44614652834023155,-0.04916067093861417,0.18134786915223308,-0.5056727567007735,-0.2334315995235509,-0.3036818688960947,-0.4749556341863608,-0.3422219506615783,0.11940275493467996,0.11839693481686153,0.03184506031804902,0.3953678253189555,-0.09836906138090191,-0.022955986974120348,0.33141589027835744,0.2101339726335582###-0.2179844403988041,0.26111379862249323,-0.1696673151882137,0.2269554464244689,-0.059248254819141914,0.15007673682776515,0.08813177277371022,-0.3185870691694796,0.5854128469777733,-0.03204537117234614,0.12904190131620205,-0.29196326647120513,-0.7212624155929046,0.27333630436725526,0.1791304416984847,0.1885312507111987###-8.439841180665723E-4,0.600742554090299,-0.07601073639341108,0.49358506936784263,0.2126885863839963,0.0822411955052476,-0.14464658653344795,-0.0840257722413112,0.16196698270176554,-0.1526296778605831,0.04919066173668905,0.20358677223862476,-0.09701618902647557,-0.2787223014987226,0.05150271579005109,0.2140747572561983###-0.29561303557271845,0.14536519219793773,-0.024749883961995813,-0.4192135933244835,0.36673010006970647,0.2950695171691325,-0.0523044371775218,-0.20245760630432846,-0.09406406629077753,-0.13335524864070875,0.09387839723936243,-0.07911715363521538,0.0735843742146177,0.23640998585321857,-0.13417328120936556,-0.12426840115294961###0.07796770627696155,0.11726327805425958,0.2337712720664658,-0.2603865325181764,-0.2970282152889576,0.17399128995444604,0.14638694816278305,-0.29717200934245,0.3547553932615187,0.006891646420088209,-0.023434183915001506,-0.40460054074145524,0.018248749299562737,0.1651647006742556,0.0594316854598478,0.16729837300510977###0.14136930492328567,-0.07256907845003861,0.07185957884989182,-0.5640672938378154,0.4141830111553824,0.32593635669758203,-0.5030889040759341,-0.06914648231759861,-0.20759157987891427,0.009224062283959503,-0.39885611349067895,0.13747006305083545,0.17157801878668044,0.14063511351348246,0.0982346745747536,-0.3968098658316526###0.15860939671622548,-0.27541304282277795,0.33631153697792726,-0.08203831971647231,-0.06942820452038527,0.2805628546688367,-0.34121875478501273,-0.1493349738047868,0.032655548730859914,0.3521473003763913,0.1540478572184113,0.17313264320965188,-0.21231451050659056,0.25683939634616504,0.33958466740446464,0.43151812973787607###0.10989289621998771,-0.03558850954812429,0.24468678847091715,-0.3059941195366847,-0.00953735888521641,0.3222607392709544,-0.6008809560714898,0.3833933809855128,0.0829181697555644,0.24100011361499765,-0.013185161575784124,0.002867311738946451,0.1457466846978303,-0.2204633706542931,-0.12192514026158499,-0.37620644088248595###0.4836323866226315,0.11629840022686518,0.05217934507008148,-0.282937278152728,0.2335799621998007,0.06614981537596565,-0.23415628707589853,0.5178029434734622,0.3120728818005469,-0.13515973678523935,-0.033336329764833646,-0.10244432775516343,-0.3461770390853658,-0.20578221286311657,0.06071436268582769,-0.10915194060923192###0.38638847038934027,-0.14766586848053834,0.13161121770083628,0.27116396416357685,0.23890634483933917,0.03294400492388908,0.37772775598086666,0.423993395013757,0.22606470944966028,0.30724085768525783,-0.17022533116912347,-0.25157656549236856,-0.22804688115987365,-0.013906497670578688,0.004170692641995482,0.38912605488234153###0.5295299951987096,0.4998026717002954,-0.32005708478865597,0.35153687360677555,-0.4639807979479358,-0.10325102442421395,-0.37931925361178426,0.36456823312797193,-0.32122862892654835,0.3273204636651156,-0.08765735615326108,-0.21560165071565343,-0.9129767524792061,-0.17676572482837893,0.3638819608867404,0.8460115937919207###1.190864132144623,0.150631476532142,-0.2101580970161671,0.35684187078143015,-0.2706173385257574,0.1637719919169311,0.4411779624322301,0.7056396806605488,0.026812262970954508,0.548327285193037,-0.14914321845259093,0.32200250692509447,-0.7446446320837445,0.38372114337171626,0.2600964640332784,0.5787375807250806###0.6652837508499851,-0.03662357222325214,-0.05680314744660257,0.17039099706503116,0.19623829493082093,0.37326352235086663,0.26836694207675044,1.0893976709952593,-0.340789401604921,0.885604139131817,-0.03869238006305729,-0.4496946353214686,-0.19398568516343198,0.8951404515991261,-0.1947735289662009,0.5794670209709878###0.2585808231241346,0.2268682855763339,0.07621991332600364,-0.279275335777661,-0.06483701480215207,0.7167795669574523,0.2616672426556097,0.4835312041323064,0.36888863843686004,0.7567816978728293,-0.08202318385398834,-0.07575237533765404,-0.2850914105421474,0.43484003389824055,0.5283950129527183,0.5303704011424124###-0.573991391529273,-0.1277518900620782,0.06036855305776264,-0.20894664874302396,0.14195103247242313,0.9658247400376766,0.24654460575809597,7.387417241347786E-4,-0.014115154628420485,0.3527484327346653,-0.26507943196549044,-0.5466589312819289,0.08291615055604429,-0.003850158215600687,0.5743769917265755,0.4019712891331755###-0.36955364676913455,0.6120309825101851,0.3349492181321112,-0.8120072485433456,0.18902488521035982,0.5201264062243015,-0.09213427573315822,0.2748637909066052,0.07734120917827711,-0.15944717498310657,0.15386448094366803,0.14947347030661157,0.14663744142761606,0.7512184577265975,0.01580222344109083,0.5851151642443342###-1.0300617402923062,0.11960645187207669,-0.079699373735005,-0.8431184347708564,0.3129347546809615,0.6978518809042643,-0.021855689671526055,0.03418367675980677,0.272358962257791,0.6476021622810595,0.21048817799156624,-0.5421722003054613,0.751095396214077,-0.12809015809773863,0.02257989969236028,0.4568218474056772###-1.8545980690480737,-0.5325376359379282,-0.39165019870646073,-0.9917254679811736,0.5576898147116688,1.0031166270323388,0.05385099034378437,-0.06026098475620678,0.3075434589424862,0.46623170769239297,0.4417449538801627,-0.16392333756210062,0.20550517916718541,0.1993437925427332,0.1381425957311349,0.3391381994812634###-1.8260314275272542,-0.6482675559372768,-0.04832545508139411,-0.2295758097247364,0.2631044428382884,0.5229029551271998,-0.017646055518143904,0.13478013005630568,0.4858244103256665,-0.22670128232916378,0.07317092801441208,-0.08231423592721905,0.32262989201315306,-0.32772356425461674,0.2043548328729198,0.7973023169431058###-1.2124096867703713,-1.4164461742847718,-0.005762712818446834,0.14757572931581203,0.02178269059834164,0.6682383221081621,0.05005478597478289,-0.32348989899872654,0.32804241546406643,-0.16804797454864207,-0.008890056554026004,0.026719873411470318,0.4720888857290848,0.40200109130475825,0.007119047001167659,0.2185761205150757###-0.303225988334035,-0.6677921989106742,0.18934869463610077,-0.5299796088644242,0.0033893489672286495,0.6612738103379041,0.13896501419411889,-0.19577669107385415,-0.017755979404434748,-0.5595656859111503,-0.22255878473325558,-0.4515013706467726,0.42572220326510307,0.12641493785742192,0.317162321916125,0.2668085326553186###-0.4690160432780233,-0.6403860204808749,0.27946632432210344,-0.741036184016253,-0.03110940887760611,0.615507195764144,-0.060993299499329266,-0.5756059563421037,0.21163252674037927,-0.2477998173367733,-0.18238127920444522,-0.0597587778022774,0.9501905486846012,0.7426398729686577,0.0317484229190072,0.2825218167898232###0.2796479222306854,-0.15177792413321967,-0.037998944518901366,-1.2192989076136405,-0.5148148966482623,0.6353242253304068,-0.05878993089361364,-0.7331559069032227,0.0688762522400257,-0.20207991403417333,-0.11526375656097688,0.4549297768914146,0.5809858800039306,0.1211401974007456,0.08562874701218588,-0.007650479026703968###-0.30158272344912035,0.0036215931988762243,0.09851147123212707,-0.17117079468166582,-0.01578870999905916,0.7724825676375907,0.29441658420647143,-1.0186076468512881,0.04360158226243804,-0.36035521934314163,0.1540939187258788,0.16833898645217005,-0.002002542359992689,0.04143206980731077,0.12572865158252156,-0.010404995195072491###0.955305687087256,-0.2968186056905229,0.06990175534835104,-0.46060469212803457,0.1702848303952784,0.7260157164761573,-0.07363076289271255,-0.9735808783523779,0.20301873557082845,-0.6836552109275739,-0.2165508638419405,-0.1328031560409197,0.12792832642574634,0.25136257373460397,0.17367188617274815,0.12269531419767575###1.4253553609188327,-0.41753715475338066,0.11246465727379841,-0.13443889754649016,0.05927691673014062,0.30629079330841186,0.21516572616292687,-1.4708440695973006,-0.2780643813671909,-0.2727876201755918,0.35811796136464535,0.19506321147271893,0.1959998904200132,0.1302626658674584,-0.19691012328322727,0.012028648063533166###1.5246605422067563,-1.4538608772673776,0.2548413743147045,-0.5806971404101491,0.0944037008995254,0.486554373377692,0.18271742170016245,-1.2975988770523954,-0.26444996191777775,0.0384893307673925,0.011292598385296023,0.1609999926496626,0.07509091875357835,0.35800515134573985,-0.5405438739464018,0.33452903873821105###0.895885247812706,-0.49134873652152256,0.08969566039729383,-0.40079364843083765,0.19522253134938722,0.47334001331176556,0.08098769819849022,-0.5621424205342671,0.11525434719561188,0.7219974330054452,0.2773362725004507,-0.07464057738503325,-0.23375590387895318,0.09474030526932439,0.30829028726840796,0.02374931062260457###0.7876323998946652,-0.38104903052684685,-0.14787506067754164,-0.7223165341734867,0.3012445483334118,0.7801059898921664,-0.25569690354259533,-0.3599817269097775,-0.12520485614091342,0.2739211901312044,0.14341333373431286,0.6309943367606484,-0.3565751317794706,0.3443231694584887,0.20246381129078908,-0.10126676285679169###-0.05781243143154103,-0.21699802257478235,-0.14147786981451918,-0.023457268113211215,0.1984630006305454,-0.03143644237310832,0.3994408618327489,-0.5109385402738328,-0.04195389662260378,0.37869012620918485,0.2819009602399789,0.10031653449825348,0.3384424503517765,-0.09061353591003997,0.11903587517828489,-0.04565700506811991###-0.035151858125820466,0.5858624798643125,0.05063829971658945,-0.49828855077014805,0.012065377479176399,0.02940136849795165,0.08781541206550014,-0.1582053818256415,0.7910160216083031,-0.03365596945360444,0.05619672888325014,0.2543009404877512,0.6319127589532454,0.18421204528159968,-0.2435312380293272,0.21236756842222435###0.2469718603723687,0.5562676495913415,0.11478563924021165,0.12619466386489037,0.07182157356890147,-0.05157703561922423,0.3438396953957683,-0.08047887773266946,-0.32362086531213663,-0.0937838177903226,-0.10184599438475712,0.4292777721525714,-0.292981465957544,-0.08829805246590523,-0.07645506759751654,0.0669277318961201###-0.11835426726154252,0.24913915411309562,-0.17248757244059926,-0.20620316228091148,0.21786105911344886,-0.2317594126824539,-0.27396938401307913,-0.19017618655639262,-0.199568494246637,0.038844277902193775,0.5187526817442397,0.04583977459880538,-0.2534517218804295,-0.340316457543382,-0.24124370735251155,-0.3272366183554202###-0.06650953648739587,0.1623489282580653,0.21920596356640493,-0.30996974795952525,-0.4292530457343168,0.2854980843534432,-0.41251759117167747,-0.024644635116046087,-0.00489951229792718,-0.09377668043054502,0.23969091409950222,-0.032828340968986215,0.18463329657270788,0.09348978779784135,-0.21252574796909476,0.34137523600831504###-0.224536642826173,-0.5527577848481883,0.10428662720161577,0.24220694436245158,-0.0401413782021678,-0.2421701726650424,-0.30665496638689216,-0.36445593030000817,-0.24589822055234237,-0.046810771689931314,-0.4654042972522431,-0.23691875740405696,0.0502577051719206,0.20038776481317086,0.057317258321524386,0.2846382459828095###-0.20921758909006624,0.5929901402814992,-0.04519617301362874,-0.38556748709498057,-0.07138914336111046,0.0967286398020482,-0.21489278169005763,0.7541828923741047,0.5038742446740037,-0.35206713434279185,0.06781658704727928,0.2924218882257497,-0.14654245015798406,0.22942196290709954,-0.011708167493469921,0.16949777310860786###-0.0548142875794084,0.7691802391133075,-0.3366377622062949,-0.17250632880271052,0.4849493025741859,-0.051738648907200695,0.4430556831357876,0.2326667584962644,0.09135914937763884,-0.34325196663183694,0.434489433937555,0.15464200311204457,-0.2478702013904645,-0.5006860083361274,0.2806622593202411,0.3615457796965222###0.5793789442036524,0.7882611686575234,0.07285317409463468,0.5057675184501241,0.1677633508517032,0.21657666940173453,-0.2374232204724199,0.545389263382456,0.03165231043022096,0.2007328908193456,0.17865346739887739,-0.022372349064467736,-0.10559767362445144,0.35828770652900105,0.284654295566628,-0.108908900795143###0.8722016301416609,0.7243888767405955,0.28619866687322615,0.35075429777702705,0.12018792886169445,0.08557548113185107,-0.34159779285542535,0.4898222436551996,0.11438407481204439,0.006642010804715256,0.469605444455342,-0.24897116017220594,-0.0038139482039671363,-0.41325939493971386,0.21296780376393978,1.0002830571690706###0.5806245428026774,0.7616479657804847,0.37836401792923763,-0.14089456666032646,-0.030469964112104876,0.014237450595921216,0.06589068171545179,0.36106980668266453,0.38878816258199506,-0.45482068836063694,0.08638568553985956,0.18245221934278327,-0.050801763742947606,-0.009493628965441873,-0.3347219396659911,0.5231976353321428###0.5974623392331423,0.5130309852720264,-0.12333405203240673,-0.05413152940857735,0.06239806173234942,-0.13928896045514452,0.10608732545911737,-0.0959884067671435,0.2205849686690846,-0.337761375064089,0.17900779879105275,0.009003146811440507,-0.03866745221538298,-0.30372759658703624,-0.24157108464307817,0.9691296907287436###0.06327531689940301,0.7139475114091032,0.12929586807934143,-0.04571864802280617,-0.3441826521096135,-0.0819584304614319,-0.16430741443751284,-0.23194125209125444,0.5489604434474911,-0.824529172353762,0.3886768224536684,-0.16573775130528456,0.40605706068311703,-0.6027049709770083,0.03240307688421987,0.6778464592720627###0.006923650144690118,0.46620896743092466,0.09547500115576735,-0.30294331969115146,-0.2791439109825622,0.25463962653090416,0.474797741540448,-0.0017491666569225406,-0.04309966925190177,-0.8300320137064484,-0.11943892945970637,-0.5109331291212904,0.273162756086226,-0.02017030250489099,-0.3121531875351662,0.24414476579884048###-0.2861339896163512,0.38198162443509676,0.44841084984044655,-0.03737301085783388,0.10416935646975588,0.08438768968199219,-0.2028663685380251,-0.08387396804664617,0.4990959640290058,0.4570790508737044,0.2420200013567108,-0.44546421387686663,0.19218356907508272,-0.2622992532871413,0.19543083683015686,-0.025612169453501123###-1.011505225498258,0.1748846478494873,-0.03058942340552339,-0.5873177998539593,-0.11486645718330037,0.14912160399601657,-0.3336173476354782,0.05980025140819891,-0.05250351945632099,-0.022677353286157567,-0.11666377520794563,0.28931371229235564,-0.11799254347978821,-0.08821076539917433,-0.104354836201448,0.30773636870192417###-2.221878968093644,-0.972884227207456,0.470699719617578,-0.0387938426914491,0.008674572734773504,0.5037605259562417,0.028641737151923037,0.8158596309066135,0.07204697397653555,0.17780892376859103,0.46256604826847647,0.09348188024739447,-0.14283538217113503,-0.6984159712948311,0.5605884718963743,-0.08774038724884768###-2.103068152728725,-1.0467448923816791,0.039801551319184565,0.028853765618711086,0.05258001994917243,-0.05903925392232939,-0.12526115368437502,0.5693735790944295,-0.12272102855215432,-0.19630043349101542,0.146569380935469,0.4984463143085736,0.2376486174085971,-0.4615764761672819,-0.14846074862009914,0.5914533665034866###-1.5871300212859416,-0.3658706518641832,-0.058915277915985574,0.07323189500394922,0.351524990396539,0.21904380224822498,-0.2637264078361664,0.2457583184797766,0.1492839678154615,-0.38830656992547613,0.006034632185735152,0.3211168173591731,0.1606622504224137,-0.5633445381716033,0.16818688746603425,0.21080439899568745###-1.5604902083543928,-0.2766807967732133,-0.1648102053557493,-0.10821142844055609,-0.12020994921648928,0.7750826448919544,-0.23451536282833152,0.1315351937329001,0.33311325024342897,-0.3080055023788505,0.3116156051798107,-0.3933460307922257,0.1580383528186891,0.05032413020531629,0.2624713973239543,0.49093678816830116###-0.5130374471573245,-0.046837471182666304,-0.05906217873593683,-0.5342058938177988,0.17584381443098482,0.37052326772457905,0.14081156026758168,-0.1943949760819523,-0.4088712226128759,-0.01887219096557515,0.34069570419425693,-0.2005821362511639,0.9205895385391804,-0.15762340888140064,0.2865485459721428,0.07124193847626208###-0.6170339552362795,0.12038658628843356,0.09333997652761439,-0.6943405199411573,0.015300433144267088,0.39900594376661946,-0.022410867834656675,-0.37938769636214287,-0.3529699734267844,-1.0429099208694421,-0.041288708468410325,0.5262368803739417,1.2502973879524635,0.006390804745073969,0.13129163455410992,-0.25062294472795027###-0.24590521363980494,-0.558861969418591,0.3172124772000467,-0.6769089655058588,-0.10431189016973406,0.9741707770947425,-0.2888409771017721,-0.3338143284340196,0.13293860112288744,0.029589257036163275,-0.03456154900808827,-0.060418845702520235,0.7218801310276025,0.044055854305946635,-0.18385308782720064,-0.533582815688243###1.0435717492008838,-0.7606181657263248,0.37579027562940537,-0.22367865685348082,0.2112032496608087,0.799431303686705,0.14296013866567636,-0.5151706227556141,0.032996043972785306,-0.25654754079205033,0.019730546260837253,0.1059292046774201,0.6017684106532837,-0.12228175812135747,-0.062222465064814395,-0.16709016552768255###0.9996972466427335,-1.0369180756089749,-0.4228894361613165,-0.5665400561356789,0.13597486204584663,0.8845352893464864,0.1285511073376053,-1.602714866287684,-0.06082253357239146,-0.17301031593429475,0.409107014609068,-0.021320672523060007,0.656958355388072,0.36146020698703635,0.23554218392686355,-0.039021663084678214###0.7541276426585725,-1.341369754723534,0.20832913093712632,-0.5679478073650572,-0.025461876703603257,0.6171631949390505,-0.7414025089142399,-1.153647738851979,0.42951396839066097,-0.13203708654605392,0.3973502646964898,-0.09281544847392326,0.6433689444214938,0.1941985320850736,0.03252989413192883,-0.42471641453625514###1.0165458710786097,-1.1231261416070752,0.2331321565356503,-1.2402208236505057,-0.2600009983663212,1.0275435546504876,-0.11765995019130729,-0.8400871344403235,-0.08632434805466516,0.8023253994063824,0.08158048039555428,0.09230752068233206,0.16205606653672544,0.34943923920850933,0.4319983792706995,0.03542910846698185###0.511196889732694,-0.7858991263561622,0.31637833948168703,-1.054709427086955,-0.046984883070579,0.51829890373139,0.09449655318722518,-0.05557948191381706,-0.569869217065969,0.974987271743023,0.0063648173950298075,0.14107281367234167,-0.3136968693685042,0.8873724601923845,0.19836492888194684,0.010757917323602265###0.4830119094309445,-0.8994338012786204,-0.08240786575407007,-0.43738983818708604,-0.09599398202082977,0.3845877339814272,-0.5846593480230953,-0.004123560544791606,0.04949899189667171,0.5075968140045065,-0.11888148842480274,0.5823649351352294,-0.2954044399385466,0.7380302457083662,0.43886813443556855,0.3366130432208352###0.01073112060028141,0.1370840892458387,-0.04491803053921415,-0.22021730472723539,0.4789565478303742,0.09110934928793246,-0.34963604348846444,-0.29247574185030417,-0.41827352254173095,0.10069865002330466,-0.2982623935984037,0.11317691473939877,-0.28445815099757993,0.2877040217380849,-0.0803152483096929,-0.10273230772606462###-0.0797041048856034,-0.08608710273890856,0.10178726171811531,0.46448428567396094,0.32508121869657153,0.2065683785465316,-0.2949112843829841,-0.4023731948258821,-0.1988980030347878,0.3956459312559564,-0.10268550118436405,0.06728536655951636,0.14017730129188913,0.06702984755156968,0.18185804788130067,-0.18368566180484036###-0.11064641349951652,-0.5310718516872279,0.3273846668136709,0.015967485491514572,0.15361783655319694,0.1311697795959315,0.2709776292756502,-0.5236845605910424,0.37452606515164427,-0.3615590918201729,0.132745917247074,-0.10738922606243327,-0.020827530427900733,-0.13245615088097468,-0.20417703427637882,0.17685674073556382###0.07223882775302984,0.08398880391635644,0.13143617331509805,-0.5940032226792916,0.12478049852824952,-0.12292722959059374,0.5171676730261207,-0.08716160536603466,-0.03450621132805121,-0.273098749972108,0.11196433285456243,0.31853417529651634,0.08641352732261755,0.33894093658532837,-0.2972955654472649,0.194680846930351###-0.1798448202918438,0.6751353276123468,-0.33564393866736014,-0.15057567649496859,-0.1648722109377596,-9.081034465040422E-4,0.4987406988033992,0.19866870116260313,-0.3608028188863824,-0.43115755619035584,0.04093898692458414,0.14804371727599414,-0.12837675770075166,-0.10623188881450438,0.20203474620831155,0.08546098639300231###-0.18793693824324995,0.3584855077401907,0.32149335892748154,-0.050193642352907936,0.006957393584205153,-0.0750350719179653,-0.14643723418991852,0.7370819423238381,0.13874251415699634,0.03913971890046177,0.1836920449190674,-0.13961649436243442,-0.45060528929100674,0.06192797179166455,0.023278133502287815,0.2732263518805049###-0.12272915700609821,0.4336657741452297,0.1411560864575262,-0.23967279391021096,0.17073841619556646,0.2813794958751491,-0.06600979715921844,0.5493954531558998,0.2999203581400557,-0.5314220862274209,0.13195566404156323,-0.20776543330636377,-0.6903861419962958,-0.9098561413587808,-0.26831670106480865,0.33410801529766476###0.054286262080234314,0.8205540682950744,0.05045933452429764,-0.2407748396122313,-0.2408241447171326,0.1346127298275606,-0.23020456565618655,0.670733920801108,0.2783081886013197,-0.5088070503738491,0.0060516832253919555,-0.06839997786864695,0.05025102656537558,0.016525930955989327,-0.17646208318418707,0.7456280996726222###0.5774676778564138,0.5789727456089879,-0.1234191497279635,0.44975970285418254,0.015522753357334102,-0.2849432928234516,-0.3913327431438226,3.879654076061207E-4,0.06324037197890899,-0.6957734434924814,0.44760400474447787,-0.1419555131317176,0.27066223460754957,0.05891365910227538,-0.2521896624305175,0.5135717241362311###0.6442253651351104,1.094417255859097,0.12055425528784511,-0.36739175424023063,0.3582978635085013,-0.3723536057242474,0.10993215007422083,-0.6628443454905538,-0.3255095416863471,-0.2924284606686292,-0.06588689094862676,-0.3746557255456075,0.33534987574626335,-0.3246258127853441,-0.32546214238832866,0.6762194213539682###-0.10417754883203062,0.5488714248554198,0.3598405839945698,0.16551340728386874,0.23422068431632417,0.02001667619896749,0.11004989766611206,0.19478087704195463,-0.22230650343076702,-0.8852184600089482,-0.39681394044927243,-0.03230621133868597,0.7262974501309231,-0.146007217927818,-0.007039672852936335,0.30933555856692485###-0.5907285186415173,0.4423924528204876,-0.1468759867037652,0.2309568054911734,0.046497662642147636,0.2630265337384248,-0.3640354940837906,-0.34812389480395095,0.26797944235642895,-0.3792345226551538,-0.28677343833662533,-0.4221782461104306,0.5053622962500817,0.009583495681207435,0.3756050657726456,0.5257636006626661###-0.6473146884843023,0.5900911659658648,0.23562943481152285,-0.3659504264374433,0.3079647201020378,-0.03166859452872074,-0.23608150408165138,0.07215001326879596,0.14857797018887853,-0.43568049192772484,0.2973193875767766,-0.0974213266718562,0.3960849660010595,-7.372285407442648E-4,0.2341147088765663,-0.024570502262940427###-0.8091203948740336,0.7838770209569926,-0.17496662239165553,0.11807052867911112,-0.03807212413765389,0.18790958207768502,0.510369092914896,-0.3204020715258867,0.10752884005750002,-0.45224234063963864,-0.536984655748265,-0.48008319014927553,0.051419267042506885,-0.8099254818569583,0.23975135123063862,-0.17506737184748314###-1.5525571547072712,0.6927986980387595,0.0909939365590371,0.018166921247127234,-0.19028991018180022,0.2576396546809153,0.34972761133680474,-0.025490927952547187,0.08705172945156679,-0.6578259381880456,0.27417061006739096,-0.03815270613982856,0.29834997127083596,-0.9597644092163155,0.05077405898908146,-0.1423754640874194###-1.8446637224993967,0.281049717572563,-0.19865465572772883,-0.21111889844513457,0.17164598223227026,0.20712150693643647,-0.1041534138380559,1.3650805093533454,0.13111483609319732,-0.9849474802948243,0.14077414034395463,-0.3215132363854557,0.004981994045717865,-0.8257924403928179,0.10386119620583,0.07488962686187803###-1.8312492459726974,0.26905840605947373,0.0043763324369514925,-0.1350639967323586,-0.021792618404271068,0.6829100202283327,-0.015816295531913414,0.40437605168615165,-0.016562942328540043,-0.8827865277277273,-0.13257248103429398,-0.3053915026459583,-0.6915869290051625,-0.8328878592509532,0.14179191276331488,0.25219992052659207###-1.1252539265213,0.27442762444774743,-0.1819130738229328,-0.43447161171619403,0.22904195611078793,1.080683483301575,-0.39986430950165,-0.4053750017915673,0.2495107050960223,-0.7527924243950768,0.06002828470454997,0.30273462345422214,0.33657034306712524,-0.5956491990952584,0.1595463364514454,0.18757440871985653###-0.9497929837151706,0.9011980763564182,-0.026052905640634463,-0.19101684731294022,0.09839594782824879,0.7657784669926679,-0.013415574465203289,-0.22596505793616076,0.40427190793893025,-0.9831121684032494,-0.32249794380012897,0.0955076627017857,1.131535088471899,-0.36908619077107535,0.24092011878167235,-0.09371576165201963###-0.9273454733456776,0.5567923416804162,0.12191951411260825,-0.6038130709010037,0.43459228719545095,1.4698258212879614,-0.07646261292361153,-0.3559984724282312,0.21720265981400336,-0.561460189993313,0.10069109146404465,0.049663638705579924,1.4849489713674529,0.4083904558854572,-0.3589072105016246,-0.34679746073493867###-0.18046651240338216,-0.592800573241074,-0.04692825286800163,-0.4810668805348893,0.3845864082306393,0.998086193081202,-0.008614117757242709,-0.005034342000488056,0.48011583215822506,-0.16289217041395262,0.04924447177373189,0.1787434619204134,1.1782200557188491,0.2580498650534116,-0.19734343641190327,-0.3744145626348203###-0.323851680855545,-0.6215550498293266,-0.11640947557933237,-0.25038107298904255,-0.4861069587187171,0.8828289638235236,-0.35241639728024954,0.1982297702773099,0.11536532346821742,-0.5988426083643269,0.3255595188201831,0.18474597956444128,0.7405566046209204,-0.2555338467672725,-0.36957711770228485,0.22840353335742783###-0.22239503588890147,-0.3048472434487641,-0.02838372023215611,-1.0048044602800519,-0.42941302428061234,0.5107522257892766,0.11194157598964251,-1.2952568774415,-0.21658967035211432,-0.2802036183589633,-0.18619392322916123,-0.5001217171272353,0.5417831654279458,0.4027371962887806,0.010874674208220554,-0.032743974147966176###-0.17398705378653045,-0.4868047987358586,0.05404436289290263,-0.19770332461909146,0.4244514021835059,0.6635280879730162,-0.22223975366788798,-1.0401206671766667,-0.3008536218378892,-0.141855762112415,-0.13522041526863374,-0.13169160170823102,0.7313592740809153,0.004473331348645815,0.5568055440818592,0.8974716464740824###0.600425034710277,-0.5846055528986575,-0.08068164360977942,-1.079848558493727,0.03446879712577928,1.0479571524693276,-0.009258692097560386,-0.9740123630368884,0.29358059250788104,0.2947384107747226,-0.0019368498164471194,-0.10751216490413315,0.7691052252787102,0.2807665658228291,0.22028538758766653,0.7797347831382764###0.5534734871757283,-1.003085428598556,-0.04135593502566096,-1.008892112022246,-0.27169232399569104,0.42094498767733457,-0.605660168755636,-1.403212920662483,0.7530797761895364,0.7816395289090827,0.10098279695778456,0.04451847206868567,0.08031589215712064,-0.014182888741606519,-0.06023492174964771,0.6076598394657585###0.49370663677952653,-0.375305860564151,0.1338255458319193,-1.1883693284575194,-0.11741374167696209,0.26901913800233174,-0.5057801180791436,-0.6449862665294385,0.2590729535195933,0.7151923853933287,-0.0944642852902379,0.3006407589012417,0.2097052920327356,0.48086046532939647,-0.22291772666938825,-0.03912703455576877###1.2693892114066174E-4,-0.159829347674428,-0.11925268051132,-0.243727811250909,-0.08791812956193149,0.6774711365159295,0.08441335788924285,-0.16450134666840835,0.23027685089102534,0.056709245517564476,-0.22331295186878197,-0.22978926902973565,0.10041233035077694,0.253798106799037,-0.12035683506043685,-0.03278063098665812###-0.27539800750170557,-0.41878261328033983,0.020507481801213645,-0.40653226517982477,0.17628931270240114,0.3524037359686884,0.49931599162742374,-0.042110112499392255,0.029949421032590955,0.45709644756144435,-0.5288574918322192,0.3781521536699298,-0.07313373868073071,-0.019697719391677023,-0.13119178730897837,0.070179658215283###0.019598065246899714,-0.15333213351935027,-0.0034620889253411716,-0.0368849931036592,-0.2629867099062437,0.5651553584428283,0.10006727681030485,-0.11119931332135267,0.11583710651230511,-0.016625350717833432,0.32393265429081747,-0.22002929940157742,-0.09715440570228293,-0.1787799473761439,-0.18181405403272585,0.02725204926353798###0.16219418529357166,-0.17852168144293287,0.10335752708651057,0.012329043766980612,-0.18818080112123825,0.21992002888589035,-0.10209499410447094,-0.07052528044073458,0.06255906649343149,-0.23090268575393033,-0.006122106203199425,0.013309563550866323,-0.16491075188362783,-0.2585113093898946,-0.1607708683938705,-0.11079854291776185###0.007322347565814062,-0.3540918207131045,0.08172638889249824,0.024359618302865933,0.41752114880395624,0.5172381106621096,0.6521789339379397,0.07533817909620445,-0.02231499652170882,-0.7006903921165182,-0.3103915117635828,0.09892278387736271,-0.1763736992836056,0.04676176626879953,-0.014538008348236093,0.10063864130533942###-0.37718871519953384,0.40594934996559257,0.017064333570918116,0.004396288572867409,0.08528686989975982,-0.33918310027775933,0.4810972514824954,0.6032535322354879,-0.2093557783429838,-0.3788921718879722,0.22603935924177324,-0.2553498885068572,-0.19508232328409197,-0.41423481881322133,-0.05786280446838716,-0.2512893069190184###-0.31441990136589804,0.435128651270675,0.08878264995631889,-0.18663905175264311,0.5291611042253543,-0.3675643259548823,-0.1268311294836697,0.48829615788625685,0.33655950207355806,-0.07547050048968118,-0.32112911760653007,-0.01095336812341936,0.14508557617144233,-0.34425883773054944,0.012043324996934978,-0.20240201137916616###-0.04503684207920545,0.886688194993643,0.1168725850916565,0.23961166977158005,-0.3044608038015108,0.6497423459009286,0.026616231794620564,0.3371837285405438,-0.29932451103986474,-0.019656853131680977,-0.3350001065974148,-0.08610297608972911,-0.053099170848875374,-0.21639445450983757,0.44816490256852975,0.10046722470741698###0.17387682159172166,0.31103265990772366,-0.28216684736680053,-0.15182608537494935,0.26588268739546755,-0.025499370990577495,0.15782240828064284,-0.2822235025056471,0.3612534411855796,-0.4844118314197972,0.01221505204852928,-0.3561395145480937,0.09352964948351018,-0.09539862482484127,0.1267330434213644,-0.10950912900328001###-0.1376476307348799,0.3724825617356299,-0.13643249510679278,-0.21771616559661272,0.08878016537593136,-0.1326310734245281,-0.26530940049603424,-0.658976842829583,0.33360656691079943,-0.7114537496610157,-0.15899404036307935,0.3111882092419109,0.2751516663660029,-0.048691334147978084,0.39752916715586484,0.320287368177663###-0.07578385053330766,0.4125347694278979,-0.006767388291055141,-0.3231764868397683,0.027284338080872966,-0.5060261857664758,-0.03344258199952605,-0.9993572908098639,-0.11022970479520665,-0.4741555841430185,0.29728882587643296,-0.26159520615259024,0.8282415957859429,0.1225689623119277,0.22240789910080253,0.37197526714993934###-0.5513276305529943,-0.17929703567635738,-0.00969573262282802,0.38189302049671003,0.13114500136374851,-0.1388639222456709,-0.49589747104684595,-1.2812354835390634,-0.13365075129018125,-0.9505913964646049,-0.028763808497615454,-0.05355254396565765,0.9255649195411156,0.6657611833477937,0.6453531000408557,0.7869516168219923###-0.6546849555632699,-0.044355795245230326,0.1799557137241864,0.7717259017104348,0.1836020665143075,0.06789427775628888,2.759893332744171E-5,-1.3913772798979978,-0.1433548468981919,-0.6168798514124302,-0.08185212269525693,0.012455161301718773,0.9031748523902555,0.22368468704812547,0.34635249835511833,0.6466619394358832###-0.8054886804696736,0.18443068146280833,0.2623310175283828,0.6220947915231273,-0.2691559482502144,-0.41747185247493424,0.13363903798428944,-0.803925204041581,0.39513883159634294,-0.6042976960725764,0.23294294009585645,0.09185630773518645,1.0777194194888249,-0.17950927825535637,-0.031312979910074645,-0.14372495443611866###-1.1155193776451027,0.24170995505340875,0.2726525254303196,0.6199724411892499,0.33966782234986465,-0.40042100126052693,0.0734954064871117,-0.9526829558196225,0.35134869826976917,-0.9511148088230466,0.35948082695429384,0.6839205880563654,1.228343654662693,-0.26306112535995885,0.4045446464473973,-0.47191964223868615###-1.319309168223799,0.8338034044245487,0.1650777773533071,0.27611112527356346,0.13336195115164357,-0.41769617975386136,-0.12559861321777335,-0.6916529701666171,-0.7133461571161602,-1.1257553644020817,-0.3892844560787013,0.29170902995457254,1.4095284724857742,-0.4281853982430573,0.14133109732537952,-0.5125005404888285###-1.3009957141406308,1.452253036582734,0.5598549212370666,0.7045339719185884,-0.018763805654522354,0.26407195677349876,-0.5712476624184283,0.42394222834070944,0.2957367977674902,-1.1221199272513178,0.156769035772329,0.3290946473358863,0.11663740890715017,-0.9514956980959952,0.3910856805338176,-0.1916955094953118###-0.6500840228277996,1.693669474118295,0.21926084868187262,0.3368945249077441,-0.3061412009682916,0.11970998025805012,-0.1907747388357383,0.7414670797501013,-0.5284028028476386,-1.0693591507588736,-0.39549788001348923,0.16527523249468898,-0.413849804176899,-1.289186052822714,0.030261848929792272,-0.851655309650454###-0.8501340984367886,1.2526045998452493,0.3181822489110621,-0.5623595758675924,-0.09511209429920657,0.6425728607861804,-0.32177609379186933,0.659661673390857,0.21412847392818116,-1.4265640791971355,-0.20902110800271084,-0.30441306794865314,0.13438968715905478,-0.9252758144203398,-0.06371485285976,-0.27954103440028494###-0.4140678081695526,0.876878219326032,-0.018597423630172888,0.34097886885106193,0.08184386663653312,0.6125118017027402,0.038214255519715495,-0.14854517477104812,0.06092545025097121,-1.4484816329883488,-0.3159471818728174,0.4253309307631723,1.3409139726320196,-0.6282076019599316,-0.04168937768979787,0.0983368213016573###-0.7492576735075182,0.5565339831306788,0.05163878581515185,0.5415546379687372,-0.08513737734498737,0.8771446671716746,-0.6226379460712766,-0.5979595705643117,-0.5192012861421278,-1.4224991822744892,0.42072239466342215,0.10049738729046494,1.69639289998448,-0.24418061297004667,-0.27842517034864495,0.5332463288926338###-0.7329177702815742,-0.184580936521221,0.14118110924499183,0.08135475411831297,0.46391201805325555,0.8247125257504598,0.34986399656268563,-0.6680338448215114,0.27225248117029327,-0.9399001186159003,0.07946289305164789,0.13261378126234324,1.507614387972791,0.14982794317924386,-0.3534460587755717,0.2372578327780788###-0.004564274444737137,-0.48012315000211375,0.20743407513584186,-0.4514585708191604,0.3763180994745093,0.5789595243551766,0.22068164649139893,-0.30379716819863695,0.33253503675358564,-1.110310234449096,-0.23778582632882309,0.14517812128657437,0.8389698042385277,0.3617061327886954,-0.2006436564760321,0.14553724035213847###-0.34906898200075726,-0.46712324705088254,0.2290750151132056,-0.5536476201603817,0.3635993498522178,0.4849622752123779,-0.09854508412576014,-0.11945563990006987,0.16642739598783618,-0.4769344467416822,-0.7237063943167039,-0.11997019644426803,1.4789183311094491,0.12464199683096995,0.17573653205485987,0.04521267120507684###-0.4516543732587943,-0.40206669523929384,0.10871590338123567,-0.935607944909384,-0.12307930880792992,0.8676051483777987,-0.3173546863022041,-0.7757435077130767,-0.26583039237389205,-0.7020494724735968,-0.17788100789795824,-0.3938137542185154,1.4923085549756692,-0.019196994134277244,-0.027601987029641572,0.9740334387335096###0.26640236681252594,-1.0956971260172217,0.20699059002805395,-1.076785421263941,-0.26059944676782776,1.5391038653420417,0.0687857636882903,-1.1371785451417133,0.21357121811306642,0.14845650417609027,0.07362311789280893,0.28252118836268364,0.9743439386149875,0.31998288799432795,0.15212154478661447,0.41593607593764836###0.9488009220929474,-1.2510578428138746,0.21207649900270528,-1.8475441109297313,-0.008698112805177715,0.44115754261476386,-0.34670572634013846,-0.7190978560802356,0.07327716669140219,0.16573497482447466,0.13773233969998408,0.7582494955472512,0.7232388117282446,0.27377409562568705,-0.01394390057403538,0.6127425207866657###0.2940918360135408,-1.0826752681263359,0.1797297534555129,-1.3320094406018488,-0.14131091284243685,0.2979714655703124,-0.2977458097559962,-0.7089166706654244,0.026076382974810935,0.8303359585361879,0.2955307706370519,0.29130672129610036,0.1883048787219018,0.14001800577140638,0.009300629609142288,-0.13911300858603###0.4360088548248648,-0.3075409016563245,-0.0696254780625617,-0.8055359069193734,0.09825495597121701,0.5684761713088758,-0.12028056183356681,-0.45597875735826643,-0.15736449423651624,0.5063302294485502,0.1483524824593961,0.7311253775158301,-0.18678214926391704,0.37753398653670384,0.31833060829428056,0.15700272704198953###0.32404557957087493,0.16279415831677496,0.051931745555337236,-0.3650880021171325,-0.061892334861026556,0.12248544425861041,-0.11496886608794663,-0.2000339445350636,-0.08327085064115612,0.0700936433329699,-0.2944461459002934,0.28414258295422695,0.2378996036130219,0.1632885006186434,0.08334246298132404,0.2685282595451244###0.292245160176864,-0.03550217917395497,-0.03827769539478518,-0.1623330147348811,0.0455872084249388,-0.1664897129570803,-0.5876148764257708,-0.3738148334194119,0.14885254700636183,0.3202486001198327,-0.10205112866394682,0.13849022736902844,-0.02250706078007874,-0.10396948867893857,0.32917348053045004,0.33434293101815643###0.34838600721788654,0.13460507599810095,-0.0027552652538439843,-0.19359481602725082,0.09220814128953075,-0.015376385217216817,-0.006265329151327674,0.42838780543573474,-0.007303143231127456,0.29690855825628615,-0.29985785798337145,-0.23147434531770453,0.22613033460969068,0.16221443915521455,-0.17489213972169992,0.040320215908442314###0.03962434026013957,0.38803092361825814,-0.24716039523844044,-0.29025450574508554,0.3817915150307964,-0.20989567334882014,-0.28957735389638667,-0.3265841622912546,0.48222299869082946,0.08810456856314977,-0.1448108186917978,-0.08878725033995356,0.04178349149038726,0.24187920532660914,-0.3527088308053015,-0.21896691182740474###-0.07003516802190117,0.16724733949559087,0.03010524588807257,-0.11674634806094841,-0.270722120763862,0.344909786844354,-0.44894135668162155,0.14203650293646106,0.10141062211070377,-0.10265205245936977,0.2469148287751882,-0.13965964840729042,0.020590020803499285,-0.5470470874795992,-0.1275021744071341,0.26140335404043735###0.12222142004590675,0.5335144918520607,0.1825899507009032,-0.09463547445461386,0.28949647679895135,-0.03597820134926787,-0.22228395690314878,-0.04792761712257061,0.37045853368139336,-0.564449601601045,0.047457370242421366,-0.23440891701076283,0.1162010520023339,-0.17612649655167303,-0.2508965418413433,-0.13520204369932232###-0.8440938547077194,0.5315821610864565,-0.23385409314089498,-0.36257980026612713,0.32238170669424765,-0.3077235613492573,0.022585393775127773,-0.08526493655165057,0.014870734614964713,0.0665777524502086,-0.054089941218991966,-0.11920365400311872,0.8656477897840889,-0.15588167178035714,-0.429650079914889,0.09210169508205515###-0.5808740878438193,0.33950118393521156,0.39302390291926653,-0.002305833691835528,0.19443921211131954,0.11615882671854699,-0.5415043434539976,-0.32097549380688994,2.571157150088475E-4,-0.46744737319293306,-0.09137982231101745,0.05335245204035733,0.4689605815820325,0.161552388284496,0.09147118408521562,0.2893508390324478###-0.7781387978268578,-0.2960761276905646,0.07603667164199208,0.1387147069371985,-0.17752700005108313,0.04739588724349614,0.1969747001501159,-1.282336799490663,0.25011604888620975,-0.06706570526371645,0.04330270314422961,0.577769127909595,0.958922487119096,-0.18154464658713176,-0.31647637127530087,0.4408339911487759###-0.287161766516791,0.04619088709583678,-0.31733112518621875,0.06584122225196758,0.4899885430996659,-0.3951267631392344,0.0072761510340573305,-2.0975091145885942,0.6357336640714092,-0.8186312443782553,0.5172959825232823,0.6575598638026178,1.0101849289968143,-0.00995037585020401,-0.05567280069466142,0.6013440628671348###-0.0565835199838024,-0.2947894663448591,-0.04901668186266612,0.1836638875041269,-0.05423969242273152,-0.43471780066841104,-0.09377153157650371,-2.10787177155019,-0.1540264353743439,-0.003673170104396535,-0.015253981101507623,0.18080715213726106,1.1270281556619712,0.07922100043572018,0.47597524165039684,0.623055941590957###-0.19237638795321543,-0.64323793584855,-0.23001158175777747,0.99468317873381,0.09967665843144896,-0.3893808274837815,0.02029557130823762,-2.5943447581328996,0.02025236997516681,-0.11857792239482234,0.13246545238343993,0.5339899896971692,1.2194686673836819,0.07901478405500259,-0.08259016799177438,0.5720863812676751###-1.0265987302124107,-0.5328209131030007,0.2691477267711507,0.7308283803631893,0.3992285055576319,-0.4323315393446918,-0.30608210526103613,-2.622721300162131,0.0985299827248101,-0.15818308329323294,-0.12030903187715156,0.48961227403406304,1.4316638407003406,0.13053837453222225,-0.09369212326230965,0.19397816981412916###-0.2498621212071707,0.6652102940697654,0.14829635249928272,-0.026635302246816397,0.17781891104906092,-0.42900494925308197,-0.416495988103802,-2.650511812341082,0.3200125998279455,-0.5998184039691008,-0.016181020611652185,0.809001451248034,1.753863229298307,-0.47668512334586166,-0.06739670243635196,-0.388832015309846###0.5043838404765659,1.1855566941237479,0.11994590449635419,-0.3841730373415729,-0.11242715835089541,-0.5058536957832607,-0.06683335839836227,-1.4932476030761905,0.559446965815195,-0.8619756667627055,0.20102953270525467,0.775867841805014,1.310882394763729,-0.5366223192153958,0.41373349464775355,-0.6142000399365016###-0.27671249326033354,2.045288600570167,0.21860623579303745,-0.7187780500794719,0.3581199794456826,0.36931099975434767,-0.020459384292839805,0.5794242394209527,0.42194880141117147,-0.16049505022080737,0.45470921055798946,0.35858676618879937,-0.19764908385509963,-1.1348396976739372,0.18638818094650364,-0.7536951471707123###-0.528131159636353,1.9129861535110844,0.28906619853099075,-0.9986682979457773,-0.062071062791903435,-0.0160663350270114,-0.7455080854527083,0.753884080958438,0.4418439827551746,-0.38362778854303853,0.30087711681571017,0.9995966400354499,-0.3436853637963535,-1.2543776269602176,-0.21106317635546995,-0.4665318081529246###-0.5985016349374244,0.4377754893899437,0.022546771095763377,0.5924775060490288,-0.0859236344245133,-0.07555624085834824,-0.6304770438710051,0.5660228301380316,0.20966269017139175,-1.2050782636554398,-0.12246593641927499,-0.028153122627225764,-0.040549056650564644,-1.3248540860347393,-0.1253303201819467,-0.191628425992551###-0.5471991277722477,-0.010377911029430963,0.08950735463982298,0.5010151782613692,-0.07032200746405416,0.21081936028077453,0.08342497537437588,-0.03230303211088867,0.8304084278239591,-1.3054510122337308,0.6529727307780162,-0.2326151895944154,0.9201377285928795,-0.6206586192795178,-0.16305731537992602,-0.07525720682780704###-0.9135266708958051,-0.11785370209939629,0.3295901264731974,0.8641001776777104,0.23215791562648322,-0.06666132754284035,0.1506217036194541,-0.011693423145336567,0.06721256417000598,-1.4045056919390912,-0.2032240487708729,-0.5831656320438718,1.116997492508876,-0.5622571030732507,-0.36762310945185245,0.30002117548059504###-0.5375156035172716,-0.24418353814758534,0.033484929196155346,0.010224190900101444,-0.08615543180768574,-0.02658813393013125,0.018108974923475723,0.37940640883369664,0.5773886289037751,-1.533567764256184,0.06560748929011069,0.306346504207198,1.1463964517969223,-0.4009918337302525,-0.16174086688994918,0.2393447958558553###-1.2255011934293738,-0.2798726537208809,0.03435103327890647,-0.07523429287361655,-0.4795423562482053,0.22921312168851127,0.5837550240529823,0.17497250162580832,-0.127280064131813,-1.301325201555392,0.31579592987237814,-0.012214711676117943,1.3213076954216825,-0.40356796375069975,0.046313880559028964,0.3045490995682736###-1.1819412858966192,-0.3611409077493846,-0.40203250134352575,-0.4756410927602186,0.13415402993576916,0.12236290987293164,0.026003032370615315,-0.3498120882903714,0.08767185381745893,-0.9969363377970824,0.28992291651454266,0.24990813550870125,1.229088519973688,-0.1277310529180649,0.2851001181592985,0.5542972977045313###-0.7064303123488845,0.22243689358727978,-0.06962966534695768,-0.12834645671606207,0.4394493924883347,0.47673459196688156,0.3542327305059103,-0.5207704485158995,0.20323927461868216,-0.7599535901084644,0.14321142484220703,-0.2337465131963555,1.6419254007844173,0.03840623616372176,-0.01595179759431481,0.9837324236692389###-0.07573565054287708,-0.15048719871232924,0.026746314507087064,-0.9776983850426602,-0.3428624810605245,1.3326110512224498,0.5393562959811021,-0.6462226983238025,-0.25688207489667675,-0.31728893186353385,-0.013261232300592292,-0.3359356563696819,0.9128497371630868,-0.07677395032652162,0.06811917974355337,1.0255362900547773###0.911683077640531,-0.26173832303766664,0.20510453293332934,-1.6393132815811544,-0.41037149543048734,1.234066488070976,0.4452955142743406,-0.6291405994358806,-0.22913513312761769,0.1940763390894321,0.2308423121622542,0.023317886098232012,0.42366714081789214,0.5530089498917111,0.007895359138823362,0.3580907699304136###0.579901648509171,-0.2268488970269992,0.3761401821686161,-1.4515790876972203,0.04101608166754558,0.6924146689745095,-0.8033746934357565,-0.7448203733219848,-0.012745486959754557,0.7608019081911792,-0.1594182284856357,-0.09859096960543406,0.4638308980835785,-0.18825413908095764,-0.011758303823451619,0.13631140387351168###0.5122251251998242,0.27047146895720375,0.048908696111033836,-0.7524603051593186,0.13538800133113632,-0.04876530016130259,-0.23094616426721493,0.0592837508684742,0.2953570636695662,0.10517706299631428,0.2354806359733007,-0.03970776994351537,0.4420792094973121,-0.05832109234992383,0.007756772021246402,0.05407274366542054###0.39007662240055047,-0.07923016550836517,0.12557846166917325,-0.2565589051020188,0.12016344516777164,-0.0331986422622625,0.18687871353907204,0.2532712945992112,0.3178208506743997,-0.050703447682136034,-0.0222210379775317,-0.27729271611117773,-0.07287764405943481,0.20459116536361877,0.4248013000810065,0.2682116172902679###0.25299312023724935,-0.4563989353089744,-0.19098522103855486,0.04543038316834314,-0.036066239044710645,-0.11410746802825028,0.12454841519872506,-0.04583523330121698,-0.13722435481540765,-0.03897336709000956,-0.22039248433201278,-0.0846526353559041,0.30788949269036736,0.15661355196630672,-0.35012219630566266,0.026743743156977695###-0.4087402375555706,0.04818040038242084,