-0.318944365300827,0.11289263383838119,0.24673835373225958,-0.515742698255083,0.003623413367128521,0.207670095211306,0.3602935070801483,0.013937592995517568,-0.2249719051999233,-0.6883410841787634,-0.2870177061189639,-0.1936184362347956,-0.2536169275810296,-0.3340361183665633,0.0060392401312166066,-0.05074843999395714###-0.07825912243481298,0.3550119984545427,0.10570734627189068,-0.45115054588843434,-0.3871332865590594,-0.14036386284218585,0.5429045969733077,0.11192973167406661,0.2690609749590963,0.10281443703232417,0.07635952690302977,0.15481947510224606,-0.16722994798511562,-0.21008023805554854,0.016373520399141566,0.4242458016376177###0.3089099426630496,0.14853437116399548,-0.10818299342933992,0.003954231697481138,-0.1009289519203743,-0.1138805046215159,-0.06452356532140552,-0.22107642637423408,-0.5239699060880765,-0.015107510491950943,-0.26065957907985954,0.14117906653137735,-0.2268588940203087,-0.18279823447519167,0.45030421482799066,0.2119479809484086###-0.8179606025785585,-0.10881351393215091,-0.17768054075574494,-0.15081455209892136,-0.21854548768307144,-0.20624559450069865,0.3189267787633626,0.006126927107413856,0.26151364449528436,-0.6644043163268317,-0.4610356696714137,0.07811242794116895,-0.1389782068157054,-0.1113729146937873,0.08046993004773259,0.07188336900708636###0.1637235448889937,0.09431437725515539,0.18167128905433022,-0.49324322513958413,-0.13281862828604232,0.12741971841410307,0.1542085315187595,0.3540462473146169,-0.049795691022081374,0.16369253233759762,-0.033418184531750106,0.4619221482638443,0.11648986451290959,0.19696188488109984,0.09179541965246613,0.12747561914193328###-0.25698749086705935,0.01260604288003259,-0.006749523589065786,-0.38174209073017523,-0.007237402568079525,-0.1846697206570883,-0.2202614188458016,-0.31978645075790124,0.06844601879265313,-0.11095412894543369,0.052811550436381444,-0.07735414707479875,-0.2027270026067823,-0.10823685828833976,-0.41427874194358183,-0.20762472458049236###0.25625377804759103,0.05809025625907697,0.39234742179081067,-0.3926334318880968,-0.0715098835818618,-0.3240973816529564,-0.20779079631155084,-0.42021926259650677,0.35573477792238484,0.05091145996570974,0.14457546317199835,0.09354255605104861,0.17681835518879122,-0.2788983943885313,-0.10495252839948109,0.37630731257604677###-0.2921332386431616,-0.07819392537561165,-0.09585708104509963,-0.3378714531435565,0.24328088160025477,0.14985204573715136,0.21127371981934778,0.25159568761991746,-0.32667051994443824,0.03184950422299745,0.006814809703442159,0.05903053137275487,0.2154324139218477,-0.050095871254872006,-0.20334207813637387,-0.11432879791736093###0.36752884731138225,-0.3931202993990604,-0.033916360863740336,-0.010056272744471288,-0.05302416252832367,0.5017254812950356,0.13369908488516902,0.032065554909542986,0.056826899046799155,0.07029119627695662,0.07552851731854313,-0.016190637375502942,-0.03558996016047975,0.11675498415091681,-0.04070982790718872,0.11010675487310115###0.0020772748757796667,-0.22715229264932543,-0.6391615490536641,0.20232447348861324,-0.5526068356019307,0.7563158332784877,0.3641856533266787,-0.21512634716149728,0.1209657041387803,0.18062958541657803,-0.08274558961465292,0.023030903093159378,-0.024580492953320925,-0.17604226043599924,0.1640418484367173,-0.17523524354147677###0.007060500601664607,0.210039082572303,-0.25601526832096616,-0.6800135948702574,-0.4842962186800704,0.07199171713170079,-0.2351386643850117,-0.08778643344615966,-0.061548743914104316,-0.02350341992749074,0.048411651586459166,-0.25240337055063783,-0.03318212462890289,-0.12116499713934527,-0.07761855139270897,-0.26663620623212336###-0.01052447262287698,0.3232586754745084,-0.8135692408612984,0.2487988754447217,0.26928411905816824,0.017231570882074766,-0.0013286769960733887,0.5120375602246005,0.14960735781246925,0.27645566529783444,0.16167213738338684,-0.10761688396167314,-0.24482440471460082,-0.08158651143803726,-0.3650212274107561,-0.032573353140077504###0.033324214861560106,-0.14204938418840685,-0.6299430432380945,0.14752094636689408,-0.01717388718934623,0.7216329929466966,0.2510009496760153,0.0923905779803511,-0.008745180831160547,-0.21455336577571074,-0.15406545439701147,0.08628551958827219,-0.3170553782677763,0.390028308108288,-0.303047294777321,0.04418282901651022###0.48188404578115085,-0.05960172525164455,-0.37283861795594764,0.4853235347261478,0.11333018928740522,0.46429585553378405,-0.2950165731228015,0.31984087629446256,0.2453269641420559,-0.40293533609355214,-0.02203775815943045,0.4783982079910101,-0.23288523569456743,0.2810776259544448,-0.009014318773988329,0.030907105588858473###-0.21811235010013674,-0.5060081360701877,-0.9713028710665957,-0.13561301690218888,0.11848651923804428,0.5820495876715667,-0.17925492938707033,0.05842277463381403,-0.3524232601463831,-0.4961507984580691,-0.047531189021517324,0.7597346785466832,0.3701098613498738,-0.14649246857081055,-0.4291674138190424,-0.16062893332133368###0.16569369342457987,0.07949523849816863,-0.37091244657740535,-0.09446243668437837,0.526719570133913,0.45547680726660844,0.3607887684459684,-0.415747787617947,-0.19508023147349604,-0.11517003513405852,0.009056361330801307,-0.14508577011207585,0.2578731038203726,0.07469823870229714,-0.24218126622137115,0.15108995586702934###0.1743847467468713,0.4095040351543371,-0.7905231855240425,0.12345913818842864,0.4572886467701178,-0.09951902525183579,0.36418902860689145,0.08162768440925974,0.31606003822733675,0.2576902559188877,-0.41041943320727364,0.42262269047992096,0.20019064056827976,-0.0061487264857979914,-0.1371117924130398,-0.405663880236335###-0.04297030897490727,-0.2177665160866662,-0.3174073987146599,-0.001902548816968256,0.1574732793772506,0.9411668900685426,-0.2891350527404975,0.16051412646632673,-0.1356618306923953,-0.21886054021283613,0.11273922648947508,-0.006343348426778512,0.40731640880956516,-0.02356214995083467,0.38161856761611096,-0.1124980994137113###0.012729443855780388,-0.1946355177400415,-0.5241151455808855,0.04171346134243855,0.3223980536507647,0.06420462117581069,0.25952420158188616,-0.01703125057597531,-0.2986261501985704,0.20695618653887168,-0.25730206597126337,-0.3343005113889277,0.06009411448500668,0.0227948277079903,-0.23127010336132875,-0.04027850385001803###0.0658277103740866,0.2893846137804556,-0.21608086594586912,0.20796698074310652,0.012213446021303172,0.34990611624444845,-0.2285052916032778,-0.28536171736531946,-0.1917701737475092,0.5345551279044288,0.06449902195597881,0.14021761345115866,0.25826907654334896,-0.29083927449894187,-0.37698483428893703,-0.40017454508885575###0.26296049831233825,-0.24338323132594686,-0.4445642820946741,-0.22812196985757394,0.2800706342451974,-0.0928886201331253,0.3947288458798672,-0.2176126763579236,-0.22836641308202726,0.19341121935595326,-0.0873214703575757,-0.5734262239077031,0.007650768481346665,0.10321749059954244,-0.06424331531702925,0.40476139515300175###0.2982912089955239,-0.006976175624667254,-0.1312064108192946,-0.7422175170326875,0.46447568982774606,0.1593550599056194,-0.19937123799310671,0.24843715638912148,-0.21704941269676079,0.1160893882981387,0.2862889395983421,-0.07808476415705619,-0.5519637350017057,0.5062566484060735,0.21410848541790092,-0.12794234089754206###-0.29295873735504036,-0.6210717959927399,-0.060591787391359786,-0.32113949358922544,0.026492683613907046,0.43106857412646,0.13104465310518565,0.07265835366707442,-0.5250444935490538,-0.47263758756815394,0.41457918604219207,0.2128705423240768,-0.1646519118439098,6.615740827921333E-4,-0.1509721818585797,-0.0970049204791522###-0.7267385363213357,-0.044826374997143724,-0.2351945631963139,0.2609907703943748,-0.276621476761186,0.2458893259980593,0.060453793721641835,0.06120500049990223,0.35360694861263064,0.19490276384634186,0.376742506820104,-0.15617438528251087,0.11978234838971932,0.33090574819491236,0.12464303803427172,0.10079425411117718###-0.16120348788354075,-0.39315867991780534,0.33612089669552503,-0.46721551050975196,0.2843225082615861,0.12928793718580264,0.4282110801672136,0.194935934293439,-0.24005578576789102,-0.2868198396949481,0.026820606897412665,-0.05310548677152677,0.3150391631750897,0.13596586541916775,0.42982263918549707,0.25071296868554316###0.1308536834089779,-0.09378692465823343,0.17613180070501058,0.31678678928470655,0.05543315154073123,-0.17989666846876615,-0.1855948172102425,0.18282283367537175,0.5749637760517953,-0.17774755570220138,-0.21452313467712542,0.1440899063644673,-0.3880738108804045,-0.16397604513595382,0.19864018335983064,-0.2687260186510304###-0.003187777282235901,-0.07452739449493376,-0.22719781279763532,0.02620362763385507,-0.032651319483794204,0.04074517369761014,-0.16317751817102158,-0.11929302819055403,-0.11974242087688948,0.24289269398060792,0.0880598343862187,0.047270187690448086,0.18168908685281843,0.5463682888419263,-0.03444150152897121,0.17791581939289985###-0.2740624209796935,0.11824421237050352,0.17651479940405604,0.48083510622862374,0.16499081831618462,0.5471622356709869,0.28626741150140356,0.37389346495214415,0.08476221536696003,0.1627629428889366,-0.3479041111481646,0.22984178384997245,-0.2617444683909022,0.15467696533825923,0.159744716388012,-0.4238514602947662###0.29463001723845944,-0.2157572982891743,0.09376400809992984,-0.2599516021306865,-0.08368954841339256,-0.3886446818316908,-0.08994942929735683,-0.14885783669458325,0.04026380655795022,-0.15347314087163672,-0.28941331036444795,0.20091975575128487,-0.2906843631329121,-0.3395008698697727,-0.22673812824140754,0.17578438046209008###0.14482690041538623,-0.059624334632509,-0.10860738129668067,-0.2327826162531066,-0.148280417567557,-0.10333928562249187,-0.012197484670870016,-0.0708855446435038,0.16046533189154472,-0.11696398010377744,-0.30257965521768826,0.0808592204876337,0.5350422021308132,0.43596953405454403,0.6648051209940801,0.43226904616679207###-0.08278485156063069,0.04104886959777769,0.2170810949583161,-0.08687472505975012,0.15934395562448114,0.22870155679779758,-0.02844976649227696,-0.2434658548133808,0.30855091565702586,0.3487317073262251,0.11898478584956461,0.0360194140216965,-0.05464216496711267,-0.22210195643865516,-0.129888899787972,0.26882085407127526###0.04973095727243848,0.31328949615650153,-0.09492857501789548,-0.8320098762339886,-0.02385002018772872,0.11963736496798474,0.022304721225496513,0.42276162520713617,0.10946621283285758,-0.2949681438187825,-0.28766921292812303,-0.09967161373852794,-0.16810439961371365,0.061086954514786344,-0.15196355651797566,0.19738219992236153###0.08322063871512603,0.13551624055019926,0.16484198743542502,0.25579886420119596,0.21982845141854382,-0.0231730556685581,0.09864011465091668,-0.07764089885002057,-0.2819619041731147,0.2710710493803972,-0.3834756366781743,-0.15018807496325717,0.16803114367847138,0.3778023236195029,-0.3637511836930794,-0.5365748627983278###0.17905842567426963,0.1128956345965642,-0.14261597253021016,-0.4922230061635278,0.3178843446525309,0.08424927865040291,0.277822459195343,-0.09055307742898303,0.05449541695209771,0.17724229046197634,0.13903251970165192,-0.12348982145910499,0.19751814706104676,-0.2839522474280515,-0.12384792057991896,-0.00946792452429864###0.19603521402208215,-0.045947814213061454,0.014025221938321964,0.03344802421921915,-0.19293947321536,0.45558273381894515,0.18486219535348505,-0.21984056007878047,0.6325394573367005,0.0192953304796309,0.0345067220633902,-0.19562839674934074,0.191589656555877,-0.4169935971511957,-0.12588267881152868,0.12258213491585139###-0.016619761825806215,-0.03831671919270791,0.19428797885699656,-0.20511850159758457,-0.1959227485750396,0.5657233651500676,0.21200479640055783,-0.109147056935352,-0.25960150571160606,-0.0795662339665412,0.38826615691325317,0.00156066582884465,0.07928398296794459,0.16687908802936838,-0.6462693127796119,0.17291499484232423###-0.14012682714687738,0.5234970216283994,0.039729548368780974,-0.13141981093468386,-0.4065022739910723,0.2256824003935923,0.25644190326270183,-0.0017048993294191365,-0.10418747472944043,-0.08043856130999347,0.18878309398450072,0.4099780854616301,0.04159559478768527,0.27365800607502805,-0.5358079825221139,0.15149706463850088###-0.031567839932526036,0.13918391416353185,-0.19643769374735265,0.6135989505814832,0.2262733260835505,-0.15206811025603423,0.020998782988196702,-0.057915573359926704,0.20360502348050896,0.34321172973011127,0.033944188925759386,0.014258014171387797,0.12116167714310311,-0.06520757525222452,0.03764544265573045,0.4686952468388586###0.0855026558563356,0.12746450326011385,-0.37648616992811146,-0.08337170063138467,-0.22362581781097168,0.11952187337879239,0.13911377910200476,0.3630849585225778,0.27969266671601883,0.15930366157830583,-0.040403144100979844,0.09180415950612913,0.20148342576380723,-0.19071396731511564,-0.29402147697495223,-0.16239841251030288###0.15459987839551698,0.20572992791836991,-0.44833877630701846,-0.4983977907614932,-0.03155717429829681,0.31544058804011615,0.05761087263977868,0.22273538509477533,-0.29096667725063957,0.22960854148692722,0.058524375965231926,0.09109772996348597,-0.06358291487654602,-0.05654611974200759,-0.13363785498315126,0.1806300228563314###0.3663140116113313,0.030690852514461027,-0.3981924607711967,-0.12292159079420283,-0.13508684915959313,0.29223879110726514,-0.28985860627448273,-0.014687342678966094,-0.35077014766275316,-0.3598852005197783,-0.042077235862680626,0.5447948850939088,0.15533326195589625,-0.3863780035054901,-0.47859530573397274,-0.24474606048689385###0.06468676490133991,-0.3888704109951437,-0.673140085416843,0.4118475063364143,0.23126076949749672,0.3519245165724625,0.1270205041893687,0.15916174523344467,0.05639842384755744,0.12869921433856632,-0.3467264066544105,0.011447065014995362,0.10344459267453489,3.141472419173765E-4,-0.6080425268532469,-0.010187254643133073###-0.004822687469432807,-0.06569021630923971,-0.6145551434652421,-0.10668448593841433,0.2287206294812517,-0.22616824540530556,0.2557316002662684,-0.160560716274904,-0.10013575411625097,0.13493093724566133,-0.10164579339966538,-0.04565958012987898,0.0833509417065499,-0.004430184727643817,-0.5510631613293153,-0.18884222866113748###-0.0037475850328336385,0.46111033829812836,-0.3125574343694339,0.17098002863299036,0.20142838537180185,-0.028544856253522165,-0.29861106252635733,-0.18667743607637782,-0.05974306284136412,-0.00987854222400654,-0.4941639269197024,-0.15386822438341063,0.5917723221024557,-0.07129235674818775,-0.32436082389872434,-0.08307093550860756###-0.40983601596619507,-0.14311057683719505,-0.5954481970859179,0.07053345130075384,-0.03447330780708459,0.20948823783736956,0.1475837787335824,0.2266501725835523,0.17363653885585556,0.08399256906456759,-0.02976120838195515,0.20430000299007123,-0.2616500398916892,0.15684465091923536,0.20602419576431355,-0.4793275733987786###-0.2774914693824848,-0.4439386903380315,-0.20955342694928814,0.13261733117200972,-0.3410685693702753,0.13399355240317581,0.1294554626164242,0.1374474807909415,-0.21515591362385048,0.34396218942360135,0.16754818586399683,0.19648093973039737,-0.31367853712458815,-0.04765145380995387,-0.23282314739752077,0.36580116556898284###-0.3814165010047373,-0.007789522752300675,-0.4087982239694462,0.030619959491422155,-0.04554563159220768,0.6046843621104936,-0.3022159877953148,0.25512116403681123,0.3485521227036696,-0.00626631211828616,0.06439564802088034,-0.04608223838315429,0.07196257492374931,-0.33835367548038964,-0.12441545330696176,0.2896610406918352###0.034005173832006894,-0.17373389270298117,-0.02471183329305415,1.0178842823786551,0.21717887347537757,0.5209741117297594,-0.03491613378792761,0.07637547830763279,-0.08180763248227091,0.05347284508569643,0.3638937046849825,-0.38796266895164927,0.2987639240508099,-0.12242397421469256,-0.1900166071670219,-0.21720479916455515###0.15282650873111617,-0.20580675639655283,-0.1689396949078808,-0.21844785180530962,0.3739066899799779,-0.3039259179556363,0.2614860814033475,0.32331420260623583,0.11852848066053778,-0.08343345691430124,0.34092099958578526,0.2259528453870751,-0.08751187526429371,-0.11256821182198137,-0.01701031507854282,-0.6326364544778552###-0.06273981856330188,0.2561528683954194,-0.2636213237111612,-0.2406880380495475,0.05769039106812992,0.27050518758129966,-0.0933313369875108,-0.029197288971375437,0.06863680975785869,0.16181596923051467,0.021081050692439922,0.3650484206122666,-0.021170199900460568,-0.11580618771197451,-0.28890444304294005,-0.14064203079358975###-0.09968588654007139,0.20572846273692605,-0.08460105463901996,-0.1359676220224103,0.2648897834169668,0.0026756587437267512,0.10603671033651231,-0.1400004891644824,0.018347011908063544,-0.05290466343781056,0.11134005261226382,0.2539427859587594,0.11564745890955887,0.025862199241000233,-0.18600414583577726,0.5929055911938318###0.18638394315797058,0.14820964642209272,-0.05147136441389612,0.31784731994308835,0.43161901430744,-4.153050768124384E-4,-0.09230474574339975,-0.25705640965200705,0.18325882203438462,0.04447906640818786,0.5482826840531224,-0.05101966463955345,-0.24408378218048524,0.034250549307855024,0.30397850679256466,0.18071695585536218###0.2634092858988309,0.4108252600650247,0.02576535479393038,0.39261050145709986,-0.1697288599333629,-0.10570505341819691,0.06773863762735609,0.22648606750533096,-0.02163360827252053,-0.11792657036651467,-0.10013761393350533,0.059959694141556635,0.38530208246906517,0.23336243304542334,0.2668228842255814,0.17112205259529956###-0.0324374709388337,-0.28656144772610087,0.17150806713608802,0.13371233227664364,-0.14031975788887327,-0.1297327157118986,-0.036782242526782596,0.2322463946092346,0.025858251097658942,-0.027756614733656718,-0.13828497712974905,-0.27844661059965164,-0.016770854247126876,-0.40281415838380813,0.40719735475972774,-0.1351598886584324###-0.11319301540002734,-0.005787080126463003,0.08311691838098301,-0.19969041998418272,-0.1186674116056396,0.31029800257563217,-0.09640338668990299,-0.44131427160733155,-0.5588645239972128,0.02616819555197279,-0.08869435151124977,-0.20578486856930897,0.11576016339075508,-0.39836638663325374,0.2429429732673911,-0.4308548235569089###0.12979694420243004,-0.2593387966020203,-0.3696872725681561,0.2342302502257507,-0.12499413580776012,0.04434401116086042,-0.5282342792792475,0.06560471799916065,-0.05907430096376044,-0.027967623851376553,0.2537461401606247,-0.3714410359930477,0.06116616454983458,0.1940370972028904,0.26477039534238733,0.05756842297478135###0.12609489256777695,0.31378113526367674,0.12709263164793497,0.06844914231130683,-0.2068986212604268,0.13039338069143208,0.18048347276044371,-0.5325009537359793,-0.4101912727690765,0.40616206085850076,0.19093771140413704,-0.3127815709564311,0.46926566685581017,0.24456765155330634,-0.26935847578328187,0.5158364267478996###-0.03545375016004451,0.044229859312286374,-0.01932994224864296,0.2408260995027014,0.4414094583023155,0.31549311608224295,0.09259624823335827,0.2199261535563891,0.021795388755495235,-0.17058434157954325,0.009860940523589335,-0.003670996211831052,0.3245210986224423,-0.18220745508713532,0.06510530341549786,0.31971502281742487###-0.38384372566174213,-0.07030687450579315,0.13786517588599226,-0.3265486946017268,0.20602131686284336,-0.14766029804351521,-0.3662480745409392,-0.09335361472533778,0.15650019736855034,-0.5591331339290343,0.15253370725904677,-0.026447003901942167,-0.033214397940889734,0.19761333267408937,0.4445585337293634,0.18952587189547956###0.30503854186424945,-0.017156695499271197,-0.9006807930567825,-0.39824478819260245,-0.49737651521770265,-0.37043294746253547,0.3182581569847628,0.35741642803088575,0.43989019987170686,0.054473314932089435,-0.09181272633112038,0.18525173025362437,0.0708168637021845,0.21905858864960956,-0.10918801081723792,-0.227727024717828###-0.33287359400703914,0.3095532434778838,0.160542831590062,-0.28110139901610975,-0.07784653949833403,-0.3613290558012731,0.18441999359228578,-0.3061746077628902,0.4394619081078564,-0.18075023002881235,0.03894392731529702,0.24279671633296557,-0.08239794000467261,-0.3229821657622077,0.09714436070085872,0.40230468927714547###0.12204963456608718,-0.08374146504181301,0.25372495786414967,-0.21332022539100998,0.12559179086510897,0.015535737186889796,-0.25543885974785263,-0.062195443067527126,0.4852510856052134,0.12340243183304933,0.19589833428185757,-0.04625439703319668,-0.3172088390676683,0.3941743233285333,0.02432645029066854,-0.23632867367427632###-0.29457252983017906,-0.31712884025322097,-0.2595658253464808,-0.2155855485422584,0.016868091051392087,0.09590018201955745,-0.16264635461841173,-0.24400204700818803,0.054690233666765516,-0.03885371451133613,-0.06728932670922015,-0.277277210911104,0.35575084663702927,-0.1083997438005077,-0.43917699953876616,-0.1163832279354298###-0.2157402562716539,0.10614334126171561,0.2416285633710499,-0.28708795501446754,-0.014962016305990606,0.569996645417191,0.04931407857392245,0.01167100645366901,0.15668190240353644,-0.09529386007516027,-0.2247242088684482,-0.11780960887491311,-0.3422660637952426,-0.34728742364093285,-0.21671923089375567,0.7293662632408517###0.10218514719323585,0.09632559216971952,-0.38118394332418315,0.3431825096990025,-0.24930336917752044,0.25005426312202533,0.6471054260611906,-0.19831379088986195,0.17936060319284589,0.11504811514570651,-0.004110153166291042,0.11263187859815778,0.3330009664282807,0.18059071259026221,0.08407454610210177,0.055277912478488275###0.06077611399977184,-0.4278876838368163,-0.4925968090676583,-0.019072393582722173,0.26644078685008593,-0.10339117592965348,0.032125051221143,-0.09658749635581196,0.2115980609689674,0.7674400405236794,0.20209583327754335,0.04548904394004764,0.0023029020883709077,-0.008357326284868544,-0.3814832379828669,-0.3046378933158175###0.09663887072887449,-0.2695851496156928,-0.08568866073516927,-0.46005906874143715,-0.17183553360306053,0.049635728032947905,0.13294475372224718,-0.2644304677731214,-0.07632318480849073,-0.15511506449426835,-0.13139717999819978,0.054310534795972,0.23866547806299065,-0.2260015351229922,-0.14878080463812762,0.4359186492486974###0.028402392070916233,-0.3055174106381845,-0.1552560953886262,-0.5029958636386315,0.04544662905008544,-0.4747874395024055,0.058599137847929694,0.4233226626561375,0.23698555366085086,-0.020410144923792575,-0.05688830160382768,-0.06318316827689158,0.4470319017712203,-0.024274003174072453,-0.13477598007668173,0.1359887118317821###-0.6349663549922477,0.0668140135723341,-0.20137114565962297,-0.12359153083816571,-0.407440285882481,-0.21266535163700445,0.01487950956005666,0.06374257722311075,0.1560178032087378,-0.07973019258452199,-0.04322480241424357,0.048898778675109694,0.4105015169739734,0.1477374784084868,-0.4506198505163379,0.10653596948299024###0.15710509955806612,-0.3990755944237496,-0.9636947354658242,0.26450433791605266,0.3447568694560593,-0.16991461006628308,0.3832894194310308,0.20824205291977024,-0.0794009550113563,-0.056242755806957014,-0.7425782810255649,-0.10049513982640901,0.30753616969018477,-0.03224313781104679,-0.6215387239160767,0.0027270257495324236###-0.1976764528206349,-0.3460761121628276,-0.5757458231142413,0.5091614812039329,-0.11037300109447741,0.22759011143710334,0.021670791489415548,-0.3391936515153578,0.46126704911016286,0.03786595967169999,-0.7208253921796951,0.03673512274417883,0.12256760392438679,0.24036670431522358,-0.02553690442477692,-0.11318235450625619###0.3967655551264079,-0.4947172734243132,-0.20681832103897893,0.2584947573441388,-0.5820673932115045,-0.35469349880456086,-0.050544259094235315,0.14171707107301781,-0.44485191510702377,0.20522797908004672,-0.5602635500775944,-0.3218839766192623,-0.15610876216614616,-0.08487799585783057,-0.5672335506312349,0.4349781365925174###0.20938283984483605,-0.708574043490524,-0.32222802033565784,-0.36307083197534534,-0.27945735233004243,-0.06455771096455029,-0.13678452025819587,0.36641839172779084,0.3324930469863784,0.2069496873662919,-0.37416843122006715,-0.2036900804454046,-0.22935436177006877,-0.05044472770309972,0.347636858919843,-0.08563736061242143###-0.04031662586479541,-0.3990539113174688,-1.2428313100672372,-0.11092884177743839,-0.2356707818894896,0.1267321315602704,0.11980668814007656,0.18787544619347168,0.3883752583833909,-0.4303194817298759,-0.2839257710932446,-0.09185977202013175,0.2701710511645108,0.28681139235528313,0.21324613549457788,-0.5131364950926472###0.06678996245788041,-0.4658795398628647,-0.8761126525083418,-0.0153602196361671,0.08131937230770743,-0.34810476518533945,-0.29725510064556815,0.24205746722639182,0.22542769626575643,0.4146452468237767,-0.006117847115173591,-0.41130793740007676,0.28581646162795266,0.07336356166666952,-0.3231045601257232,-0.2716785098295599###-0.1036919414311439,-0.7832799291397224,-1.127827628749288,-0.22002020191300928,-0.04430888057583246,-0.001481599713226538,-0.0540364054314753,-0.08505326784255057,-0.18253807142581516,0.4820849588714365,-0.10302460022335981,-0.4689076321980652,-0.2501566310842601,-0.22963704483022535,-0.2202123604788655,0.301467162507401###0.3608889982838818,-0.20458093317473514,-0.3771088816135646,0.3882832667801392,0.22424828039125308,-0.10199068284134036,0.3379971329408645,0.24985018946653878,-0.24240167912489552,0.14365875365816136,-0.01934144860498179,-0.10640456056602855,-0.17638415150649317,0.09243693935195253,-0.02244085607861323,0.5752655900810694###0.2243903279295273,-0.06264711723983388,-0.5451492535083282,0.15314175965809876,0.20006045947776635,-0.04428629116553228,-0.1118736657005328,0.13242852088556467,0.5160241767185405,-0.08431824077432129,-0.2893056635281337,0.29465625501931725,0.16759810478129372,0.46788956514488694,0.2550191199458823,0.07642723166925755###-0.1459936274558995,0.14025542497748725,0.12402397715540768,0.1707896941006788,-0.3299614415285103,-0.23837527962979366,-0.2363737663375392,0.04966729285124447,0.12829096555835934,0.3031150668561465,0.11541799300515668,-0.022622054425030288,0.5953660275153824,0.04819737637025616,0.6012642422615415,-0.6283186638096492###-0.1877375897156619,0.3559322232776445,-0.6068883325583325,0.13421321199746777,-2.4140112845869114E-4,0.14225921438409636,-0.030366476517921594,-0.22689747182541525,0.26772185097162016,-0.023487380487076912,-0.033672123175406916,-0.010242927062733262,-0.07078030037719135,-0.3696695924585442,0.07814475647873052,-0.006066650010815607###0.03414736279680651,-0.632892458983478,-0.09729879426695287,0.2908690589819748,-0.0825176668526,-0.33137490724470264,0.34821101480585426,0.5401498057004478,0.1526072831792432,-0.3646103505176996,0.08985020195247247,-0.17178707957561543,-0.32482851346286806,-0.15950437387735555,0.0810263715919504,-0.15543215191474827###-0.12459270736759817,0.361440813981112,-0.16110750367867685,0.13496009637784584,0.13526785675538597,0.2681353523220552,-0.3599846924850591,0.056496755836023906,-0.0562785024398039,0.12895889486864862,0.15491048979017152,-0.07211140487167876,0.17695294724851793,0.041209484395575716,0.23743315900022222,0.07490519460100252###0.1341771333296836,0.15047394009726855,-0.10036349074009605,0.02791287468431052,-0.06608439003207743,0.15669102767146148,-0.1458191758657914,0.11880632320656849,-0.27596544696684155,0.35095106464835174,-0.26759531618797544,-0.02838089600039692,0.1477245152977292,0.6449867531921321,-0.11033099746722158,0.30679081490061855###-0.045089959745165005,-0.18325248871256458,-0.3041257729921027,0.41706164971760856,-0.1301761857709252,0.515339095612553,-0.01773018577792201,0.13783661006282974,0.2837523339446879,0.3017207053031233,-0.491433218985669,0.2770764783182304,0.32836170966884215,-0.19529526076749645,0.6740565913698583,0.20904562025963228###-0.5765403969029613,-0.07659687810217654,0.23846208926547355,-0.3179829476942467,-0.04724431290889152,-0.06967564971291097,0.13636591675862822,-0.35520471848096596,-0.37526572927371077,0.3046129549524175,-0.049524897196501966,0.07518914161520172,-0.28742037070313414,0.0886776023613003,-0.05124339061513021,0.08900145519344335###0.33346306992764196,0.15253201130524932,-0.1322649827920606,0.4359642539954911,0.19713242885561952,-0.7777406544327233,0.10696747969778503,-0.17154308571974738,-0.2017268263691916,-0.16470373867256466,0.3818011114714953,-0.18688316807514682,-0.051392563545769064,0.4090951698408245,-0.18096633364403517,0.35382002886885255###0.048671023948367566,-0.40773638735819256,0.04278114951820092,-0.005204334821615274,0.1730355811313449,-0.03952190245099581,0.1917034855256196,0.2993931693232596,0.008531953425011094,0.3136406773861818,-0.04741459985058623,-0.10216355979869203,-0.4055264035699287,0.37739033573012454,0.02554212109892058,-0.1894187928663758###0.2214595170065333,0.03746101181746855,0.02749097351711806,-0.24597271948544797,-0.3699297248413865,-0.18998675451835348,-0.24425430173283702,-0.020573616251107353,-0.027423317681808373,-0.29288088224582015,0.12785509911352894,-0.11622966712788385,0.4788867526880297,0.011912709095236718,-0.07464714115670783,-0.04933878209846574###0.08937628127952901,-0.31414875311950574,0.04011491372729563,0.029618918492644922,0.19944897654029597,0.2587251837364226,0.3534417045750697,0.13466320638890714,0.182880925872445,-0.121633974837,0.02262939818738796,0.2777450116579408,-0.13650744254461714,0.14177185073493465,-0.1425048362508515,-0.08205714601631767###0.5943219632984909,-0.3325908504378847,0.08763099983178307,-0.1713306508530529,-0.06341661529136773,0.428553227791341,-0.17020316827140303,-0.10717389597531891,0.5517865278351539,0.20309803647925986,0.06002002198071148,0.1560889707838977,-0.1283785823595618,0.1972556862031536,-0.8426218877311201,0.1711150537648475###0.0015210425247425502,0.3320636721729399,-0.3395863847560648,-0.24988940640640672,0.016954702890813585,-0.05260386570646433,-0.04677959577258149,-0.188317793707983,0.0469432930718496,0.2676117414804718,0.1640908390212821,-0.1264455424459049,0.2358753103883821,0.09941957305798206,-0.09746148220470911,0.1523409899547253###0.39272176576527335,-0.0018824830408248918,-0.4854749265764477,-0.7592759928790164,-0.4660302685321537,0.37033263090756574,0.3562072428568417,-0.12035491498950084,0.32976017177501765,0.5748125073531923,-0.14987976904680728,0.22944001940336226,-0.1896421833057101,-0.17281386252005623,-0.06850934423738182,0.04823055643593718###0.18663889493784372,0.3732756336202302,-0.03355961183838994,-0.04818940131489098,0.2518563981433913,-0.37938336938824047,0.35439567211624834,0.4782220293057153,0.28590380048085806,0.4641497628822989,0.044309915065837535,0.14687624826575799,0.09855651536984691,-0.16954474115786045,0.5316008302683836,0.1817808404867037###0.559840103424299,-0.36958101877583455,-0.1567484117895318,0.4632873819216077,0.21667004952076746,0.36981993309479455,0.07746067833341208,-0.2609072317157604,-0.31251247287889683,-0.020992577628829022,-0.09784050140409425,-0.01336113419569526,0.46031130385238783,0.4803895620948927,0.2921144580789753,-0.5342137072880776###0.12078993035721287,-0.5073508295678126,0.1007386117218113,-0.15850933866140113,0.2928262585800727,-0.1779918194673667,0.5296034912830325,0.03168062556546684,-0.2477610759866815,-0.11758387745120825,0.1491602254526314,0.1513694969839241,0.21521602857362074,0.2940855972356333,-0.13479047254270313,-0.1838857431622225###-0.33072435487218066,-0.65077743216991,-0.12434209007661849,-0.21247610610506892,0.07740348653312284,-0.09116130834636588,0.11164789677547701,0.2600253171176637,-0.11598607751245375,-0.2529350655618419,-0.31496274842008654,0.5243659470557865,-0.4091280821252285,-0.11495773511012464,-0.20417412000103877,-0.03316205643735524###0.03698259852223999,-0.18972979474538254,0.6692225153498774,0.508789097069963,0.1912068857870134,-0.18770576395538596,0.4125787286913694,0.23108826826992365,0.15788704080276028,-0.4472754610661768,-0.3822707867081682,0.4742132208728423,0.14468432856694324,0.06228813571388103,0.3646635533694298,-0.11621873752898136###0.27545125199257386,-0.43139468147177434,0.030293773071457558,0.08046544947673989,0.22757533630285776,-0.02554632783945959,0.16362555390647113,0.19322376640859099,-0.02600294654957196,-0.6174535380904508,-0.7275283656174011,-0.028178247627162104,-0.23569959764446496,-0.090901442814644,0.2678982869975568,0.10117247887319643###0.237747829807353,-0.6732414418197613,-0.003811496096745365,0.02858269226894382,0.19106136715448707,-0.5251983542387528,0.27968712712900107,0.33200925808730586,-0.20619393634407504,-0.39940325125117304,-0.05659452469701381,-0.10403642824775088,0.03652768275162048,0.15434434160315724,0.14908182354552513,0.24667323874601468###0.04996534002227953,-0.6357835691795217,-0.031166949919906053,0.17060837393483674,0.26906174414145156,-0.5357461801096532,-0.18009369709077871,0.0919564932018662,-0.13161871798774327,0.14126654376697345,-0.42031362979529835,-0.18084604914979893,-0.1577655192583662,-0.3502773058537922,-0.13103366995755708,-0.42822775440132915###0.30782921049021184,-0.6205752334205925,-1.0453455383208508,0.32454468352961546,0.17031591346347458,-0.5746652315113462,0.31940285994365786,-0.08583968113680294,-0.0067953976270797075,-0.04400366115586444,-0.46197564743567143,0.08050026529752514,0.021571298676350267,0.32641027769694686,0.3438569561194692,0.009403387402757781###0.04217182577633987,-0.9071271284801408,-1.6296335083636089,-0.2889913325832905,-0.12317206434161204,-0.6349495043177225,0.3343520503838426,0.24210950065254672,0.13728725222169685,-0.3355608779058485,-0.5169938201868222,-0.026074191799165706,-0.059848204252244,-0.30039106830896434,0.23410881530957106,0.08371759842800039###-0.1206048899721909,-0.3970857602443361,-1.5942620552224567,-0.0695171646710309,-0.22733143297612463,-0.10497743640722637,0.16451771545459568,-0.2038230270993717,-0.1179238647578298,0.3582024608565017,-0.4127464699200788,-0.015462152767816324,0.5458406466742673,0.09254836779453374,0.40117360052769446,0.22803418162830977###-0.10543129448339435,-0.41237892670279896,-1.6158739280600687,0.0911377378383074,0.11617979649699993,-0.29369981607666945,0.2397710751738693,0.2976939539045334,-0.08734866242435438,0.449359060721005,-0.5089219117311548,0.0463919570039456,-0.1687615265130983,-0.3453427711088748,0.15139166815909613,-0.004352641146677022###0.10672161460604718,-0.4105573454185069,-1.2642625085051118,0.44483026813945636,0.32623073728638236,0.03412715955988266,-0.40918422952971534,0.030715488939175545,-0.27824884574758163,-0.23565486160050286,-0.20584391318161652,-0.14516357299107968,-0.26018381494758347,0.6516084639715214,0.3834094782597948,-0.05153762019800557###0.041766416476979554,-0.587186266867691,-0.8621067696804469,-0.0519640923457471,-0.42722458020850457,0.15855213197442916,-0.2553323102125074,0.4354908594484855,0.04617188081766639,-0.11576319102635149,-0.12294040891271256,0.23420481469616858,-0.34789653332962805,0.31151953964331514,0.2959024182742591,-0.11527331820643924###-0.12658091378321598,0.18790004255038667,-0.6750520321012157,-0.26006573982544906,0.16802311143633705,0.14707520157283752,-0.20617156660838307,0.015710295087866886,-0.27796491362582904,0.3898089841439063,-0.32853609013385626,-0.5164151358146566,0.14271758737346085,0.2828860177911436,-0.04744536244790957,-0.06341318345799743###0.07298473005239901,-0.3614284122190465,-0.4162132564915846,-0.43381039960232687,0.12104700875180942,0.03751846727289126,-0.4378388922051479,-0.11891399452113885,-0.06490237672538177,-0.03628915463713152,-0.266759252874207,-0.02525721365955991,0.44966620835067433,-0.0016545968093562569,0.07702294086221127,-0.07895307008528699###-0.2064266513357228,-0.1963008804987475,-0.019285726642252587,0.2869784334481637,-0.4048852598706675,0.2383031528718832,0.1784078805877914,0.12899025084719745,0.027961486535865426,0.2017525053162155,-0.16483665640420456,-0.16792156408212747,0.1911062745552966,-0.025081361896402348,0.6160489902885455,0.05763355165310699###-0.08629774762371206,0.143974571202847,-0.1491455442396947,0.26010257336979997,0.10396627425154029,-0.11445601919707,-0.3075171088730542,-0.019135121837450964,0.05257560108636401,0.4363780234600238,0.055297633512718894,-0.3114550418773439,-0.3184174792792318,0.10112235612842913,-0.022580987876371715,0.1841091084291537###0.32364940339095283,-0.05252775636669992,-0.042939780697516444,-0.11550298720429775,-0.6252553985617743,0.8327812549187845,-0.06494088969353802,-0.5925615527982053,-0.35464887972963555,-0.0501532799332743,0.1267751263407205,-0.2764852975096208,-0.43297639277170996,-0.09370614964939342,-0.16767088380898545,0.13564299849372355###0.13672913338880288,0.1719753559575719,-0.2579447334375416,0.04278820980179099,0.07782509390556899,-0.07412238394356595,0.0825514121728515,-0.29053871369068335,-0.011799431232704658,-0.006442304461234706,0.07087110431455713,-0.06619636155638638,0.06428600548844667,0.12494710352882983,-0.12592781495189576,0.26357301087600554###-0.059341118505744625,-0.10880320005993727,-0.12146013584431914,-0.26928140261238326,-0.34684494038535724,-0.09334515123736722,-0.034273946470194064,0.1047316474207728,-0.10210646966027599,-0.0544304647729214,-0.08712268157427028,-0.020809325968043756,0.12233209784696183,0.16332115949795695,0.026016727556773273,0.10874305064684338###-0.11876496781413379,0.36295687935975657,0.040245710550342734,-0.2691563121260899,-0.04152801538701398,-0.21934296874963752,-7.791607555690799E-4,0.16088666918697744,0.1414449015901314,-0.3055573573850586,0.03848581375561262,0.26594098156025864,0.0641484132161976,-0.050633461260217436,0.49921420305749187,0.1945391339676152###0.4025068352145018,-0.1693227514742832,-0.11777161062507502,-0.42295312190003037,0.022072552695839433,-0.17185946886552514,0.03843055976339602,0.07118298289779684,0.1390889971087923,-0.06335130154928288,0.13041704145295413,-0.1221392542403065,0.5124064707804824,-0.2628438023661771,0.4995881021050998,-0.1638595789645649###-0.22293628614061645,0.27087652418914965,0.1761623109477397,-0.3426799722376203,-0.05140557102068762,-0.3313913877829004,0.3065011166398397,-0.16829483774943468,-0.11125633655605013,-0.1967402142732158,0.026509593146306073,0.17683826749234946,0.3782910653222292,0.25123168255437406,-0.24498496809087392,-0.15863291164599194###0.0432636203836782,-0.09881988385131055,-0.017142749759415113,-0.18408398317895625,0.03877413231563329,-0.16448267700363814,-0.31190972711586434,0.2870825152702625,-0.04707293646213065,0.14786490034124314,0.03669738335824432,0.2834401119377015,0.23642912361028576,-0.23662206623990295,0.2887756915735397,-0.11031517300779707###-0.2947024085780827,0.0060242808011043885,-0.07365765256870588,-0.1641244321542626,-0.12911906811633103,0.24888796136628472,0.08304021102521988,-0.19191991768038,-0.15328214188404254,-0.026170454509563977,0.156926261431633,0.3981407112929361,0.2762440847507018,-0.16112889001686295,0.0011136123802783207,0.1010589082045942###0.0731584747604806,-0.0027486009656555043,0.03866570166846756,0.18546759503465035,-0.6662921282024601,0.12164873105600237,0.5104451261867033,-0.4915693642310245,0.26509500091597515,-0.13338905528722705,0.19617811395770163,0.1865199836143207,-0.4893018564545391,0.01754528141162361,-0.22520509699221442,0.6359554808877197###-0.25586783499735244,-0.0732731075077441,-0.28618222366310403,-0.0773747362387616,-0.15522913864980595,-0.24846021888916062,0.1912662172021796,0.16032310855432588,0.2385575418791324,0.12349869326033859,0.4328830977892184,-0.11872810497587359,0.25857122938741184,-0.5341770098468397,-0.06448535843982266,0.06838852162003138###0.11841666769464411,0.20510221517145397,0.08865235550037116,0.35641170256556226,0.1496318155759502,-0.548379618699215,0.30030593356091206,0.10645900995792551,0.14878323406585786,0.07123486473065571,0.7200941525748927,-0.040477596822179406,-0.17420638302649535,0.08254780043504112,0.02760750962821071,0.01907526276101444###0.27400302587756775,-0.11158231132834392,-0.21698559972799317,0.20641253102509088,0.2835516588635942,-0.13491775692974767,0.12205961756087186,-0.20073164153498058,-0.13634463606273148,0.114755455511825,0.38852227649414844,0.32387824273754934,-0.35867111054021955,-0.10481150079188425,0.6398462819937979,-0.19870373552575335###0.4608263655877587,0.025250330057268813,0.7205356816878837,-0.2644325604008126,-0.25830565267679284,-0.7973140325194351,0.4399158002338429,0.05145521461976429,-0.2936355376806334,-0.020072270015217133,0.4159746066811918,0.2578952500761328,-0.12025260291598878,0.243948554738519,1.3111158508768643,0.07527598729761388###-0.16711212920555188,-0.504449621107122,0.39207906507321527,0.2467263698001708,-0.307061436523976,-0.6195778987594232,0.12853218331654176,-0.030678652162785383,-0.3732951435053012,0.1266805060769563,0.3424756652709789,-0.20311165263979464,-0.22985218265991844,0.518354482657901,0.4754038527249888,0.2586391890532466###-0.2078804818506479,-0.1584829255695793,0.33916944196283294,0.16471622405843714,0.09775012521960605,-0.24045914912227725,0.27072485055823636,0.4857611604234093,-0.23589831664170502,-0.15087608259232738,-0.17482490787511837,-0.05595736518019842,0.3808406147681391,0.026986246470667635,0.04953073355978008,0.28342179131804895###-0.07903834678231679,-0.8221973986609903,0.4336115571811462,0.12484886015013959,0.19280867325104187,0.36395742675057724,0.36345909435732715,0.15996606836852686,-0.18506377310070668,-0.3947189173626743,0.3837368196792403,0.05213040463607655,0.19094236887188554,-0.2242442241662632,0.15673104756097328,-0.13883759213435823###0.006690455790858498,-0.31945266645648135,0.3173265963668361,0.684753362091963,-0.0681970384165249,-0.12232774414755414,0.11040351021630433,-0.22150384907399231,0.3732317961500248,-0.25546363032679514,0.15887992833129416,0.18214334665909032,0.036680755663752354,0.17741069904400855,0.22194729165115332,0.09358260310694423###0.009239428240281714,-0.29294064477949794,0.24479510114882153,1.1075060688422667,0.3329965319212227,-0.3272186156212972,-0.23948848690033797,-0.16452362528027267,-0.3252580214204788,-0.09385610277554678,0.33569426774146427,0.10320289692017556,-0.10993779200217507,0.17712590865054165,0.023551361744165448,-0.09387198000780797###0.09992979141936532,-0.6740018761087445,-0.38098614024555344,0.3946649117662565,-0.4560430364274437,-0.12402182275162753,0.19596790840448497,-0.17606254820330133,-0.06545039946123807,0.05268052904915766,0.3868244329134981,0.23923154266931043,0.13099053716550071,-0.02650448423973706,0.16455605974444254,-6.249539876447051E-4###-0.10826223773006387,-0.7976539489615643,-1.3880398407014187,0.15968990356036353,-0.07829842494795324,0.26571346412325775,-0.4142398002944392,0.410990096214209,-0.41631309946362555,0.26377563596179465,-0.3032323095137548,0.3516329338902047,0.27855537311484274,-0.2394305349567683,0.3089871272943348,-0.3060549087105373###0.15136541587986233,-1.2057521126509447,-1.2863058712965003,0.49806792776501807,0.09162992184900166,-0.4701257716801161,0.1648405671849409,-0.16099038601785784,-0.3803066961788962,-0.20891926273965689,-0.4018821211184179,0.010052226511638597,-0.10323240840663121,0.010586349522779157,-0.03376750246882705,0.03055143268557234###0.03406724253621663,-1.0010091330238344,-1.593224763414588,0.0401030628613518,0.3175193162575841,0.0503026151305068,-0.014657364821025977,0.41329448992287504,0.3776415291091466,-0.4304458072927447,-0.16919558509530533,0.04179026358939152,0.2116309320731459,-0.08754155336108616,-0.17001752883448948,0.059987663781174115###0.15829472008739925,-0.6119941890322013,-0.9505218894212127,0.39231958101756154,0.13649425564165277,0.3013586756127506,-0.2559393737870334,-0.6110685179176869,-0.6030119006218206,0.29080322931957847,-0.0591556539292771,-0.3501004538166085,-0.013953335494537332,0.003235710959013456,-0.37310254904941753,-0.11029036290689317###0.35866889051484807,-1.0719813495616806,-0.5993758913597619,-0.8260003838761407,-0.5440304879233764,-0.011731632051788472,-0.025155553563640187,-0.0704965938947917,-0.150903290214791,0.47600838175981125,0.07385268460739587,-0.15806399841510888,-0.09438980562138406,0.25138934325606155,-0.06580431961042722,-0.28608487854918835###-0.0674162084034568,-0.5171014003205332,-0.7860627974198199,0.23804772393522694,0.12184779547202045,0.5141991216103093,-0.015370228095586348,-0.04305813106859289,-0.0915524548224961,-0.0935900391074276,-0.06934591913822982,0.13831369374983624,-0.27081469124102664,0.07084517163292385,0.8382845623992048,-0.3820415281773161###-0.10016873503247146,-0.59156540232978,-0.8098094720128923,-0.09970755024207964,0.24414128890512252,0.050942205483325204,-0.5794504271117019,0.21903343025070157,0.33078865528177603,-0.1727434214283926,0.03281552182171886,-0.15944006463697888,0.43548953295845505,-0.38611148780591764,0.42123090547303677,-0.01642714969122971###-0.5566138908151133,0.29606642788418647,0.26742644594035525,-0.03355637628406494,0.051175393114188665,0.24313823762481354,0.008219840504232662,0.2813315077640187,0.006140114449622101,-0.35854455741780167,-0.336433540741073,0.36122816132604324,-0.12998074790873357,-0.5627218460187596,0.16514851814496,-0.17964797828849355###-0.04326275020743709,-0.030603846630205014,-0.3691392516102945,-0.27088251480017594,-0.2628047178505065,0.16770528212207347,0.1447457959464322,-0.42637902059716415,0.32937097839187407,-0.3224130284612211,0.07846030479558663,0.1062436410435907,-0.01385053471382082,-0.10571403115435206,0.29135805868878323,-0.12316862833704603###-0.5777487947892059,-0.009882362932826972,0.02982349497904845,0.29941656584716936,0.09122968965527499,0.14968841387257856,-0.23541363928464568,-0.11504135479165106,0.14567971964900212,0.1331865253333969,0.14908155480349874,0.394299487551067,-0.1816546227343422,0.03144976861434541,0.17884683036979931,0.3001611977062134###0.14602479870458274,-0.20834028115888154,0.2789901535435167,-0.4001228249559138,-0.04872979819158682,0.025202518132927152,0.00844105069644835,0.4714658746025229,-0.24744816879942189,0.02987595913877628,0.19132227271311636,-0.006392664707475784,0.18099705656511347,0.25249872082902675,0.5039018925192413,0.1295533403042754###0.30874267745167744,0.21932689182215961,0.058312458555150264,-0.8452273960575493,0.25354232097314483,0.03815622648311174,-0.3691057201783209,-0.07912938306228821,-0.3764713212936191,0.1489307587837413,0.24745757799979223,0.3089647828976902,-0.16587417750492758,0.17363761305195402,0.3508753702634257,0.2040692326642602###-0.060796222525424215,0.9185759294819614,-0.14697755717543112,-0.17218534500115615,0.34945125806396793,-0.12739040823774592,0.1116950553925353,0.058901631313630375,0.11985844364635218,0.21177522113185865,0.4948635049744289,-0.26397621913836916,-0.3223497313033159,0.3861352447820399,0.2299037895329137,-0.2867345407712842###0.06703822129783946,0.36060988769120755,-0.2779433026309787,0.07686360078847067,-0.2736711021679925,5.603430839048875E-4,-0.3062420919583523,0.00810929549796701,0.5043979257073101,-0.07263537637926708,-0.07853432435394318,0.4344441096069277,0.1047426742958098,-0.2785385909048069,0.0954350620019591,-0.15470629453597148###-0.4903145041936641,0.10765770144553787,0.012821721338143445,-0.39088917668423867,-0.16447898895339355,-0.11667397512188059,-0.04070520103833064,0.016158489311528936,-0.17602682943272369,0.0384564460618559,-0.22667041646345581,0.2142368987401756,0.2453010673856469,0.08457871566076185,-0.20251579939153125,0.25677780416337276###-0.18485655792133088,-0.18060311177368707,-0.10026965298822514,0.5397163299698685,-0.004338263194513153,0.2720297319993358,-0.025362756791022817,0.1086908084575165,0.20506174978685637,0.10345616225036554,0.5160769195902231,-0.0782286230480045,0.11479936212789225,0.23981272233902176,-0.19305217565764088,0.13237937919148965###-0.12817972275348574,0.21962439423890778,-0.21964634147034773,-0.02097483105689193,0.027643707178653186,-0.16453396550825722,-0.28265805736695243,-0.041316733539627316,0.19892323978642304,-0.22751534821339453,0.23133803327931504,0.2365099788510967,0.0626053479962734,-0.018687293440987265,-0.27811364763478263,0.14586763732761046###0.15078254471663008,-0.07721431402449422,-0.08064482747616518,-0.476190481023452,-0.28461602870345026,-0.0720308718195164,0.10142434685320519,0.13590981106961736,-0.014782527490447665,0.42968023109813375,0.035198468601992064,0.05529867008871037,0.30161946686472885,0.04004310034127177,0.5336739869606842,-0.14352909585503212###0.2946012689189384,-0.203444535078492,-0.2857902508504607,-0.3494680258859625,0.2911604567658379,-0.2275218078008801,0.5570563354442571,0.4871080380915819,0.2976392688100991,0.1163904305284087,0.6705830643530376,-0.3795586966160253,0.3194435245055771,0.027234096376096664,0.5774033828677678,0.054117436227990305###-0.2888498516708016,0.026681050757806846,0.5198334107668131,-0.5397021933741669,-0.05540643299590476,-0.38334181598629685,0.3369707182716797,0.3364996756781035,-0.3441567735285658,-0.14569140291907223,0.5604348074360777,0.13708890723177117,-0.12047285660396229,-0.2826005604306341,0.29126791174739003,-0.2994366483047343###-0.17817683248885086,0.18551372692933704,0.4457200352363698,-0.5491182174149257,0.03148938228843464,-0.6462169632539467,0.28446424894954664,0.1468092850862948,-0.23595866574673388,-0.0977772597094297,0.3023904488460529,0.12524102706638973,-0.01149425631638745,-0.16258379867084452,0.9152967944100822,0.14145829098470067###0.2099197280904877,-0.16623173913599895,0.6316856200605201,-0.8455844259260391,-0.43068523811683507,-0.3390302096632223,0.475996366698294,-0.0028563474659183603,-0.25489205067065956,0.2328295346127085,0.3357345831710367,-0.010133432403317464,0.06911872247647359,-0.013493804431572819,0.9984409040672515,0.1906999494272882###0.03199767221338743,0.046153542123633394,0.5177674485632217,-0.743937117954543,0.11414635168426127,-0.6080939333238545,0.27715156135640945,0.31144309704707374,0.09816237893899132,0.30799265264701087,0.464631563359862,0.02664145034171419,-0.31735975350066137,0.16764138045027885,0.7473002887781284,0.31817149681678264###0.47958707489531005,-0.10476929345975747,1.1446072022549199,-0.07069827796866547,0.34534169895401207,-0.3261756436459055,-0.4874205961827179,0.00943684157415368,0.050198533282357155,0.06293053334621697,0.5546435108979672,-0.22535869345279885,-0.2113237006386078,0.10538006247680551,0.17894234318471539,0.11447348787916276###0.49840310389319553,-0.2874074309734307,1.6179230900371897,0.05613796601923626,0.319584807642381,-0.05598154325791745,0.24071739041831341,-0.26257611314081286,-0.1628332782080565,0.4118945728389197,0.5001762404172064,-0.019980254436757144,0.29375948854658585,-0.16939460567610376,0.40387732607927784,0.22133566443916547###0.01132674062667794,-0.11842019050586683,1.3909140171856287,0.6935016918765147,0.5392657905719779,0.06175302078929525,0.191430735249649,0.1576326869055939,0.1562644423905702,-0.2992688525000281,-0.09502461456907432,0.5243049827470002,0.18938246224028898,-0.013568796613183644,0.5064819490434874,0.15942507447489956###0.43892677188902884,-0.25506868189005977,0.9603548536065479,1.0062593516864433,-0.1891719094957945,0.2497690104244536,0.26740250199771964,-0.21993995705153996,0.5327590509256614,-0.017865158006068714,0.11362144265437797,-0.07529684455143412,-0.1067607840679854,-0.040450144043604225,0.7950160477196593,-0.16307014307173226###0.10083489977052176,0.06142239679945226,0.9186568765359041,0.888173670943147,0.07906983331740529,-0.2297713145824225,0.03848821544513227,-0.12545359798276504,-0.30702196870829,-0.20814935727577763,0.5374713270479973,-0.28387000592892975,0.07960781918767562,0.10386665854643133,0.9837978786692878,-0.04874489693058641###0.30221856144772974,-0.06662337316778391,-0.1650885240797323,0.35396467389423975,-0.1884017095502899,-0.20918470978797907,0.4117047810673329,0.095196270268611,0.22583264771414868,0.06225958539009491,0.1443726469833465,-0.251128903021767,0.6798494971007302,0.7555981442543003,1.1187117335376857,0.4073923987543677###0.3164010524999482,0.04334443316623599,-0.03170665265392615,0.8458734605331569,-0.16213717767680774,-0.4634480736760501,0.08509574742265688,0.14157765701713415,-0.08632315532773287,0.3152200909156236,-0.3385051381230942,-0.06366739171592901,0.1777992472985988,-0.34562510655556233,0.5993200720591402,-0.3498671145274648###-0.1259126072427615,-0.17146429204799152,0.36813611578695965,0.5286322864625806,0.04555964233808028,0.5156473135205353,-0.04801308646475704,0.030492456847008027,-0.20449828699410855,0.45887199088867725,-0.46911492809778277,0.4220366144104928,0.0997678075738872,0.133636342993499,0.22617793858831384,-0.617348476397273###-0.047413707757374295,-0.6238962032930271,-0.32404606426288046,-0.4766473130605511,-0.16392376523158553,0.7094791069814258,0.05927389736346915,-0.056637923652866115,-0.13524906017653338,0.13951060078215016,-0.3184898965132071,0.3360647598036031,0.18926185996228906,0.15870179356744105,0.5670660095663428,-0.11476750996301532###-0.283251154584624,-0.6816115241263591,-0.6471448078918383,-0.6065969023094969,0.2034613218479599,0.7839963206341355,-0.32795588427485595,0.6240862969393607,0.27746714348073614,0.33895572796037515,0.07031658823930584,0.5093304600263578,0.19191120417132226,-0.14796119333012567,0.11517159012199849,0.4250026328138905###0.1883911873692113,0.4626620099488649,-0.20275741712291348,-0.9485380123140769,0.16160980138956427,0.45642364671327296,-0.33074788326333376,0.2739890121163906,-0.34023336246741825,0.25534372516324033,-0.2641493478233248,-0.26636555622009145,-0.005894531587332315,-0.42808638872325977,0.8213015618672102,0.10349480609469208###0.04056365734659368,0.0864734531052856,-0.766457028681863,-0.6731829294613207,-0.49362663665237455,0.12161429221493311,-0.08693473117683086,-0.26028024291501983,-0.05212875897248329,0.09323177704620199,0.03079055598352234,0.20997677412624896,-0.17203841793703692,0.08441724737723161,0.3216860028611929,-0.06393201787521453###0.07571406653515636,0.062371115885413074,-0.21887487644471565,-0.20000086556257304,-0.017922631065180987,0.32431048995635986,0.36039418903275766,0.3268732327422818,-0.00804915660899535,-0.24758413902986293,-0.014046542710681214,-0.48586162678262135,-0.21676787909314027,-0.2778956376010178,0.7883931805128682,-0.29073842614354417###0.02722241411679444,-0.19499869742045922,-0.5692269403963739,-0.39009548014891177,-0.40360387427577155,0.10771341657782035,-0.416266096494488,-0.11964968366857373,0.3089029600548428,0.1316523245406387,0.21265706646231,0.3161974710093941,-0.023457331274561885,8.602912576535032E-4,0.441136674506884,-0.17454518121683557###-0.06665728848503687,0.2709846448766781,0.03779669867056525,-0.11479411890358283,-0.34311640448882613,-0.05404783085953096,0.04689238511472258,0.34565802980060517,0.4178065522425384,-0.41565064999956336,-0.3897370522206963,-0.16401273798279867,0.29540700051452967,0.34858653525343364,0.11929300596125436,0.1664936116336552###-0.015068631768506462,-0.2917903306362022,0.25056372340459826,-0.3198397962586682,-0.08006666352088553,-0.28902194475941595,0.1792704801691103,0.12298400676578333,-0.27148620409560076,-0.2472349723685615,0.16566469065914888,0.07949375479851592,0.06066784114062011,0.2826171090461997,0.11831822864170118,0.08592615923387034###0.43500931711692814,-0.1429224293952209,0.29867803631628803,-0.5038641084228701,-0.030608549442753676,0.10587518376785092,-0.02210527065073377,0.1431263630447319,-0.29738781739691417,0.010416775813305515,0.6278851566309454,0.052952773623497554,-0.1444563589886046,-0.029716672346959638,0.2925048926096551,0.44949293279359204###0.2724847906829674,0.20604477106241603,-0.2131190688281225,-0.6564734414948763,0.18339289528078007,-0.05702389795649201,0.11481506576530698,0.11383764295821557,0.11343528620009327,-0.13379180611812236,0.6421023699377418,0.030681049816988937,0.2789768325305625,-0.05020500029264046,-0.3112545279545778,-0.11245900631532801###-0.23268335917573707,0.44969349703942146,0.3726770095106046,-0.4448424541938354,-0.061161613249554374,-0.09146419770504292,0.4936267800774959,0.20416158971008397,0.2671877396930879,0.005590208097316145,-0.012703362809807946,-0.1210041635398907,0.01701905737252213,-0.3040519208821127,-0.036496054179844334,0.0170992132527395###0.35103258628786416,-0.10687826504136114,0.4240406940450877,0.00401093072240705,0.3543775556517963,-0.24051192438639754,-0.6466624633858831,-0.09540976638098836,-0.18745022012488602,-0.11836425353357079,0.1565172448614395,0.16067039933410168,-0.1488687930746407,-0.20879249746915993,0.1733401163350542,0.17790163335860695###-0.31111848282363813,0.043039227467554245,0.39242704341675333,-0.20980571263352926,-0.3298594537891785,0.0704612768131211,0.23789357571079123,-0.27807105588914804,0.08304050312960456,-0.36238893487936585,0.1727099318471704,0.01852033189984233,0.09715482012854162,-0.06237736889998545,0.6807266618800868,0.15695440453752205###0.014045619788430833,0.09996748149088629,-0.13786351791742404,-0.5437611543936137,0.2749948355675825,-0.4319600265540296,-0.09352177049523003,-0.20880161032463163,-0.3682956740055772,0.2998918210682629,-0.25314334302904107,-0.03340279874792761,-0.7498707677964594,0.0968771907807525,0.2583007287265214,0.14469564963380493###-0.09340122694846552,-0.2068555645390977,0.05679287868181692,-0.7502550404564677,-0.10451055066194151,-0.05614989119400871,0.2316880014064716,-0.1623770646484218,-0.37308082424306177,-0.2559199750183482,0.38381933540593066,-0.33321330343003724,-0.16473220177947157,0.04706479082830069,0.342181017517381,0.006891235875966634###0.10361832886639964,0.14359559619992723,-0.14876181731000515,-0.38530304785568814,-0.4781481788600991,-0.813875227675476,0.2820298829992433,0.46057988040317954,-0.0957702665780727,0.03565965251984552,0.6105208303699194,-0.0010578188846606374,0.11646441722041148,0.639586083947171,0.4453185553550406,0.05485549564922656###-0.06689504806908407,0.4069280962084243,0.06255877052965175,-0.9553150146181199,-0.1993333159076127,-0.6065514644665435,0.549357395500033,-0.06773708168274972,-0.19634682257170377,0.34496349831002004,0.620171986089075,0.03500891740422199,-0.01722805806325364,0.11406449539972523,0.36846380882039925,0.1754599080783005###0.3246647602298478,0.5409591802330788,0.44681189247134745,-0.5713274992504467,-0.34119057910894834,-0.599151754904412,0.7148602166034987,-0.03407262227494175,0.42013480446178214,0.18781857728844556,0.8669398762955096,0.13361270274717574,0.23397509620103482,0.04740947159642232,0.33457530840468164,-0.1153801038186057###-0.443102154432572,-0.11933651516782845,0.7328289381196328,-0.7908788641725313,-0.17804650457164828,-0.46487359293632896,0.7060992164389225,-0.11480654601940546,-0.18050929225059933,0.17685061792746443,0.7089584967214511,0.6170438952981486,0.3874090487520436,-0.09034282805535418,-0.23928379357458698,0.04469359849553901###0.21342255815382472,0.1042474868129122,0.6805638647987665,-1.1747010942763576,-0.032574850137698036,-0.22830969927354672,0.5692304362091914,0.3280946964890282,0.41560628457725,-0.10472607963806078,0.8393121199820444,0.5934591758348237,-0.38653313744542056,-0.16271294376785886,-0.24189433548214784,-0.21173986657201946###0.16302654818779533,0.004909891360319321,1.3315007490644442,-0.9351876691820071,-0.21145355625392176,-0.4257649040053778,0.35199887225773213,0.5959750716282729,-0.12944484153800798,0.4370534819982711,0.2458926253012328,0.014811840309576564,0.41831630421000143,0.4683916156640592,0.1455953141009221,0.0864690506112696###-0.010637781247026828,0.2978968389410768,1.7590377465505285,0.16513329657932008,-0.07893561380599444,-0.08786678399715442,-0.09056358578740857,-0.16695665736811838,-0.21863327075951688,0.43710999629015307,0.2965505152812664,0.10137479140809061,0.4371931084459059,0.009984646425594502,-1.128059458610543,-0.4457905568295804###0.26000963618279377,0.04683099403613247,1.5126495601220642,1.0275013349366897,0.16526342507706382,-0.3346524264917549,0.6184902478167122,-0.238474952747414,-0.14522327725009393,0.1423754509057345,-0.551137125977432,0.14302239240831519,0.18116398506206616,0.2258336843486508,-1.1043260861321422,0.17541144576306597###0.07707213843586953,0.8293915736824884,1.2833248279807004,1.0425362748595524,0.28882470837466256,-0.08008626883853598,0.10784742214215354,0.40362871788541577,0.29459485324768925,0.17665257528298595,-0.06578261966663235,0.016616638140579225,0.5058434961520719,0.7747497179622944,-1.8709132232705536,0.00418409803171836###0.5270901050468247,0.5074309719472837,1.358439465523117,0.5083657314748034,-0.09708181179673599,-0.7075315890134948,0.4062405455911825,0.3162145876773275,0.234754753842536,-0.25726752981128725,-0.07653688968244302,0.5623851812397358,0.08802223524160004,0.12037093502662066,-1.5689882918290001,-0.5255674148433532###0.27399825775222164,1.0407375600855793,0.38309561488174104,0.1721937437416336,0.2807928142225098,-0.27519432758470463,0.09780679704481461,0.023787352019816577,0.3093287909034306,0.20052227303616188,-0.10620042920920424,-0.12169139074003477,-0.01861206849528509,0.4058081782781223,-0.9585732900412675,-0.2875829379202039###0.20969334789823865,0.2134503947449877,0.6710728621236329,0.042716969938727124,-0.3079245221258385,0.24586568313729862,0.04281923798294022,-0.16665461490017805,-0.015068853547875563,0.5089738574794189,-0.10048819720901504,0.1935997994183292,0.37019086469005036,-0.292047289913072,-0.5547045806979386,0.21153704376109686###-0.004609040722992825,0.3428837481779514,0.7086849093170039,0.1208221947421973,-0.012841594259122126,0.3375085303201668,-0.13756448365649418,0.24507181034214576,0.4840314317910362,0.016625634142625193,0.34725999076230185,0.25902657286035446,-0.593619515199871,0.651129780641954,-0.2883229047689458,-0.31958656162966687###0.45337735489922304,0.3291296818873928,0.26151420987600427,0.008534924604201723,0.054922181941263803,0.040853131521167145,-0.8238491645735865,-0.2633920418836725,0.05804414464011072,0.21985185499612833,0.27955911738414574,-0.028231639034693067,-0.11478893460500196,0.20968291675776782,-0.2541711299316012,0.40009021098862657###0.1531339005824445,0.2536944051444332,0.6835809132981914,-0.241587906899024,0.44957652540115023,1.1820027411024048,0.024306795191917547,0.4449187442944371,0.2555881807224223,-0.1211471842669118,0.26720950683141664,0.6830988115985456,0.07253028375321494,-0.03336212233344516,0.7694645598206499,0.2935480367579553###-0.023988029752585287,0.25697787906252667,0.6834670325368835,-0.27770734468138636,0.11537424457476277,0.3556855030584113,-0.29103470168687584,-0.3536863143960319,-0.04217859587192504,0.06089704088760735,0.3582186951656816,-0.25355262153138536,0.8208517320323656,-0.09465107599056209,0.6145832687161118,0.2822955025434763###-0.08426262137053754,-0.012846650552014468,0.49441269779016084,-0.9055402840950519,-0.10511826497958451,0.14350613691333847,-0.18740324392555432,0.0885353899484694,0.1422453200928984,0.006846007433177351,0.08436209941464276,0.263408355999772,0.023458225528068765,-0.12184731214691823,1.3147511026617604,0.29359104681452236###-0.2260726456643965,0.20510882841158767,0.44286673773603097,-0.8349450942203797,-0.14593200587216965,0.1313695562255475,0.244776555976666,0.10774393371020227,0.32744241224228715,0.19826014751259802,0.5820854763265446,-0.469619314782595,-0.3298367422540774,0.03129781682026205,1.2394330955329853,0.5826046477202688###-0.12048441496074722,0.34958402948729517,0.2603243085672762,-0.6530219268592654,0.40285354630033116,0.3870391367412275,0.4256646811802793,-0.1434806357170352,-0.8386442412290924,-0.13525710612582517,-0.15853555886201268,0.1305038461864544,0.24453975568074687,0.1877899464046825,0.7236383015659901,0.23522972933068215###-0.2858125521488477,-0.34955565024673063,0.20562062236628115,-0.39925267052503194,-0.0720897022747973,-0.006773512795892947,0.4194057485606123,0.09890810913501383,-0.25258547584068586,0.41335800655265414,0.1863514293222536,-0.14396701347120122,0.22373835098086983,-0.10080552365224961,0.581695689558316,0.06767407502341612###-0.37385926676301007,0.048255907962561476,-0.27125806321881835,0.026486601146254268,0.13842269714137423,-0.15323081465403757,0.14987651068893026,-0.11223246423440011,-0.01945445389326257,-0.10965759420168066,0.03303015637101223,0.0971869051400128,0.41664139489895763,-0.09608520852158171,0.2328430751541545,-0.17806583455227307###-0.5795524631242532,0.6115310442737879,0.055411428539408794,-0.7487301411880115,0.027932013959585576,0.033202202884197306,-0.17019326895093576,0.44226198390522214,0.34382839327076775,-0.31361562617211913,-0.11660351270985712,0.12541812690952459,-0.22292221422239927,-0.25278066463769855,-0.13908837889916278,0.2536611985220114###0.13192339805560818,-0.1912102461645146,0.3019527194039604,0.14727389190784773,-0.34360561437855064,0.09068694877652493,0.025175379856538126,0.32268838527322935,0.1187819295832106,-0.0349459497637441,-0.5988709501554823,0.4711129712872787,-0.14336405760415563,-0.27298210549212176,0.06662229108342549,-0.03119954000068527###-0.21114926965928213,0.0758232246389851,0.14970036531780126,-0.3804299568707904,0.14494280953297903,-0.17931895407720552,0.1399967567698387,0.03900598038323174,0.2812315114159497,-0.2602629244868595,0.4615567860453887,0.21115685417337257,0.17785847385971612,-0.06526388994850071,0.2672726370185569,-7.073176220790663E-4###0.1268680336218675,0.04000870858851048,-0.208815796836977,-0.5428649583643448,0.12213021059325431,0.07339304103948205,-0.26119897988153984,0.09247618906653958,-0.14647970740533675,-0.47206202112567647,0.16503104445581077,-0.4760282980537805,0.35923754532174546,-0.16139249309878226,0.36020981751036174,-0.47249483415722393###0.2326788501438631,0.278902068922411,0.35836161235979835,-0.27739441822014027,-0.260021175209781,-0.3030960606338286,0.47834836578391043,0.04035845252053769,0.10657669924981611,-0.23346548730595273,0.3074062890936566,0.12396927807517978,-0.09403718711533743,-0.15983868844716617,-0.3279298860379204,0.213173934842012###0.0859046448947529,0.1458896025965765,-0.3861146981278786,-0.9069986054709842,-0.3614093177909905,-0.13525943588793124,0.4276351206629034,0.28215536078505815,0.035588848738777566,0.326876788857941,0.37817634590854016,-0.015352852911481647,-0.0832419618495813,0.2514915746805937,-0.10893152255343345,-0.06999854184190846###-0.19961725177354106,0.023961590499532063,-0.3000484515850079,-0.38807199843348866,-0.09987020357657728,-0.5396188395664436,0.5247550507812985,0.33147042977001895,0.06620646617891814,0.18567297167586927,0.6789799562730389,-0.36351410506923854,0.337383441324465,0.39037788636027254,0.6277312092509155,0.08763875510390201###0.42375810941817055,0.37200249340230035,-0.5085209515770602,-0.4592003050697118,0.020806988074298642,-0.19898318625033787,0.459547247185631,-0.18993253588677625,0.3600563860419267,-0.2451482928295319,0.5365395305104917,0.13233513516596643,0.39706993145200614,-0.005380529653431312,-0.18037178863956616,0.03615203198499011###-0.11797312957745415,0.48794340289301547,-0.1410063458168798,-1.0731700521412468,0.27932071341761255,0.07567748884078605,0.5890667740990597,0.27929965069555945,0.19260968144746177,-0.004561207090861499,0.6036377335134602,-0.1391742354205305,0.03404697753482219,0.12935512302997793,-0.2249818340299579,-0.1555750181449923###0.01201752930434149,0.027508362169565658,0.022087244472071783,-1.1477605810496319,-0.08826390233697907,0.09874359408192027,0.7329251281756494,-0.03781360642856655,0.14281050906207776,0.19668079048277767,0.5926782148097334,-0.4380417609768606,-0.15335611722605913,0.012972481308960873,-0.10174409011268577,-0.05409658534119084###0.13644148445720153,0.18009011471230152,0.3100528194827434,-1.2434393077606458,0.33109922769050776,0.16265792943444923,0.7399569270763858,0.12783167204284457,0.0595127610167706,-0.02530942563702797,0.48391762680447264,0.33343960367044906,-0.15700046593800132,0.053274550994262926,-0.6094476620136992,0.34352683195531836###-0.12399888146453664,0.44106750945501827,0.37662263635292476,-1.7004399804610184,0.20254410874702652,-0.22464988644676026,0.21368898658264093,0.017818387173068162,-0.042401184919586055,-0.03361161655331751,0.8599391484174738,0.025358418830800176,0.1515228558173127,0.03811203864758589,-1.0291815981087378,0.1499185642607847###0.03866794279125039,-0.21510474515111644,0.8099167373722171,-0.9860783781130725,0.201365509680923,-0.2811844296204399,0.13924589007300905,-0.06723738125974035,0.2125714883906354,0.027271818871694508,-0.13484507319769976,-0.17483738603578794,-0.174336619733908,0.5168822877499362,-1.4805374985587378,-0.16608896437156395###0.035009170924207786,-0.17743355997923121,0.8896736155626541,0.19300206279382381,0.44910854139566214,-0.4351352436458921,-0.01731353941073453,0.2444866722354045,0.21954189426398188,0.1409737357901325,0.1314988494540844,-0.026916150979097136,-0.26169251973175783,-0.03018001837550112,-2.03592381562855,7.514696015767687E-4###-0.2685931458454547,0.20716501641755808,0.5712927797876449,1.0015582257356648,-0.07556166876994895,-0.2170728055122424,0.23196877969538798,0.367750509031346,0.42844095588703224,-0.23947095084212175,-0.08506107494669282,0.02951310353418139,0.3125474320546836,-0.03289266370560507,-2.799167458339762,0.3541982930814254###-0.14444605166253668,0.5364043225255124,0.31267345163932636,0.6567436751789067,0.31487155674973644,-0.9049868053133837,-3.3474436594002193E-4,0.09596439400742485,0.2892922685737654,-0.2767662627385581,0.020328451421521093,0.1805778614041542,0.23851569897573213,0.1033664432454424,-3.045233590402229,-0.04938078749252991###0.6827076439199553,-0.09275989644956868,0.23136409395065566,0.06572628877125365,-0.22845138525294917,-0.3911841209254723,0.5214304182833261,0.22346087413580631,-0.1812673587621832,0.19010702835752166,-0.23222721318743655,-0.27788756953774113,0.367911821723179,0.008536419770532232,-2.655597320097605,0.09047624444472636###0.2921845190544325,1.090585741713953,0.20890909374445196,-0.23167869844313052,0.281924644886473,-0.22274715645100054,0.9192613097405324,0.23370887259544473,0.23526782807020002,0.35643686512230643,0.622714389815357,0.040806947592603254,-0.3044086150557813,0.3699418710695515,-1.7055987601293328,-0.11742732007315912###0.09466675597603276,0.7113810748340977,0.754267351175798,-0.08968060443827082,0.11565075980851636,-0.07855654869579184,-0.02732062137958576,0.007411975640899913,-0.12439845772692168,0.1449585221537784,0.32494243271059875,0.23790372271457588,-0.04580803720555664,0.01960808556661919,-1.7096589034398146,0.2293274826842853###0.3172786531391365,0.7956734080503923,0.966523346378901,-0.4080276944965997,0.059670659955489334,0.667550386480619,-0.17880367920933535,-0.5476965466308369,-0.12847148657773963,0.06594650961457782,0.4382178952272482,0.1415974286230141,0.006133336615750051,0.09640358086630044,-0.44589769584321665,-0.01437366943845456###-0.07315562954952594,0.8675614389738354,1.0582729465912981,-0.891025967991493,0.014336071893535885,0.3034274750572288,-0.3434800990934449,0.2200499867921195,-0.32218134168174645,0.3335093189235935,0.3629421933620515,0.2539143190737483,0.05818695352979432,0.023900876122716196,-0.2173250743330225,-0.20592464984712264###-0.03530793775065208,0.6343686508136755,0.4808690215261111,-0.015152349266787317,-0.09457688825616092,0.4097720251056693,-0.03386735724198739,0.5330556799319229,0.15458602640901384,0.6141395903247097,0.4639841649448303,-0.3415372529448388,0.1391400368592085,-0.2876770491000563,0.2703160142341567,-0.15003158932451005###0.25141243517378953,0.5728753391490639,0.8416293388034609,-0.7733231536353404,0.018486123466915753,0.7644443691975804,-0.25184090900669825,0.3993177054939436,-0.07344692870890134,0.1575358306693112,1.2173836053885725,0.06231684903544584,0.028730637129540253,0.05783994930654798,0.9774853863868166,0.5688414201447651###-0.431669873062096,1.2601429474801964,1.2902989691136524,-1.0816080640566519,-0.021228669956730548,0.4895253528480467,-0.23383875904209622,-0.005742155618674406,0.06674707596709688,-0.2584988882645804,-0.01957693987431432,-0.396331482159089,0.042926633119366966,0.008505198356038385,1.473349413162855,-0.02121764784786016###0.5409770319531498,0.4740195705172746,0.547845685698189,-1.1138786475859255,-0.3198844202144079,0.2786279277654389,0.24200795974663483,-0.22295420938067032,-0.038362305567781106,0.20759409366386605,0.4901920560659219,0.04177842793007595,0.4742552443944304,-0.2585028916250047,1.4802932788915475,0.3702011903543956###0.3369249325129207,0.05360439127306124,0.5019271984514132,-0.9457493239758616,-0.034542782332279615,0.07913470291405092,-0.06469718583045517,-0.10878856464779828,-0.2767302431109168,0.1725060700776806,-0.20061365753877494,0.10540473767747202,-0.3137550226158478,-0.11161640319743472,1.3546915422352992,0.17468078955122604###0.1613908743081125,0.14780743798486015,0.4483350070776606,-0.8311603922843774,-0.30731517839612577,0.3254076432623304,0.039013114911551565,0.03604169137292662,0.11305411271122544,-0.09281178974623017,-0.1416647999352327,0.008917855328256775,0.2747046734147696,-0.363202436279202,1.1319533797919694,0.16917389413589887###0.09544258061085825,0.12086545877121004,0.18048597362256036,-0.045464594409842886,-0.08839208375613192,0.24607871739830295,0.1763372804104668,-0.10743145912537114,-0.021281114153820363,0.16430346610732163,-0.34779896081650075,-0.3058601902113376,0.08459182008216876,0.15967478163731447,0.6848888235030763,-0.4057521687435783###0.10229475808238062,0.07663064497270718,0.25999818883470976,-0.41666613550591175,-0.3465323980474113,-0.34528820209844724,0.03260340556465423,-0.1766128971069161,-0.06815604622208908,-0.2359992993107036,0.46017016605922434,0.11198035754970291,-0.15337146239087068,0.3154140972648795,0.324070265942778,-0.1972973951543513###-0.21889654651542964,-0.2785624379777992,0.6986273075855842,-0.26895043291807486,0.2244835468667262,-0.6181640823081034,-0.07638459621713087,0.7208329791133948,-0.01264826678357433,0.4339539412765425,0.22412520987867743,-0.16892098389857302,-0.1821213179223035,-0.07287104230036832,-0.038611567071480446,-0.18077843153026682###-0.036947609129601704,0.26822780914398686,-0.26758490996915135,-0.3836476225115471,-0.01923791597059641,0.043248355047027204,0.11902243605725056,0.04953902913874816,-0.24781190095061642,0.09737304027918407,0.2585798512626701,0.36393191540955816,-0.4014700748849428,0.14527248298283663,0.41248997581690333,0.1213794285165632###0.2135919693396116,0.21618203113439977,0.048116284746476765,-0.33642020484927226,0.18006574817892343,0.02334857084074737,0.25617113415228376,-0.0717765981959099,0.26910856469778865,0.09226615492017018,0.30285540940595174,0.21255906294605226,-0.3282205465470244,0.2570346661120776,0.15046191032972897,-0.44997748868612825###0.2682783202174003,-0.11557945778136464,-0.33325435826197236,-0.6533652964828363,0.3807336032151852,0.019901824523339662,0.2371386656152584,-0.42815743357718195,-0.20579171223636825,0.05175125580722025,0.6315884107051457,0.11443601321657036,0.03936955957744297,-0.1370190076615441,0.017670496755019457,-0.26904934696855015###0.1247603117716447,0.22685894071683163,-0.0025655051739413032,-1.104823750059894,-0.45087502340305924,-0.21672197808252616,-0.07047579175407048,-0.41245353891887754,-0.18680059493816312,0.03581915403583645,0.49342190387931667,0.27985884967025365,-0.18303028748265046,0.02523749468450475,-0.5242765641617567,0.3151439148939605###0.3212983624129871,0.03962420805095652,-0.12003146827238996,-0.922954105611742,0.1233716352745612,-0.011986276431418735,-0.016342689414732936,0.2702980384466323,-0.02328971844660789,-0.06818608384434499,0.6191828269815018,0.03152463915236546,-0.19674643878185039,-0.08632885925157412,-0.152887964085228,-0.02449548764159539###0.06120685316693142,0.029054297716274248,-0.1679716910688216,-0.6954160611751603,0.08381987853652734,-0.04822417578595656,0.30802669270101724,0.24431090136765057,0.09439011025791204,-0.16163655520477174,0.5863066023339464,0.14022869297693152,0.17283999679759185,-0.05145282055053323,-0.6344370219377139,0.25776248925786155###-0.20242224759298094,-0.16036239909147915,0.1681100006524428,-1.107124758538459,-0.02267977754373922,0.41705421515446267,0.8677611448503957,-0.030355552363135516,-0.07822450668753364,0.04466314054841544,0.3909836375086458,0.2388279527088959,0.18386977073571617,0.10334083840124844,-0.48893504859213693,-0.07157101267901991###0.165335749254435,0.5651491373680649,0.31766677515149194,-1.2388664264245206,0.3011013027773452,0.15756168148698382,0.47741245361027657,0.2512022262737841,0.30469288687700946,0.26752087430186544,0.16260138811412717,0.04936530527758951,0.28786977567317584,0.379451909623983,-0.7712887539383776,0.27735014559664645###-0.2734170048933063,0.16821288791831202,-0.5554390116936991,-1.1990940771350482,0.05929725134614704,0.1844194805423628,0.6926728347555275,-0.24556395158051625,0.15930797616768483,0.037609791500785646,-0.08999440345421934,0.14231691754283549,-0.19400375458869953,0.00986102181513567,-0.13682477403736004,-0.008215439747503281###0.28503739094996566,-0.07017793778803764,-0.4438196088832896,-1.0377841084146444,0.03128242122423155,-0.262109446778703,0.3463482959856126,0.4105814656131853,-0.24648376735339378,0.3410544680423623,-0.1454612497398838,-0.15905762868592205,0.3720419234197292,-0.2792596753752798,-0.9283663185993408,0.3220094582054901###-0.2899072882042979,0.23043510457529653,-0.12163192172524251,-0.9149485978795062,0.2511431562368421,0.10557476394008332,0.45762773914707516,0.1625747606781369,0.11715341269047631,0.06754571576115398,0.14898189719635924,-0.2671175166825352,-0.019634954368667537,0.2207492609534004,-1.5251483735448668,-0.09752847415461888###0.7590643784679454,0.06996798125857902,-0.06553913632983378,0.03382052904745131,0.027398335806466383,0.37136218271824806,-0.06978762121458852,-0.11110453017544897,0.071724970955922,0.238026030974055,-0.11740187895804036,0.2958792826745753,0.7576256540191523,0.2694186850206645,-2.1124935032307244,0.18601868605600425###0.002421592711343646,0.11126230535112638,-0.055624284584030265,-0.05315337617231864,0.4327621596709557,-0.4222907121761812,0.11461144645440219,0.5466673758551657,0.009608169494725583,-0.13034966997400335,-0.5550767089330791,-0.27668335466320393,0.17633552719570897,0.4083578064208718,-2.617676345288313,0.025512794955834747###0.1484352336283879,-0.01949300716811192,0.21556227023802907,-0.23207407401881333,0.5941431027168442,-0.6160602514299802,-0.09797775161982795,0.10442996599400825,0.7272848409440672,0.10039584608175971,-1.0867708985450288,0.43609793282972525,-0.19992522721213365,-0.03811270885693867,-2.4054692992921693,0.13046316932778973###-0.34886122416911275,0.2631983412113931,0.44482703562970777,-1.0305943066700878,0.2972866327892425,-0.3253891819932198,-0.3315036297974448,-0.041375688421302334,0.1311420342951239,0.2863730518229507,-0.6299865527292002,-0.03627384622812148,0.12688609840415374,0.19789553735199192,-1.6043446597159519,0.04459083613295112###0.4198393310041997,0.46355467322208266,0.755661047540389,-1.498688084850081,-0.07020098084523592,-0.0064793390039399905,-0.1102321904989793,-0.12877707575442368,0.10678272033545301,-0.09242103230987567,0.3576516564609705,-0.02037063109983381,-0.24123465095107677,0.4849495358823157,-1.3968778746451802,-0.43759375672779893###-0.10141137745365347,0.9619254499255921,0.8833353473286736,-0.6130403623855047,0.04441429298415983,-0.10730743222892482,-0.15241979473019504,-0.002993684006635021,0.3201043356434215,0.3671356151130227,0.4032963250691753,0.27228138806718444,-0.2569858627491308,-0.012092187031372806,-0.4503559275793154,0.3385507168136585###0.24014386692720752,1.0631299431174532,0.8293704003517174,-0.14055420806358707,0.3676673479681094,0.3829752070765633,0.3852752386642861,0.03905005553898125,0.4956888786988418,-0.01614067928292249,0.9477715321680713,0.04471545300729293,0.6313091916937743,0.3213897005797032,-0.17084232881662062,-0.2517861737238992###-0.08732918485288702,0.8615199944853115,0.7342904096313138,-0.7879483737753393,-0.19755171803888605,-0.05040375827868217,0.11090979820289044,0.5683542248434852,-0.017414515725850694,0.5361474891921719,0.9394918919324654,-0.016183146767642112,0.14463114297583318,0.21566894969440767,-0.6361970880634013,0.21036822205899863###-0.3381520811182238,0.5280454081446263,1.0585140046202846,-0.5035453069303479,0.01333976531203686,0.2741360232634342,-0.17136234494766203,0.15259704360160917,-0.2696158027992628,0.4566952589022469,1.1109997442054602,0.05995268616845269,-0.409779806769567,-0.10391699384905341,-0.13304655347455907,0.061340043349763035###0.18090884820217462,0.9841423798469396,0.7556488965809159,-0.9384479842947774,0.24499502962807612,0.408017845293878,0.08388057513487666,0.1534778269574143,0.5348134035440996,0.2590644595760238,1.065042260962038,0.19794215386535102,-0.0129597935595446,-0.13497792698563157,0.23191947594442658,-0.014178070036260376###-0.3494036551617397,0.9179975638711246,1.1585414821110196,-1.122179290254642,-0.23323275224774837,-0.06189717948635308,-0.11480873906633318,-0.17527484843536978,0.0056571140390583915,-0.020511281585953053,0.15736593217796577,0.001816883395556878,0.2906040342976025,-0.5260533891894914,0.6952735330908647,0.46436341344007964###-0.5395920211460847,0.6377395494014186,0.9835043863444773,-0.9251833008027253,-0.15600536336020568,-0.3190569962999551,0.1504681077139082,-0.5373516330545093,0.026253656038156447,-0.29414585661517434,0.3443427516040061,-0.011878891611046707,0.22626904793497155,0.14825330304790227,0.9369303201447655,0.316751544300783###0.15762753808244803,0.42225106014040664,0.9046317345433457,-0.5388139128716115,-0.11711200879476015,-0.005460700659978357,0.10163389675785929,0.1946496965013168,0.04810786258546105,-0.11276729936240776,0.04249283841425679,-0.0681411989470208,0.20232682518144918,0.07682918768621629,1.2523525306118501,-0.1417202899760763###-0.11926640537157435,0.02512275812917792,0.516208704710331,-0.3014749113565208,0.25122654437133973,0.21928442988223562,-0.10764048503349513,0.07933050950735442,0.1447214549726881,-0.11281016902424182,0.3850170130080338,0.3190265611016613,0.05259546569292873,0.3558219498879549,0.5619589753381492,-0.20660475707342027###-0.08696915468235829,-0.1163743212895797,0.08403141488215499,0.4648407048941493,-0.06156638793509024,-0.03237003554121224,-0.34679510579155814,-0.19219672094908358,0.0460763445296864,0.04132494969948501,-0.06752189577535403,0.16164767008725245,0.03474032812602412,0.04825766543489407,0.2835302596071094,-0.5088689846546322###0.3008525115765884,0.3849040046046373,0.32626526028411895,-0.02250532682179227,0.13132280677717176,-0.9760269767708915,0.2019980911436684,-0.21099723812790488,0.03295606770026495,0.26953228708699295,0.361489222819127,-0.3826740097976521,-0.07761796020859506,-0.08056072909986813,0.45852635480705795,0.14726268681131718###-0.23266557638068097,0.22315649513227795,0.13879611944169631,-0.35080012540128397,0.23152660219239002,0.0965244215828324,0.23053846002915604,0.2191179889240371,-0.19880187498242113,0.1543320699988521,0.0535132730373908,0.16089952255538603,0.18288647626263518,-0.6922333670428762,0.06980121098965782,-0.1780105731121629###0.13987239184546016,0.4166222488611729,0.16172957832562077,-0.6887121763189463,0.015781108802701536,0.06174149258073032,0.1278982078014289,0.05915811752689097,-0.2770119336797009,-0.1261279147204894,0.1106006680757034,0.1584876985584343,0.007457021540327841,-0.00735894002767838,0.09940467931969783,0.12300687993943803###0.1434081837834839,-0.05049501791681851,-0.21508481417632813,-0.7802832511906018,-0.3257163767444222,0.1360730183770837,-0.11137078765468875,0.29057906080029516,-0.1629160194197687,0.12486829224046199,0.2999316536633185,0.2060209614192399,-0.391940016066632,-0.03447128299052903,0.21765252801367568,0.1329093969850875###-0.14508362390360793,0.43025245754378094,0.17948842224356548,-0.5748310929388912,-0.10710006755552692,-0.3250063853928664,-0.1928729106292517,0.0972494518895973,-0.09762989476334538,-0.5437349055191844,0.8595078170061782,-0.0642449953790508,-0.26118503082388167,-0.1343823147560211,0.0042306615662762405,0.2556052601917118###-0.038167912080096025,0.2221037480271547,0.45287798475701796,-1.307475049848172,0.08677062267051763,0.09506647130332779,0.022515592717729935,-0.13177492979582664,-0.4544800596409196,-0.14039520849470652,0.725617906023742,0.26824991104172374,-0.033021297024344705,0.180646202317717,-0.31372636448554564,0.06635631870078663###-0.3023560988110458,0.041374833965666394,0.08306214912292163,-0.5230807628544477,-0.10672939769419865,0.10624383247548602,0.1868514877854467,-0.35354417062876936,-0.03918973505270782,-0.11976515790551406,0.5774961847086612,0.19848467478057333,0.4766855106719588,0.06409452053494892,0.17786367569827613,-0.13961003369414088###0.5199540280885054,-0.11629920885564207,-0.0906354218596547,-0.851641986523152,0.3590911847536956,0.49169098279253837,0.12192564910771637,0.08379360284307519,-0.2997203939591031,-0.06330187279998349,0.015837054513263546,0.0905815932456654,-0.02138099690630647,0.10350893801195973,-0.404687547327063,-0.0764770288171238###0.3134970338376376,0.3292035785359897,0.020736934817246512,-0.35082137113385864,-0.280498854273423,0.7381503960294048,0.2542823334745537,0.35671890375259235,0.6954562166410642,-0.42342615555988883,-0.3303118791353311,0.09492752329244673,0.033430765482806345,0.27492443064381783,-0.9972022088580099,0.1490581847185997###0.3745147187057405,0.8478157413305913,-0.24306589725008282,0.4072223959488216,-0.02851389012861595,0.996639268280635,0.14469392687479354,0.32064741345363473,0.27692615638573154,0.09398474259531917,-0.03540375779331447,0.6902962121947879,0.40288560821306135,-0.04159846843732955,-0.7307426721630823,0.1115302270923047###6.873493669878373E-4,1.0175698579506198,-0.21398956631023114,0.0848835329160283,0.2942753693576239,1.0821623896788992,0.8086550799860471,0.3195851774159879,0.30311825487088173,-0.13144075051284307,-0.36173108257563824,0.010487745353698032,-0.06218891417944858,-0.02571637516886328,-0.6447233780087744,-0.2110045990569078###0.19227764813248918,0.6297975023118056,-0.4341507685726198,-0.40112382707841554,0.0022764264279510845,0.6271908002167218,0.5659704087048351,-0.18854639152030503,0.010605119439451059,0.10751114956909673,-0.13954069373338224,-0.03274289136995807,-0.17463738974272072,0.1942668096762831,-1.2241524864862054,0.19402055110964925###0.3014930629291134,0.33923124924741616,-0.36420513610827954,0.0308384266364573,0.013592908779111556,1.1594737312935028,-0.08795686516486224,-0.2836429202631195,-0.012777105650152666,0.024354425020963417,0.2140083156004464,0.6883008788820979,-0.11339185142432921,0.19040085152458777,-1.0212392601739144,0.17938426650858189###0.4029654959756234,0.5001096029121336,-0.6619549205946462,-1.1916719187835336,-0.05475668668199386,0.7312836200083739,-0.46516542999041555,0.4878569839433644,-0.03711233682796667,0.4211532642304579,-0.7875693657933485,-0.10717376883581317,0.19950011501589857,-0.12589434478503048,-2.0582595320168178,0.028002220248786652###-0.0889671981703019,-0.2681717451308118,-0.5335893703559775,-2.018553748663496,0.18527174576730251,-0.25828059081987503,-0.8407170980747567,0.19823053673129404,0.09507553281746062,-0.041103510375132365,-0.3039882848216576,0.36083778671951927,0.15352553266891159,-0.09249172187816584,-2.6323666581882916,0.04193361023084435###0.24893812205765709,-0.2232142151792367,0.3188499631150256,-2.0784632328401007,0.39981723900732247,-0.5725656264841381,-0.13228160669118347,0.17958401330346796,0.14735682354403634,0.24968661286396618,0.32177953896845785,0.21602003788906035,0.09062167609351293,0.1675411839765663,-2.4746245667456135,0.40188132619233247###0.4306660695986043,-0.19496786975777197,0.2955814821123919,-2.376842889742157,-0.2427300556656823,0.14896342908865445,-0.1910230814146703,0.2916542088936485,0.21622399190929176,0.09614520292810634,1.0756185786746033,0.4098511227988644,-0.011469808576876846,0.1839604826411179,-1.8094143435242727,-0.03165503217766271###-0.038818347521757356,0.6236677006572721,0.32740048340841416,-2.100758060483287,0.17085281792996013,0.08063207998085181,-0.6529955553317015,0.5680152270269049,-0.10490488950269236,0.4124115321668519,1.2690992161958907,0.11559327081177345,0.0458381192949958,0.06091828282748188,-1.1305181094546348,0.34055072667316716###0.45199082979987604,0.681254837904005,0.23776912992729357,-1.5659155194911982,0.3534882116924236,0.21770523400052755,-0.41051367196177535,0.15913247449897042,-0.22403153872844267,0.07278788809011438,1.0973064718737002,0.11785013438036761,-0.07424099703063443,0.15045821613257354,-1.4244897678046764,-0.2733815717440176###0.45351684631609085,1.075938005125861,0.46276319348799694,-0.7304299597149873,0.3786347819597379,0.1926142741245422,-0.1869662176147609,-0.5861542152874519,0.08231581718368514,-0.10013263074199842,0.7697388499006667,-0.1858289373261563,-0.07511674708407501,-0.3587400932683696,-0.7080566632109886,0.09423675502381892###-0.2591952663376412,0.9491740550873199,0.5778072162880397,-0.39284865651334216,-0.23322679600764695,-0.1907754837922017,0.7375193443695364,0.36749276087863475,0.24739241716696853,0.29420161617662793,0.21105689407617179,-0.177016309710616,-0.1970961475719389,0.11615555413287806,-0.94190797765752,-0.11264297638942089###0.09219718449480163,1.4175433780667983,0.42016883376398123,-0.2458321395879614,-0.09825964860253805,0.2771407404093379,0.31795040158809434,0.19785309470814472,0.12983413999499416,0.14057010713661533,1.0025392261516504,0.2534400503335517,0.013661145858592698,0.029515759516955346,-0.7091464454934552,0.46548818977403045###-0.13153632000779075,1.2569972633677131,1.0572252081419315,-0.6831828746527182,-0.1359921398369776,-0.4664100840536118,0.11642718814544825,-0.2896169886040279,-0.20024686285481175,-0.2966411173316628,0.627088563231414,0.009468926312382393,-0.013303422320145163,-0.10934537699166069,-0.46941475797468096,0.16523089340135128###-0.12436682279609483,0.40930301991631596,1.6241343006042157,-0.8560869765493008,0.2582344752651543,-0.3701558949424599,0.6432350076374365,0.10440926648002646,-0.14951239659217994,-0.14132893576236552,0.1892266645946774,-0.03614852486544545,0.2399974087919402,-0.05938033490956099,0.4229573935709703,-0.3091230149272847###0.06533400592133981,1.170824407674667,1.3294660080191882,-0.5898728030487796,-0.2123893900471102,-0.5914903442483116,0.5182360244750015,-0.16308311080332993,-0.3708334388348812,-0.13602852328792425,-0.7034493388388917,0.04834261886522877,-0.2751074289855553,0.017524805532162967,1.126442926710491,-0.20031499093972574###0.11356598717690934,0.710005360929452,1.1031693769221855,-0.6519524746597528,0.5173956515125065,-0.043026935818674825,0.383270456209711,0.4123083397008112,0.03638360499731578,0.21054004874217908,-0.06566777092794913,0.5019784166873408,-0.14593473843081875,-0.17270023392958686,1.3344757990640623,0.43330667701912196###0.08434077157902624,0.17490924553916107,0.4425309557601078,-0.2738411028750192,0.3671589798706856,-0.12304113993366829,0.005902759382769991,0.16182048656064013,0.09013197976191864,-0.06178790287968037,0.1742918556848515,-0.04552395835170839,-0.19680317996397206,0.4212183630047318,1.1717117616305643,0.023993418274185305###-0.09665639582922628,0.02698126599476962,-0.001033099395778073,-0.025412636042208562,-0.11029160272694075,-0.44335287571152465,-0.03521140302958241,-0.04056168861484034,-0.1555874812095509,0.6433082152843846,0.2122432364483185,-0.1343734360713042,-0.2576095849234106,0.08355303120005679,0.7342989713263657,-0.11784951797594453###0.24347504477503779,0.06893716313373387,0.2657797739118826,-0.6610987274228604,0.052902578930906184,0.14687775365848435,-0.011586085616951297,-0.19905436321444087,0.32560921641719653,0.033007834407171456,0.39539731264019945,-0.15987304498294652,-0.13931089123938475,0.05012058934474505,0.3297187644861193,0.3786757389662194###-0.10350538392116385,0.43501475834054726,0.4194696932881154,-0.7421688250760262,-0.13130549606906536,0.011037442355559235,-0.200328512549672,0.12905073466529357,0.3411318362157259,0.1299799878897798,-0.16305397501869573,0.0763524876315685,-0.13188037883620798,-0.1980143633690869,0.2808016611644698,-0.1267672550524992###0.057319102618172385,0.5718727372854198,0.04643483495400232,-0.05615085793631867,-0.22028035658018424,0.015953914988572453,-0.07880635325434633,-0.16176908454781827,0.22774174928858815,-0.4078637532825955,0.009279520252852407,-0.3818211104911396,0.24409489384634178,-0.017511642362629233,-0.02910851597538828,-0.06771205274281206###-0.10703429261714519,0.5955727916663146,-0.015596669356750489,-0.4032560735406609,-0.2210365272872276,-0.1289235111457067,-0.6923011594696217,0.056376489482884436,0.328886616975314,-0.18641990298906752,0.12202063557871434,0.1705785585612612,-0.21225311356691068,0.4143183823574615,-0.2205358720976352,0.5619948196234397###-0.33451732391534506,0.13836240624021548,0.04677033557446346,-0.5202616714206625,-0.17875524711984161,-0.23985714222228108,-0.05103777155720122,-0.10435212826520067,-0.2632274839141181,0.26514909222771477,0.21305603494828917,0.011073613980240773,0.37455233127964854,-0.2696809079979638,-0.13396547079393673,-0.010424284797856141###-0.2123478015688633,0.6354463787428963,-0.02533023416951004,-1.0165479931024402,0.005381247079735637,0.3853333792700512,0.017046524409585224,0.40585502593625167,0.07605736767940587,0.2329106747691006,0.23655150861120086,0.20286132086518202,-0.013561536485593521,0.031451152962307286,-0.9091988133679831,0.3954222716210459###0.04097043498307892,0.02502051877425757,0.05109968483179698,-0.30479713489030813,-0.14491871798574396,0.7273798424129096,0.3065630595546639,-0.37794865436074954,-0.1049806734457777,0.30466807791978956,0.7060887861862348,0.38796001414569475,0.25177111772492805,0.13304759027169685,0.12781735976287753,0.23014589730553525###0.18507898254320834,-0.09068262197987326,0.017864782286147483,0.028525262805626204,-0.2131693549951073,0.541277321092145,-0.17958737039177125,-0.06578256777844393,0.1602784189116222,0.12645799430034776,-0.08514169565338064,-0.5072949455241639,0.3292047381262164,0.11696301121779752,-0.6286840760207701,0.18138982665914383###-0.17335211745933352,0.7040918427777015,-0.36705739160852013,0.28762870315701317,0.024951450184963152,1.1900166673324364,0.38568181575281285,0.37218447662106435,0.14994528525632075,0.3414433644264919,-0.3074132914858589,-0.32325065612466924,0.4625614317554485,-0.1944491336437203,-0.5172036509811295,-0.21406254410873676###-0.346573564842341,0.9170733404067856,-0.27347618468795665,0.24525462632119213,0.006178609146123394,1.1304611794416772,0.20255585342850974,0.1508814963316275,0.013161756375274173,0.13807939826324114,-0.5706680725976697,-0.05841559661986117,0.45908635001471165,0.05697587211335624,0.11730975201618597,0.28192468269893767###-0.05582137182444856,1.1618736841616957,-0.6640596946398157,0.7682336422729316,-0.007720461858053581,1.3395316665515755,0.5334306009910931,0.20367545185189642,-0.033398714657099024,-0.17424054020780463,-0.39598716347095647,0.04648373566003425,0.23812897273438724,-0.04656401786077199,-0.6560023513846603,0.1341760521114711###-0.2203316418962538,1.3588936658473143,-0.48711310477992487,0.169446512668584,-0.040233121956016055,1.1456786885048214,0.21475274879201817,-0.41566070327007915,0.3475639253334403,0.06326269544679562,0.047818371273666956,0.2476672134038387,0.14219173553770875,0.2983243852949139,-1.373033394498215,0.049188337551025044###-0.09208990032735899,1.246925706397766,-1.1285200623940377,-0.6690807249750239,-0.1376506433945248,1.2866236811995992,0.3378949112026428,-0.08661600966291022,0.6291356741612036,-0.034666777094313844,-0.20639864300302463,0.4163867176553401,-0.1109471847553513,0.052053800753088714,-0.6750404379668599,0.23723803100448215###0.5708119257774306,0.9293055999261326,-0.5899722411385013,-1.8037636245661113,0.3533155642786255,0.8827011029380504,-0.6923782688196845,0.14106228023616763,0.6888074468971072,0.40230410600544314,-0.26885015119755795,0.07589163665734502,-0.09949001317528647,0.2419083253401258,-0.26845760951497644,0.19493247980760484###-0.21706282915861347,-2.695456363915549E-4,0.14775814265176063,-1.8915269813795605,-0.09773685108384675,0.25483029877161134,-0.7422118020840768,0.42616973302938577,0.17973665490643,-0.06381239421298371,-0.6014748160671298,0.038735726033292776,-0.10836991278878229,0.031232621070115645,-1.0278647453245149,0.4705612162204239###0.0507589057749016,-0.21761228797823845,0.4318192929387484,-2.1721938873665527,0.14732876303790576,0.5060210612671608,-0.6397961353012439,0.152439077236578,-0.3484853446420144,0.08685200476216129,0.4296354765339249,0.22488200164849032,0.2537325635163366,-0.23785792375206902,-1.144222251214788,0.21717105406489756###-0.048460787545391265,0.3956867797517964,0.2694075804548967,-2.2581444139089535,0.17663102683111112,-0.051207537402623994,-0.3622840594973573,0.25073656696584795,0.013142028204431439,-0.1660369465679429,1.4691391883989975,-0.07501797626121795,0.07658540290604912,0.31221339705607726,-1.7461785890167243,-0.0535054287979942###0.06934163857226763,0.6589699004177851,0.003775384396632653,-1.4161947917194333,0.4061401332037283,0.006195828938259689,0.4340503121796066,-0.5150034845824938,0.06820003172305782,0.2673977037345113,1.2986367942485626,0.6877796153065268,0.4744906534442943,0.126782556547526,-0.7403211928453868,0.42001802107289404###0.03157610960164414,0.8023605308482863,-0.05758680592259301,-0.623783385131093,0.1201283536407967,0.3020359671169963,0.23369633382029303,-0.05772043687473565,0.11321348109786986,0.08514120337044535,1.0291250930492422,0.1379400834985202,0.4033163891132521,-0.052136230316698506,-1.4038451701343926,-0.14646710311305694###-0.050952181963659075,0.3146272936830698,-0.007491688994321698,-0.3296973242508034,0.17415795542150392,-0.8424510917358661,0.11975238754218792,-0.18066258586282605,-0.11366421852364102,0.19394128730458354,0.40637644261315026,0.027274895863607186,0.018432769532494182,-0.21616971113304387,-1.3234928815336278,0.009872522256433756###0.15560916171794104,0.8677370339641453,-0.21686975369758654,0.13287291937870865,0.6333184052863046,-0.17307992944594455,0.3713175305992435,-0.08534974191660863,-0.27583673775869766,0.21888633637560007,0.40468380702429735,-0.2162827517298609,-0.10430562353185487,0.356507507463349,-1.0435051394626575,-0.3555404800307938###-0.2076470305390192,0.8645792941842986,0.9358543638470265,0.7537812538666738,-0.018459556417996865,0.05511088980199012,0.664752320663999,-0.1382020061876318,0.45738067330762217,0.5206059393555897,0.08207373939890265,0.09659736173318614,-0.5038622767044676,0.8017934930196796,-1.3044470027514645,0.0860653983339321###-0.024235460117902924,0.7561756901800031,0.9145397328933302,0.09729119460058587,0.36789586194934865,0.21898275336428955,0.007765272326491517,-0.25567913732699493,0.010577520549352397,-0.3291572414573263,0.1618877627646396,0.31210955986644157,0.2796546936100665,0.14299913711218126,-1.5468596878026588,-0.17017552541917327###0.10405247041342987,0.5209852603306734,1.4482164503325412,-0.1197629718712266,-0.04144252472757035,-0.15192052100087344,0.02837613979693541,-0.09670793189218393,-0.24420578156069095,0.11669737081782168,0.0774482374053684,-0.12938125185668115,-0.4100165315271706,-0.2332540269604336,-0.4470308535114504,0.11012714393487377###0.46104104853778777,0.8891204908899998,1.5675909416983669,0.282130479802725,-0.2712077428042357,-0.4666964316949037,0.1452085736285319,0.4993246918054108,0.14940476955074272,0.045598263178071904,-0.6446008314281763,0.038690283693362894,-0.2376820041340309,0.04769922965536354,0.27745845521464313,-0.040783328821485935###0.44081739308578,0.15257164902338227,1.0614200855220381,-0.16349769735252198,0.32122338077790863,-0.1882582574531805,0.2858644787158323,-0.22716926395208595,0.2069907006858082,0.14855963127355398,-0.2187482654302601,-0.21356833465556502,0.40820714381924283,-0.20873895464378478,0.6581346669174801,0.20675166058864175###-0.10963689298949895,0.039252318034731545,0.3242474623741647,0.08893759908998757,0.07754477276915041,-0.5481640046144238,-0.03756277078855598,0.2535058088909273,0.21736801347933443,-0.17516518863670336,-0.2623184133312489,0.2071161357549941,-0.16580672633016996,-0.025504171779358733,-0.21702763203802242,-0.07105109917275144###-0.0645864530303869,0.20018441038865561,0.10633209117770219,0.10827506419297067,0.22224670956713538,-0.047417059438961955,-0.35472815940459174,-0.3343127185670453,0.14658594625471283,0.032197010640681284,0.024583716076102977,-0.08711858273553214,0.04738630437138424,-0.07395651900557598,0.5627801097687811,-0.38687000968281327###-0.1597541869685741,0.6080295706175197,0.3002549060270818,-0.5708589631546952,-0.06395984322168675,-0.37681213417099374,0.13469441832936083,0.19620273625971607,-0.30854560488838634,0.13854927149498647,0.4851004518195915,-0.25794424652287934,