-0.12412385816853022,-0.24089485577799885,0.28187324372988853,0.08413843765937723,-0.8800463042569839,-0.5146720549125414,0.5642799863352546,0.6712912345879456,0.7234365147741977,0.9376141303463785,-0.15762495043765057,-0.19976747922710847,-0.5671970870827885,-0.8831314312354919,-0.24356974167204504,0.7653354621682311###-0.9501443646192151,-0.02481922172354789,0.5845884409384534,0.4867221853752177,0.41523611649745296,-0.1433826503842872,-0.6710743108035946,0.24053130871553474,-0.05346315931014112,0.9412963675980488,0.5495008672440329,-0.22346820432317327,-0.5457831162557587,0.03557926328359606,0.6002629683470055,-0.6143558503121926###0.46047960722139636,-0.24370794136383633,-0.046111764893812746,0.9662579453140916,0.3107245148067832,0.9244671284026418,0.8983234236708573,0.6870633199569336,0.9941377239829885,0.8141740804148103,-0.9539856811664373,0.45544139483424617,0.7794393861574032,-0.20541350024653982,0.8175008461116677,-0.925712484550391###-0.47624059148314113,0.8585105612455051,-0.6557348426806524,0.7064688686897733,0.8270655576532675,0.5481776864611652,0.08142000336973143,0.0649461150645394,0.0815212332703561,-0.1308170569579592,0.8290298669680973,0.6079172598217468,0.9046040390530397,-0.07397089334039308,0.8315585426270977,-0.05783062299787045###-0.5532317563372859,-0.782186532404014,0.15814172164620177,-0.3758472324400868,0.6288882815226782,-0.19982687214551964,-0.33791518918431973,0.5971195174191009,0.4916733421248569,-0.15031711709537898,-0.5238092943003112,0.6139971741923371,0.5286953446614808,0.5594775762268356,0.22122377077277267,0.1694956404453647###-0.8733720530439915,-0.2500510213827585,-0.11197889208288703,0.701274367077678,0.05074420027445581,-0.9040546990936138,0.6994639143347539,-0.8811753682162826,0.2906766575471824,0.451980083790374,0.16672585421954955,0.0800490881355056,-0.4791052126650994,-0.6004658133053988,-0.9750824555714559,-0.14064911937844027###0.932308426553627,0.8456147171631225,-0.23354937458520642,-0.8626297125691764,0.2558594432760395,0.26931010557510304,-0.9138534029453005,0.5913368675693971,0.4259163298163693,-0.956838759978869,-0.2896801100685398,0.7763323590892328,-0.47926046370594344,-0.8512544865842564,-0.19723292442372098,0.4615876472680973###-0.630760626611907,-0.4390516110640086,-0.5762023852519731,-0.6777340640956715,-0.47230001821617784,-0.4070239221082488,-0.6358557466937904,-0.31398869191685375,0.20709775791123497,-0.42575920823167657,0.08379500794992945,-0.10512888145759391,0.17109370763042775,0.375827582098325,-0.5435090729542555,0.7670280649988488###-0.37326527322084746,0.503330895564323,-0.44616225679463417,0.6291056948745863,-0.3056509952024318,0.7444261306319992,0.7986819653515032,-0.5613593805263202,-0.8299225832939519,-0.31137973765541127,0.47560557093588574,0.6276405249868555,-0.016068037953665515,0.8292035300801255,-0.1929033257755306,0.4719778910267649###-0.9917708036134327,-0.5874976382303962,-0.412844053091445,-0.97230498007284,-0.31430327248963663,0.717111124017535,0.7098024773181768,-0.025874604933368017,0.32350583736495575,-0.9741398107902897,0.8381454323919579,-0.934935035754141,0.8389357512574231,0.1958536117230214,-0.06960861134402818,0.3130534031567336###0.24432801769585022,0.43698998883776463,-0.6276401441471013,-0.4818448515473226,-0.776557054721525,-0.32304364576787425,0.061782760053424646,0.30145721821132354,-0.22171685673348174,-0.27923527680330174,-0.0521326371349069,0.4148294041731695,-0.8850980402622235,-0.694522198753011,-0.7496958462351915,-0.22767970151515948###-0.3113317427942712,0.10584903079616836,-0.13489452168283966,0.3848905826336406,-0.35608803941790157,-0.2358197107999831,0.3103629433812045,0.1790139220984468,-0.2401728436404864,0.09777855323130136,0.973215368818056,-0.45899721386452264,0.4539641355227464,0.7799709483002486,0.39002149187695556,-0.6472545180274565###-0.6034063806305463,0.9957159247206779,-0.1750641848047565,0.2708687060722166,0.853680046889759,-0.15957395663501694,0.5077878392797708,-0.9498324021083668,0.003153969641883414,0.5606962906554034,-0.44963088559173436,0.8234740642259175,-0.8413737942386212,0.12821035215509857,0.7809350319832677,0.4239612829597603###0.08664086284247818,0.09317406691112207,-0.480068385511885,-0.9277878549933793,-0.5819846548817555,-0.8187949300706032,-0.3343390483285533,-0.9507950511584515,0.5307709708616599,0.6776845664740436,-0.6331987640644896,0.3377007282958435,-0.7783913080804088,0.2861557992329231,0.029401760972723956,-0.3616579152842865###-0.01516063914388388,0.8524319220107746,0.43917478749660854,-0.3468964090059736,0.7821302969961925,-0.8863462886967606,-0.6243890122742066,-0.9224397562977411,0.8133824813526456,0.46161643919470663,0.25264690820861535,-0.6452300550846732,-0.011492798883310007,0.6022622874757917,0.0413168732366187,0.9173933819286895###0.5518228967463388,-0.05168619220344728,0.013024233395370954,-0.618996989445801,0.6252466302324973,-0.40039815219616215,-0.3122291740273031,0.9503606459324474,0.31340769708046,0.8457183665786261,-0.2201140838492035,0.16177188412869836,-0.5467361060502052,-0.7317950541736693,0.9044988759169938,0.008453459849809608###0.0927537691435254,-0.2754367486681899,0.3412042659030463,0.4821774056866257,0.34747273157676206,-0.23604568484142008,-0.7529308650595348,0.6132841720012236,-0.5886885465604021,0.35452972640293745,-0.6306627236528097,-0.7975139782333167,0.1864509602307034,0.1949168193681201,-0.4711125286600486,0.6117077993989402###0.25005999658470124,-0.6625415454542765,-0.07129446225943381,0.21754319976694414,-0.3105062495014985,-0.6316151029044896,0.6873341505806168,-0.5702697063003146,-0.2852529461577229,0.970174722320909,-0.09453345735499585,0.5383794487396458,0.8963670414083409,-0.6660611206233136,0.04455369509320595,-0.9224846709357664###0.37898423574027884,-0.40525931119685943,-0.5705017010352209,-0.12117900449706309,-0.5149261774625082,0.23034237148116987,0.2832104618455491,0.5383023350920462,0.7505119816629389,0.19394686853534426,-0.1409948151413145,0.6299180366781336,0.6229455714966803,-0.5559173691898824,0.9575228312885176,0.6740479392056091###0.8059457692609704,0.48985509692424767,0.39805833190412154,-0.39499725034643407,-0.45362885751784177,0.5873696381857956,0.8598878060412876,-0.7193964136438793,0.039316033602407874,0.3032060681863218,0.9173829793532573,-0.5618101212245614,0.5644763031068305,0.3034051235242088,0.06340946425907634,0.4252419623611554###-0.030285077505065372,0.43150361953199257,0.04870548819052556,0.01913176684240825,0.6820653956376899,-0.5932650995042368,0.9606426339145344,0.6993444970076399,-0.44663828944106343,-0.19641208707576552,0.12297238332570348,0.8468414081635192,0.5371388413915588,-0.6335033198634781,0.11886539684873298,-0.48093765028665203###0.44539968555774845,0.1685109248957759,-0.9772458426646893,-0.31460521769141225,-0.1517023187056763,-0.3596243399675092,-0.727807898252689,-0.8932363245791097,-0.443262701860192,0.07652575501110093,-0.4808541982447656,-0.5956740594974468,-0.932651143545498,-0.13291903198967292,0.27083985414779366,0.28607943940695724###0.8512451815051267,0.4100027909284438,-0.8365228281336594,-0.6134731660502171,-0.5675771163076779,-0.5748451453744496,-0.6921393158257119,0.7233604743726627,0.8286226517146598,0.22208520922343733,0.3041452552841124,0.3864645662783055,0.1169168103112932,-0.6340724803334401,0.24365216639047027,0.7483579739919377###0.6382453994631101,0.14089638799362003,0.29888125657897135,0.2215285809306009,-0.33042516678965583,0.22842992890153035,-0.6514410244108673,0.38694039940588865,0.2693070750629194,-0.9028889005421512,0.4927644043255577,0.17931994415028218,-0.5589808761032031,-0.2559230152541494,0.2838772141360528,-0.2613412306773506###0.7625675056401011,0.6327039079360119,-0.967704353872638,0.5236959943505144,-0.8079565319843252,0.9389340180247845,0.6415753804944417,-0.6680267940974878,0.8890198141559931,-0.4513132244664595,-0.9141567874792096,-0.017618003027132012,-0.42101817117806206,-0.3586215272293005,-0.1369570944230991,-0.410046979987746###-0.759211252878087,0.14964815352670047,0.5407728725783483,0.5989627626980651,0.7114649349494606,0.902969855537674,0.8571799924406929,-0.9607368664773643,-0.8204266998153424,-0.15709352925600384,-0.2524248845652346,-0.16793325271417436,0.4778767783859288,0.3403399254809496,0.1381405949440917,-0.6047511608890705###0.5879456653277668,0.35009058006173155,0.38130215506155407,0.2845549799576639,0.8338239888970229,0.9059161519805652,-0.19695878710282888,0.155931978364513,0.8688187693026281,-0.7110407452548082,0.9906266497871126,-0.054472735905963576,0.7489304029427337,0.0952905203647596,-0.8300520497275974,-0.1622695358584192###0.13839596185394543,-0.6167276297407012,-0.6951646829900668,0.32795848889801227,-0.9927309368277184,-0.9009535706095799,0.39645461831655626,-0.5142857273115058,0.05791400576655792,-0.9414734959698632,-0.1309305610898479,0.3847770636631884,0.5567448159066766,-0.09314407505105993,0.8991639277979195,0.5912098165686601###0.2494928527923288,0.6813673056591343,0.07812503727564746,0.5861985368154432,0.6027394297709985,0.8716602371721729,-0.10561543286851216,0.04956545137342916,0.7414042068502735,-0.7995090024577278,0.17912505597463269,0.04112630705812048,-0.8586683868761025,-0.25825429850591997,0.8803567321567864,-0.7091092127708745###-0.6119282225866352,0.44684776072745636,-0.6866240135357558,0.04543232487746285,-0.8725946117340047,-0.3314726695118193,0.38131823375872287,-0.7834179634699447,-0.28988496923991236,0.8509591722473275,0.16772197522164345,-0.060069727116822014,-0.027042036721694362,0.1978535922513589,-0.22627593796948653,-0.925554095001166###-0.9002501662575009,0.8351627318827091,-0.694292060483698,-0.33914648770665945,0.570920663780486,-0.24735642563063043,-0.4850680943018857,-0.09476519115315463,-0.16314209794300294,0.6385953912742273,0.7488652817529557,-0.13434958185102985,0.5398052128494497,0.6146699849264703,-0.40533431405866693,-0.306594566602151###-0.13896246130128298,-0.1672712491917252,0.8784317735073748,-0.9830902965081296,0.8844872375569355,-0.086699861830001,0.5295702440809857,-0.14508612211645056,0.7449484239519533,0.28526898458426175,-0.7721812326492339,-0.6927720770426049,-0.23155965165099124,0.6290071692982657,-0.27883101105246855,-0.8051410601618532###0.8142630767079684,0.8302328922906244,0.23613782912559533,-0.19216790125756433,-0.40726713655881297,-0.8805352862326534,0.49753768810403565,-0.03221311189119214,-0.1404632499152061,0.4020137492441458,-0.4669004535627106,-0.27623041510551394,0.07709952607436366,0.1760366846375414,-0.34099359754601055,-0.8265303197595688###0.3853092901112143,0.8912486365421208,0.8255968295420315,-0.8615221702399789,0.5384010765667648,-0.8815246613484045,-0.15179762412219633,0.7209693325017155,0.8417506161414103,-0.5197000459935586,-0.04371473331999276,-0.8694534451306055,-0.9382158686847555,0.93563963709448,-0.43525404606568574,0.5938010688631554###0.7841628004194905,0.7161640346655138,-0.7955268072389758,-0.35451521342092573,0.7598535005242526,0.9800468090047674,0.14491274560246903,-0.35099259414898865,0.4056510164079925,-0.9213813157154251,-0.6003663986818097,0.005305273649583553,-0.1848302008528695,0.2240692568978475,-0.4734262406271772,-0.8170440663016711###-0.6117240094271181,-0.698577450210845,-0.08214906883440021,-0.5612611686119076,0.5013848255447817,0.5855895188559255,-0.8802734362487579,0.896673382850729,0.5180002719426069,0.20437892985380035,-0.8684854552486683,-0.4851089885764206,0.8783272494219856,0.33092585927871987,0.6029295164088262,-0.6064718746995665###0.008741177651157894,0.29407605233229206,0.38257209355447674,0.8631536526446684,-0.6436495572035354,0.06284071041148698,-0.034047724046777805,-0.15792622568794523,0.9808424456606286,-0.10888304665788717,-0.9503451293604348,-0.9378160939168461,0.8252562323573609,0.3014446710547347,0.618954089212379,-0.06313329743413165###-0.9607224726209698,-0.9583492408380143,0.7793875559555674,-0.9192370236510607,-0.4568940251654463,0.16580847828735257,-0.11149679788363898,-0.2099305580724795,-0.6031033443230123,0.9710184610517498,-0.5478046365363296,0.15334745552145712,0.4802316459507032,-0.83590432649132,-0.2792502635655383,-0.11334734924056256###-0.5119696024983513,-0.6626746433175739,-0.047079585464281815,-0.5268746122048251,-0.6862398523820361,0.6000280061022103,0.9120639648429232,-0.26399133003466346,-0.482237651867923,0.04275281615206561,-0.6834395489843561,-0.41461031253548764,-0.2320378022520997,-0.3965035400607766,0.6874531759466858,0.35278796787511###-0.10781696447546918,0.8604217399903271,0.3194419657055261,0.864041629691056,-0.5042605009251275,-0.7068696218412764,-0.052930595542813874,0.1997724935392864,0.9749376768907334,0.6346202330169284,0.08614034212795496,0.954036544900084,0.19656159606490364,-0.9213629500986689,-0.9988796610188848,0.7255971938368557###-0.8846191158623371,0.31220823398594444,0.7824599008902005,-0.43741554884955325,0.16616580338591413,-0.389275899676949,-0.886503825639527,0.1301327453901806,-0.60635024668209,0.563011073538134,-0.03521446446895582,-0.5180819913554475,-0.02666777404105547,-0.6135822520788508,-0.3255754130916164,0.490341933882523###0.02796865823654726,-0.7529847482637646,0.6561193567164025,-0.7735593649693644,0.4590461960838037,0.5175888085620581,-0.6775332366062219,-0.12057770036177362,-0.1105020268748973,0.48617797557173126,-0.280885927631912,-0.8329334154812289,0.75336141425747,-0.3295008324831654,-0.16383332297942976,-0.3879528606656213###-0.9299606856283149,-0.4013362969854539,-0.4035837903325463,-0.4544338576128055,0.5052753890217805,0.6841815972718959,0.11566596010914765,-0.7514819361507183,0.9479094815143678,0.6533201429650073,0.9886311598380033,-0.7482716511519993,-0.9790698504656494,-0.12453535595724752,0.07459762470824649,0.4906405613666225###0.6972961196205514,-0.09779445793078412,0.5402230175382652,0.7461531670524044,0.5054507649724176,-0.46154407730553837,0.762569863257943,-0.39786362331171987,-0.31359285085103283,0.8489805571233537,0.1036612404724957,-0.9885134924175663,-0.8962659366817387,-0.3537044122999937,-0.46144602970662585,0.4864041409734996###-0.2902731784957384,-0.7890230238382596,0.6521272649632803,0.9149099199011097,-0.0645001994861687,0.26299306652057997,-0.3845126062074977,-0.9455589951250727,-0.5003096281249777,0.5327552607508241,0.4110926113552824,-0.13530248625820196,0.8199173728878153,-0.3268410130482433,-0.2035945047784613,0.015738393120451333###0.46309055969886126,-0.2910356502243441,-0.7209176548488954,-0.8563469913064481,-0.11488007848858062,-0.2625543320584114,0.7224141742707524,-0.27503663308736304,-0.9124721849743311,0.17431538431663918,0.10793469759161445,-0.197760718751963,0.7579188766826155,0.48150743487235825,0.45281549192164605,-0.7827610642878768###-0.03678294239475566,-0.9815177574398517,-0.08712897549391596,-0.5057877802199122,-0.470968985287455,0.42629444173641184,0.6976993568090539,0.06483553493366911,-0.13453672050055676,0.7837415725209271,0.5826874584874604,-0.8624273276621952,0.18913082189408925,-0.33250821726155766,-0.4766864871727241,0.1880857743248312###-0.15688135487934085,-0.7968357570556193,-0.8396188333805863,0.7836476867666289,-0.26895956845860414,-0.7880832736115395,0.8505242521938698,-0.7466642088569437,0.7583336316304603,0.6371711534864148,0.26452368639756996,0.5771146939328504,0.6133699140792088,0.5786863165538207,-0.4333194163414671,-0.20925517883715017###0.22291438245490824,-0.5337339453041641,-0.2783059416435181,-0.8102201515278435,0.7809202605765966,0.17296806922640995,-0.42880594344671796,0.6647462769253178,-0.6234006518066566,0.19775729071684012,0.980283617097131,0.6109246397646662,-0.06283877124368198,-0.5598737968115355,0.5751470746794873,0.029982080372196185###0.4525669555434937,-0.45571854203668694,0.37598559136019394,0.6770315554283806,-0.7359026097477797,0.3080758204087346,-0.024758173777834847,-0.5944764458221723,0.5754876318394246,0.23194126521150205,-0.18071810361949514,-0.7762972836825903,0.284834086209911,-0.07434230213011794,0.6224028275998574,-0.9998095449915769###-0.26256802947132174,0.7958702754383911,-0.024760729209851062,0.24258299547379436,-0.9358440405491548,-0.7951542360678772,-0.19465507568156082,0.9217815573301975,-0.6030520371462373,0.12103674034653866,-0.4940724861653525,0.9261008694670323,0.44243103689377183,0.17460071069554206,-0.7305800595477183,-0.5969713160798944###0.6466197814189136,-0.013900717591485368,0.4457724073033429,0.9828388572968403,-0.5018477891101851,-0.3458192425163502,0.5910540135362023,-0.32291313845613634,-0.605579778656568,-0.6318731411108864,0.280155616002451,0.10634654197351234,-0.06557098134067596,-0.7462761635255297,0.7280881359393787,-0.3646268016904377###0.5041698360254734,0.7659953007424816,-0.2024257743223088,-0.019791746531170773,-0.41525793977490566,0.20991211129360465,-0.9336653303384446,0.9005667290278807,-0.6595849330673038,-0.6997264090007658,0.2856723463254147,-0.29782148753999227,-0.2667271502780404,0.06453216082240432,-0.21733774868540645,0.44758213801159186###-0.3369625343295135,-0.15258894204638307,0.14145703746778815,0.010196941030612638,-0.5548791108656064,0.6937434824715556,-0.15507869711327316,0.4053293821279529,-0.6830927236803581,-0.033960175042488494,-0.5339881673028601,0.1930956950474374,0.6017215789059913,-0.3041329174487133,-0.5309771220230428,0.1720721384378301###-0.3381068366301472,0.8732032003930277,-0.28598069949883564,0.06881203334810881,-0.1632239160797917,-0.3544927300755063,0.35348364024224477,-0.5228029156660083,-0.8114589000788826,-0.7716761719101612,-0.03159403662242788,-0.08708215833795485,0.06800717162758585,0.22181906132392948,-0.48825126483055703,-0.47779266315623037###0.2647344547991717,0.9827232801368002,-0.08957825759322047,-0.27972063285054993,0.8200519769060644,0.7187333459442764,-0.9773941861493656,-0.16624861154372939,0.4586483975651996,-0.9474938476052088,0.055466399925037546,-0.3173407055946398,-0.9661943044715489,0.9449527690332056,0.5190021635889115,0.9615012088660451###0.38331022793222935,-0.927379253008334,0.32497566900723873,0.26507336083098254,0.5575272651317762,-0.9784695328089139,-0.26442225792274066,-0.3463088668845422,0.508079210504478,-0.010090881015801356,0.5246792294774134,0.7637149982250091,-0.9849790985478513,-0.9151554892046803,0.9352267107275214,-0.35686940541994394###-0.11764252335143421,0.7529588247876433,0.7995436810921506,-0.27174088928762363,-0.753795168158089,0.40278014155547814,-0.4650006748810551,-0.32349715518017397,0.216844874058288,0.8565688664357312,0.6357120924696706,-0.8686410622008456,-0.9846194277079376,-0.08806744369291053,-0.248342342688203,0.9197623760139233###-0.7323493777771106,0.9986426014054044,-0.5202465596774424,0.6681472765838097,-0.8174854778895773,0.6836429061955411,0.5871967248734906,0.37244359033311847,-0.03142652283120695,0.6073197097377534,0.5455339497005529,-0.9314446586387346,-0.9671548520272975,-0.6733205274035996,-0.025355632747743106,-0.5763072087823826###0.25686348720214935,-0.503840086316349,-0.120976871739227,-0.19473858618147877,-0.039872334392599296,-0.16562275973341745,-0.5955484811483915,-0.8171634673471879,-0.9622220182046926,-0.5948087878421946,-0.7486531221992103,-0.9199179892847102,-0.8011711201159131,-0.11595254345635952,-0.14821403387910825,0.7172988037419745###0.23324342993194547,-0.3143655539387853,-0.04959998586406744,0.4716177073472463,-0.19941511867246553,0.0964708888259247,0.3250421171836835,0.8306786988604611,-0.6400631915682429,-0.11388237269200241,-0.9586689297054269,-0.8730334327972271,-0.44976638092267307,-0.7367141821920782,0.8558787537322377,0.513802525905396###-0.41790186852940736,0.49819150488987707,0.16621140118836775,0.8803172416049856,0.016735689065337622,-0.9499152679767382,0.2510979046573498,-0.2984386676268529,0.6843869324507672,-0.3810401842845488,-0.5467982521467227,0.18123479405805232,-0.5657051641099355,0.18303104429176553,-0.5733232931662842,0.4683477272727583###0.9100951391989713,-0.211363874308796,-0.39447206330836293,-0.7845491190440832,-0.39100868655487986,0.6268090356638012,-0.3557344435570784,-0.705096917084221,0.11002929755927826,-0.23916017038712112,-0.2594210834854249,-0.8990281946915659,-0.45375951805062664,0.7617194650454104,-0.5295359562748823,-0.4606108712988939###-0.8526264736237696,0.4634440647003564,-0.9505606398419797,0.5423162688581262,0.9943892648953987,-0.9322674847221302,0.7791881384542834,-0.2545049045589147,-0.9961529320936651,0.9077877934202743,0.8471692735123741,-0.17430453992594352,-0.40023779718620034,0.3233123168956531,0.617440580964131,-0.0796060991931562###-0.46753190022498203,0.30406470612140124,0.08414309205882997,0.537948093157572,-0.13152894642659096,0.8268234239354366,0.2547967390255035,0.4153591453867127,0.30223616750007953,-0.8592986369602233,-0.11123891971855837,-0.10795736678494228,0.6302987969464184,-0.3516665616833694,-0.7630805499757656,0.541855977802034###0.4800465279252717,0.48553700268121136,-0.7881549478880698,-0.9580400961222542,0.19997194845495958,-0.5803764570259351,0.7634141401648502,0.5559179411009192,-0.8048518483625624,-0.7333822211351331,0.1430312724798144,-0.7302325666447931,0.9311326213734776,0.6702192180135242,-0.7896625429729778,-0.856377424247807###0.3314583319841191,-0.20958237008191016,-0.03052703954379754,0.42769919713856486,-0.641676398846516,0.2172544944950061,-0.882328354026702,-0.9595219744294636,0.19304605109642603,0.2552983485911269,-0.45283511846519464,0.5180524262644499,0.6222982734763813,0.6169812601551745,-0.537922406189359,-0.08246656320377244###0.9880969462259497,-0.48197833287049807,0.05520225582341087,-0.2062854715918807,0.3739687745090805,0.18573668855182235,-0.4647619897549178,0.1670252923523634,-0.423327809286719,-0.12887471467724754,0.7032872892532449,-0.7378678069518867,-0.14769628717022076,-0.4018185168664514,-0.7518953906948302,-0.2796274539912311###-0.5724261800274657,0.08897587948472263,0.4627945562016593,-0.024464525348861565,0.3314889657090736,-0.4293794674974949,-0.818639223825316,0.531332772981282,0.22962895091988766,-0.4996886966938261,-0.6082909974284285,-0.00977073215375146,-0.3673361918153941,0.6372197263558641,0.20241246402320923,-0.14286790261250948###0.10270546993402374,0.3450844075873023,-0.37625159132929964,0.3777646854149559,-0.10445577641447334,0.526930245251799,0.96922040069928,-0.029618901813549092,-0.14622825791538996,0.17342150935478662,0.5919825461144235,0.1708027381651822,0.30524689074135414,-0.8510661796341126,0.14128484485741533,0.4345894093199816###-0.7766873962076821,0.5445070284001261,-0.44273729906187254,0.6264829318238063,0.9696256816303463,-0.3055795597034954,0.618096880354587,-0.4239085906018465,-0.4325854656167718,0.783208022098467,-0.9882277674790518,-0.3098908050831146,0.6424331961264937,0.862512194800211,-0.3746323475997897,0.2851958209547012###-0.07916798461862018,0.05224985342261368,-0.9719873399293582,0.04196606569668582,-0.512379595603375,-0.2818553419901064,0.9693485061150813,-0.22062914534424372,-0.11365198229420725,-0.5022432620874144,-0.8764638600134231,0.6100764642998371,0.5800860146359008,-0.810280960919328,0.2795544889657926,-0.5387214023438649###-0.7042591210645335,0.7259685088235437,0.7117380062867218,-0.06828478500787671,0.3381889198152528,0.714337054159291,0.560203566782447,-0.4955297334145765,-0.9123298617203495,-0.6310530561189045,-0.29097900262515797,0.24648936156216128,0.5833355646464586,-0.9615682076745073,-0.12931570205174348,-0.700445033624356###0.3477936659226941,0.9970839018376343,-0.6313558590207973,-0.2962013192397397,-0.578044845695264,0.6816059780581283,-0.5446357590369555,-0.6063451877908703,0.9564290567121296,-0.8637766841423014,-0.08843096187391919,0.5674884054201916,0.6451750676551893,0.07149127540353062,-0.8569483239435329,-0.9440413167306434###-0.21092877747206207,-0.3527895308822553,0.024615221578359048,-0.19949304878745,-0.15849121442461778,-0.14255962087438312,-0.6635768604296151,0.10218679502110817,0.915078929784235,0.22568019731695887,-0.20376211905453,0.9123809119871789,-0.08213060252505477,0.4108643608235063,-0.5882705439056666,0.11077935708052356###0.7398428571512601,0.2798968921415448,-0.8397598783667168,0.45231995374056777,-0.7757797037500835,0.02002869912733818,0.8490923051375237,0.6636210414654045,-0.4642522737661914,0.9444588295476206,0.4177323792879466,-0.969235665898311,-0.022823562302889178,-0.21288101325688324,-0.08629570955661636,0.7441141557573041###-0.6927595008512961,-0.5123207650308377,-0.09234897720817248,-0.7478131719940042,-0.8221317336354694,-0.2646097051997678,-0.7917552575548268,-0.07458708348197485,0.43531801530131387,0.870456594414972,0.3961495572271061,-0.5580375429966979,0.7193805960783519,-0.8657882613845505,-0.08317594194409828,0.48163164298624617###0.046745539763070054,-0.285553272130771,0.2551739979291716,0.5501180561890064,-0.12092048430202662,0.5498191375422452,-0.9392315940402662,0.05483862564696973,-0.446680121327947,0.43734917866309164,5.355141209857361E-4,0.11477386921032351,-0.1088608535963358,-0.3704119270214934,0.5865583019526888,-0.989351137771455###-0.6935117788657814,-0.18687987769247982,-0.7402074758018249,-0.3319094982619899,0.7945813657717855,-0.8723598075020116,-0.39376737081992386,-0.8847718541231469,0.8126365865647485,0.7149249296000746,-0.2597449419660447,0.4675329917215727,-0.7478592727265307,0.17959478105648108,-0.38942897332681015,0.666520193044128###-0.5456406501285191,0.2986421255598646,0.2674234044608712,0.93526462646387,0.5352667218762546,0.33427840253460017,0.9753672194104985,-0.2874893481523282,-0.8369773643648599,0.38473180449759337,0.4641740530135554,-0.3115163791612361,0.3705767577739769,0.3502051243064681,-0.41889424863013747,-0.5106609027093503###0.987934618310246,0.2962808239201635,0.14100508219994046,0.5435141094959992,0.8430713939768011,0.2646397853694964,0.8663540540470813,0.7120725113735149,0.007434163595753551,0.9110370180129213,-0.03234622013229571,0.376464969708318,-0.9485750197307263,-0.2569435220021714,-0.8648165109009642,-0.14904767693627297###-0.47278854105308854,-0.8147545760487416,-0.5036014563747382,-0.7767316699636606,-0.2893359113655243,0.21680552301851486,0.4389308058484118,-0.9740724624231614,0.011172291894808728,0.9070987170811653,-0.8926418103892138,0.501910283088413,-0.6024542885395809,0.8168004679230529,-0.1473871076509552,-0.3477134783250717###0.6901585363603311,-0.06238567332018574,0.9461006430627659,-0.2603329864433561,0.6339488484231421,0.6110382538029124,0.4663076465568672,0.4701999595342994,0.2938383980764667,0.696750830667118,0.4238736174449447,0.6881576528122408,0.5035905185894936,0.15376528731573336,-0.08818706266533605,-0.9090125882220328###-0.14892282373481902,-0.8474239437241435,0.35077007514300873,0.20902762258435148,0.9973800729538045,-0.14589920956736546,0.744896347725166,0.6929199177190504,-0.995897475183529,0.07129964896409491,0.2721406741545209,-0.1869261464886618,0.7827233654920749,-0.8280687778442304,-0.4965516592270589,-6.285540603807593E-4###-0.21822400170405443,0.7859821938507747,0.07856568086508142,0.2356251493503445,0.5920897787793653,-0.851112482514407,-0.23814856397851436,-0.8278687094755932,0.2772835696275151,0.24173366685936104,-0.5403008953248241,-0.06900994879042188,0.9261543626085984,-0.7177820903531487,-0.998122782597892,0.7526900243588432###-0.8244424246702096,0.5752134637632067,-0.727702629342081,0.8687842357927842,-0.7331722908725731,0.24936845338179614,-0.37957541979512444,-0.7156879544160271,0.5757426112400057,0.9862451866488626,-0.607255116319197,-0.48504937841579787,0.49548601664647207,0.4910845964649153,0.8944112315633095,-0.25229393798098787###-0.9459821504947803,0.1593576164271313,0.12438947072391104,-0.6197158873446555,0.7117137421181698,-0.8391547533045716,-0.7768691760370219,-0.5568926903966696,-0.5879115959172561,-0.006934814981452764,0.7299996822986776,0.019274019911448947,-0.852128273426797,0.44844269642300416,0.4683886451765049,0.45158313279067297###0.0566579324074874,-0.10529965558144894,-0.8403433732247327,-0.1379241042561572,-0.6251972982245619,0.7855203137989395,0.7127278120014677,0.308374664964965,-0.5448045866074482,-0.6013900905273304,-0.4556068619134781,0.7624264030513537,-0.506012803507206,0.9408808412676211,0.2560592339304155,-0.9789127350093616###-0.3866916956780735,-0.6344715578807798,0.5258921906573291,0.6443122840447588,-0.4885380258376173,-0.4866220593525954,0.1710070110074089,-0.9344579543645366,-0.9809655643436674,0.5209406496217177,-0.007442503862193917,-0.8697924882666004,0.5888139458415398,0.8302026481239977,-0.7627176915170977,-0.5078990139339383###-6.342447181009181E-4,0.5902456112287722,0.29226898555070213,-0.4663101763815942,-0.6334385928989774,0.7583784662902509,-0.42460195692637837,-0.22472175272386075,-0.06568438932953691,-0.21146452366409862,0.492134666018774,-0.9007504567000788,-0.9447642933352303,0.43727656284034544,-0.19996315770603057,-0.46054995146283306###0.27384269538234207,0.9228005694185373,0.7555529116882049,-0.12789618822743143,-0.5105243724138284,0.43996422190699813,-0.9866151052123231,0.7934757386327078,-0.19705601086970193,0.8643739471420071,0.40689591805460723,-0.9191722516914429,0.8404468586083469,0.37119859879495465,-0.5412558617749301,-0.19295750552807256###-0.8997710911352881,0.6494277452491135,-0.24587139717491113,0.41561558819686106,0.18189911962044136,-0.5901212696157005,0.15473508977028705,0.2615461467330329,-0.3647122697444145,-0.03466619071186283,0.23967387623802394,0.0849842858133536,0.6051737509911128,-0.19623246096753233,0.33040328722445444,-0.19167947957130882###-0.5498340543115763,0.2807007530667862,-0.010162106578245567,0.03373204914503458,-0.9215263696633547,-0.17570221937371389,-0.01845878628451514,0.6670280731662435,-0.129741621891164,-0.6230992713435408,0.3331072994986277,-0.7950358994718565,-0.25429146057075425,-0.810727681392738,-0.631461191849046,-0.6029757363017605###0.1899338078620787,0.538897738907965,-0.6423691567807799,0.22899835324071316,-0.1397718720749812,0.46127349418531005,-0.22392525277089415,-0.5254923562254288,-0.22179572541091686,0.16319010575080783,-0.9218017808006636,-0.578036447970905,0.04875513468118475,0.4295922576861999,0.35496090086986887,0.8082689552579181###-0.4502495777272013,0.040679953417305015,-0.7169712917402646,0.47690231388927407,-0.8991688227451922,-0.016509375746139865,0.36645275780853703,0.8268512702172641,-0.7533840680906914,-0.9277183804909286,-0.3693185820412761,0.7301914234674041,-0.020912065734632,-0.5153903761299017,0.6493381785105177,0.2699336960019796###-0.524116621526975,-0.32491777442383474,0.06740036336982058,-0.6139079868845196,0.245655867300677,-0.8536648086742165,0.6301168102138042,-0.6832488252504538,-0.051355935087899374,0.6368661264113347,0.13520665213063476,-0.4177576157020668,0.6000232027403387,0.4279346876466972,-0.3034169870041079,0.18436318245148287###-0.1344257854531532,0.6768163654215309,0.24105019425129148,0.6789053106235128,-0.27634254571329286,0.951276126079063,0.2551244975613469,0.8285831864782962,0.8944302683223915,-0.5297947423895177,0.4573333348190005,-0.3452168992611062,0.12670248969960607,-0.05205656511210388,0.29204924052468084,0.8803820392170423###-0.3152246744383389,-0.6051132642038275,0.9241192920230978,0.9922123060618526,0.19206302019340837,-0.2554409894906817,-0.24074663037693567,-0.5494226991672264,-0.6347500037894405,-0.24259677765305265,0.42333754531741485,0.9345508300498011,0.11218917326603339,-0.7058724659400935,-0.39545769848853274,0.9356213260807538###-0.03130078851689322,-0.24348139592234408,0.1952986836152757,0.4985700839407574,-0.08612588479677252,0.26121228984306333,0.7669176010573393,-0.5426995192902591,0.23046824599725557,0.9419913987928874,0.5678317077001682,0.12466430491259994,0.2663766538707888,0.6687571094892879,0.9571422471187745,-0.9308422289597411###-0.2948197417316374,0.4263987821478823,0.468355298369584,-0.6523100948848957,-0.7318184354793194,-0.38563367224025336,-0.45610321137556786,-0.637547957980301,0.6473075148662712,0.6078253695990836,0.38919680445429683,-0.6287527195550016,0.9077101205666596,-0.9361445286813264,-0.634161296589872,0.6044653269835982###-0.39915081375173567,-0.33877122187942654,-0.12352976128684201,0.9282171577569855,-0.606706830275987,-0.7701153954320015,0.7898776373454648,-0.9580283316622906,-0.8565716882924801,-0.44370582137285486,-0.8871731579694209,0.3103647587471654,0.047719759009671625,0.5434873071694735,-0.1640211190911014,-0.4973205456737979###0.7301197634668868,0.8595908025534145,0.6643897572365258,0.9498235462774136,-0.0373268129387061,-0.27369230091398045,0.6888078650527398,0.9274598013390722,0.08232244810753953,0.07884256882623597,-0.037813880343553485,0.4352713694411534,0.10836723395184933,-0.02864188476147045,-0.5834723390125474,0.9661737272786712###-0.9330119627016695,-0.19287439903527193,-0.4116114621553597,-0.6543881986807973,-0.9063047930824815,-0.25989052691917913,0.21706269786042864,0.26991042192101533,0.5115183782306276,0.4248051134695632,0.9376787798701656,0.7839723979413638,-0.7277957607489489,-0.8162726624796734,0.01214042963885964,-0.3875510127372399###0.8996444270674238,0.617023558067316,-0.675954227280757,-0.005166835859241159,0.3892069592377574,-0.30373396058839663,-0.2905759987408927,-0.5262434352628973,0.3935993475498225,0.4645535967562886,-0.8966690164970013,-0.05290267265439508,0.4653437859501408,0.6076331516956697,0.9530482861021305,0.21833499877208484###0.12789776870350122,-0.6341724014954864,-0.11816675466898463,-0.7340830549637867,0.11190759624931834,-0.4758629182563978,-0.31712844490417647,-0.4987716275707301,-0.7799659326943291,-0.4520437718314445,-0.6187144846057511,-0.60391403154745,0.9732437962918161,-0.6755698415167875,0.3227557604514335,0.03450465238103462###0.44341225020042163,0.42454912088483066,-0.9694835523183534,0.3798130647627209,-0.5084621451857267,-0.6813402804525086,0.9181872622012375,-0.6529768617854819,0.007819571966075634,-0.44185043024786164,0.8541088953449945,-0.8683130754141497,-0.3106966536041966,0.5786395621224796,0.04355129346903208,-0.3296993894062401###-0.6072432836578241,0.4850961157489948,0.7283679122119431,0.5936465209924866,-0.835117601942228,-0.05314527533074753,0.7993716499139061,0.5832886332272931,-0.32106309956284895,0.16062322102420024,-0.4250889609860049,0.6527685253353617,0.9962714532902901,-0.26788843913367755,-0.2801704003665688,-0.45112558856559937###-0.6767335231954579,-0.7179861003969281,0.5621929818934042,0.2046849271789295,0.7485847386034992,0.5996456408134732,0.9108726496005464,-0.025081875806697962,0.8226192881007062,-0.7523834090440973,0.8852773942499665,0.245442631546829,0.28046797416392066,-0.33649935216261384,0.23922732883304776,0.9326382234936454###0.21171766233626665,0.00953847991882073,-0.8058316983746752,0.3746183042731184,0.5447746987127844,0.28898983736459605,0.8926274141315034,-0.834841413547954,-0.15956765186229194,-0.42217142340626435,0.24101353795906122,-0.4074995974108,0.07881767582079902,0.61305315169633,0.13157055159044506,0.5190288202979534###-0.6241860944976438,0.4339620593629683,0.816492658408394,0.7741511699939612,0.37950836262389065,0.29032252572624184,-0.44708403368263827,0.4315309649386585,0.47416768755036665,0.6114392989533788,-0.45429772178896255,0.7031609348704015,-0.1413038518648464,-0.5272926699538101,-0.314364933825068,-0.39341540643470396###-0.9315141324698788,-0.29868865019234603,-0.3861496061877905,0.04790738758814883,0.5740205657949546,0.530313097428674,0.23902815352166185,-0.4879368165203748,-0.28345205377392424,0.5404447455522803,-0.007926604305431129,0.1631323096655788,0.43058861948810856,-0.47849420794453534,-0.1762807257162129,0.8313343089464056###0.9550028811010736,-0.15966173601162703,-0.7663128347807118,0.09964769957404473,0.048789757137815304,0.91993382870789,-0.5342578051838176,0.5018354404663894,-0.8952547889046718,-0.48569632116897443,0.4111856519926653,-0.29501490503871763,-0.006438906958726287,-0.39367907914782463,0.7340292527630783,-0.5265009801381677###0.4728974094432512,0.9608233275361211,0.26429851778157154,-0.8022009326989903,0.5604153981554969,0.632841532701625,-0.19838355509464156,-0.18016186636645282,0.3967113897732939,-0.9391028468098004,0.12942146700955592,0.09883846522837758,0.8135440869692185,-0.23210767288657097,-0.7391233974866378,0.3345061410570198###0.07470159156707723,-0.8528088591685072,0.7207305667348474,0.9012974107484104,0.07130806289612246,0.3290711012798224,0.01309343604668256,0.2461423394358302,0.6303214526558878,0.7028004171253275,-0.6667059281660621,-0.6366413738007108,-0.46557124486659096,0.31217673618182795,0.0526887914582026,-0.815683826386288###0.353496991231836,0.047438740046915395,0.5384935202279904,-0.19425799487154594,0.2521917767872617,0.32404184548040593,-0.5335839063410437,0.02938274271574559,-0.43467121648888574,0.7688674239773101,-0.0579329076648889,0.2970699171786102,0.1219757011219953,-0.6729890207390112,-0.5321683213488766,-0.22093823150668968###0.05127595521852424,-0.8426238131752293,-0.9249125086759484,-0.8901369010852316,-0.8825810927249045,-0.29712323133919805,-0.21264284620147977,0.0645529123537445,0.50813348793187,0.4011278469902262,-0.011813242792910295,0.3299783077650176,0.44053605352177305,-0.35591323751318327,-0.7617549609151406,-0.5510005286611153###-0.04988364585274341,-0.19981991305402547,0.6193408822952664,-0.9976986325112549,-0.206902229818827,-0.6199667028497444,0.7787602774861755,0.14111335503459554,-0.4806373387275924,-0.24300353543394815,0.5055263579316649,0.6955073932926144,-0.5374148250486495,0.24623845067091943,0.8908900610227848,0.25677377600681406###-0.35383197799199073,-0.1987409603887802,0.908561266706168,0.86870061801395,0.4180324004337952,0.10424765887363496,-0.4041057225048845,-0.7385881744106799,0.004263793260196103,-0.5932047713593207,-0.07455642839197685,-0.07725291729319572,0.11106893034971499,-0.8799569240453846,-0.0729902155720048,0.7259939487640465###0.20645228021269713,-0.1415681929035777,-0.3465011860117042,0.31911209150971565,0.17747503851698965,0.4087908386853185,0.1796196678383215,-0.9705836739536371,-0.31408986790855975,-0.07341238615011347,0.9806500058989949,0.6490145467410138,0.7345622015958106,0.5537329737048884,0.759201750333147,-0.8598769579943011###-0.29152621379064136,0.6074183984974666,0.07112203298907716,0.035712045955127,0.4696911985266272,-0.4929622057556211,-0.05263265775967074,-0.8902396089393514,0.9612186785625145,0.6863257392235746,-0.8831067507840118,0.7527276499116875,0.21524040841835368,-0.119579148062807,-0.5936966173083074,-0.5883203511640442###0.6626446917572917,-0.6173570798251593,0.42520638583784764,-0.5591683481520755,0.2053369155023248,0.13334851682075177,0.7419305587850957,-0.24289887834348023,-0.36021905565223555,0.8333097110653089,-0.5875482907353209,-0.19340888034870662,-0.2903372310028205,0.666637398573241,0.9460896109721957,0.5217519365762728###0.3175216324037773,-0.3266505703054643,0.5747348631581783,0.18529885749161412,0.2396488425873926,0.3292618460032215,-0.9619314828935637,0.41578956495320285,-0.9344939875123266,-0.5290403212445158,-0.99455852000777,-0.14890494975201451,0.022368894680369733,-0.6538185287627505,0.7257830762224309,0.5298244807415262###0.8478548776101436,0.27503030152689445,0.5301116680159206,0.4570936098187799,-0.06255344273310981,-0.8249978275803265,0.406923092742951,-0.6101464558190661,0.6210758553839149,0.03290029055372856,0.02893623531384093,-0.5116740348906561,-0.387712816002441,0.2992824672593011,0.33037711431836536,0.15391731833881983###0.4254502524747723,-0.863833297827945,0.017187861213554978,-0.8896851636736522,0.8709476578290816,-0.5337021189197957,-0.7617522101157117,-0.41670677789019894,-0.3847862999371656,-0.1476423760936485,0.05389906183386395,0.29609027343741734,0.23195616335883074,0.37707572325200167,-0.6912292137588769,0.9210375930179828###0.1728434585240235,0.9002819942758549,0.04909987690168238,0.6144604547215031,0.650395009300355,0.3365130105580425,0.7204492254331296,-0.6893111832539753,-0.44723555767044343,-0.07313133523535775,-0.9600725922467825,0.5623503150301647,-0.8004417769037617,-0.12861017332665026,-0.3422832548565249,0.8879437771725935###-2.1316172544127987E-4,-0.8566926902230239,-0.4940796726376362,-0.17598052849489343,-0.11250301178020328,0.8240908018049411,0.07844115928405815,-0.8218788601520772,-0.21241233884431332,-0.12169664918481882,-0.20618999942631522,-0.6600269918895441,-0.696234415064821,0.9298468675559355,0.06358147826985916,0.9322223368810818###0.32254868787519264,0.306259992439905,-0.277878530506656,-0.4316231301528133,-0.7083204807406362,-0.6146896564049091,0.06931093670885824,0.03440455593021108,-0.4417366623912691,-0.89180095548829,0.9358964339536775,-0.17820924254407466,-0.658600739145158,0.41627510886183106,0.9019180280380557,0.6136767651821018###0.666025132729434,0.32323409020984406,0.08185090085948299,0.06203088442315141,-0.10084862109539072,0.35235522681279274,-0.2642013442273681,0.9926322276461894,-0.5933901240081139,-0.8515926385972417,-0.6257204123717661,-0.9640249450366474,0.2879000645645735,0.21643385194575293,0.9948512667883289,0.6060294456201716###0.14866446179058546,0.9447037169534385,-0.37797978453170855,-0.8648772324811451,-0.5652186196120241,0.3366949675431077,-0.5824116405738422,0.5220341988907751,0.9790145315023249,0.20705372628405527,-0.7132101179845485,0.8617224895255069,0.10061240575305952,-0.01094880251892838,-0.8737243493057767,0.6989355861023618###0.8502037268143119,0.7561386726377113,-0.35679434930590337,0.28427906130567226,-0.193211472340582,-0.42222114376122155,-0.9795875407314543,-0.3898523549278683,0.21057667654165324,0.9098094932629517,0.6108026639103825,-0.6347467592737375,0.15488040517432777,-0.637825789889648,-0.6851345322638196,0.3703101022345412###-0.9377815440651407,-0.1080671565121536,0.328361515112378,-0.456233579010928,0.7342442294235239,-0.7629577521354198,0.5429678859629108,-0.004700068698174631,0.8920632053239623,0.23647616779885805,0.04085778449323074,-0.5438777201285983,0.312956643494954,0.5748312931053245,0.8448975648368116,0.9289666305733131###-0.5785159936500304,-0.5553553182307549,0.369346143924536,0.1769589143248793,0.507387541818614,-0.3627745728704428,-0.13835476709623662,0.46940380795125103,-0.3803232824685929,0.652882490678917,-0.4659083770284056,-0.13615730279018012,-0.374276709417265,0.5640075031931908,0.05488668826828058,0.22756919333428693###0.9261502995503506,0.5695506145600433,0.6012602478626392,0.1881176931950972,0.880752262546082,0.4470050339059788,0.7730702821885105,0.25106571214981077,-0.8723639511163641,-0.5619059886001176,-0.6765181014165389,-0.5651781741026152,-0.33277413144343737,-0.5030680140146069,0.8840331542097295,0.9458964996555219###-0.16527165533054777,0.28451071096183633,0.6445977300799599,-0.345516590227678,-0.9008928867536439,-0.18906211507775605,0.29445795759655047,0.42900572981220564,-0.996430747070798,-0.7930651023635371,0.43890460040870116,-0.25039015022093136,-0.49798060472223393,0.7486782025611061,-0.8235168674231854,-0.5555816381244996###0.4478896973429629,0.9651468908706728,-0.4447908948622543,0.8786810047437188,0.056208101150649226,-0.5752828231714262,0.22177886848873296,0.47579075301444584,0.7867193469833382,0.6278224725344526,-0.2639962348540419,-0.9395393583303937,-0.7146728681996657,-0.6749235743351962,-0.2565986495917456,0.188185076191822###0.7730782431304148,0.5353336902094805,-0.5179225246152548,0.3614368526933973,-0.41363653766014985,0.5557415027691637,-0.05426177889023176,0.8318798641430987,0.448962151659845,0.3359141967065795,0.43287352170964866,0.5492055920919088,-0.5039883791443638,-0.269061062348418,-0.8171434722662261,0.7410290375437161###0.07193446941167281,0.3530012994998599,-0.6670933077995422,-0.40539136282778254,-0.11118891769757444,0.00899619072248048,-0.4744325003750638,0.5599822597421624,-0.7413629564390465,-0.9584328305631129,-0.8454472248238953,-0.09456065931154356,0.8023586571215697,0.28359746824423526,-0.5424811544311265,0.33007875263114816###-0.7094675805265991,-0.2087483046628873,-0.5524775975433172,-0.3254722680623936,0.08490858750643149,-0.9617529320821716,0.02062827614116647,-0.9302724796575297,0.02719001017755951,0.8341100447855121,0.4853323065614348,-0.7749814721072315,-0.43932686870630544,0.8717535426543426,-0.7698296449927515,0.9805857130065179###-0.6275711927551315,0.5147864193558673,0.2790854884590497,0.7356537456366825,0.9081354970380231,0.20254678543863647,0.07982890967170597,0.9126487180119407,-0.26137097809901566,0.6809274669019914,0.028874392739240307,0.22887268769243296,-0.053311955640626296,-0.840359258310436,-0.04297210472280799,0.2210634278843695###0.4545250228399884,-0.5483525499010604,0.08311767785111002,-0.7954579803057757,0.5269083730796169,-0.8319461628770815,-0.21114668551948546,0.6474777506790692,-0.4382076381038018,-0.8781427519354843,0.9761449315970163,-0.19787207776636784,-0.28021454472145835,0.23650020005049144,-0.26112200077866654,0.3587390190004702###0.9457412689463716,-0.5397293835535373,0.6143402026495037,-0.12587662094908736,0.5002083294777786,0.45516372141794204,0.7752026471725699,0.7757531565494,-0.75457099513433,-0.8411004705140928,-0.8188418232606254,0.8535427473195534,0.6200303604489028,0.7113678377997763,-0.06997509621319531,-0.6746823691600052###-0.5114964119793828,0.6918510906692907,-0.16867546116527987,-0.20170370033538165,0.8660207940927032,0.1309529465436785,-0.42895066861519937,-0.2522593678676053,0.8960917450584229,0.3412390126710909,-0.25546632059327035,-0.5047431014357722,0.3980167449963372,0.25317468100919926,-0.4949493030496417,0.09305877706630672###0.8030429905282936,-0.35197830873642766,0.6089557778404182,-0.9931681644985599,-0.6374120727393591,0.44693511900581995,-0.7660966544281615,-0.9613340292433639,-0.8611571499931254,-0.9544206476447767,0.10486604855706028,-0.4571479597806478,-0.5224737023711665,-0.42384063738614786,0.18338818222371978,-0.33883416985560744###0.41450738458318814,0.9338435336305,0.45870855543550126,-0.9594091569194991,-0.21752622912492114,-0.5778697967568764,0.22509147424116716,0.29526034706756255,0.6607718972647567,-0.048209916448488155,0.637907067174748,-0.6642744163318477,-0.7490002854518569,-0.129406704788251,-0.6882940309991428,0.6124872683509572###-0.737114214554816,0.7061094607349077,-0.7432645365068609,0.3070537270899141,0.4594415469413853,0.3714454473918072,-0.45395135653084284,-0.44738167996323974,0.13732658390765606,-0.28613393219243677,-0.23643973088537718,-0.12222341259383573,-0.9921797801098746,0.6788181730821616,-0.49589368971218795,0.24053130439775416###-0.8042547033849177,0.8169594639811746,-0.0202322192660358,-0.7438372184202688,-0.11185637285443617,0.37936950998659724,-0.8675779291451162,-0.47863175844157,-0.4585443107676872,-0.17380037741696897,0.5606881403939858,-0.7015957697527477,0.495409943443716,-0.7834038538506163,0.04013540469302357,0.2467921820346073###0.34378025157876,0.6528092118935236,-0.5511709262135924,0.37647693301677343,0.47662397972201864,0.7189786700113401,0.5059876189641217,0.9451551153365105,-0.1644353474093292,-0.31483512818743176,-0.11026833818944981,0.63381905146996,-0.8868615745083805,0.1397723529675423,-0.979393941629978,0.008389526440120587###-0.6208258430494009,-0.3314094607886966,0.0807608191979845,0.011639108718762392,-0.568366951083151,0.21625573124678477,0.684378844001833,0.028436040172912014,0.04628360244590901,0.8460147199854373,-0.9768574643869947,-0.07133368284573538,0.7390439193249785,0.7562500958485139,-0.7187669801631249,0.41601989903388614###-0.3432260547221395,-0.38269522443223525,-0.3524390148293135,0.9971559177433704,-0.22324467963358763,0.5597214272004432,0.3486286056027006,0.934588192953373,0.7220479111562588,-0.5249096247640308,0.7836276640905286,-0.3420379955529511,-0.8106329705039734,0.6832784346155352,-0.935919295449676,-0.7177789515514927###0.2380767908257504,-0.5251115183813453,0.04353490246822589,-0.8825099832387846,0.5033491402574826,0.5553781031011087,-0.731477134789325,0.3543289788019124,0.7734914095970575,-0.002656802072544151,0.19020655063350356,0.46934162727371564,-0.6891029714645742,0.9500521244766933,0.4468233837404165,-0.6800514850652659###0.7980294436396906,0.060391607521792956,0.06025843939629194,0.38346478838377207,0.854299280007321,0.3269661666963526,-0.014232537190922434,-0.8555506532183235,0.6966517400803984,0.9391694558747616,-0.3879194347170074,0.24562090511813883,0.7061304200006218,-0.4543754910340878,0.5298180014184084,-0.30853521808519835###-0.5853599330163661,-0.6485317623196001,-0.8306459081965678,0.12998179388219833,-0.2594182750769809,0.46153299492861355,0.754966843821141,0.03685879592722263,-0.8210113924684055,-0.0334430717767904,-0.5696846288300064,-0.5123304883326665,-0.9087579094180833,0.412132309968986,0.3809895152498064,0.12754101938746###0.24140250364861648,-0.5048201229533043,-0.6869206228450551,0.9340503893494645,-0.709358702212276,-0.899685807818247,0.7424157345587825,0.4179436064278428,0.08821428817253008,-0.8814553754175583,-0.7926645759402888,0.017597113559300936,0.28686909596974974,0.8833334026194284,0.7385284185658447,0.6169711062603058###0.0625331350443239,0.5141110256660288,-0.2972725418260207,0.35313014605571946,-0.46741861278315633,-0.025072576384509437,0.4827031254696821,-0.8217630004390972,0.8439366192293116,-0.7640052299509297,0.36423115594845124,0.002251892949141965,-0.15829308342959347,0.5684568747095597,-0.5285987369227392,-0.3336015766522622###0.7310201691608929,-0.2922023773931801,-0.37515915458396787,-0.5162144763460714,-0.7908334294542192,0.38887883848888594,0.593128726095437,0.6324022545553187,-0.8278853962253261,0.5856770710192747,-0.6341215298158895,0.2970314197829931,-0.7110820404472546,0.681365653738899,-0.20232681608743053,0.13045492529621705###0.4894854915114055,-0.2505324602875427,0.25523703138742704,-0.6593468014328652,-0.2743624796984201,0.1443818599554454,-0.2540680337534007,0.5095279628213085,-0.7576734736029893,0.6796659323436036,0.4138710994532224,-0.8899936046795787,0.03535288837122086,0.8150315376870814,0.2606433061493483,-0.38778719563878594###-0.8261410550553818,0.47809397454132974,0.48084702478325436,0.055721883644571424,-0.7696617014333769,0.41448859464959353,0.8983335582957577,-0.9862639695059783,0.18785047538790112,0.2900497466554681,0.6472650070706982,-0.013643344042328032,-0.11641565236846496,0.1613228232264028,-0.5372075185044338,0.43394876093700896###0.29986520224070423,-0.6142389578595762,-0.2706339155098014,-0.10207537581453519,-0.17184349882963423,-0.43946639125522724,0.780389516280533,-0.0448980028426218,0.008557554570197023,0.6589529264255811,0.8511356809384449,0.11311963106686518,-0.8132470508115373,0.17610442706585916,0.5575433700221211,0.17822056791495378###-0.9676770814343763,-0.19965791280687717,0.8067172643018556,-0.8869565637799253,0.9267756407615053,0.8948902641982632,-0.35934253209628064,0.9508881028817879,-0.14338291558790828,0.9038704850272476,0.672947619818292,-0.05574873024769933,-0.36377378016957174,-0.3103495442768025,0.49883347789419097,-0.2007439072170254###-0.9627431656636298,-0.23650953677852882,-0.25767287240338277,-0.41607319141138377,-0.2842600077219979,-0.6109603103114702,0.24967595978514145,-0.3029114775695352,-0.29498494097412564,0.6183147644811524,-0.6532633175285285,-0.8540000121331646,0.6820696015800003,-0.5376306719668897,-0.9514998174740747,0.3046553586115981###-0.7831782294853438,0.6039425255231625,-0.3577856676673099,-0.6889806613388356,-0.2216679352722759,0.3269519541114221,-0.8387442722148915,-0.6897126224180541,0.3988845328480226,0.6677751592458352,0.9251043608915055,-0.13740781012429992,0.5863302943718478,-0.8141586837188832,0.5414785945246594,-0.9925957120791657###-0.6729602766769107,0.2061336276047936,-0.45010973320360903,0.7132040530415042,0.8362627141808758,0.903780142989804,-0.7684161884320246,-0.2601708747625393,-0.9103513626447908,-0.8190100133123368,-0.9809746961661603,0.30223110900361183,-0.8908667890487405,-0.07083124071712321,-0.5911882353136613,0.3482015152359055###-0.5216509697962823,-0.025873907068735713,-0.6849274443324207,-0.2510428698671354,0.6271733168289291,-0.23013357117422228,0.3961399620628463,0.2503015150282484,-0.9480236380733256,-0.2634690934383461,0.04546673463655915,-0.35659209231726163,0.8275900125687037,-0.9693615443293853,0.45847345955956564,0.28809765738421533###0.5189661583619101,0.49085016036912066,-0.5297890553360909,0.8578154566992111,-0.08504911872144127,-0.47993889602901696,-0.29557422604490546,-0.025669136896917966,0.8835503686960648,0.7446999640089556,-0.01717953631324054,-0.7384750958089337,0.08751995887172748,0.43469705695051974,0.9140034608747878,-0.728553122379219###0.30106016059905283,0.8726571433646226,-0.8851742723233269,0.7221559604396519,-0.36714445126237294,-0.8716460945372844,-0.38749388892497394,-0.4643099257703265,0.08764766095660503,-0.975260967446435,-0.36585210213607233,-0.724168105943354,0.5879838981975409,-0.525761657255966,-0.7890448048764689,0.759170907494904###0.8297392768934237,0.8191849667693074,0.807658522683145,-0.1507116571974727,-0.8405397424242063,-0.6721821148543949,-0.46663692199657536,0.7427190992855754,0.038532732590570884,0.5773518508133804,-0.6017632792430136,-0.5833254619524055,0.5986301912722294,-0.9017963849905932,-0.4488439043809669,0.3323359883940773###-0.7051494092999278,0.3585366624583377,-0.5333644396518098,0.9738594984056461,0.7274035408352313,-0.06413439843856361,-0.35493732799556876,-0.6479423059718714,-0.6703369951920293,-0.4474616599987986,0.5484708082769238,-0.7869445425022135,0.8098535964967191,0.5444940340517792,-0.7852196158861153,0.36604188339893784###-0.014408556431313446,0.28777097437544374,0.27664391744882333,-0.7194288739200518,0.9649541304880973,0.12481818495007779,-0.04326646585952987,-0.09730905892054786,0.5047069227234633,0.41274178336096834,0.019512381287213776,0.5005076942415274,-0.18423367294205262,-0.5418040456957525,-0.36976583233343985,-0.7263765488124123###0.08793405349207961,0.3087055051381362,0.6051195179299733,-0.5527907350621062,0.5703886946441146,0.6377864855999698,-0.36764126165762234,-0.37969289700719866,-0.8286253627342943,0.29130810758001124,-0.2982036196491382,-0.7507191221160896,0.22998189081285259,0.4551182615021012,0.20185337229747113,0.32116494590205247###0.36486218959588457,-0.1409674914886836,0.9254481979924856,0.5079866644374096,-0.8808184396811594,0.9498650953097241,-0.42762040974539106,0.3919680895223565,0.4980608998901037,0.5462580559388615,-0.7561621476443787,-0.287160331726807,0.4342111019975696,-0.8693572307673156,-0.10458615711770736,-0.9876733295521489###-0.2805794560806112,0.6387471936388354,-0.2518209247458647,-0.462802413889958,0.004007271128821044,0.37463860121089354,-0.746887744580607,-0.188907654618653,0.0933007512402495,0.5093713442277847,-0.6376485301511312,-0.10332521390043325,0.9596709353140875,0.5138865572737865,-0.418545779769828,0.04348402793015915###0.6405764575608031,-0.16811168248441866,-0.4399496141035706,-0.8468148587385551,0.5075554881753022,0.11600035507398454,0.823976605852222,0.2927501733896718,0.26803748221740364,0.43058406602874366,0.6601836152158147,-0.6525734130831546,0.5013056114467604,0.967177190493723,0.13641113341082045,0.8291793139532722###0.5318944035183111,-0.9764085617708735,0.7708278643029984,-0.15737908867553907,0.00815848743624703,-0.73471589917559,-0.5374621040437133,-0.7407281642622767,0.6807033889986662,0.6176977827408596,0.9520571340091761,0.2623209848719714,0.5648204057469901,0.5308403563771031,-0.69843303934977,0.5978856984404062###-0.07697735491837832,-0.18754527533719312,0.6679557098930669,0.10509743201008304,-0.6817690294554108,-0.25629256791173116,0.9873607462352154,-0.6038322371858384,0.36511259184693734,-0.22859828604031063,0.09812832529663651,0.9189182178806614,-0.25347240105920754,0.71329978706584,0.2998100544868869,0.05808418673537763###0.5639925913146571,-0.881782990264155,0.379019768620968,-0.5819672187029219,0.15552262108640136,-0.809871534424063,-0.27132446088775386,-0.02163837044313932,0.14116676707885345,-0.48439288076051445,-0.6546433094332629,0.42517369428996954,0.6460055086324068,0.7264901662699734,-0.7897923750964244,0.6346523827944304###0.4023307751235776,-0.8152512720695468,0.8420236891009267,-0.9781119389781892,-0.2528169959123743,0.79411455311174,-0.3431425496267537,0.26673553936780303,0.40837315144077047,0.12309430337211058,0.17668697925719945,-0.21018846802462154,0.41156936480756556,-0.8334181859457472,0.10039078869645612,0.2755665594854866###0.4429828131602076,-0.7216450526556315,0.7834770549793093,-0.47430301769327077,-0.43336090818857365,-0.9256764461496549,-0.2312819582722212,-0.025011715832597092,-0.6778247787758551,0.43647208126983683,-0.3319561263676103,0.3130107153666102,-0.08144479347184053,0.1400186843200817,0.9167524854359896,0.8289154713729008###0.49105058435724347,0.08139119662339889,-0.29570365707947177,0.3329083445890526,-0.7967149864651837,0.6021978901972942,0.7316091909707927,-0.19319461581276665,0.3530955543819929,0.9844497173531885,-0.6468609701121415,0.2974034680708073,0.5804160100567559,0.8348681997678657,-0.8675424105325413,-0.009772793611262376###0.7773414201011859,-0.21880834535969473,0.8735183932822168,-0.11245929210491301,0.3649846998568085,0.670970716881421,-0.2146604167376418,-0.9366577364931734,0.22869151639636032,-0.706578466841074,0.5960909076156349,-0.9206134883546648,-0.2073696386646453,-0.46251604748011466,0.1532659779103025,0.8201083164313532###0.46672976797899635,0.8543099264374363,-0.6701738598400659,-0.25935033930848106,0.013386691381194193,0.9099848439290865,0.9019038082289297,-0.6789804966478998,0.2583233973677721,0.39436363182520506,-0.5281434021312716,-0.6192556686483028,0.009423598312575665,-0.9055192213346226,-0.5188327417447551,-0.16780454959130142###0.04933176123214622,0.5460721223110536,-0.10911284785563669,-0.5628923017851497,-0.3679483368830858,0.8443240410111998,-0.7969762202359276,-0.8203690966876891,0.040734776809244755,-0.47495638137757834,0.15447670780728417,0.9805853876637165,0.45330167643901764,0.8200223408382714,-0.3641709519933152,0.651419534429829###0.6144919041565235,0.0454427317756696,0.17050434304107376,-0.7773036314477333,-0.3726077377353334,0.3997568870758015,0.6355026722437513,-0.9192363498790417,0.5544458463017585,0.027542468163556544,-0.18686757724211756,0.7075906327800543,0.45739717618550335,-0.15157870666660966,0.8338569139228795,0.2425824246388113###-0.9924176646158136,-0.6447971695276056,-0.3964205364995472,-0.4284887323807762,-0.13757427867424754,0.35299326957433275,-0.09560834372175919,-0.8034684672262056,-0.3690412189596419,-0.5589109997699866,0.016014999005720787,-0.24742550394616258,-0.5593719066658589,0.9320518658483412,0.42586723745261934,0.7092460475921933###-0.13038528624954715,0.8574407243294286,-0.521111058575864,0.5336790932722106,-0.6766613942167736,-0.2727470776660137,-0.3360313557608834,-0.611379943405475,0.8107758308231359,0.790206740695536,-0.35799188054664555,-0.6986415573524773,0.5156689799085277,-0.31542520865471,0.0913724252231114,-0.33706586751183854###-0.4403353775618053,0.5743551948874679,0.979672294665352,-0.09661248148408874,-0.08113560329007297,-0.8668528803367745,-0.033470045467841825,0.23764463343994002,0.5822299963726434,0.06817371889116619,0.30018232238445175,-0.512042939290485,0.7297346890628351,0.2694751591779063,-0.20852134170583714,0.1626462521253238###0.9601081784749526,0.12437124148189449,0.23203292230808592,-0.7927723099103339,-0.587526672841898,-0.9451277697105513,0.9689942836685557,0.14282076025970492,-0.9968720815392931,0.9157940242195082,-0.7428977069058915,0.6680765131597666,0.9381765302146832,0.5339123739196141,-0.5206037751178478,-0.7753154548798489###0.16467154793744743,0.37356833518291666,-0.6388484125505516,0.5128485328693699,0.48737493426662537,0.0817162785182115,-0.10268084995280535,-0.5080529646230012,0.7052056503888966,-0.5045174027667401,0.8719463180311424,0.01292554779945343,0.3108909387299268,-0.412117288368534,-0.4312377571613102,-0.09720701472737847###0.049292636706589565,-0.21757886020982764,0.5553122487585405,-0.9420754262816562,0.9443329545567749,0.08487772285246198,-0.7312699968368892,0.9017006399609733,-0.7186033865299268,0.5606621077885965,-0.46056139819305275,0.4233391700528537,0.4715407048628437,0.8286946076800932,-0.8402241834125486,-0.06139120425128097###-0.2742045514886935,0.44785253596902286,0.13774046432923392,0.6994353029327405,0.03229263692237816,-0.6604032946084695,-0.6282384040892328,0.5282450015689666,0.05591207823772182,-0.2795277369998843,-0.8594062830859934,0.7642146058124035,0.26958871724823674,-0.5892440540511679,-0.9768541479633943,-0.01757311275170448###0.8783769165460904,0.8405997382900805,-0.35374579608590717,-0.8167422726896227,-0.0881790647496774,0.5925990551319371,0.004112171325113989,-0.5518495406776607,0.23713445450513637,0.8997920963403077,0.0012739461132873497,0.41925977790434454,0.18514402723035417,-0.8393255031685618,0.34185142515870237,0.38427629197817414###-0.01709383604121295,0.2378921193639798,0.9207272632545334,0.23407099725590652,-0.748641238892436,-0.9251475061729499,0.4683097038012125,0.1096271409543883,-0.546677429289417,-0.005425820098894363,0.3585586383220034,-0.8339455995169087,-0.6333793934423371,-0.06232973278798837,0.21071439131364045,-0.44469058700564124###-0.5909635832739619,-0.14855781351597197,0.198365235803736,-0.5344262215254236,-0.0437140329531116,-0.5403643744491142,0.8251912229725449,0.8540702156431133,-0.3288699100621377,-0.27750833121165086,-0.665073453422772,-0.6285764427561293,0.30120857492605024,0.4393007608089301,0.893784637646067,0.899503686581999###0.40512922618967373,-0.34925134720571127,0.2167936693132826,-0.8889859744721231,0.030798777409362765,0.7659191884254046,-0.5948060165483702,-0.4920820750398134,-0.5030643231957261,0.6688978647247759,0.42025041791845386,-0.49287640045914216,0.1181578228646527,-0.5475016408787512,-0.1604620959486005,-0.6843241486117959###0.9659913737830839,-0.11828763705767953,-0.6750407433502958,0.5740312317568734,-0.4274001694637499,0.20705991123801182,-0.4225402231660307,-0.9551780103952254,-0.13901354996441184,-0.4719019842605212,0.4616041481134887,-0.014159114048549748,-0.47512574651827144,0.5499207319484001,-0.5461139315976553,0.2698083027670668###-0.4165760039884292,0.2805641940480603,0.6018429134515304,-0.2001887699209619,0.9004005194660005,0.9848068706411359,0.7767511789712698,0.31813049623033884,0.0843532753153895,-0.4600660073062399,-0.839117841499023,0.3175025437228167,0.375828449355478,-0.7683868699062211,-0.3690001784698915,0.4376886201216619###-0.12041525074945136,-0.01689389081941295,-0.017014139786073912,0.4665535297574144,-0.18576408576161474,-0.9713796361649552,0.7881807904963807,0.8636833388702234,-0.6713010734110871,0.12168111248648361,0.0802319635250266,0.5859003398854847,0.8742769284825849,-0.4880162923583724,0.04194386607074563,0.9178610006443175###-0.8768382820394323,-0.8707358138489736,0.3948278594347321,-0.0027490343753016067,0.9885922509046081,-0.31969674796958536,0.28975250202447445,0.7729199616422886,0.42885868368769975,0.6952576294795658,0.15529839414233537,0.24562639543526799,-0.5932043832445508,0.9520909648363876,-0.818875167108253,0.014890389216706046###-0.371639398861237,-0.8370455886168522,0.8968581591648688,-0.6082178484994445,0.498346912737591,-0.6760552402105067,0.6527156631989781,0.6363001030871642,-0.8917666784284115,-0.29025326876916346,0.7162810119214249,-0.7606780802247326,0.010626356531977077,-0.8627560774878746,-0.8294485468371351,0.5929393491732344###0.03670376139641851,0.8272608067279699,-0.16842102094966527,-0.12068381354078905,0.4775207695319823,0.9611768643563077,-2.684553653526933E-4,0.5570364245530381,-0.4230051958875731,-0.14076888695993062,-0.9831964335554364,0.4352382054587245,0.4738354231178057,0.5999147449499707,-0.6780926712021125,0.9996570629801265###-0.5183579245642029,0.8549263213560581,0.9822811961390876,-0.6089701327329504,0.9108432475229182,0.73174311106314,0.5208524056821677,-0.7648600385998698,-0.4868958093188167,0.49593972897683547,-0.7294038334353614,0.3851100769478202,0.06828466010857048,-0.8120362335399147,-0.5435639222500599,0.5603809247661944###-0.3640204885795659,0.35415593738454243,-0.2613671884019002,-0.14686233969003015,-0.44187039161710584,0.3793800187260499,0.04731276568293219,0.12177811390279003,-0.5738577229208968,0.23870741974475185,0.1959899718018765,-0.5976579234895114,-0.08458472170429854,0.8781771452055762,-0.01736071370600878,0.642650918420395###-0.3578904161272951,-0.11026766803443122,0.27007988541619743,0.30023373265591347,-0.9885289517556446,0.6630109111166653,0.8831336684755355,-0.35605495626122785,-0.5960472527045111,0.7767468958414869,0.06822423996764293,-0.03949313428540435,0.9848440350136822,0.03511686114629442,-0.2682134320580136,0.29103614050623805###0.925064863290401,0.25944431935359824,0.7070597751799155,0.8089470108280492,-0.11476293459495501,0.7132521894114072,0.8945390907878008,0.4994445803738101,0.24209755297004198,0.8687331505203246,0.27956598433505864,0.41215633425780807,0.7257719280392254,0.11528349023619189,0.5512384889498294,-0.5677260402686313###0.8883788103254155,-0.034172687007666624,-0.6699727995369948,0.25190826891080986,-0.861109620161832,0.3342323287402067,-0.14281504354966712,-0.9778144073619883,-0.0438748088879779,-0.4627995931385809,0.4072421062459841,-0.9720549563958809,-0.6687947300680883,-0.18340882627104893,-0.3444183399383631,0.6507217086641921###0.49276000903034567,0.3832167463944307,0.7662924324750238,0.8720299165410372,0.5326143896062139,0.25072295808478695,0.061200562716503315,-0.38221015960476845,0.6766510605123559,-0.5417483265414544,-0.21081598194446793,-0.6439335028346453,0.6349895451476459,-0.32684475547211744,0.7355766352411959,0.534120773587093###0.7175790226904284,-0.3798863071452274,-0.8053276906764235,0.6770985016853968,0.2157532088819194,-0.6994169184910484,0.174042731613254,-0.7304873807701877,0.9272506568079164,-0.45341931479607434,0.6075848607222352,-0.09799864214085718,0.6416555581866117,0.09539219765570861,0.8249180362453392,-0.41032654498472176###0.9051677083280365,0.07686311613097785,-0.44204641484810425,0.6546791682448381,0.4480639448496637,-0.42748488548246244,-0.6388378352179265,-0.8855246810178228,0.2851652336689454,-0.264193636718415,-0.5197310564851574,-0.8714213587765232,0.6890779770838489,-0.14456732460351795,-0.07519251581547648,-0.269568220682624###-0.01206893561445721,0.6986446477830206,-0.21683128254011597,-0.19266675432216096,0.45378179463258506,0.48913388293343707,0.6644825531531162,0.09021125213894798,-0.5751804126170925,0.9541197198634281,0.5598739869810294,0.7763493923495461,0.24394679378310147,0.01784602169700955,0.38633857811139083,0.33199958764114057###-0.40172855232622373,0.9237756676545408,-0.990315594466993,-0.9918521767469795,-0.5915027083068392,0.8353479137404445,0.6386919795164607,-0.34847678274201854,0.5441528142009682,-0.7047565093698975,-0.8591541735486901,0.5042723250921961,0.33005079242309887,0.3156784174845362,-0.9493050511825649,-0.14045369227998905###0.06132550231278033,-0.672672820765837,0.8251023584383919,0.6765781284949961,0.5588464914687994,-0.26794666918369603,0.24534710572883212,0.5576540044223843,-0.8262385705005164,-0.615295996621674,0.7742453823630648,0.8507128391683301,0.5893737556931693,0.971802525639289,-0.8528397297493158,0.06513391357780773###0.2705134281358419,-0.03994810124845971,0.5089726055125201,-0.7253976925078949,-0.524986753123748,-0.4448598679614528,0.004789384596564528,0.7297693807875074,0.36885483385534235,-0.058584344756291706,0.8903684487476402,-0.48524629849028345,0.9760033049500598,0.9655803592554131,0.9489412567345208,-0.24464416366481223###0.44590081207420984,-0.6173748608465912,-0.7156803675374255,-0.37681128862584057,-0.5639558451698685,-0.20018889891714364,0.4058744438242168,-0.8212464884825634,0.28402331975025574,0.5345778346262982,-0.0708224004740543,-0.04218122232180899,-0.9171480282353919,-0.2551616847921412,0.186802588005194,-0.870711205306667###0.7753728884120514,-0.6048021219879587,0.5769804937152536,0.039075614454395335,0.9479760694674129,0.8902131601988601,0.5735131966162053,-0.996683288197149,0.1308188126190888,0.535884570940911,0.9785471215833843,-0.6743910956275794,0.10119087342729616,-0.6168452246434288,-0.7794850011355936,-0.31324303605041215###0.9386213918244197,0.4622625905113913,-0.7172442198184363,-0.7081363230399842,0.394775988362815,0.9343811192598783,0.19402609454176667,0.45841602169856954,-0.48185226470537335,-0.7329536391507185,0.9203198272347013,0.6903505139738413,0.4129960669184929,0.18246017107985146,-0.03188464374476285,0.7069083792369184###-0.48605604150524884,0.8328313259702806,-0.9576269598937648,0.3814203923921038,0.8220936246594537,0.42449419361564233,-0.301690416109903,-0.9060119177598573,0.17547675580799527,0.3426245435030626,0.08417698287513176,0.613356787614348,-0.18389299980190144,0.7209495856427,-0.40702063548866474,-0.702895488239655###0.26785582199214786,0.35592663885024467,0.5242626977052502,0.13559781591593123,-0.14617394583284726,-0.11755537980425701,-0.29718486195530547,-0.03600564245702653,-0.9411492222051934,-0.7918214026732915,-0.5906798829785334,-0.9720991251702567,-0.6178021196215433,-0.6536921503033468,-0.05129296711016762,-0.9878783677776384###0.3275141168328344,-0.008615296304224307,-0.28485372412361953,-0.3717380206425893,-0.2585045343914609,-0.5492807191653666,0.7083405827548466,0.9057794330408662,-0.16027651356859063,0.8737252705554681,0.11396603394638616,0.4424023569906741,-0.05243868196939849,0.1142472640215697,-0.21817976516427828,0.04366498961745946###-0.7640451357684073,0.0159708971290331,-0.7815626448835851,0.4176353786136886,0.5464389560304739,-0.5714066655596097,0.05663432525186707,-0.11025899594398836,-0.22339956499990854,0.8425108121271945,0.8726535576910981,-0.5360746399131844,0.23670447114126003,0.172357487573364,0.692272940122991,-0.019804418121658784###-0.10985791129978817,-0.0751916911649877,-0.439544954872342,-0.3950483754929601,-0.5451890474738903,0.753636617966452,-0.8551882429468132,-0.560686880677665,0.9694945975774194,0.23509521514320175,-0.49863660773572316,-0.35801017811842417,-0.38124217716894093,-0.41073176841237746,-0.1482258354240087,0.13706920544943935###0.361829706242883,-0.9718817572359786,-0.4955503140083657,0.7134228978319999,-0.7746017546335913,0.4285325032619516,-0.10241573741202892,-0.8787386467411411,0.9971945219561729,0.10874941167132413,0.15045018905646712,0.6326950342688158,0.4966963395141959,0.6291244468147148,0.47992308602807787,0.45698827552605636###-0.39876406917119933,0.7432734983130045,0.37244138985760933,-0.6124803427472314,0.770247379221386,0.893209343911092,-0.5026992706638624,-0.8937091542337625,-0.0626553195304822,-0.02783540067268775,-0.9946127761986949,0.6831555949420336,-0.6706268861922977,-0.5286262494333385,-0.9218432115464801,-0.0192341343838347###0.023530005426872336,-0.41783579203170174,-0.625129187801682,0.9125627043590141,0.8681045663838447,0.3422841693348575,0.371801544579611,-0.2000332821918569,0.7693388680836082,-0.5045258384294353,-0.5046766000385048,-0.56375000810657,-0.7136344631062144,-0.6241333252789565,0.421510559766876,-0.11159775045306919###-0.021868608287008096,-0.16612417092153398,0.9480626145688984,0.5546284552462637,0.010668136896773817,0.98781908809106,0.4400850638646554,0.5439468478763414,0.1600253811599126,0.41558849463857617,0.00945304047553952,0.05568159722543875,-0.4643658655543039,0.29326915353666827,-0.6918093312159759,0.11047428864266129###-0.8991780600094876,0.9426800199141094,-0.9004987536600011,-0.2792342950126523,-0.6183464297121193,0.26739014705297737,0.6157867448903782,0.38752750107777856,0.6322254819045499,-0.3631585850832386,-0.8788021430823909,-0.3286477360101825,0.16399369358809124,-0.07921231658533645,0.06695951703672143,0.5098371127312233###-0.451330167670134,0.5813379380786619,-0.23908061186823226,0.9395257476400416,-0.0313292040131159,-0.0025312790276101893,0.5684704550850879,-0.07049894911554455,-0.8839364459196173,0.5269500689934437,-0.6797982631795092,-0.8549517272654437,-0.2696031551953284,-0.7967930987147342,0.8223335379697247,-0.3663620391315259###0.11776656552603249,0.41971573775274074,0.14919880362898486,0.6618045851922076,0.807914224361556,0.472115268514244,-0.25726728717027547,-0.7696735955062983,0.8831106040107641,-0.5917131288149464,0.25213770841167804,-0.8435610295146845,0.4520303521128275,-0.7207602544669334,-0.4824066482178515,0.035643150356181375###0.2437763331239211,-0.41128700407103413,0.13508382329475155,0.8819975979734651,-0.6383348045518671,0.5069857080826825,0.635118923555209,0.7946120572930391,-0.13666057695628142,0.24446372185127552,0.46632772351253404,-0.39061230016996373,0.023223828383232004,0.8731899163386638,0.6956064888374476,-0.8311228243243607###0.8852977320058641,0.8395033374803351,0.6197069682444232,0.5794670192600955,-0.9713931397227442,0.4286503985372776,-0.6711473909084873,0.6239114039006097,0.3448929164938439,0.5222292366570429,0.6711746476529221,-0.6414245497595981,-0.9328291390967769,-0.8680729324296148,0.03746278595015373,0.8485742800636813###-0.7099619233367165,0.39808763159119587,-0.08107231714474272,-0.01967839687442363,0.7869516885105334,-0.9907748265434932,0.2863767809022544,0.3398305591009043,-0.9433354291181948,-0.6713219519917746,-0.5025929316510891,-0.7435632005035271,-0.7795372591009335,0.9071743874993812,-0.3410780063866323,0.28544263384154367###0.6438002764490451,0.5151598340566135,-0.8445170904869204,0.6395088878680923,-0.029618680734332825,-0.6536843938597972,0.3997080085477953,-0.6225510282021425,0.633691551209745,0.6237729088179056,0.7691361615843322,-0.4795915418611172,0.8504346331043284,-0.5168912975514648,-0.8353258842923521,-0.31075889540458124###-0.3977178881022696,-0.2887148970788922,-0.3410494365215906,0.3432200103115435,-0.8232008723408317,0.6882730003336992,-0.7013970699429146,0.24905210182840753,-0.5346397058378438,0.7081790770626064,-0.7172743553236853,0.42049037224510966,-0.5946756805151914,-0.25072685192132416,-0.5395878908377301,-0.5573317533203348###0.705688163433563,-0.2826094400142114,-0.6264745242616263,-0.1683929141187901,0.3098950451306681,-0.7952366267276301,0.9165371297024614,-0.1218229015903205,0.9264244333194473,0.8864112940528521,0.09347357872841622,-0.7128808091852723,-0.6027567063973849,0.8188019761784173,0.32271713728394524,-0.1544358492073885###0.6761538411230286,0.11056844486414863,-0.7263922110567549,0.3418128415296877,0.753523125287143,0.702648879703603,-0.6855031846889361,0.0039704818419901144,0.9908354885178705,0.3252933415169015,0.3101071978630856,0.839354321281059,-0.9820394218515893,-0.9080413556529612,0.7267564512588125,0.42942436386340455###-0.4020174265453691,-0.35480799568677757,0.7872036127125095,0.9713129932514168,0.6788913039240887,0.28718157257807575,-0.23741719662543703,-0.34414135196846196,-0.7716139637662467,0.10772992417791438,0.39709003507655805,-0.16662353115890505,0.3874986844965451,0.764985385529898,0.9317934378917001,-0.15777312237229424###-0.019305141255238745,-0.7206564345028545,-0.7728612719279921,0.8615709658544468,0.4845640833805418,-0.03149027607224708,0.0794267970560214,0.6985307338967879,0.18416498846300433,-0.5182088390533872,-0.015258491371043403,-0.9687013254951526,0.4355427126608731,0.7842662094584969,-0.6754894362604409,-0.6964290509041444###0.704890117942836,-0.10344474488088684,0.23008425323738302,-0.7979947022838496,-0.6307227975452045,-0.7865033089705553,-0.7705792531445528,-0.5527658434170737,0.14082591886904416,-0.6948904493810126,-0.8128310161292402,-0.5097101332347043,-0.5843389133660244,-0.7541981988244055,-0.9798555443201535,0.6301289599075626###0.8509211253182838,-0.27713765047942496,0.2033950009007306,0.05426932819152985,0.037565320060929386,-0.5571475976402709,0.17775799753300592,-0.6466176354516004,0.263667467623689,-0.3154105134151457,0.42801250422073345,0.1720107927784731,0.0523395791386807,0.23999707660459046,-0.7785661817315648,-0.16858944538610365###0.41038079351196655,0.4391688832186369,-0.22023951768302807,0.9968434209938586,0.5382018036553229,-0.5264230581993978,0.003287607097887335,-0.23952470773815415,-0.8714734747044401,0.8114292460414552,-0.2259980918267397,-0.12763723881263012,0.3208273293908557,0.14176149947130479,0.3353795173347951,-0.7241607483983197###0.8804013278531919,0.9889258884107017,-0.7203317249321153,0.589939947065075,0.23545120357843574,0.9067171698690042,0.26918057126412265,-0.26966767520566637,-0.36751626614998,-0.008544680398347104,0.7763264068408784,0.47154843663043433,0.8597955542280502,0.3459214592235793,-0.1521823804240099,-0.5728583392292672###0.7407663012852868,0.08112213133589341,-0.8183202305950485,-0.3392796436163257,0.9131343090037314,0.46043535379010536,0.6514091007627647,-0.060362332001229646,-0.7126184121172929,-0.12923039716263873,-0.1801832438575277,0.5044455353008541,0.016808818493537325,-0.5520544406851109,-0.044195759239920696,-0.8489509751581017###0.8138347111265691,0.388587419999076,0.6005186955023825,-0.5911748417260339,0.011505412964709416,0.2483906259782136,0.8250378935279881,-0.3532017118107389,0.896154852964592,0.8567086599966685,-0.020060170077970563,0.051292870213660136,-0.4733912694346971,-0.13001806331654797,-0.04218632224611962,-0.4076883941634939###0.5072780458468484,-0.5583918296669224,0.7729719398819879,-0.667783979544849,0.9969423378030133,-0.9965671314060469,-0.3916718084813495,-0.2708857425923603,0.6119739418484997,0.7341157900515498,0.3876058473176951,-0.05131123891819089,-0.17779010088278913,-0.06779135939303971,0.401748349160135,0.6220250673610699###-0.06037066632067334,0.21685572253744434,0.5516028745273225,-0.026669342617526626,-0.1355511812937389,-0.7533910801304147,0.3646544284602191,0.790261697992269,0.3802001607523249,0.4769255523494651,0.10178794145674508,0.3209021515279553,-0.02119099952147052,0.36949613215977806,-0.009238188837219274,0.8552698212727079###0.9486452608526699,0.42162703506468624,0.9062773924021936,-0.5144498050439359,0.772969617864629,-0.5985183762568864,-0.3377669338242857,-0.6619117778590151,-0.23684602689165013,-0.7449392928346454,-0.5100458262153977,-0.5685038494901524,-0.7094942802045567,0.29338236620860236,0.24689388000485057,0.23906266817302568###-0.017519787946163268,-0.5266020798332025,-0.566497872167105,-0.9800212715245913,-0.18648221189909986,-0.14623912656501603,0.1916642006509497,-0.9672791186306613,0.1476954612148058,-0.3633584139448034,0.11631248576621767,-0.14473598713948688,-0.5201635846392634,-0.40063967816386437,0.9325183826396413,0.21062095524788393###-0.12632676850053448,0.17468880610088244,-0.12642467630983978,-0.0674641960036575,-0.0898853626830558,-0.04375214403856065,0.9412854758980798,0.004986372544405482,0.33561747752799165,-0.014491884471455885,0.13786744057040456,0.9704778122629678,0.5401204614081643,0.8194782941171574,-0.7703965389506555,0.4259390875402753###-0.504052616924823,0.08324289188344158,-0.3644496695303232,-0.1886388176593614,-0.14645777015614758,0.9790910223695668,-0.3696613218535203,-0.7548558289535943,0.5168511428682436,-0.9459455506634438,0.20829008094046908,0.771449195711845,-0.7893811031575177,-0.5797477531075848,-0.3232157336816299,-0.9413221156053699###0.30382134563001983,-0.422483141493913,0.33001154355606244,0.32453199006631994,0.4679083203876049,0.005355229106677184,0.39994869743657135,-0.9380680794941105,-0.3745160551405,-0.22862428236279486,0.8896000538849524,0.0014032774443870633,-0.9154944859844127,-0.4541088644888285,-0.1357517340212253,-0.33063377027041274###0.7550340331876018,-0.38251578888150406,0.3096624359436002,-0.1119073402699553,0.9100237652737457,-0.22809715647004425,-0.23808500927294718,0.6119231834246119,-0.9214096677056738,-0.7732723470031189,0.5716601661012572,-0.39433556445557927,-0.65034929952685,0.20683429057157166,0.8864329709127061,-0.35508493915728523###-0.38421881790853596,0.2007508200449264,0.21772692321010823,0.15439713790092524,0.10159245569455644,-0.5444121880658104,-0.19468434917634814,-0.5008020151862271,-0.10212535848836746,-0.15170157732386058,0.8994835638472516,0.5051548307831812,-0.8377824580665763,0.9136018014319869,-0.44746378407769094,-0.7915558423168261###-0.8512352455491177,0.5139833013842263,0.5441623173080861,-0.6792362963475123,0.2942138176622098,-0.5952381592686222,-0.33907605298104304,0.44532565711130223,0.2141269061300468,0.7772932185425541,0.708353283941112,0.6902056625981479,0.6530704696202914,-0.24404321809375262,-0.6451611699456796,-5.786697390206541E-4###-0.8159452742465749,-0.22035028434730486,0.1896854337950611,-0.7415578259846467,-0.23280231504719584,0.8160932719275147,0.22343717353055403,0.02966032910489913,0.1544907007707519,0.4373312022793283,-0.5332454813838863,0.6346803724483454,-0.4330034437413237,0.927380665532171,-0.8051599009892905,0.22411398929168835###-0.9272365496406396,-0.20192728141975214,-0.9623890862700171,-0.5381061608826492,-0.34180820163897474,-0.6433013918069368,-0.8684816727218942,0.4999488055410828,-0.8874561914686647,-0.7008450301975688,-0.7728808975079533,0.030411061144816953,0.5347392074125816,0.6948607704541729,0.8672051404768486,-0.6236466764060562###0.5235324409651412,0.1847952981703329,-0.4664979268399516,0.8183835756680933,-0.0733783816589546,-0.2684139532228176,-0.9943499959482311,-0.346749088073937,0.40119128007697324,-0.15934745021257446,0.0843826835992556,0.8419466747436268,-0.0221557667354082,0.8139904468443364,0.30152560797752903,-0.4713889008589749###0.32183166634409477,-0.6967409466798808,0.27263444411073023,0.19788477953795325,-0.550056908216406,0.1964121100504823,-0.05619908459669909,-0.2128275911734423,0.28837101845940083,0.7021917127885642,0.142354503949498,-0.31838571479525646,-0.3536813564364527,0.3893815833445302,-0.43810787116342476,0.19338852842344822###-0.06792858793219714,-0.10720514991181962,0.5952713365267575,0.8632965362861482,-0.7472929234718269,0.01555031469385626,-0.7250950482459524,0.7214105799786852,0.4155717257508946,0.03726729130473805,0.9878992383106564,0.504892556845971,-0.21089823659096196,-0.8196103337553344,0.6042796832341133,-0.24508173189494298###0.9825265402953971,0.3919261685340616,-0.8102474612488646,-0.2990265680307118,-0.13156265413978385,0.8654726394926149,-0.4298473721929579,-0.11038808694035329,0.5991636734292667,-0.9415397856087568,-0.32706814023922015,0.6260975923070187,0.9573490722040705,-0.6478484744924538,-0.208254686586115,0.47117827837390536###-0.3669265980494907,0.9569845887867621,-0.2966050206495279,0.27156798932922577,-0.1656799578728665,-0.8165567298047214,-0.08790495562633693,0.5015425436744503,-0.9854584038407082,0.7787099108462681,0.20422468265527183,-0.9456181714240299,-0.5594717557647377,0.6719353653089564,0.16743841636034662,0.04621875098198536###0.825739058559174,-0.8239617044893519,0.36120628905976515,0.6811851780172427,0.3187065315253672,0.46152499396605795,-0.5784394098677283,0.7755714178541944,0.7630803199181764,0.9478984567455238,-0.4589729848591073,0.1500447760840875,-0.6646721471834329,0.1508033324127287,0.48542339642813825,0.7728010181890372###-0.5819368435246175,0.4781326023909922,0.5924104432827844,-0.7271500623722698,0.8814279464249124,0.48589813912289537,0.0423836531619286,-0.7585346763002774,-0.17809718845931255,0.184747674319079,-0.8995027128938682,-0.39884331134627393,0.24737860388607325,-0.8694133329157239,-6.848303377635645E-4,-0.7546505888140846###-0.8007278296277645,0.2378432267960402,-0.33521360588111704,-0.8617131656271491,-0.6330769903444431,0.5214917174343587,-0.41605359976636525,-0.8865029412306495,-0.6235390969963226,0.30402866062975487,0.770947549259817,-0.27950547645058066,-0.37421291584528116,0.8161731832228454,0.008726581035642056,-0.35678466215938687###0.7892662991207484,0.5751420910981857,0.3268187829454041,0.4500124325434691,0.9301776953422005,-0.5580725306700367,0.02153253607433081,0.7338658242398319,-0.4640720099045672,-0.16091632845272508,0.43290086487860413,-0.9372094060365064,0.7304818598941496,-0.7468924305491866,-0.8364710584013442,-0.41574607750634307###-0.5795812094611037,0.8505753675321923,0.4576613445032913,-0.3862600513773238,-0.8045222157282987,-0.19522394793529596,0.054494100586096605,-0.9135700200489831,-0.5685949981291336,-0.24033947506905617,-0.01203931474748332,-0.6377065479997872,-0.7676278799211878,0.7505037213984835,-0.4740754320473477,-0.4512867772959761###-0.3978123496925856,0.8557544371427139,-0.2750871316245469,0.24109667979022853,0.5479738220529276,0.8721260711923682,0.9222300970264992,-0.6192473777298044,0.6969381656776001,0.38505983594523796,0.8954931774040076,0.7906414938967703,-0.5536808827979718,0.7492701929691463,0.3903322330191876,0.8734357696258503###-0.33145992222094156,-0.3008411163473945,0.2502054645381411,0.9426537746842256,0.5580585247734988,-0.42353486421622977,0.4779783965627189,-0.2935405963691564,-0.6666501656483661,0.49259426494444525,0.21712168451668346,0.5350490937660375,-0.803080473402467,-0.8643526192235838,0.8610847383428937,-0.6836269868387872###-0.7918108034523439,-0.6127476581841125,0.28260556511901513,0.9412683017165415,-0.46144338274794294,0.43187414438395866,0.5204194141821783,-0.24209097412055636,0.954881287797839,-0.3786395217190728,0.16903393002129485,-0.30319501726099873,0.3171018418535734,-0.9999420830311982,0.1879393380850618,-0.8085884755004284###0.3776434523059724,0.10091076812169275,-0.12017285917874365,0.505738404703558,0.23472756582206222,-0.6094667927158475,0.3830927629537273,0.6291759454943837,0.41864856693771557,0.5713237475311987,0.18210171201925718,-0.48991663475478675,-0.22046489403501446,-0.1587307875409354,0.8594003143533357,-0.9264873899272319###0.09706833526568781,0.1671629997387405,-0.4027422868409889,-0.7952297505888315,0.6470802668739588,0.6445406505210396,-0.2183736349012544,0.679346140043124,0.8369101926350082,-0.9022851853892031,0.4698129241309248,-0.118932629900103,0.46084990371744805,0.21586852308739557,-0.5461456255802286,0.07416374250133018###0.1289607698661921,-0.27375590656133864,-0.8152032696295055,0.9812580574150844,0.987000480917257,-0.6269555093441705,-0.08122241226151705,0.46812457987196,0.9721481554071638,-0.19926042587909976,0.10401618589068473,-0.7526147314686116,0.5386722262515182,0.8330504344102827,0.24851831848429473,-0.31285728249708367###0.039635918452456176,-0.9060389280308601,-0.7084936184854433,-0.9531238307060068,-0.23480909214560297,-0.565313902789002,-0.15271224067668743,-0.23824394094272328,0.014960700707680186,-0.7893992764394868,0.5984781273923505,0.7578588183989772,0.5214696266611665,-0.9052827729489361,0.586199380314915,0.2045943728501265###0.04352647342778715,0.8193710629757169,-0.821924987336512,-0.4030159538735971,0.012923620344338804,-0.9946433164853448,-0.9094517959012574,-0.39074220880595356,0.7447678187501721,-0.9321675606133424,2.527768418931764E-4,-0.22743556504427365,0.9112098901442258,0.0808911838390145,0.9998679278403049,0.7034197054649063###0.7302944527826267,0.4377720241873433,-0.5629070187207128,-0.654156640075013,0.636104899959355,-0.8387340445997191,-0.4789204321536287,0.4889649770156237,0.07332969219390129,0.7989472891610327,0.488863900383699,-0.3167934823959839,-0.5011678558010502,0.9804398967194083,-0.9049573421948014,-0.3980223898330364###0.6747556033075242,0.9190060697668501,0.7211410232791988,-0.11785203723003046,-0.09784730034754818,0.4073237373256964,-0.5031769211058854,-0.4746112671027676,-0.02892310530329234,0.18739584171913348,0.48329950443880754,-0.9461961881876784,-0.7074692782089336,-0.03288621632698541,0.18998847820370446,0.7870989569541316###0.9296161581705391,-0.1889249150980532,-0.5213087629013478,-0.1551340253176674,0.05968674743657121,0.15083354773114865,-0.7447551380172011,-0.22361363465801842,-0.22374645267059678,-0.7601616057834524,0.25681905189809706,-0.9183122815915417,0.07885122614836049,0.5208961583717338,-0.2862733834454638,0.3114132899367452###-0.5989778574258253,0.07906894156113609,-0.3021796579751128,-0.08060527960625907,0.09103073993261779,0.12049921142127284,0.5652520383904147,0.5906443639784409,0.886873000717951,0.24772963561629457,0.05957298983906334,0.3788132506038706,0.6165992591187837,0.1946658674715367,0.36185750536112193,0.6609879542109323###0.10692115298603144,-0.3605936100796525,-0.34226438686737337,-0.34597194692280686,-0.40247258445215217,0.7307433913838468,-0.36307785286636585,0.035473889552355864,0.8354857895936898,-0.9557844537373734,-0.25096500890245466,0.07338286226638102,0.4635616491793193,0.8261724210368986,-0.9898039873770761,-0.4067202152187288###0.31823680365827833,0.5893880443150052,0.6881131798974054,-0.9032641286767049,0.8176661049532716,-0.6086607529606103,0.28904423321770323,0.3949185035927649,-0.2532397081147191,0.4563428762680066,0.9282464775607207,0.23178223847057033,0.4360399853805055,-0.8046764584090758,0.386219091903768,0.5453992830270098###0.5828554679069131,-0.8679377167186018,0.9362490610155871,0.25225676813531983,-0.22197764347128413,-0.23764586886315642,0.37447325696359646,-0.26182518969522817,0.17787566021869794,0.9525811580097729,0.5918737977104054,0.600828867889649,0.7011971277788687,-0.8732147639007086,0.49832616488157155,-0.38731279379396133###0.6324255376682248,-0.8035966664695529,-0.8579775563072498,-0.6404974844579774,-0.4229892158350428,0.9544058468359731,0.46329631939515803,0.5583250719158153,-0.6582725122387376,-0.5143429409786013,-0.7199220160891537,0.6703332331160501,-0.49778448283446153,0.037894435591494746,0.8229117744434729,0.09760388292100264###0.1719693056405951,0.7528021488014858,-0.5793284498728497,0.9892755024153053,0.8014496622079701,-0.32576825190144887,-0.21618829793597505,0.4813829150625295,0.7129458954853352,-0.4692984627856587,0.7401965082957245,0.05597209737010411,-0.4837313301009718,0.9318841279135872,0.2492509404600347,-0.37106935640005423###-0.4476926640988228,-0.17613049754923638,0.05338195707780646,0.9622985145451199,0.07593853414399088,0.31556983402214,0.42132058720188503,0.045651100038071046,0.016725996148182265,-0.6812908125171253,0.09623839326003414,0.20247476676529952,0.8453046508481294,0.8364208495019676,-0.21780318409282828,0.8512841259507058###-0.6747049005199548,-0.8094482144870083,-0.7143122291514334,-0.9124430387202611,-0.25495186532918224,-0.00464728371501999,0.7747306684385256,0.5513917850335848,0.6004711075170461,-0.7346897881744221,-0.4738090072743735,0.40712147876394833,-0.3603575367819263,0.6874549385095625,-0.9973090735421366,0.6849430232553859###-0.31812742475361944,0.7935591675092251,-0.8663154300966174,0.7209536828418432,-0.3116772109318722,-0.46478594262937056,-0.7290269323040157,0.980809866519101,-0.8117518961081907,-0.4051450615223271,0.4471396809767938,-0.8364455020314632,-0.6456194643039042,-0.34161709146552255,-0.7139138425435745,-0.8440129778148362###0.772925668717291,0.830106432925465,0.1980556201300756,0.1442762936169455,0.2680954835818967,-0.611692863154345,-0.662768916956153,0.988347801339609,-0.9819442745108775,-0.840189184451591,-0.7917998042538454,-0.17409833407097253,-0.36138187351973494,0.9345227923173007,0.7782816389091529,0.7967485410830459###0.9129609538065371,0.5459659718213397,0.4859101259562151,0.764476837896729,-0.5898849445200336,-0.4885634559318337,0.6309817658934893,0.9612941009970091,-0.6380950036781987,0.4554718344600057,-0.7087370051990902,-0.4067875503304108,-0.14251114556996036,-0.06709836415680326,0.12967082489235682,-0.3834229250005279###-0.3334077377017868,-0.27716616646030157,-0.7595658717352833,-0.8667357799866988,0.8169864117495858,0.18250176053081923,-0.4721500748000862,0.1507033076472426,0.428712272114141,-0.1700195423060349,-0.9804495544066647,0.8142062952196651,0.24700687887918815,-0.032644514424506665,-0.013098499220904447,0.6429155961378061###0.8178399108069208,-0.13899239327926427,0.7783538553940665,-0.212991112676282,0.3144227780591302,0.7632536004137644,-0.13272536682301683,-0.12737089415850522,0.6500049331543045,-0.11033778524247739,-0.22601334573958742,-0.38766607310069157,-0.29827419738311756,0.3589421519428311,-0.7575512237329574,-0.9673101707264227###0.22224278874185588,0.057377481626319504,-0.6647883386663787,-0.09303983162386742,-0.6696892620567827,-0.5926368333791667,0.955988217624895,0.7796696908429606,-0.6515606504452423,-0.900327406158792,-0.2826207067773303,0.8311508025972396,-0.8047904917245803,-0.00833371285612916,-0.9579999341703065,-0.24599008959084467###-0.45821760169602177,0.5787291387688489,-0.08154570220575508,0.7997760725424723,0.5065876598798669,0.7138029795722536,-0.17069221442662474,-0.797174293556443,-0.21086850855022088,-0.42004342810577544,0.026414455562354,0.3000030081636933,-0.16668368606743744,-0.6864832376315952,-0.45034688542664525,0.8381845925766289###0.8626198746963796,-0.8696402695566503,0.16833395228795345,-0.8016345531904832,0.4439316165678371,0.32554094930615185,0.7702391739324659,-0.43632935202754597,-0.3862000989920158,0.09652044039093832,0.6314637464193917,-0.5799740663552431,0.5402947044926418,-0.21718283600126953,0.47092613072676115,-0.7979522247285262###-0.8043548032136849,0.8200058971803548,0.22662150087360833,-0.6169570483356286,0.5792638113052921,-0.526453211442516,-0.9136064493316758,-0.14316628440473655,-0.34227854160646487,-0.7519835516708799,0.4642037455155863,-0.9295447603801137,0.37769223327066515,-0.2401119472143738,0.3335804270946716,0.0405978492553265###-0.14016097964743457,0.8170847876950558,-0.38686759229767054,-0.8770038144779144,-0.8039365034313548,0.4661107625062726,0.14471629397500285,-0.7972047777879869,0.14949918171681986,-0.15236025908070516,-0.7869515780476568,-0.16474951382837655,0.4960768636225348,-0.1559778964139904,-0.47374417520481304,0.7899491265709655###-0.2515529405876715,0.7072468455363388,0.1100651074498562,0.4380656282476678,-0.43250439169100785,0.12347496891024035,0.6640287007851757,0.4709946602620365,-0.7063569108452814,-0.4996622421220216,-0.41360652689820365,-0.44996894804150966,0.7195703482900242,0.655771961749513,0.09491844675175543,0.6605962051356915###-0.5220332972967465,-0.4577580133377184,-0.3458480250560154,0.18083679282488796,-0.7676496439930838,0.15777740194158518,-0.7346183247463802,0.9732508760928116,-0.7640369347419862,0.37533228503989013,-0.916326354426217,-0.8306752542775888,-0.2368053253593687,0.06454999659010552,-0.7028792033682576,0.7409905675585242###-0.5800532853131937,0.5850974543085679,0.23662256906269485,-0.5609550721014225,-0.5962039053109915,-0.5016918410220379,-0.719777515001776,0.22749517145661557,0.41177434239355626,-0.8260461834375625,0.2742323379040901,-0.04587120269372691,0.08303054762219197,0.8615411589368205,-0.08592535522779698,-0.32857039210368133###0.615598575660329,0.7506088263647834,0.8109795234320003,0.7582926437194526,-0.4890561751227871,-0.4379218073209741,0.8163737655346552,-0.20818333841725845,-0.7230840897544328,0.29278868965847016,0.5840036488767446,0.979783392094405,0.3591887896007582,-0.12207211521885641,0.3205362293545375,-0.11174142191288583###-0.42677879558634446,-0.25885697213082315,0.20858709882467918,0.18507931410205214,-0.12677502550011055,-0.530299138331727,-0.918175152589511,0.1688200835403737,0.42158076559131175,-0.8178615296833407,0.5900070353931235,-0.03584217661822442,0.6115938673202015,-0.4515721354150741,-0.6874959440499033,-0.5616155145147581###-0.05156256079628929,-0.12224580201192214,-0.937928183885401,-0.8698563597962197,-0.4924187740317878,0.20658569867489884,-0.03366410222287386,-0.2197036321834962,0.06695906033359011,0.899791813526923,-0.17734546481560498,0.41614883053823903,0.9485802165357955,0.9201440076965697,0.6927291315239577,0.36410279086437836###0.10724369265740763,-0.3733882590722868,-0.26346398084717193,-0.9478817712643581,0.06846685035390387,0.7294446792577309,-0.119145585536506,-0.9877945484317503,-0.05530625454130966,0.8601091705399238,-0.9241297883594093,0.10449176371775737,0.9483008129788095,-0.8932729063861942,0.6140376477980378,0.6582366833711248###-0.4281284859958576,-0.17925864946002878,-0.7314163327890482,-0.03850296602914294,0.9206638317903679,-0.9818888151736653,0.8547441470573445,0.3299716464739586,0.5591485768093556,0.778419613003744,0.22502252111087584,-0.1531159166257181,0.6729483919834709,0.1878509759826119,0.6804663076886361,0.7895887685163445###-0.6505380621936045,-0.42292216856962717,0.3131587295206275,-0.25508491759392715,0.34490914134728556,-0.927328682767417,-0.10917327188379655,-0.5359083047064515,0.8324886763878587,0.8107302657160562,0.552668693704194,-0.3805785818982901,0.3157892720728077,0.5539999071985957,-0.19378989889668707,-0.20129505431316708###-0.8564475745266567,0.9088311321785689,-0.90180389259643,-0.6902592964074168,-0.12366513926674516,0.8559076394384977,-0.4217644474280158,0.6660550850044105,-0.8674263657119743,0.8887484224975932,0.5821120961657569,0.9863460764897909,-0.518990679432622,-0.3034310478136757,-0.1676174848040599,-0.03604861585183938###0.4483761462377436,-0.9668355269157292,-0.6129150799208047,0.5489804310503383,0.7757204256695747,0.18105571478938964,0.9630823970675744,-0.9654230705627418,0.6836629873434317,0.2502159130532473,0.4187716380562274,0.8501080576994624,-0.9036272086262174,-0.5567236560328175,-0.09841168680962142,-0.9620963710367942###0.5259735826949277,-0.6258149100207446,-0.5510555627280147,0.1264962007357049,-0.3664422809079304,-0.4551271660553069,-0.32306377211755977,0.9121434065107645,0.3599345066254469,0.16455612315214574,-0.40063595920253925,-0.47826127532960805,0.9586935134123196,0.6388886601842758,0.5903087476623279,-0.9459519992608463###0.26611719106080445,0.2612473705880307,-0.9632874456895546,0.08253513018504832,0.1069284330356699,0.9060193317978404,0.3231150468134314,-0.6481302648361789,-0.1381856151797023,0.8538334148069664,-0.551101522153516,0.11153661842008056,-0.08788140640344522,0.2712585374623122,0.7990992827851564,0.7037961385691476###0.9290479687594586,0.3225686367568976,-0.6269535926136991,0.25957192303761434,-0.21080595807154312,-0.5912474907136545,0.12078950841208758,-0.34532950172967136,0.2751207390954582,-0.3909748300300906,0.9454836008988767,0.24006605418446103,-0.3407755295479662,0.042674610678077096,0.40060001925480604,0.28381133016292437###0.7710248383111784,-0.42584256155904043,-0.8559638726482643,-0.4515365629982848,-0.7875018064199273,-0.9480669740183618,0.8068996943864359,-0.023257375539099456,-0.9869811649688778,-0.8983938253767372,-0.9070527349540649,-0.9305315453034924,-0.7950742196898666,-0.6134758609224973,-0.3546417294491906,0.21364792556746015###0.5526865047942078,-0.7959459236729816,-0.4992696537533219,0.9549162050257649,-0.016918228815760106,-0.6966564302564413,-0.2041160128151649,0.007360656322451975,0.14078932801778188,0.8904456859912686,0.8012686101589139,0.6550853626204092,0.9331964549317648,-0.07073187447576967,0.32546393128334805,0.12370277649517747###0.9302256825720883,-0.9481158869484263,-0.9315251874381936,-0.5137339694943484,-0.9505897759959643,-0.3406796154152014,-0.4027793164882001,0.7169848861209587,-0.916591208036988,-0.8759831300510934,-0.7251772779822343,0.6173949351818158,-0.6833966067123616,0.3977290331877996,-0.30400291371661026,-0.4865203897694508###0.7293760638156275,-0.21627621477083747,-0.03593679373356262,-0.14142952390768837,0.10311350946662978,-0.850302984004647,0.49078179643283626,0.17568153948352205,0.7159427290225586,-0.5620812572619573,-0.09156235033304583,-0.8657397628370629,-0.7413471881967846,0.9716905781308178,0.15428835217422354,0.980165488748912###-0.8977885523257969,0.7622784934827709,-0.17929947386966827,-0.9759866330690019,-0.8872613980359987,-0.21193926433701438,-0.5400001641701624,0.44185591601057217,-0.16324874592917582,0.047710631892108335,0.6912642707366685,-0.7465097289643459,-0.9310513676815833,0.08181071538220408,-0.3230081528837365,-0.9824798273886473###0.5667577304509803,0.612373342296197,0.8207788556243176,0.5186223663146858,0.9903143448422165,0.9673212730606746,0.3828465688292353,0.5212975778473763,-0.9764928888159559,0.0370592904797562,0.11845812556092072,-0.47428624086619786,-0.9288359448484982,0.6528464028861902,0.014969998963578979,-0.6149224895328418###-0.07058300317717903,-0.5182435401547385,0.7364659395334079,-0.3697014640331533,0.39072904791062113,-0.19940771396528545,0.4806246989760641,0.3965383461740728,0.8720260370373145,-0.15880185687314596,-0.3893256921227015,-0.04243523110620884,0.8438248718544801,0.7921914397281047,-0.35400842235985785,0.04765994194859635###0.0902046806803618,-0.002785334325805966,0.9781059901371258,0.3871587899244291,-0.35607978047666133,0.4073851680621192,0.02457170419471777,-0.8734772669147968,-0.38208970922066166,0.9256994535783589,-0.5586255862694287,0.285181656378525,0.09390599287501233,-0.07627364954318305,0.48524201296263714,0.685204877161649###-0.26920150081275906,-0.08399826046306602,0.650432886869811,-0.6338093987288931,