0.011993883519870052,0.01855539762268788,-0.04421737936237218,0.02460154378779705,-0.06558947151501227,0.024588414438592936,-0.010917526272889793,-0.18890805154135334,-0.032794875909942456,-0.12125638136061864,0.07265642694132851,0.05446130899347465,-0.004460140239309682,0.027728693065573757,-0.06327228529261188,-0.18097361901712555###0.03723887538100723,-0.026765786662353675,-0.018913272569599845,0.02315169203140022,-0.09683611170340611,7.669797565396075E-4,0.02174587817846527,-0.08975419140053179,-0.25340221756517584,-0.08174330005185236,0.08994171866628614,0.13075972504664032,-0.026380104133962183,-0.003402518550420262,0.11420128598646745,-0.15605607957453196###-0.054497953207540084,0.038580043218724255,0.010197887357712418,-0.01693779360464868,-0.14580416885020872,-0.017085406122750366,0.036790252980774776,-0.23915635190050125,-0.06204134486507848,-0.0756274976507929,0.08472948798368,0.10600387504490227,-0.0010654622545265991,-0.008545728272197576,0.04087899614039677,0.046543952482856636###0.02048416178382514,-0.0392581286698492,0.01987998709819326,-0.017962870676577147,-0.1176846309527392,0.03418047822086456,0.0040171277478532755,-0.2334406310583621,-0.03207539424549812,-0.07817599520899522,0.06113716353849306,0.08011541042910501,-0.01003346865930024,0.07657951977673975,-0.0455460922973619,-0.18266056548540588###0.023236765075743935,0.04325072205718763,0.13865753537526368,0.015071946370507313,-0.14887223034730737,0.06423944230026284,-0.011786507627250923,-0.34009324149774484,-0.26622012422585906,-0.09755498325410811,0.10378653673917959,0.1864245235768135,0.022736812093603165,0.06256390965156276,-0.015418965785883292,-0.24142556690662956###-0.001632497497540818,-0.020503006783338978,0.04880823853646695,0.007571966548468448,-0.19324958429472877,0.0840045281801335,-0.01543277441425055,-0.27725361231006784,-0.23472133014465255,0.004969902901391444,0.09305050040777972,0.13942514424919225,0.029876630256494605,-0.014413987954575772,0.004504578782847518,-0.13083931053261702###0.026662643096181247,0.02777426734294693,0.035727999381792046,0.07221651439865405,-0.3078108904413604,0.04312763380229974,0.04954409202282104,-0.2609323134372391,-0.12406752294716149,-0.011132484198710987,0.09657348763986898,0.09985365201723838,0.02065110031020874,0.029126415138788785,0.009462299021940098,-0.12897604636090193###0.0203435275438317,0.09041763416915885,0.1177749128788293,0.027323588107052824,-0.31655639382494555,-0.08706375106320287,0.03721526023118522,-0.1781033639025561,-0.22863471683474101,0.20479220492417427,0.14771095941883441,0.12016826802111605,0.05285683124624025,0.03299301359347176,0.010609998292575286,-0.23987170445904388###-0.02907301464465607,-0.006113669274417276,0.06446534210957883,0.060815439487705715,-0.1255397176548109,0.0740058955540498,-0.018496825983559808,0.004167891662469925,-0.17098290346472628,0.17164168141003364,0.0661907643122466,0.1988210436552161,0.06998511171825225,-0.0010941701373404808,0.007269458677790014,-0.14247969463393173###-0.00474914005369229,0.03951169912537434,0.005009967122631063,0.015509616746132215,-0.03975910540585313,-0.22849005346296156,0.054706082067555575,-0.15917009021178966,-0.4960496154976388,0.2157910807373488,0.04358540426466609,0.0026332319759186026,-0.010439443093710593,-0.02343344641174184,0.429706972320944,-0.07470307304793096###-0.015823963813383784,0.013802374337990775,-0.22083948719926716,0.047596436981460793,-0.12990204415068174,-0.1602637841550569,0.013060179707486226,0.003632755660123957,-0.5581196366327695,0.25163170759620873,0.02568713149396486,0.03600502516685308,0.03752973379432848,0.03539596829915015,0.2799399310088076,-0.15101763188705794###0.058613718638825765,0.0023913485292597937,0.13124340772593582,0.05105507181915603,-0.2617392589448157,-0.367889651279885,0.0359641626222573,-0.028704859450057484,-0.3716551855540123,0.34773992193221265,0.23249666334334965,0.15702719143942762,0.03872375905255746,0.014771552111221513,0.08068165536540502,-0.2565981060748346###0.006156159177860471,0.017315123330673535,0.43489838266753417,0.017780748309543935,-0.41352115724295857,-0.31857105517876644,0.03458175997481398,-0.3000203466223824,-0.2263893716840993,0.2814062834112864,-0.1430228950851871,-0.09924090267276306,-0.04169818056156837,-0.02931166522089875,0.30103919343634544,-0.22600243621530952###0.048621513340155985,-0.025236659436022695,-0.016929759897194512,-0.028886418993106386,-0.237563682510184,-0.24251123190650226,0.027273621663539874,0.1328500536391757,-0.3138712371543974,0.3611983871761061,-0.18816553741675235,0.06538819389431354,-0.0063677084325424755,0.0783085746973426,0.4196876856451397,-0.06608461775381444###0.0122942712736777,-7.611936727053844E-4,-0.0544402714817209,0.013551399924162261,-0.3417773126038155,-0.32481088119287327,-7.744427395450753E-4,-0.04292556290680001,-0.4372153690516454,0.38463362793185435,-0.02625137916967653,0.09889856140012272,0.07322313715645759,0.10144382930495802,0.546925926070344,-0.49636512776631514###-0.05377912075080287,-0.00958559918542216,0.04449126763800455,0.10101810926929553,-0.2161504536032408,-0.37106798718507067,0.07085121651711605,0.13050613224369648,-0.5217024107919614,0.15615900641637454,-0.05522361609129559,0.16813626497622247,0.016267823114890424,0.040435425644878766,0.3250576030031398,-0.30942034785919226###0.03190720571952574,-0.046052945782268075,0.009650516777094624,0.02665004545546441,-0.3350479706915149,-0.3709944980673358,0.00825725473410411,0.12329894690828197,-0.4765438998456461,0.41906640412659035,-0.07435632173541819,0.15976362411639392,-0.021068602911197026,0.03522863703835004,0.4574176329478367,-0.38315622615783185###0.01998812200247426,0.0626804167820343,0.18506469834118575,0.05929451654018222,-0.27114115133320915,0.002146453098294001,-0.021396669365431758,0.1192696487737161,-0.2891915326452127,0.1698494850018286,0.021591860868744314,0.2392217631596553,0.05082254468942353,-0.05333664246670735,0.13722273865039505,-0.29083045148297804###-0.004303703127630197,0.004010529552343385,0.09374229111322896,0.0557813766952326,-0.21877884731591382,-0.17023887301573426,0.014493264339261892,0.20337997987354656,0.13474511686855972,0.3062056707059587,0.0961723096979017,0.11724238119592809,0.009965149960424365,0.03174238170533248,0.3218946617464166,3.3457134755417184E-4###0.04079714512131335,-0.03559008507427523,0.06469321616022225,-0.013340486628133853,-0.2728776039392331,-0.30516153424483355,-0.017710908644411327,-0.12555489558627886,-0.12376176112744884,0.21619830128749562,-0.08703505666369735,0.10662651655582042,0.0968420440527424,-0.008108626553848433,0.21868538345637126,-0.4801192091098579###0.07499035459418485,0.022705995958563333,0.08107818060639485,0.019227443700981544,-0.30059911872448963,-0.1847930596093346,0.027463231247634685,-0.09260823700722026,0.13843543056834415,0.33464990273697626,0.059249927727182364,-0.004521816266467577,0.014651848102893432,-0.029598832919599413,0.31951931218493446,0.02683625827310934###0.0835713762258816,-3.916960474815177E-4,0.19946310786735166,0.03421041275134853,-0.36130826993421544,-0.14035455798927582,0.0026424475695682017,-0.09969788626269682,-0.1302013318729541,0.27989410660324365,-0.10223095921619273,-0.10373144495004936,0.036789376441262664,0.01341129909987936,0.06271781484477645,-0.07479280160117328###0.00667333078582246,-0.04667216099133823,0.3100551486988531,0.07007728129280917,-0.34695651454648535,0.0189755131059609,0.008805064751063884,0.05407705214112721,0.023001267159812332,0.2984346237453457,-0.02366715570684405,-0.07031550924976811,-0.032482432283478406,0.08334018133231118,0.15547658234043799,-0.1260397758975709###-0.036667701595647015,0.037335135660572144,0.11577864342737469,0.008273752734003135,-0.2243548521369044,-0.23785239615118964,0.0015094278450683623,-0.17707059057321356,0.09582725752194438,0.006622046235381058,-4.608424208166947E-4,0.33728393784211785,-0.05208308493383078,0.018021873620692266,0.0935907020158134,0.028044481229040196###-0.01516004583515259,-4.196705868805467E-4,-0.07920796699606879,-0.0243141550273144,-4.472473824335476E-5,-0.08917193353104436,-0.0242325517990802,-0.14730003054826343,-0.029251503534933467,-0.11359469134415391,0.06661233225754257,0.12547926507813062,0.01015681793440412,0.10443445746684774,0.12629058612740943,0.20265690764392752###-0.03719808952610251,-0.043529729465536515,0.055737719987938826,-0.03553981372573791,-0.015970473276875913,-0.08759680920241344,0.07627877013904247,-0.2023183539774886,-0.04363911401350521,-0.0281737617444642,0.005409918202925547,0.13828189953677678,-0.030482599137024717,0.08458942083140247,0.1277629387720853,0.08602877862001107###-0.04553960460300057,0.0438933036625437,0.05031816798579489,-0.01102668071645968,-0.06332492684021802,-0.0706606548108809,0.021972991826284836,-0.16869335078663836,-0.027582230978555444,-0.0063754849064565815,0.0011369359482738069,0.08311933528093167,0.002715817510351875,-0.025361372901769784,0.17249490431479317,0.02792927900217325###-0.010830875400375044,0.00939144344435303,-0.03351616940345213,0.0014836670791032124,-0.06645236640188372,-0.10919545272828748,0.04061507482290184,-0.2428752989878548,-0.023769329247001994,-0.02329179156898858,0.033207039424957244,0.11050352047604065,0.03969436555958149,-0.015806286914579994,0.04332917199104248,0.1226809012189453###-0.004951496957485778,0.002165802051029854,0.00814493366297715,-0.013138981411143176,-0.017723326108269852,0.1277952236092616,0.006768093954127147,-0.20298144509613933,0.10295598843646986,-0.13029824939518475,0.05539922610543611,0.1460225679800638,0.07118359993835419,0.023406359357031756,-0.055791983569331974,-0.04528185436493748###0.01637442296994355,0.018903178244880598,-0.08527229841516742,-0.004543835415398956,0.03798407252402277,0.08006863002729273,0.02370662821234131,-0.08841013529218875,-0.19022015810868667,-0.11580264934929013,0.018538416872842134,0.08205100172152581,0.028648229989307033,0.016738055426442675,0.03150803468416648,0.07041291068194598###-0.021215162140639194,-0.05375678632531751,-0.01176392884121712,-0.014974585421406448,0.13218510496895267,0.030196914246236686,-0.032266308184195555,-0.14344136416554415,-0.11854997502001538,-0.13466356096896476,0.07755055149388708,0.032865115609348565,0.009033784792497482,-0.009105290901677561,-0.06764446830678789,0.09285690799203741###-0.035524041988023676,0.035224218709058126,-0.0267180156053908,0.013495042489637725,0.0804647081283994,0.07832034736873568,-0.02847818601479829,-0.18678310200211085,-0.06177734659915392,-0.06230891685555962,-0.016777524063530204,0.07255866247642039,-0.04803236541343576,-0.02769854859835799,-0.06023796048076349,-0.17010060049489173###-0.05312410173672853,0.006068990803898152,0.026017886687038687,-0.03931918788400649,-0.051515903850065665,0.043669870160446524,0.01644620969215598,-0.22289253934028255,-0.24526094026639095,0.08190026273948298,0.09189905569046351,0.06502376880951036,0.015398665401510005,-0.017281329974876067,-0.06732674578169741,-0.28135410095802255###-0.002450877052938796,-0.08132901172490263,0.1780344256767037,0.0010929357912503167,-0.25543790494050483,-0.005166307050049904,-0.022081632065138617,-0.11324572381845383,-0.11084919858240554,0.04129218198161265,0.2102843269196682,-0.016262923661520212,0.009901633944210921,-0.006873706529815763,-0.047338745096461354,-0.12337898752340827###-0.05240916181827512,0.01932662887051412,0.03927496292215992,-0.011634368878039395,-0.21684942570205618,0.03465788285484133,-0.03178651706336976,-0.2763656732434772,-0.07682554282549398,0.010193972907290981,0.15119695626734528,0.15845945678612938,0.030543618981592403,0.0330245325923664,-0.020505149101058003,-0.07581686558580548###-0.02193942857716404,-0.0795579605881197,0.1811860346852955,0.05216820066024737,-0.3176923724342418,-0.09016589973703934,0.0017815353143210665,-0.23087888138682433,-0.1979598369822793,-0.012363711298994896,0.12728925947206757,0.06613243510960973,0.0049694289451796105,-0.015136396042395903,0.02067455455636009,0.03518804154069278###0.034857426930088226,0.004476741458925606,0.05661631223551424,-0.008656075775680186,-0.2935066563948232,0.1293129577423178,-0.02077605689315748,-0.4856691223681241,-0.5173975339037659,-0.13330450201977534,0.2508705663083134,0.17415298454896036,0.039663966435247305,0.012208153261990588,0.09291024839036452,-0.2828898896065112###0.010739144854430024,-0.01311037409775341,0.07960991365944872,0.04697924175571804,-0.08277175543445175,-0.15533955798355434,-0.03264624023757766,-0.04197746316845199,-0.10563829273132236,-0.04008579072650144,0.2534810797329643,0.22310904159353118,0.06356350862735322,-0.020499992945692363,-0.010007233397176319,-0.06452160914260405###0.053305361285992524,0.01704995649818101,0.0781519336502837,0.048364716964400645,-0.10637588358924133,-0.1600561917685156,0.025544224360689434,-0.3071485580124072,-0.25851160067402623,0.02879498792000877,0.14100705378176367,0.17124430909030353,0.0070324182929043,0.014549291616692056,0.04666090297513924,-0.14579009033605275###-0.028638549360934167,0.048861195113990855,-0.0888914366899202,0.05328959215349183,-0.10464029277121471,-0.26872311361556395,0.049010453664188366,-0.09440809209042768,-0.22821708836054133,-0.04082526166816692,0.13867700473152175,0.3220550642414308,0.06264895554357362,-0.03478534372305661,0.07845039418950159,-0.18410498510975098###0.03892357468192206,0.034393480600160564,-0.23472764626134276,0.04739616586713703,-0.1256625436918126,-0.11691042435727356,0.00952572326731835,-0.18266769154185267,-0.5290140769499292,0.016973322810501134,-0.05193241363316538,0.2903406302863626,0.04209469357671376,-0.036352600368470815,-0.11789990974335118,-0.0338054567012023###0.023862333775878205,0.027407375049812426,-0.3060749536816496,0.024357354073377854,0.0627840633578561,-0.02968381293359306,0.047529645361294955,0.14686967134125736,-0.4834423548567226,-0.06300430070570133,0.1434590139384976,0.294164596048086,-0.057384594533377124,0.07971909143366232,0.16253594866763788,0.09191400935598198###0.05827229048816069,-0.004624149062754917,-0.2899583915396088,0.029584906760706128,-0.04441901058462364,-0.1781391037137459,-0.033786618305255235,0.2794504407939209,-0.4927369778387032,3.545995022086301E-4,0.03633366334306342,0.3368631503885864,0.028970226531252218,0.06491311254217906,0.19137355553990526,-0.30622523801778795###-0.0011839024738162292,0.017159799341936652,-0.05386239203589543,-0.022454117255893215,0.038662241699992946,-0.13369955968782382,0.056181398116699796,0.07849840308152335,-0.17091017278550485,0.06756246451248704,-0.11000167225763231,0.25997431408785615,-0.015087791223832492,0.021863944337204712,-0.014674236716827247,0.04870449561293225###0.05519716054737464,0.05142627820666018,-0.3378718699134102,0.06843952905775104,-0.18756245968723148,-0.25415283516573856,0.030094627251959136,-0.034497551437035,-0.1310681277668757,0.10677299810002998,-0.06941612259733221,0.23112575621653647,0.034683024682551696,0.014148953510256185,0.24180328351025362,0.3646975346356841###0.028476184480696005,0.0014923145534199993,-0.03252305215868066,-0.026749853266131284,-0.2181128902856418,-0.21521505371386912,0.06913465254808508,-0.18757084834776339,-0.02258930845337253,0.04424265822224802,-0.06839535034007146,0.060183887109901205,0.015870843710895543,0.0908119378264229,-0.02096042828122917,0.28799290553111523###0.012081678770195411,0.02137852712160074,-0.1830868833717647,-0.008983064513198913,-0.1722644416611892,-0.18524818333991608,0.02332051676493356,-0.12060634825472419,-0.037979852211803354,-0.01273468700305294,-0.1972049749346739,0.08211998574365682,0.06965814152929037,0.11763120635443126,0.3463165700554113,0.2455276940891621###0.02740725106705084,0.04442524363847382,0.0688009152173044,0.029703217207266736,-0.2443382089478495,-0.1598165159455272,0.02245413689187883,-0.038135857187563446,-0.15936644888300325,0.1370170153865087,-0.036917011222322854,0.22107976177277577,0.03684753673671791,-0.02072939718725403,0.450355145782771,0.19475069432539843###0.031822174408598074,-0.007695028142690654,0.14666022653987307,0.021364406046802998,-0.11258505070897913,9.413760381051775E-4,-0.018967609986958803,0.07124076809751297,0.26685173692775993,0.15623984348404116,0.055028505682116646,0.32106719100458936,-0.056473917722810886,-0.010023726030065324,0.4387028464297427,0.23691995617429992###0.007641324743821977,-0.028658180349473573,0.06095732973591304,0.044574814698973446,-0.0842838647595421,-0.11177517427287331,0.06851598952648436,0.005399488114305002,0.041990208297879736,0.0801031177927697,0.16098477691161764,0.07846320669713104,-0.010061193776734987,-0.05745336046312876,0.2112155234871674,-0.14271702710151266###0.06970271207630466,0.0076040173683581,-0.17948419233445367,-0.004163864795873368,-0.15869369525919824,0.01648245887074873,-0.014115337837822524,-0.1859866347105775,-0.03545766713749312,0.05815168288048921,-0.009288268546772739,0.041278439694717964,0.033278568140518376,-0.03194478023015282,0.30913775759415096,-0.1535353569164866###-0.016903407455396518,0.019948891525939292,-0.07054823612420125,-0.01744788560797625,-0.1837361962784099,-0.08270272039360255,0.07747884656197856,-0.3719581556201921,0.10100574746835979,0.0359419338258725,0.057969464550892864,0.11135818707332687,0.031228069379433863,-0.0020717394377738974,0.21583097518444266,0.16337160517565794###0.009823145944854873,-0.029898321179219353,-0.2398320763614433,0.025222018870492427,0.016593071889771036,-0.08087845034759789,-0.024582785645553717,-0.2040480223111066,-0.06414184934465467,-0.07926244647531795,0.06841143357332724,0.1337948135781352,-0.03210924625188046,-0.044021657704564676,0.17122238206036225,0.1844468315581533###0.03851476335680385,-0.003049373790996663,-0.1104796117982071,-0.034353783275361316,-0.0754018326825021,-0.1342700914245756,0.07698642533317675,-0.11097437890682267,-0.04490583064843852,-0.08672387673403248,-0.002832622813745436,0.11039037514735289,0.031110946377986178,0.05721646619538218,0.19446856805575494,0.1157698762422001###-0.057811494040779336,-0.07524293157354778,-0.0530370289466045,0.04572105861133975,-0.052288664241919774,-0.15466994944284052,0.026217867870041316,-0.08564730902220768,0.05440811799163115,-0.07584001998875173,-0.019689169930350938,0.025097382085010125,-0.015042845914379075,0.05719055433009811,0.22391999023857687,0.037627654949476896###-0.0022936713720393734,0.028968231618981405,-0.1098668174388403,-0.0396320847178243,-0.030902449855839807,-0.11794610891150822,-0.04298303232977501,-0.16479681734820323,-0.004685153128614402,0.002791509008493929,0.010776773428572447,0.06940758200276458,0.03265843916048263,0.043672127029794575,0.14809181655516315,0.08186047065125432###0.0385412939201692,0.04563870192176618,0.058614919217261564,-0.06498444626264228,0.016108489353222302,0.06345031104998061,-0.017940775104863544,-0.27843549164967696,0.14385161876723895,-0.12587697140991752,0.08922726472137127,0.11935202859189877,-0.029044441519694368,-0.014447037246234402,-0.08106169445838807,-0.018256506170403405###-0.03280090574126233,0.0862511504143844,0.076487561989419,-0.018873425406572414,-0.08740966669825297,0.09640124729154277,-0.010703684853859377,-0.06556865656495943,0.013077593335348543,0.019258222008499824,0.11107558715830991,0.015462069312785565,0.036319512800283865,-0.037501211427779395,-0.01710297106199094,0.019970632105516577###0.02712662795502433,0.023806209520102525,0.016424283733347676,-0.004779000462793265,-0.08961528803079526,-0.029996281143421705,-0.022368285474235024,-0.026446612077068145,0.007631796190143145,0.05068097158353188,0.10945105329107559,0.028804343095089845,-0.023508711733898173,0.03725959243247387,0.03965531365786506,0.003512824466662975###-0.08122594702187431,-0.07181377477324581,0.04651907638901937,-0.004648838529859918,0.011124904493028892,-0.018402394872327,0.020090989388721513,-0.11248551331980226,0.02037184361031963,-0.005650950546211686,0.0976874851670173,0.15354877978909556,-0.06244723337548353,-0.009034194497997874,-0.1478179450314917,-0.19472187663039886###0.0034976680205042487,-0.06442770642006275,0.21199915550930015,-0.005890815129152443,-0.1012735960530316,0.029466215796824107,0.09577347271938808,0.0017784185075703457,-0.3248928753856056,-0.031431610259588676,0.05971958178447319,0.12354822966058447,0.042607234770412374,-0.02472768427472715,-0.18532496499863324,-0.317559953605515###0.05387189932486702,0.0334709484147313,0.12952903256316295,-0.046201881213229566,-0.13620492832328437,0.030533828397122403,-0.003407932290532607,0.01194108124823078,-0.2790302459309166,-0.015374219724748391,0.09525087222721117,0.13673030444105552,0.04011203571599374,-0.005199133558827553,-0.16839718127859102,-0.2541559400476651###-0.0050409271507295865,-0.0323012629023439,0.06511500338785384,-0.026191378486201813,-0.14614082155986488,-0.01713126117818318,0.004883768916170534,4.611553376158799E-4,-0.2224773360246199,0.05979432654764091,0.12270013208844108,0.04127496012032097,-0.017128677397595844,0.06204591241299436,0.03848461650521192,-0.26253175207318374###-0.04056160986973186,-0.0394808919828662,0.09259526575440136,0.02258907980781337,-0.16293658760005203,-0.12217738274473786,-0.03604150490197672,-0.05821428464705623,-0.13719257854191916,0.19134510885220604,0.01713229760824233,-0.0725016070604607,0.025532706257596377,0.007026557428126956,0.06545227199236414,0.0061547354579582336###-0.027187542257293678,-0.017853633169719836,-0.046874913071373134,-0.008598389404184751,-0.26473866214103176,-0.3194383585034154,0.012734855014090869,-0.13029959353182194,-0.20855136554765777,0.19193765175003719,0.2172648023811566,0.25415445040347456,0.005953925912556454,0.037143794178279115,0.20698157523116534,0.08837489153522401###0.031175522790593945,-0.005239492371763418,-0.30127084193159587,0.08129023492358882,-0.23276401888355744,-0.35679422868213034,0.007647684923772799,-0.12006827880733417,-0.4811066939699235,0.20041619136945601,0.23546759511177387,0.1238734192586987,0.023161476256058213,-0.02678797116271356,0.1846759385929845,-0.0026107709409362813###0.005092459119737312,0.11146333886303542,-0.25158844443966794,-0.03574171641943568,-0.19235490233466915,-0.41224181295672874,0.030038035261011946,-0.03811760891008019,-0.6959468108771879,-0.050608570421968875,0.19599875874662043,0.2537898184811819,-0.013232476063469124,0.050367226428737366,0.10324788937896563,-0.3312039301082714###0.021650962275533314,-0.013603752486855056,-0.21066086047412433,0.05253527456615796,-0.033311663514816306,-0.617091465921293,-0.033582397035809224,0.10104412419085267,-0.4416556045343725,-0.07052984179157003,0.1987472888129992,0.13574016146391266,0.0522906749015585,0.0539056586597247,0.1354192019514242,-0.17573720333100576###0.04994064486853528,0.051128177256747155,-0.5182870796829628,0.06517268516618988,-0.11865823945498041,-0.6699288774596938,-0.010179616143934728,0.35108385730374536,-0.3089856893172459,0.12595185916948232,0.3253152312231322,0.309302105725986,0.06090860937180996,-0.025204915049283988,0.40865386853833535,0.005578833867851467###0.08208408669391097,0.1065072372235932,-0.40827611718990975,0.029388765259814438,-0.015088937954708153,-0.572236296624702,-0.002189230944209473,0.6990686824414183,0.10796336981738847,0.1420673263417699,0.157803359098145,0.23081356153179428,0.04495246586879624,0.004650410855210037,0.88042785224121,0.2606284299472298###0.06497729565203762,0.05197696090952211,-0.7325266129102366,0.05870425451979252,-0.05352999662990262,-0.47802544266401387,0.029576595153965598,0.8350069767469372,0.01075593652613382,0.00810280623044004,0.20212889853517602,0.508296427095179,0.053347721128813745,0.03717373225423833,0.609158436091882,0.08744405840139301###0.05839608083083191,0.03836393586608742,-0.5975123939850091,0.03770449845444345,-0.08065080453255483,-0.4488796482420613,-0.010886633210129282,0.485727143591888,-0.1997348443740021,-0.18655967119651998,0.23859296923699477,0.46924383123152225,0.0217317127386801,-0.00699440035402553,0.22271858626463178,0.1921307055689781###0.043175674155216365,0.05054102963097297,-0.8211530842597358,-0.007324403237064798,0.003228470148013831,-0.3155920315673682,0.02451084697037416,0.4595891006288828,0.4301962100445357,-0.13882798959758166,0.054206911231889976,0.19918363976150943,0.034603147614604195,0.002091670308478467,0.6313081279629301,0.46209943128075787###0.019757108697225523,0.027151913314381698,-0.430749746951328,0.0044163311628512645,-0.132682232019311,-0.6704910694773772,0.020773720197522702,0.5829002714646014,0.14071441032084556,-0.07096194377603947,0.15152142615358832,0.37839212452555737,-0.00519290638578005,0.025121249282227132,0.531418215080162,0.027874688042760484###-0.013139382993087709,0.004856256899551159,-0.3026933714261517,0.03141650209830009,-0.20193038396775126,-0.6349088957495795,0.017553191681756987,0.21982942257954421,0.3276781713944003,-0.09534350369940554,0.07334326350393366,0.4483585140403525,0.07524239466087566,0.0816724179794757,0.6166858437782923,-0.028372206911473515###0.04889531116746822,0.02348357001393017,-0.3084623233176564,0.07211635455916304,-0.26784387226063433,-0.6687882033728867,0.016914848914715078,0.25291741609529783,0.4611563825288065,-0.026514200713683166,0.03817016291019851,0.2751044324662242,0.05789959533033433,0.03249718460573012,0.9564738310729883,-0.006214320369583299###-0.024151711116356007,-0.007738455181061393,-0.29280409566994164,-0.007293539785718201,-0.18967006608130318,-0.38679755589199644,0.0547266427975945,0.23964453742182676,0.45649384846349367,-0.0518027373797589,0.026832492970670717,0.2551946737211503,-0.02141740770154832,-0.010353703639552807,0.857910899958157,0.19481690399681678###-0.017800718223564136,-0.004233675131793199,-0.14124687347864762,0.02030007962480815,-0.11056635530031533,-0.25508360438981775,0.08960670725261113,0.13713775786170493,0.3736472936223319,-0.08541781285811988,-0.05341279365431348,0.4022355682379308,0.042912818101856674,0.09784496072049956,0.5858228846706961,0.28571985391685323###-0.05552206110851388,0.0196196681738491,-0.042660091985221686,0.06111719756139782,-0.3120720093164391,-0.282000906949099,0.008687567218461074,0.10572208018391503,0.30837777342320843,0.011708062787776651,0.046659492590967376,0.15620478205615654,0.040213203572069596,0.074795950518569,0.5074978597409366,0.32401101766490725###0.04467175488007817,-0.03239045516746928,-0.04919354923855723,0.006795040967890844,-0.32041406082193574,-0.30192727469862235,0.04720448819065401,0.05166925968458949,-0.01669694588846411,0.11171681543878098,0.01317577391024265,0.05158750112588837,0.04614313046265375,0.004907876812817746,0.3658167935336509,-0.00784587756206981###0.020244582855861646,0.024516825594599174,-0.06708470674381518,0.046373206675744155,-0.04574941557113292,-0.1205482485870026,0.0016486233515526584,-0.1200709894536271,0.027445963853718343,-0.12092016965342886,0.06251865725086742,0.11453843900122725,0.002307998980008139,-8.519762066933473E-4,0.1878409466702739,0.07493497285506731###0.0369000645374326,0.036899018580831534,-0.032619388863831894,0.03550491585229012,-0.04713423965711031,-0.16574135437368046,-0.010739672516898651,-0.08975612256333158,0.05776600249806367,-0.11476063807316007,0.0033509450117252034,0.12784195467033585,-0.02520543486467934,-0.007350963148652478,0.12324918524889918,0.18670392232422653###-0.04879245660281869,-0.022032315191524342,-0.1643918243780939,-0.042982527293249334,0.05399470953963925,-0.19242662753314915,0.017225384855347296,-0.025642421330443355,-0.018875640726879413,-0.07241123530232992,0.0029856585336862614,0.08163826815271588,0.009546793608284422,-0.032740593616836795,0.2459652275716429,0.06862687843088484###-0.05086911399139692,0.019866811720052016,-0.1507719442608232,0.0027790299242360173,-0.03063465515547856,-0.1380055858041253,-0.04816532740907724,-0.11710307487229832,0.024994408005080543,-0.06058879412234068,0.013043901157790026,0.13192641606170705,0.004984771099263304,-0.015374710630933605,0.21177966023647515,0.06915638230055113###0.03810038479136493,0.005706805024805034,-0.00762661452294293,0.015115839159540647,0.09785389096499103,0.060497459422005205,0.042722229943731295,-0.24313831660162608,-0.20659726789700994,-0.08210190770110702,0.12356918977510789,0.11990073413827503,-0.03182469912837488,-0.014035334297568574,-0.065009342987294,-0.17813061365968758###-0.044430615209106517,0.025759541906426684,0.1332848057729985,0.006839149848651719,-0.029063525525827912,-0.03189861752846426,-0.028801314275365624,-0.18571075948917273,-0.10350628960042924,-0.12452325565264129,0.12408342032723534,0.12654317654378272,0.0017698742554756364,-0.052895613097505886,0.00372203350152859,-0.10813792427604087###-0.05911461808168331,0.06948700063607674,0.08720088280586874,0.053511468356868194,0.02634428859846717,0.1263512981224283,0.04159234631912368,-0.16844716267769336,-0.003281273268816728,-0.08875050134117009,0.08447956587170986,0.09169883269336011,-0.05340002510368991,-0.0252235624637641,0.12122382112195235,-0.07588688010980396###0.025994540711452425,0.03221232406324106,0.07299756453211904,0.0630170636822088,-0.09945984809094506,0.10128335384065686,0.12250447321206667,-0.08018599097198628,-0.01952172681727124,-0.14384204407825993,0.11074075335247846,0.1248628807318429,-0.01779429681092601,0.016137463272898504,-0.00797482893895216,-0.09541357130099788###0.015683815742534815,0.06998423630953654,0.12995035893794565,-0.010377196328461053,0.007946818152721153,0.051743257952011484,-0.005140616690269909,0.11909210379537392,-0.07605163549066918,-0.03014948041592017,0.057476578731116855,6.815078735231039E-4,0.010575531431321184,-0.01665114188411806,-0.1770987532992031,-0.10804311708503622###-0.022249200112430464,-0.02327620510427712,0.24271143108275886,-0.006202595708706114,-0.03541043441625444,0.012453121713597554,0.07121204085559783,0.08311867021885826,-0.10875850334364935,-0.01799728091478021,0.10275546656336,-0.05049609719575835,0.023429355136059534,-0.05418620935855589,-0.09222748869445581,-0.14032021726551278###0.04018265251507886,0.03213988965537213,0.21700186143311753,-0.0369517490206068,-0.011019021164854738,-0.04331791443332757,0.08699834066472169,-0.021485618676588818,0.008090504715221733,0.0701361181639861,0.08881016897347654,0.005942083059877193,-0.09311622464121531,0.010049886090638458,0.029297445260259444,-0.0833830476183467###-0.014047012451289054,0.04954863728697649,0.09928591987215941,-0.020028898358448663,-0.006185168383709088,0.005155309862010172,-0.002875621472205218,-0.18411157207459458,0.21001987003215625,-0.039342243560490466,0.16277706037260128,0.056406988550942345,-0.012955874826288075,0.0679980735207784,-0.05411362445541852,0.1766783906924442###-0.037810469394432195,0.019397356606127025,0.05799626209409812,-0.015003589568613859,-0.02941134674483384,-0.14434349306773128,-0.02311115330315745,0.09984743874361103,-0.05905896455912804,0.15036331154840707,0.21611080304888944,-0.10835208179455437,0.019160284541274136,0.029414956626389155,0.23109342921644704,-0.16579850555378264###0.06507909168466468,-0.021660279008892207,-0.2696122839188026,0.01791250082798393,-0.007522629933623017,-0.2867019726237788,0.03070987793503836,0.09256522519923073,-0.06889715995838687,0.08677236142070957,0.25591948276187126,-0.058159186174042886,0.05036288350833055,0.0755605505371061,0.07676292819835105,-0.29560462340384047###0.01186391823785314,0.013465128837139555,-0.5373395236631997,0.04619387305758891,0.09734568639929028,-0.14868339278343579,0.09539940882224879,0.39025363598205887,-0.04495813604675952,0.0717446382469113,0.21866622138602754,-0.23902323709518375,0.011973747557482222,-0.0324429915377868,-0.14481512608630662,0.03837636851071112###0.03403104037585434,0.0049080360833838816,-0.6026346417795131,-0.0037448346176525383,0.325321403912084,-0.5530261471657796,0.0103024047705957,0.32909615901543526,-0.09789714059656784,0.3393956019945286,0.36155000753389743,-0.22812232067353558,0.05915177905285814,0.027078422714397348,-0.27618866668554554,0.2031831821664204###0.016848259920113566,0.009364237871224418,-0.9108494964921271,0.08235481840707451,0.4722431616979421,-0.6189753492713733,0.01983943753196879,0.7188598360730392,-0.323643582144903,0.2198382412551274,0.4401942655017566,0.030859283129262643,0.03143628168664044,0.0072481344383674715,0.08957012840740984,0.4239685936667559###0.022776019895743883,0.01157636891993057,-1.1340384520874445,0.02708300780212645,0.269837443828407,-0.42879381291196644,0.00239648810016939,1.3036241658470258,-0.3936762977060514,0.15526756776074116,0.4562723215116347,-0.36585769167250365,0.05883870784816684,-0.025591480678873058,0.19888846005216343,0.22332229167295353###0.057750968797824265,0.04825326800172593,-1.6085054838027433,-0.005879546130528791,0.23052343366294303,-0.22802204152644986,0.02367890653114826,1.511334079721218,-0.2998535080563868,0.14079321974263342,0.3228454313879189,-0.11255595526196059,0.001090328961397199,-0.028765895787822668,0.28189142942558015,0.10418319621166126###-0.029791344920403924,0.037928129673802914,-1.2451412638537902,0.0044780165870767835,0.25238223014560085,-0.23465702719427406,0.07842597755537582,1.3020197326434884,-0.2374106007901962,-0.021442461313323495,0.12579785770586524,-0.014902986993824344,0.07219107691320772,0.08136471357856116,0.1844059651511841,-0.07931143698362772###0.07366169447933339,0.021051026825398403,-0.835944830532559,0.07269432801540684,0.049105351832286634,-0.6589817693101667,0.07178646209476734,1.185794670193732,0.061782223762925956,0.12023476180599399,-0.1928408737725423,-0.1050198915490158,0.0865566488061564,0.052263905855743205,0.4392601086400668,0.07151184926568253###-0.009367692573693789,0.03986761469039234,-0.8370172814263688,0.02732633731937316,-0.09990384923088269,-1.1604091349560408,0.06010084374089792,1.0551401885125653,0.2720247408469237,0.24107660783689835,-0.11532939862317229,0.16643321010259998,0.0686142468977599,0.1088027383781545,1.0468759147820288,-0.013995525714406707###0.03413444852472011,0.03152113138317381,-0.56767429113422,-0.005410824992535666,-0.19193603077014107,-1.288592305114284,-0.020802883777295632,0.87038786274259,0.7388157889484631,0.07190283006524562,0.06867016633736166,0.5930286272497177,0.04759961539514886,0.08335204907547351,1.0720405751877575,0.23384023069833187###-0.05835880701373586,-0.003519668899747943,-0.6522933286023012,0.005791936813381051,-0.14352059126636413,-1.0906496380441673,0.05376627344381251,0.8610170677231916,0.9520462094193839,0.03534406102690222,-0.02983509023339199,0.3755881617400335,0.07245498419867119,0.0639948659329323,1.28333023476917,0.373789818722235###0.051318263327744584,0.005031901961799852,-0.12302509075062636,0.07000259662619708,-0.18477063125380697,-0.8587462373683613,0.007107677331416031,0.6165973318622651,0.7314211615722667,-0.0748520667490192,0.04841561595629364,-0.03457531464813015,0.04571643719750456,-0.01631283193535497,1.1834359711458973,0.14173203971410425###0.002456436045745679,0.04013808062207811,-0.03088835029879646,0.0241572951496294,-0.25181329661143265,-0.5393348485610242,-0.005793622016019337,0.3808762118197625,0.44074185708790836,-0.05939272483766871,0.05852112488217793,0.07963033286401398,0.09359311362495265,0.06568744453461167,1.1009496255811664,-0.09079179833772964###0.016812925687866943,-0.0014413221613273962,-0.23928394028757471,0.018753429865375253,-0.15993035206450987,-0.4707549507409935,0.04763457594579887,0.4701383166486052,0.35782212662893464,-0.1099077857661547,0.00486382933768693,0.099742985454793,0.05121765653337349,0.028604619451440733,0.959212039667107,0.10165616650312076###0.033654850267738734,0.013490198150226687,-0.3718846054418755,0.012630370913155078,-0.1804650558941437,-0.08124148023762164,0.03563772743030653,0.1101935569490796,-0.11511900662340223,-0.08990660092215526,-0.0019708856479139043,0.1667466401673942,0.0366608809820308,0.001288196162365509,0.41832476059598983,0.04117564084401802###-0.02706599197484605,-0.03776925037340443,-0.16949438339829534,0.0020809644725097967,0.025741357349263718,-0.32751748568625855,0.09768189880111174,-0.15964014944227786,-0.14140315004839613,-0.06376022851163946,0.0516518831708655,0.18500039030908416,-0.024379850030248635,0.058822125264353986,0.2743916157961686,0.20085373806506365###0.09196444064591468,0.0015140320476566258,-0.0838031981989686,0.03157231456395517,-0.10613584015358007,-0.11347831906578529,0.03831110619601163,-0.0973928732939889,-0.13799936884033984,-0.008769710218506255,0.024203720274819252,0.11405330663245543,-0.016053114684750795,-0.0013825820423041463,0.15488483486209537,0.18678353498964645###-0.03637600463214017,-0.05423742574693785,-0.10409739528984319,0.03083262635010705,-0.07126961436451719,-0.16131907613631224,0.08304327781061868,-0.013895191154356123,-0.03707186793196879,0.06527753133217197,-0.036574929046417494,0.058083622770076664,0.10757698937866426,0.004415339421748245,0.2058108547745559,0.09662066622227546###-0.031005183785725376,-0.009024364349712564,-3.23218704343191E-5,-0.0016076545365806983,-0.047244267496742445,-0.23701015883104026,-0.02207837523758719,-0.18927587144923594,-0.1761116565575917,0.017504598809945947,-0.021573686489963103,0.07609317959255937,-0.028534172978725136,-0.01783487354410668,0.20584381787739134,0.05377030193071588###-0.01611541554290079,-0.07890337745938342,0.06664934776985716,0.004785727264847818,0.09743185051973945,0.06703756665314531,-0.051467926692353005,-0.2552932807812593,0.019667639634150903,-0.04125113581523877,0.08493180197570784,0.09360073794411616,-0.053759226585937785,0.012856915015027535,-0.024119869879510692,-0.0932298379123062###0.009597075815669556,0.06017617013754999,6.324427430828489E-4,0.009743740507334217,0.03024756672329543,0.1696435329515499,0.007446488910718926,-0.278045394635099,-0.009643484999328666,-0.17083548536022583,0.052875076092625005,0.07819706722992313,0.009318869009067235,0.0012428566187755433,0.013912591962278233,-0.015963507665513015###0.05042609072506705,0.025502021500543055,-0.02595342052796523,-0.007627011326221659,0.0135350452862102,0.09157223141317078,0.019097345913792873,-0.2435416242444963,-0.016189384544901122,-0.11069938028992732,0.09771043612066285,0.07742892853170548,0.02873823489357646,-0.03818318491480762,0.10958104836255239,0.022987450423128733###0.034957890850296706,-0.004938667899931183,0.0675872427906592,-0.02571600321938186,0.015243681463019448,0.01771926097283045,-0.04711331203000334,-0.048369984717945944,-0.05420456589386806,-0.00484854622771589,0.08680101498527575,-0.01803475914786361,0.02642154018853867,-0.012464002067521806,0.01733546142292608,-0.002676445106029228###0.06851493669914571,-0.015550939075596484,0.1386983231527136,0.051941401957648105,0.042893017935131186,0.028185246899096437,-0.04451598322766585,0.038887599504742305,0.1453427553703836,0.02000764278033184,0.11931661572660847,-0.07095400826423319,0.025235811352459645,-0.02024502007631089,-0.16609017640740362,0.1508507243381892###-0.028052688044461465,0.017456259673175444,0.12470468789895614,0.011666506287210849,-0.06936897293728313,0.04872103749294559,-0.016082380809127942,-0.10440951588183586,0.3235362140352282,-0.014137869805305273,0.181849585303845,0.007069275432529562,0.014855438488611672,0.026859450457679755,0.08736157936347004,0.03691362443586248###0.009786014572064787,0.07452514515053434,0.18568859314488967,-0.004198139755787223,-0.10286043140595745,0.0048527121601273536,0.03009074899508457,-0.11543492443524964,0.3822209316139869,0.03795346478637024,0.19923837596340305,-0.05034400535684667,-0.0514688339184936,0.005216310769773047,-0.0884396620913154,0.09161998342436463###-0.05577359054921569,-0.0754141804377526,0.17852349344059815,0.006651862771670134,-0.05854032573060418,-0.04372260913728248,0.025638975458395264,-0.003399989243145942,0.5817266956912195,0.18310851220675597,0.16377528377372155,-0.0590091710756477,0.016690159676712165,0.09595066925247735,-0.15999957972306972,0.20781267786107124###0.037651394296245415,0.09344225686908984,0.19905803226566804,0.03708955321591615,-0.11010042708125743,0.11143501416085443,0.08167735375247691,-0.007324418515858996,0.5055447691380672,-0.04147370325146089,0.2892903920828553,0.0999874676575527,0.07876870003735788,0.03536126947524264,-0.2912766014920187,0.1617942144852629###0.03897054397373738,0.045064020840572885,0.02927435400345699,0.017069764933079646,-0.026028793691534952,-0.09089462432002296,0.05372327920958595,-7.129200321867711E-4,0.4826503674918836,0.17390291159431726,0.350519587809045,-0.024194656571231616,-0.028936611198937583,0.04686739858560797,-0.3897225180761907,0.22695084654849085###0.0027933807752799564,0.07968946640210788,-0.3382076975076617,0.08736948922059731,0.24509275689122081,-0.04050910024272767,-0.0030433960008603477,0.3399937166204143,0.4798298580273774,0.5638667251179927,0.1728139039048099,-0.4378148327317141,0.030347051859798062,-0.008147817648723726,-0.6681373840601582,0.32201184270516164###0.05425347078917614,0.016162631742055674,-0.09682183007294451,0.02243090371364836,0.5349248473717951,-0.09531834693846905,-0.01777795178438196,0.2169914312872361,0.31921843671431455,0.6953776477368019,0.4187909578384544,-0.761500508930811,0.012532672667498971,0.05863604603859564,-1.262187404142089,0.10429086917097452###0.010806552119348988,0.012627809015951601,0.10079760920480196,0.07009283727856493,0.6889772111136105,-0.05083560760624281,0.04381378833796837,0.4552827814247414,0.30124872794748075,0.7234673043619474,0.24859918218709445,-1.2130269487122023,0.08478617167046644,0.019420129328774623,-1.1817322532674193,0.4553787594522403###0.04243641664969332,0.08185517347450089,0.38953738984454916,0.05192865071938311,0.6099826625430811,0.0022785681475310585,0.06853386442828108,0.6407312856983195,-0.14145807886938652,0.8835136148125912,0.11466568305010862,-1.1652827284366558,0.08218713907590787,0.0075386177716275414,-1.2151742739548907,0.2469393521023857###0.06155185822461936,0.09738476796071875,0.11145971696689849,0.1199207085224783,0.6391723022434056,0.17772127546081157,0.03876906439328272,0.5330909893769978,-0.17643736770044358,1.0475479068983844,-0.0039878481558834845,-1.0609011073633325,0.12465220382220406,0.08099876644921426,-0.9620293740033125,0.3753737182417538###0.05767703697601921,0.020715976354462748,0.0972332556015386,0.014697239869755368,0.7384359247351103,0.26318505190044816,0.03208402297941339,0.4458960536237471,-0.28098542458760045,0.5553868790231619,0.0034646324030215593,-0.542789615106264,0.13573359092140744,0.07413232632667839,-0.6984214679916996,0.1349223663040548###0.05978735936032382,0.08275116068960595,-0.03803209424219004,0.02482245765933925,0.4972429460476079,-0.06188384451635831,0.029688063622383496,0.22362920069719852,0.06781825929564948,0.768483690126386,-0.29020468316262954,-0.546642244919388,0.08913321245498285,0.09589168624938302,-0.30812217737633685,-0.2412570234298761###0.08385560351514623,0.08607819372958712,-0.36904313295486596,0.04256072386728325,0.2381155708771089,-0.6010304016552992,0.07281355732094895,0.5609960309720128,0.05445759233015719,0.8463012852894973,-0.07701597309767792,-0.5456778009747579,0.05046603371498498,0.010969011387756203,0.6238135305288571,-0.41699456547257735###0.08410767287836947,0.04972276135101948,-0.438309672645765,0.05453093562855613,0.0836214607697818,-0.7791026906377341,0.04715913221604277,0.3503947971334549,-0.03198728508998287,0.4755902365813057,-0.12630246457333724,-0.36608675796545564,0.10540958627985902,-0.07351898909270944,1.1361213789934463,-0.5238757780677902###0.08050343766450879,0.04711507307893622,-0.49721193633860794,0.019481121524059803,-0.18040905326122136,-0.7462742637827947,-3.9853318800345993E-4,0.584673522891788,0.26051304393218416,0.16722205552397448,-0.07113644851272803,-0.3472993041880083,0.09883318175321021,0.059212428598058225,1.3200445762236974,-0.10398209635260047###-0.015660962250450293,0.0997769539609985,-0.043115113097645666,0.05611603744006955,-0.1494861578821226,-0.8660565266026653,0.03176149336218603,0.7391982003412826,0.025912430596731022,0.1710517709938577,-0.4790812357291076,-0.2861171805297214,-0.031483785484601616,0.030794698522810186,0.69884307562863,0.2904423838596438###0.006975883663995613,0.045049050233246395,-0.16101600598447183,0.03254337054477225,-0.17562026173372072,-0.700159476866644,0.049452156215286036,0.2796685258072792,-0.1820679604868474,0.22616665328920013,-0.542496116354964,-0.5183311469250685,0.00853598282517586,0.008097026458026768,0.8539562987661131,0.5972266002663017###-0.022361101274226594,0.05705917259635614,-0.21501680343401408,-0.00130864172854697,-0.32371175678849395,-0.39473193491586206,0.058244575360023594,0.13296775156944918,-0.2629101903823445,0.2647284881646495,-0.46908999806762747,-0.07446166235592125,-0.047971815110943804,-0.0033889447101269105,0.9156832058538215,0.514690705321427###0.028153921857874117,0.016752032364482,-0.17006675160674414,9.648564229054287E-4,-0.26501617499389496,-0.3644696054389335,0.0527460882333593,-0.21693481032937822,-0.39143402367738905,0.12596402452428693,-0.0939833987281518,0.5337172858381566,-0.04142735041442422,0.06494150617700672,0.8919782187699895,0.41261639074822554###-0.01774931738571439,0.01996678811772368,-0.11065214042181366,0.027827200567936094,-0.05521829159360564,-0.23325492050742427,-0.014643985603254188,-0.12517817568755532,-0.24734675828132197,-0.17557831811392682,-0.09706803262825366,0.37473323058724894,-0.031268911518126524,-0.035658251861709823,0.43792320940115664,0.31186567791362413###0.023215757189949185,-0.02082131434872845,-0.16869298064516144,0.015244528262314688,-0.03263961254282365,-0.1744369736540819,-0.004573953604444153,-0.034286237195098976,-0.22561917100511583,-0.1461741356268537,-0.06799917805607474,0.24982123158085512,-0.009273586031718874,-0.05632960977045879,0.2448304114043861,0.23985221470926918###7.155071374187449E-4,-0.021102632789070017,-0.15352693076439744,0.018981553455165695,-0.04970772923770086,-0.12945558359210607,0.05772564358108906,-0.02183005181177456,-0.11834511183220402,-0.08271935184857288,0.0352996391992543,0.09592569456845207,-0.043775980443710914,8.372952570138212E-4,0.08850884929904083,0.22595288708106895###0.03153867282293622,0.009447578248167667,-0.118815340159529,-0.019281313202995146,-0.0023972263722622966,-0.08030355486781096,0.011542882561090036,-0.07304483127725,-0.2246947981553948,-0.08322961973513694,0.0331261664439552,0.18555535196869946,0.07504782612702932,0.02150501295893446,0.11137350059593827,0.043835222199707854###-0.04879423373099007,-0.008625580722592214,0.1882304652870598,-0.02842519304329965,0.03726646086698062,-0.002609010559451112,0.025436327344122274,-0.3375485489373713,-0.07527323684579752,-0.12775624380616665,0.1691799329880066,0.10664051349741559,0.01353401991548109,-0.005884951202549291,0.040817134310707305,-0.14694782082383362###0.021629212260790637,-0.01433099795184734,-0.02616378441673047,0.09151477764004627,0.0040243364822478075,-0.03362757131269397,0.05882151413043841,-0.27955316186167145,-0.02687481190354317,-0.11551375869132383,0.1431655126093815,0.08792490841725042,-0.021808587117036243,0.021899114349161822,0.05319638415372029,-0.12385638536510314###-0.02628274017655874,0.01129025955674704,0.09104781169600339,0.005335216429375034,0.14881235987032193,0.01658157808973892,0.01771316035593274,-0.2758324462284185,-0.10691136604830118,-0.12092659022550936,0.15181810467528378,0.08684461900041243,0.043589946655119935,0.05274372519354119,0.07639422752509174,-0.21526370697783412###0.02856052746827514,0.019123052112871686,0.07532245314042962,0.014891354328349557,-0.10065427528714432,-0.006140395012298475,0.052312393773019945,-0.08960550826579053,-0.04533735060772864,-0.07780903560381393,0.05673656957890201,0.041433194267741454,0.0284773426175379,0.038995847481424005,-0.04002358875022911,-0.12738880090913338###0.0349373774741119,0.06591611898568334,-0.013494618618988052,-0.002771293032156898,-0.1111347905441036,0.005114737466096815,-0.035068777074684206,-0.011252041050778507,0.2660809241628143,-0.008903642572588449,0.15804724024799735,-0.11266321898133892,0.0021395176818764707,0.021681655274351334,-0.12833086328261734,0.17076328764799142###-0.029042054121636875,0.042610984090470906,-0.04990838576648207,0.028198387156102536,-0.147436511793578,0.04688028280939005,0.03405579768425439,0.021897689152390095,0.5218673848504123,-0.0010279314016805644,0.2185369382556234,-0.1297334882869431,0.03855588039245988,-0.005188753071276163,-0.10293631920731025,0.2577178871309534###0.03970381396051522,0.013920778443772671,0.0634718884779365,0.05114796690039728,-0.07360904492600905,-0.09590834285026373,-0.017807735867388024,0.20277203773835809,0.8993708579366273,0.10430537924765702,0.21706464035184717,-0.20260213410100114,0.0027573691104436607,0.015396079488283542,-0.22080504416624078,0.2179621785234997###0.0491581894849446,-0.037700506605740064,-0.0184724693064519,0.06316529607367,-0.15757993726659741,-0.1555682891907205,-0.04911542032708253,0.22131780154105987,1.1769408285474754,0.0401174911314955,0.2677845958286452,-0.2693446362950638,0.017134618567387617,-0.06539903252077697,-0.3177018580746167,0.326976425810744###0.06913550069307961,0.03567809611629961,-0.359492744060189,0.07151967031790796,-0.035731537438874486,-0.30601296582319054,0.03610831054559916,0.14323378275775656,1.5092947585806367,0.186052242722403,0.3985367622563661,0.1148808120621511,0.043159813785637886,0.012765701167509408,-0.4910744614573059,1.0391182491713375###0.017943317419352966,0.07046596157077795,-0.15302620552006585,0.010171285318284035,-0.004353515957074811,-0.19003030507137542,0.06413726738914202,0.39889861555554845,1.7913075107002285,0.10874565025509404,0.6316349685635134,-0.27253022560886203,0.012335463686873289,0.015937522782274095,-0.6894600847222875,0.9363122255475288###0.0560679444834564,0.03197100558886908,-0.3045478853692642,0.04056290367452566,0.20181571506994544,-0.021624568309563608,0.007101181114960437,0.39648116502313835,1.5933545748513274,0.09434695923107263,0.3526819409718731,-0.5774147457516482,0.108371780251782,0.010125575729687497,-0.9839875511430991,0.6274141719401217###0.0550177672095619,0.0020454462618681732,0.1984176408156321,0.06472459983095476,0.22712488302432485,0.5164513997558307,0.0094252664333956,0.15611445233654095,1.4610297678731683,0.04368928191411436,0.40581057333515863,-0.8608300644368388,0.032819382467494086,0.023686892978981397,-1.0797069657256495,1.0393097462792826###0.049151274348547415,0.07930632700561743,0.2680158422174444,0.017066964599651208,0.5362551609898941,0.8755371867243578,0.12519367234417744,0.3075244346911699,1.03974150989467,-0.14681972232631102,0.3439452019649519,-0.9240798748219188,0.06563343070860968,0.071222425555856,-1.1375662499857653,1.046006035083673###0.12254160890758475,0.06736215595497659,0.37923645829302177,0.04932377163771088,0.6703003438470856,0.9955856961675283,0.07083358005241872,0.6209201522804366,0.7243500089267516,-0.10624595281084076,0.3270138717953887,-0.41344449254641313,0.16590841702935705,0.11259264746656383,-1.4434203918268973,0.9642344380864766###0.09264725264181105,0.08311331729072134,0.41012638693436243,0.023054292249935715,0.662810258791201,1.1843857049298752,0.034104164415654344,0.274429075175811,0.4469494731161822,0.014406951383306969,0.32277069632062794,-0.1600166916483422,0.06836859090897969,0.14932470051166422,-1.425393643479755,0.6268236191874358###0.06741157961487974,0.06417008203499347,0.6706330457657279,0.10288463278576501,0.6294834445524293,1.3681399955743174,0.07465910031013696,0.00575602671489858,0.04766640264351588,-0.17733062316690262,0.22389605052951295,-0.11930339727086428,0.09098226291732313,0.030794067316157817,-1.1575061985276325,-0.2257943892428524###0.0935270007024519,0.07081258186133496,1.0504036557618526,0.020842352414092706,0.5929399616270755,0.8932989773427576,0.05421746479070486,-0.03089225222239182,0.2772204684767292,-0.03787927782272529,0.48008688836924757,0.012488599561527876,0.10498556839519785,0.0950466459991474,-0.7304381896720965,-0.2935934844428491###0.035295532266094644,0.0027299350509943075,0.5281228821405292,0.08440661719655211,0.6017257670420006,0.2977593824953339,0.08417303473776468,0.11562804188052177,0.18687949770187776,0.12588004064579478,0.41743850491495105,-0.14811646190005176,0.10622065895442015,0.053830085138637226,-0.19753605737921293,-0.3489351591032768###0.07443042546749187,0.06705646011770436,0.4379572603500061,0.049555250394778656,0.7523633294657088,0.29515048110210723,0.02005815961045779,0.08343577833600628,-0.09819154929003134,-0.048344852564628574,0.19281661325250302,-0.19827930393576998,0.07146571596934459,0.03462278803094321,0.1850964767248677,-0.10345325390676624###0.04710952118139596,0.03535137587958291,0.12260056609338914,0.015444382150273639,0.4647364450338262,0.18346117789108835,0.017870964211204845,-0.03786529763659665,-0.45355397441296447,-0.20755050714934287,-0.010231760992492754,-0.24524263298899043,0.09427360226487594,0.021868080031600644,0.4375560819308962,0.05916251091135358###0.04152211738424249,0.063729678856955,0.13562386631108592,0.09290316806496036,0.11690885421983833,-0.033552084461783364,0.017288975250426716,0.06303137873978812,-0.86027165343098,0.0584320183378634,-0.4788470649429552,-0.21530259552030442,-0.003684830501562247,0.08995652030688603,0.3024040067215119,0.1255401717448028###0.04428375051987263,0.027266080625680467,0.16956743928267687,-0.04115921124034992,-0.039557680474463994,-0.132320726335374,0.06807680278588872,-0.07330254094398528,-0.8491406665738682,0.31420140310221745,-0.5807545033373938,-0.37249131808445823,0.02420537188910079,-0.011851415691969106,0.5531678825150265,0.2624080458588475###0.006207187097217422,-0.008412030583434425,0.02405304013863481,-0.0054303251096784085,-0.07801791227259579,-0.21021327405949136,0.04290109289771518,-0.32881159953319244,-1.1001330579085735,0.2859863859893467,-0.47146180394854237,0.009331169330670274,-0.008695209153352278,0.030743497277039525,0.7318439783400544,0.08334346917060245###-0.014779529363161344,-0.021346999535223392,-0.038139133185499434,0.03070768230218,-0.27485000995032005,-0.36134214410628773,-0.009395054413591123,-0.6353765392876596,-0.30539702175514444,0.07596267190901834,-0.06917573860440587,0.2623980384047018,-0.02510415314338304,0.014945343965815176,1.1290297533128022,0.3831732831313314###-0.010437460687322486,0.04386125758936245,-0.22898014281033333,0.07536953579430762,0.05261772696473754,-0.1899248949017001,0.0631666025738195,-0.5058658653796224,-0.44654413399650983,-0.24656553704418682,-0.005377310175355037,0.6066177602883456,0.056797255202296525,0.12912868495187693,0.5459973092882074,0.4573220361609222###-0.04696923898643658,0.01954598558695201,-0.1377912574468326,0.01904594968866681,-0.008688418012526766,-0.1930488480036008,-0.06786862502440806,-0.2879286875757565,-0.28749740923574163,-0.1928114416433996,-0.017545516585995645,0.2884953705995663,-0.036519620935759785,-0.043333557015075866,0.44186933576638365,0.2553653129596643###-0.025113697724383714,0.019599669361821025,-0.1670166419861222,0.007630740993067271,-0.0843842484422813,-0.08929790522282695,-0.01350575962455719,-0.033387913142093446,-0.2650222736582256,-0.04992171914792984,0.030139685939061116,0.07735161059580645,-0.037344035580708285,-0.05101051794321566,0.10866469631102207,0.11945445384837881###-0.02078237135877887,0.018566515120188913,-0.1803999155382447,-0.026803751215461774,0.05803100386585438,-0.03426306549685507,0.07878178740758665,-0.17240982014575765,-0.23637570065430813,-8.034509398825246E-4,0.0010173839690172833,0.09499351780102637,-0.030742713819914107,0.03444262285177644,0.048732506195932966,0.0404436177830227###0.06316118273627139,-7.681620763674802E-4,0.10388752239656887,-0.02942264970953317,0.032614767736091066,0.0698622384568824,-0.001701329286169944,-0.16580300269579978,-0.1288210145181377,-0.11615335999153222,0.17528403437456933,0.16146252338973502,-0.045043543786961064,-0.007423790750177649,-0.07357089387637664,-0.05892710561315714###-0.013992248286966916,0.004806622917536914,-0.04656211052440512,0.048214397396990925,0.04870455398771771,0.010225330131758179,0.07198046106367394,-0.1764745913170447,-0.09594365027435091,-0.21111220086380358,0.027787181838659327,0.11172531372426257,-0.010885874893660828,-0.04247882880995181,-0.0964252392552871,0.09283389664922093###-0.019328197096158222,-0.0752778487061768,-5.851452562209002E-4,0.008547878149331663,0.05505152051820621,0.07971999851187779,-0.029951657613346182,-0.3006254335108715,-0.19344876638647715,-0.06063427313328314,0.14836620139892429,0.035708258157458116,0.023670626177501493,-0.003075539929280828,0.03950269115636643,-0.09367967198040404###-0.07975208056143962,-0.021215222766261626,0.013153490900418613,-0.02353952038945133,0.06547761663149923,0.006356860279711623,0.03616258211783541,-0.17879644191856767,0.09154241482666207,-0.036716162521627314,0.13551295480821926,-0.02677566634078613,0.013630681151044469,-0.023685840891156273,-0.049530411149869835,-0.023923660728149217###0.04702906251602057,0.01856731458365546,-0.05918204633935078,0.07070982997467085,-0.0805537059374763,-0.03283918351019248,0.02506170137012824,0.17020389967864782,0.2589233710777575,-0.05996309405857588,0.13266164194577995,-0.06552378466971877,0.0183603384563207,-0.038664993132857144,-0.2808426299223774,0.12998072438960728###-0.0368577188341643,0.007761187459821239,-0.20421172378574648,0.07127496937927733,-0.2007521693785919,-0.19009924194893524,0.04701780624252902,0.5379156170135381,0.5683848385661602,0.03515878416540426,0.23593157589874786,-0.1379948292001587,0.04212547864310537,0.03705943207037233,-0.18732731210533893,0.0010244458979268719###0.047485619243009744,0.03668969908968068,-0.05195581287098596,0.03831704516218089,-0.11270773022532762,-0.24214581589392972,-0.0588794079371721,0.47751200062631405,0.8495595838734595,0.03365317463306798,0.256942348677088,-0.11195984550336115,0.040545596843472066,0.0045918424780058914,-0.15679908544034588,0.0287438622156327###-0.018605472420856653,0.056042137779235675,0.0036452745598077284,0.05035174178264132,-0.1321749537711989,-0.041731122092371266,-0.00670644231049593,0.3128036494456874,1.0960193187920917,-0.01649926741364218,0.31826071862351085,1.0348119430729781E-4,0.03641566335246486,0.03235336741124183,-0.13589964415212724,0.0791153844817449###0.06623922027517404,0.08197964676122796,0.02953980932328268,0.024532734455013985,0.06867920975381916,-0.09548624607897738,-0.013796791979258786,0.2853306561537607,1.7359284175566232,-0.09765591119026193,0.7051187662382795,0.28775913388054714,0.07121498502535706,0.017165837081716116,0.055301694618436086,1.0067433046582464###0.06935394759662307,0.06581945009047681,0.07179933001245017,0.005025045873998581,-0.020222564942873555,0.1822794115147944,-0.00795899384361042,0.0025756704234148036,1.506668014076404,-0.20306255046245253,0.6341215056709156,0.15241455548771315,0.027461089650017423,0.06379544016461568,-0.542533676333976,0.5866581947281589###-0.0014730402296230856,0.05551486074014793,-0.23426666060849152,0.13559540378362736,0.20352863559120454,0.6464145015557801,-0.010005286139391474,0.04929804138054716,0.9813511956216503,-0.2924352546295843,0.6013069233932514,-0.18304960072106238,0.031861032259622946,0.048089493631637135,-0.626348670420275,0.32663715009316596###0.08708269335029602,-0.02510300469695316,0.05544453113086603,0.025071713002912086,0.07108249571171722,0.9148602762063563,0.027417363168388793,0.12936239573595526,0.5716085179828919,-0.4766631829769498,0.6722444153564288,-0.12996296472954008,0.09587754086160198,0.021954949939785227,-0.7044826598483817,0.34702189394469274###0.09946976358506458,0.07320397064152968,-0.26125592947619664,0.0481183313967765,0.15296236954107292,1.2765637852523672,0.1204033480625865,0.2810991043676584,0.07682384564442475,-0.5303626033654083,0.5123096627380074,0.08495965154340074,0.09588611081255366,0.06474540519838899,-0.8781573113275843,0.15732529383104057###0.1491513915128724,0.00785973035357144,0.09816459983127256,0.10380365066162381,0.11773749351384925,1.1189944202838746,0.09049730471972474,0.3606788984094617,-0.16248576092604058,-0.5063840674673009,0.49947341365014447,0.20072350007551765,0.14465087264694199,0.155075183344707,-1.2555122700426693,0.45524816437786914###0.16688879254398445,0.1223493188118734,0.19691628473685258,0.06311059159194977,0.26480904197573096,1.0285468448815678,0.10676253399485951,0.18741667431861894,0.002451608015409672,-0.5309195964338725,0.7936067371193014,0.239366715589866,0.07735643998760368,0.14398952247488814,-1.1959053792241792,0.16535705780719614###0.05322597886612103,0.12836155512838385,0.5180873750500847,0.08704271298695648,0.19860624400531782,1.0511204195804567,0.15786469586098412,-0.13669611216413466,-0.08924694209013324,-0.7683829919499692,0.9206825233855686,0.5907181043066356,0.12421921379105966,0.10161884031448457,-1.1392502347272448,-0.32241965917810955###0.041057595923732315,0.11030736773946423,0.5702061186570613,0.152048660335668,0.3592853903022772,0.7052648698728341,0.16966860151357202,0.022759028779632262,0.12983534748139097,-0.6152240038492864,0.7813855746727366,0.4560506771454132,0.10546387386115494,0.14570151727997094,-0.7731113453518916,-0.494138166188639###0.06880211421103137,0.030905618361690756,0.2039896991888719,0.09920470973072726,0.2903631210748246,0.45683451063652036,0.07148699139194238,-0.16098114454958562,-0.18859301136763035,-0.6237272421793408,0.7914447061448283,0.2605002100182468,0.18061651907599804,0.07144427022797575,-0.20974568009465291,-0.5044136298100126###0.07994887494875977,0.11595545080918732,0.4359183396001006,0.08815352579180159,0.2688089316103732,0.314112155151348,0.08619855905828683,-0.08723169379372506,-0.6660955698890476,-0.3515989167088867,0.23444220010726938,-0.15651675993863973,0.10675427451287131,0.09044457320528343,-0.05392068607100951,-0.46502387533809003###0.04672372345201001,0.09085963867157792,0.6392721133343097,0.05666715774952696,0.09058832059390935,0.45556675994484586,0.08034699349543784,-0.3336417435940534,-1.076365087474692,-0.4088869130538272,-0.07324603884262326,-0.010785088616569046,0.05406914639447731,0.006725745783740689,-0.048462360196005375,-0.09483414242518125###3.652432161691956E-4,0.03741953678642169,0.309638785172825,0.07763323609042613,-0.05109932841599374,0.3249776265652621,0.07509902756461047,-0.18045675785871143,-1.257837412134061,-0.24624325508173137,-0.356979034444279,0.047395435135176266,0.05659910304828018,0.03263139985453534,-0.0019243441410349985,-0.036209938587707866###0.01886900933211897,-0.015331385394398728,0.29733507387693925,0.040602651436466804,-0.05234120967132814,0.30178054393163367,0.038429834105193156,-0.45960476745901035,-0.8958416904064159,0.19664124215981127,-0.3499444627343067,-0.07149090556267217,-0.033035291650789035,0.009093562325436087,0.025282439656076204,0.21287786796504332###0.03924973660682486,0.04355686794171357,0.09554327425926341,0.03240468441953423,-0.051599780167060905,0.08205568380779074,0.08183799346011414,-0.9444783695805672,-1.1467171888455394,0.01074442937381088,-0.017855218077615472,0.32777819551656806,0.009440134453447251,-0.01810561407307401,0.35546563422397154,0.29462736146516727###-0.0026364053911186506,0.049210496476087544,-0.4002831127859701,-0.003897155075551064,-0.09046783919495728,0.3511244763747252,0.018650950939230544,-0.942742269082713,-0.517693759955646,-0.2527517132960899,0.08121086292443025,0.983432018976257,-0.04826134491114515,0.009620917367033317,0.6673673692041592,0.48587523782258857###-0.029089950244887426,0.01756487304772607,-0.5247177368013278,-0.03603525534574735,0.06645940066735996,0.12908303025079235,0.03304306547709256,-1.07371028834583,-0.6691658171099912,-0.548440566777328,0.11625992126931974,1.0124702007078803,-0.005793162583847504,-0.009776075410896992,0.5957052340775233,0.6538278007485218###-0.028329751238245705,0.034179713745389084,-0.48379888873393656,-0.018424049852360323,-0.018530285061844114,0.027524236830480824,0.005466183084023683,-0.6963473617386378,-0.48752770514266863,-0.33523937095758105,0.14507368942840693,0.6338188796442789,-0.04539952351857159,0.01676344642383582,0.3681732319953352,0.44026622400185367###-0.04537949744573062,-0.07957834199465567,-0.2929495804507547,-0.014576633353824975,-0.046047995747312664,-0.007807207035507548,0.04877084336669298,-0.25232866836713214,-0.24349055050329022,-0.1941450309172093,0.008977063559870595,0.18194026078985392,-0.0590233728672329,0.09097454236299565,0.19803098458413748,0.21539300095533867###-0.009748711985474803,0.003626005189877877,-0.09551049247896091,-0.03366477407217932,-0.001273923547939062,-0.025496862468979267,0.008692481765961706,-0.22080247346754475,-0.17489625664620334,-0.04193700568983833,0.005814763634045633,0.10453444577493631,-0.02553579643920793,0.0031746627281776163,0.03932232141778154,0.014062918669960879###0.013870858013035921,0.02069508356961734,-0.06062954623772253,0.04230061159531386,0.12350414857831345,0.2469742934485096,-0.020769092052248014,-0.18400422319709395,-0.08630084560473808,-0.21750012514180453,0.06771171310909933,0.02221616957993701,-0.03205724247079255,0.02712185227444552,-0.07243067297731018,-0.3704213640963104###0.002535982915221915,0.03322412961316143,-0.13162906324842794,0.06521065569383384,-0.08018174260021045,0.07225830868663165,-0.02311355174768718,-0.15170315310942334,0.022983607558676275,-0.07682956559757192,0.13291510246310054,0.11929344726414168,-0.0018215115277229394,0.013162813353667147,-7.028639898856875E-4,-0.2152372505612306###0.03160120774402313,0.052634234214249086,-0.08569781186312538,0.07510884495633643,0.013066635400284899,0.08373634762300329,-0.009658138417501997,-0.2425414822207208,-0.15458398374692112,-0.16808598855602327,0.12763422411267597,0.15756990333564436,-0.017704510639966968,0.001623314663501479,0.032017255656139096,-0.09310058418976022###-0.011560380258896054,0.053671178237654174,0.021870170065900373,0.028324702997580328,0.006367079537093081,-0.021690497873878944,0.01966747641325652,-0.09842720497513165,-0.08045630685351005,-0.10684931444768185,0.0502715678399123,-0.005635952778932375,-0.025239455709166542,-0.01656117655307002,-0.03677926240666018,0.01100726890707538###0.017375498745221436,0.0035196496388272707,-0.05922362980351955,-0.0013247232280480146,-0.08551262334628461,-0.04844673822683101,-0.006777992313190118,0.2705066671975109,0.16382141733097835,-0.15692944889281726,0.21240045792235135,-0.0714073193474559,-0.0132185235571531,0.014077730343248449,-0.3501708566449922,-0.1315486174824682###-0.013576278724408683,0.08662574606453823,-0.1368892302070207,0.05111199586118483,-0.18453567104419977,-0.19863024919866923,0.02779246267816531,0.536166255660753,0.24069920260773311,0.017414657393577185,0.21300218806468244,-0.04318271597554549,0.014047954309283331,-0.013608801292007339,-0.3898603068538752,-0.47414903044296686###0.007682338244395514,-0.0067737518951911675,-0.11723637152562327,0.02960954084713166,-0.15167553162299607,-0.17180547739124463,-0.04958652094560031,0.2592534639901131,0.543672697413255,0.027527550696558007,0.3394259577080366,-0.17330193594733972,0.01592707544930479,0.10053597921862971,-0.20830352955953538,-0.3984792775569235###-0.002124421490890425,0.022823437164235592,0.15383660501149507,0.07145067473364985,-0.16445266803273287,-0.04865879601189191,0.024000247210572402,0.009519863096194492,0.810822388095228,-0.006143139860898767,0.44647532718888105,0.018046870214253004,-0.039473363438801694,0.01735555867049577,-0.13501617601997162,-0.32185249349290773###-0.01064323501798589,0.06145163807477205,0.30604295504639467,0.018087023064045523,-0.027928768791983943,0.05690804042694294,0.036355727626873384,-0.09756827433213008,0.5931353524918518,-0.17286054301324694,0.7739799827056117,0.028899207643681788,0.0766782027730477,0.040327480771291675,-0.15849039123672057,-0.47386329187531495###0.05543569068913491,0.03312481671287059,0.6773510508415628,0.0948891883854775,-0.1857416734319359,0.1828720889988649,0.10505553759545928,-0.3693918091994152,0.026729160356911055,-0.18550150421898806,0.8467341202907946,-0.06520847696626936,0.011959044657289924,-0.015236264757921291,0.04405924088591979,-0.7763863444695551###0.06489997865542162,0.12899422323492177,0.28403200691808694,0.060802187857958975,0.02384365975644602,0.22101872601925013,0.012408158937986372,-0.6772603456501265,-0.530393165961679,-0.18928080654657709,0.7248742129834211,-0.34832129938538714,0.07006496195688469,0.05392926479765837,0.1021664334938573,-0.5632039863371835###0.07861093196557954,0.05332970525495238,0.14919062183370174,0.050417972201048926,-0.08676263706136207,0.26772426229194135,0.04646713900639229,-0.2276795273556997,-0.7216020752347916,-0.3056852734507255,0.717500486863599,-0.2899127741877263,0.10769851216685661,0.08635930197987236,-0.0988865354335243,-0.3370569473963169###0.13865985672175682,0.10077725279616752,-0.30859088235458676,0.051557898232019464,-0.12998866428358338,0.5840303685077886,0.15504572964446045,0.09237961616139166,-1.0954652537580443,-0.3724812229548762,0.5374690355419056,-0.03605383793060456,0.1312159140365068,0.03804220597020149,-0.4259925588934066,-0.23640982864248272###0.06717204482283504,0.14184944589330997,-0.01643542018204448,0.07212046351329165,-0.4429434085211562,0.6728014945230465,0.12854397688106417,0.5176165170371232,-1.134659971618584,-0.40269145899934394,0.5638131662946678,-0.017279940100301358,0.14661504823504767,0.16498328640693652,-0.7809022952833281,0.07311817797951574###0.11737987171802067,0.09558790620693831,-0.10734345168364888,0.1106429943466738,-0.37051080609638454,0.5388654554148335,0.1295233171544037,0.7428241498880253,-0.9930924166851465,-0.2047287327505366,0.8145237532689286,0.07640228501981543,0.12325979262153648,0.1568368197257334,-0.6122841440333257,0.07579822786557656###0.054148583202652374,0.151788771791666,0.279678638389316,0.11011643267123615,-0.17554722290153055,0.302612370545469,0.10502231089311828,0.31982135174181436,-0.6192371576665646,-0.5854108377273097,0.9854582481113471,0.5555234570251673,0.120854079119285,0.1026449394261752,-0.624760513790877,-0.1855774056868729###0.10196738264955638,0.11528838982455505,-0.4178559968373045,0.08852398118958489,-0.13260410632215328,0.5154050923148645,0.07172703338500136,0.3351333262502869,-0.6138526602503744,-0.5722033468878345,0.7685527113989653,0.15876770358691097,0.04292600717254669,0.08119785763788474,-0.09681349631704136,-0.14939270116205403###0.0996889085013442,0.1247156201282674,-0.15810060269475557,0.09037789092158223,-0.1960212799622331,0.5311553573746711,0.16446143258994805,0.24192702754153442,-0.6967159420739205,-0.6282369677749983,0.7901388377406758,-0.07937202086171265,0.10785443568610896,0.1217366975019427,-0.10704401708807218,-0.5433002667868198###0.08616120507476097,0.054734487425757095,0.8759175835631331,0.10587611331868287,-0.21969675876534428,0.524948029085536,0.14072139460201488,-0.14131325445031576,-1.0002723183750792,-0.5407089375969903,0.2164615964973645,-0.38684559133143553,0.04543465527724401,0.1100255647635487,-0.3608542957532025,-1.0372513737042943###0.06422499757714727,0.08969987854984379,0.7941060457270753,0.0826601043581991,-0.030802337088564963,0.5740503219078191,0.08329858015153213,-0.28169271702049925,-1.2802088847706332,-0.42612516137016065,-0.052159910356641574,0.007143330163580737,0.045226258867016686,0.10034557818169317,-0.5059782177768708,-0.6226128211717823###0.054498810178518105,0.042314526276948046,0.39528983719628863,0.09511191072442776,-0.18640569330027545,0.2102630107932012,0.10782684125684891,-0.001969595396144203,-0.7045067008313972,-0.3345356743494374,-0.14900148985978684,0.13179906627188973,0.056981066648790116,-0.012076565615607375,-0.57601412709618,-0.36617898141499583###-0.05156571922314513,0.1093517820739798,0.4198832805978641,0.07921494529813494,-0.1539520496161227,0.3213506908265439,0.09428631224542035,-0.36174147296035347,-0.26910827729927195,-0.12978367643776614,-0.04101651393499548,-0.06581861630275503,-0.05447031479118377,0.04557167037881059,-0.5368996459414015,-0.23176835260830572###0.016708760343408995,0.05135850526945922,0.14003923828796452,0.0454853583703477,0.08861036939804869,0.39195846860310124,0.010002411054560994,-0.9894829528014095,-0.3231615857216787,-0.128727106000877,0.1432683391591872,0.25736951585417406,-0.07363964991946795,0.03140518779996451,-0.1748060952949162,0.015119887923770736###0.056880357947015785,-0.013618146362702465,-0.26443153030070693,0.05164530903791508,-0.026290605463310007,0.4950681409178959,0.008937279200730454,-1.1341899565960372,-0.5219329859960349,-0.19358465189732976,0.20069781308525164,0.7583014502185261,-0.009207507813224785,-0.05976161608369228,0.29495130594695396,0.014788359231309734###0.008496671975154298,0.013579781094862934,-0.5910908156216099,0.040715131518533065,0.09249287533839859,0.3612006311284597,0.0017379104633962722,-1.3622898747556926,-0.7093046045638186,-0.6925188020707179,0.22292438052927513,1.0293603831388176,-0.036628924544802634,0.054213719143449184,0.38319747575564855,0.7815990270856759###-0.02137418646895748,-0.0188575052313227,-0.57859262898574,-0.07898973622022885,0.051393312842843215,0.28819732346585364,-0.03479616887730495,-0.8505549290273571,-0.6427066613749043,-0.48696508501598934,0.11365913675436741,0.7565940110428546,-0.01608296996637455,-0.025639943199273586,0.23772509000257572,0.5771493656286875###0.007821372949363432,-0.08400582094764882,-0.3863508462241702,-0.03525862155978337,-0.13873061747727616,0.10991912026545957,-0.06522698731114339,-0.4149295651410366,-0.38436298866982355,-0.30327409501286917,0.079628776297694,0.408926103192733,-0.038118510788899766,-0.004420648740854783,0.15198043244547738,0.357338096618897###-0.017596769609622802,-0.01506356443655632,-0.07303718366872335,0.020925387197796005,-0.08187458473970391,0.1556401167683089,0.004947390354002695,-0.33190884853604163,-0.40023750216933346,-0.21264904978692756,0.07073465245426888,0.2401416431567572,8.281547543796799E-4,-0.05369809231310772,0.11553744250674228,0.2241083893140362###-0.013995168324947169,0.035196922794790524,0.12254123426291536,-0.054914902615313566,0.15271265460813926,-1.6013146502552196E-5,0.009465442243804953,-0.011487726869628779,-0.14313004757241524,-0.06254562569086504,-0.005495342868007973,-0.0695285653499009,-0.024778384475775468,0.01916153371509677,-0.22566217347132356,-0.1708490659231775###-0.021665240172642878,-0.08395606921105775,0.13274510194330946,-0.010273555499570482,-0.04171444005739795,0.054651678517028346,-0.011226817746539814,-0.147602324427208,-0.10135337274240348,-8.313944091464978E-5,0.13335542386007826,-0.00633177115914545,0.03165538841466506,0.007989064127525133,-0.18989975223635633,-0.4278726993947971###0.014599435408262603,0.033543914641186175,-0.013519262635841573,-0.010080817149647524,0.1770552890110687,-0.02657146083788751,-0.0044280283735326905,0.037549238095153356,-0.2608589197623789,-0.1733933978766305,0.10956318671085348,-0.005301531536534465,-0.00605989715360147,-0.011647037088547092,-0.12079916720457388,-0.4424984306651394###0.007347492988870684,0.027134755974114817,-0.01563916190716911,-0.02675944470679489,-0.061481891116468956,-0.2332742642763169,0.045499160467428565,0.23057876780025655,-0.06203377125759469,-0.07459740439939178,0.20676441934791315,-0.010322309191759057,-0.008754207648774243,-0.056721720068638785,-0.12234614455213945,-0.41450739032861694###-0.03599077518364158,0.02585471803135861,-0.052196304179839614,-0.004746180630140308,-0.22279403571691436,-0.39693997940956194,-0.03095420461160904,0.5889951433738497,0.3148269222638898,0.2148522833291121,0.08832663877336377,-0.3252149269607282,0.12809732211780314,0.0047744292158262555,-0.25698423240139623,-0.34893081617799787###0.010379216320976005,0.029983001127011733,0.1309208729120705,0.034679693564967126,-0.26419791935349873,-0.27137431963911024,0.012445692246097583,0.46328683705176044,-0.008903959383671388,-0.01794242454781938,0.1226893282430621,-0.21857499719978646,0.11108561832501831,0.04232383230654536,-0.2287205060372608,-0.5585785226748924###0.05218094817993603,0.04493111867554652,0.31546652105957046,-0.01436661362937888,0.17239531380789036,-0.1072693849999757,0.03767353860348979,0.4434902460237623,-0.017974048356929107,-0.05468591732239016,0.1488095200622162,-0.6282086068816446,-0.01301298646675104,-0.035887339253823224,-0.35561748207363164,-0.7295944965594109###0.06836168001006274,0.012561927296899072,0.44363381581225697,0.04806885793423034,0.034835889512584046,-0.04864058950541537,0.059948418917866404,0.04821173433162791,-0.07607730185834452,0.016701260486557234,0.2576284909056675,-0.7237371904795274,0.035337336164189236,0.019506731334764462,-0.34244295889302057,-1.0090200172367358###-0.01813619022858553,0.02633693366790093,0.5834593202082236,0.028019727957859203,0.05780711452555898,0.06748229405303255,0.05611950158014887,-0.36157701899056716,-0.8136475883302572,-0.31090558643640265,0.7625373633545536,-0.3768732313001876,0.10819394471477457,0.01482354239695817,0.2688580899655043,-0.8651702710138177###0.07167644516752651,0.05816392967520394,0.9099075866332965,0.05542156126374856,0.16759182205951037,0.10646897806150765,0.058556735721140965,-0.3032533305252559,-0.685921598635474,-0.06009065253989688,0.7508504176205656,-0.5216450492594139,0.012985449353493295,0.056615930768362424,0.05858794249940805,-0.7778972108958105###0.08849744695569582,0.05368279012960325,0.8716581274733533,0.09913806189200293,0.08423859029357313,0.1449048111650171,0.05288961397855042,-0.466332494576985,-0.83285291067031,-0.027790938581874702,0.7178044927327538,-0.6128795410738026,0.15574001438304874,0.0177366553096768,0.2717966116437022,-0.9276082331741449###0.04806247530608412,0.025461065042092876,0.18997639316615064,0.10604550229213347,0.10087993543148185,0.03484526115061541,0.12169997620050281,-0.11001532171885688,-0.9399311547011999,-0.0011081530224490111,0.7753442168880553,-0.6517461555864886,0.08334180094457355,0.11253753019169675,-7.996374090860001E-4,-0.6005048932826116###0.08232512459108443,0.09947401080402109,0.09109771260881519,0.13194680281504279,-0.11577491530483479,0.22135662415873303,0.08614604769595054,0.3682843968201024,-1.5270537193952116,-0.10823474271944543,0.5709245211064137,-0.525504649669585,0.05126515938455077,0.05197621125040524,-0.23731119645960322,-0.5224592258223016###0.08766740888931585,0.09846896119424951,0.2625015701967627,0.07446135227980138,-0.3458648966969372,0.1692793415231831,0.13336170740685147,0.729798191180953,-1.7577600437735774,0.05607088682679974,0.4834476126757093,-0.6377958614482678,0.15874764247145653,0.15807680403718244,-0.5441645997480924,-0.6489211365914812###0.16654860016704537,0.07681298300567516,-0.2701780659913997,0.166421763892907,-0.2715118534279122,0.28623810056816756,0.09794034858832827,1.2437906504763088,-1.395817901715804,-0.1604072090979453,0.4878281343330823,-0.6748854452179751,0.14055732099990945,0.11214517331817488,-0.6780898624134423,-0.6986024421372165###0.07687645728099476,0.0787330311555163,-0.09329688764600995,0.09087510978277408,-0.07016866067031576,0.30391476405210865,0.1477640965727248,1.0473283652402268,-1.2014528464832592,-0.24591518676147517,0.43002878724138344,-0.010001514721965216,0.19021177620987903,0.14573634508020064,-0.19661468050920602,-0.8047041271136204###0.08633201132480706,0.09857955333246587,-0.1502438759263638,0.15000890958364096,0.05302367334848314,0.6915105247002646,0.02159113482565623,0.5034794447415963,-1.0079711894164152,-0.5507458119868442,0.5266229473269761,-0.03126251132663792,0.08706561909856425,0.11983551489890208,-0.24023840685365633,-1.066452210911004###0.10894933795371108,0.13560378468869483,0.598728384784847,0.08643930344588219,-0.2470214951060888,0.5853641095484182,0.09314379662964134,0.33536565439139304,-1.042029140031627,-0.5583110881801273,0.40188266487355173,-0.2512201271595269,0.14501682517885386,0.08347019552254473,-0.18678073757361235,-1.4922769167783445###0.06516616400305289,0.08127339236048266,0.8977073508493516,0.04669615931053524,-0.31074375459020925,0.5136274489830961,0.06530196723972624,0.19773867857785843,-0.9995076861466664,-0.48162289333186664,0.07293829596652833,-0.2770339022265687,0.09569169676477804,0.04078959590640618,-0.6461160565796988,-0.7648527983759971###0.0789981255379721,0.1176252104366502,0.7476456221563563,0.08564696274847891,-0.11167551656104865,0.599328091291348,0.11790821858012045,0.23100766305484421,-0.5896975176952307,-0.27804193006022837,0.06738908104289196,-0.09211396409640434,0.0918881831858318,0.006093889228462158,-1.1072060569060815,-0.27484108384277234###-0.01462479887373541,0.04315490574177763,0.43918478087570784,0.04916470240723096,-0.38581378835077734,0.6092979800064212,0.04537887853952814,0.09167460369794427,-0.003122914419572989,-0.3296452020326138,0.12870557911010425,0.555849959410803,0.001239741503022557,0.02491866225451766,-0.5846588195711891,-0.5093946397482316###0.07892933981375458,0.06365922198454102,0.5710235543067389,0.07671442169535543,-0.04373823140825025,0.5591071826447446,0.05874407800355991,-0.47214206789289265,0.059887621295637024,-0.40716017718963265,0.35880729604842687,0.43421498941698977,0.026337309467789477,0.01935814164795312,-0.5612706021441785,-0.5122736245783209###0.06200915839688537,-0.007438106422403968,0.1626951658941951,0.05446556617240507,0.2853277954208684,0.7004900150411157,0.04654484806957323,-0.645508619128584,-0.35299831043318264,-0.5733248252781324,0.5277003897647529,0.5466022213067774,0.01915221546529885,0.01762161892554154,-0.6413929044786153,-0.47078080505065634###-0.009487578171032707,0.01433896661153095,-0.7889729475865146,-0.019939642317916534,0.13225872279463258,0.633303926713162,0.04294815531851878,-1.1179033503403437,-0.592133716999107,-0.6615606200235734,0.4685181419752991,1.0312896980214157,0.025609539987845226,-0.0685602402005416,-0.4121268835852093,0.10067152248049686###-0.019032260890274634,-0.040534546342469134,-0.4791383573467891,0.02904800678632228,0.11152324491098774,0.49604233960144006,0.020488931000309428,-1.1862064509376034,-0.8753143665182718,-0.9177735001914348,0.4665800303485545,1.10474650739318,0.019552039214863755,0.03748083389464585,-0.12790607378574073,0.2698305383569333###0.010197418434276887,0.023112880080064423,-0.6581845821505623,0.010137501677846963,0.04874858515237709,0.4125757815941941,-0.0331063336653741,-0.7139883405208343,-0.7201438176360623,-0.7130890715928968,0.23320058957194412,0.7658805142626589,0.021648553804648765,0.0336695569490972,0.03676024028352151,0.6770556429671524###0.03041743663374662,-0.004318178314304125,-0.4205666552760317,0.022700298927367732,-0.003900373101457015,0.25606364582062024,0.06383115759280376,-0.2817467186499873,-0.2090305226558244,-0.3518369834163095,0.12378422895425806,0.3482221731496306,0.011861614623125936,0.005333587327110118,0.13334989377602177,0.37110428794970296###0.022189053078392463,-0.018231917152755645,0.06858883311825431,-0.03729748101930299,-0.03935947676823155,0.08769818111194189,0.013913949668438952,-0.2252753580930768,-0.2941373250431638,-0.1980297341712245,0.07321407438545584,0.2272550040448272,0.04593029869330861,-0.010410993702243862,0.0526616192955136,-0.03523914222072506###-0.05563986689496247,-0.06043375745912168,0.16052528012086162,0.017015040361747717,0.07790757341040755,0.049577958682457825,-0.016179684056398434,0.06249969867128887,0.054465710039752153,0.06849214505164804,0.07722347779807434,-0.07954626550408438,0.025031326312368474,-0.09339280251224084,-0.20740688958513942,-0.27458002607594667###0.017681563514212607,0.05625092155997542,0.07508662717163977,0.00538466775794722,0.08691318169419181,0.08248948673465156,-0.053713691511799506,0.046610515994079206,-0.15349932023912957,-0.011807779005962865,0.0992409946784968,-0.18201629512068251,-0.06380139906270345,0.05468766981481817,-0.3101009287913535,-0.172055866536387###0.021279878690478374,0.04198511421025718,0.10376042383639654,0.006031447428210637,0.12456887076207365,-0.011532523430843041,-0.0052441668926867585,-0.009097749518976121,-0.30088733208096,-0.07232137365924617,0.17420845409245359,-0.08260230297622771,-0.020988249344514116,0.005376060546883338,-0.20011923283650243,-0.3240089362216241###0.06725399488732378,-0.03149328701592498,0.1848531586996373,0.004968169773483637,0.03765953541327618,-0.09983642802059399,0.0711568225443268,0.22792492785401633,-0.12869003415531807,0.2476779337542046,0.09576119330688708,-0.11934104492901522,-0.00462981756868314,-0.014962292891147895,-0.21753326029428524,-0.5184956001102989###0.026859736645465895,-0.0013658957392929016,0.0954801475661093,0.01960927526783378,-0.17382490365639477,-0.3299971405069028,0.0539314530156695,0.45728076543962093,0.08656628318053874,0.29499837422011504,0.19649737491128477,-0.33666932358716023,-0.012494967914817407,-0.03259731932180758,-0.32268301469913024,-0.5403004459892804###0.04549266538857964,0.1404176361525947,0.06856376174694438,0.007279687527134789,-0.12046613022910109,-0.24598888377258551,-0.011322070134453846,0.3261352339171477,-0.018557312058005013,0.06187649930418468,0.14178855890907144,-0.32461355488242677,0.03370865456568492,-0.00813090949950289,-0.30863665034507287,-0.9318997978473598###-0.0045611662497189245,0.052210629042231706,0.7159354435751156,-0.04926709792547285,0.033216112854415066,-0.13547805625186174,0.01373158209333898,0.14571086825518434,0.021561905194416822,0.07266723572448341,0.24190879727290873,-0.5554834683347484,0.07053187836274616,-0.026868441851570616,-0.3919360413670038,-0.8421763743951902###-0.016396846118979486,0.08820462019986591,0.7088079364352686,0.03698783141919994,0.05607091765633847,0.14783248364894158,-0.02613567585644607,-0.26276628928385265,0.019065029603063832,-0.07505976820058291,0.28169451610122004,-0.5869063768573255,0.02353078132379697,-0.0016592550211653105,-0.18433986484911566,-0.7204947027051427###0.08851353027538113,0.04427972229272124,1.0808016450473958,0.11131379291835797,-0.11802941285950619,0.20345510378020618,0.04144851725510805,-0.747716697877232,-0.824834259376328,0.0767775889599614,0.4779030153282495,-0.683183005082496,0.1262858666342473,0.030677368136795474,0.08744300750430163,-0.6676969391873379###0.093964581736166,0.07373165800327053,1.193597737169908,0.1491571282376515,0.16328453715970942,0.03777681913833125,0.03924642355375765,-0.47004773905770975,-1.5304050923062862,0.05331479785999106,0.6662788001516444,-0.61285999324483,-0.0170899350158787,-0.019675127505805558,0.5547557639700382,-0.8225714433422062###0.07801587234330201,0.13804058393449595,0.9927234906957383,0.07216621626193291,0.14315930226603088,-0.15703675382225726,0.006130940236336499,-0.6345554215363026,-1.044455767280985,-0.06505897083463152,0.8792001514427044,-0.3156468157429077,0.13238272833498876,-0.03463660144900486,0.8356666016416043,-0.47496471218201747###0.07876217394788375,0.12026941106585111,0.7349261259674429,0.06783394630188931,-0.3688764145932591,-0.46388809462330677,0.12137859270504026,-0.7889830401018331,-1.105381960001914,0.07858749041585247,0.8867965320965562,-0.1583658509832205,0.08461288941932203,0.0815132478540966,0.89062180743976,-0.6160227948045852###0.09041492268730848,0.09974135051397255,1.0528187414619752,0.10374941055471068,-0.4686294573179566,-0.31147717516679213,0.08663570723185288,-0.6446232273354151,-1.079972840141648,0.0573895384082626,0.3320147851546379,-0.14377466760412738,0.07344924590741309,0.06417455411135664,0.6447540116538415,-0.5484405188825141###0.08281286055229076,0.09950499754542011,0.3432791722866813,0.1334069374236781,-0.5007361395549776,-0.36591506372364585,0.10008612300633704,0.5580005959115275,-1.0891962052744109,0.36102795839588664,0.12587319440212005,-0.514420146814651,0.1210923996492298,0.1644969661261582,0.5261425771477309,-1.0385027375897775###0.16556851468555897,0.10564488357821271,-0.5261210628829356,0.22323665502460852,-0.34187393306601976,-0.13617093059989177,0.1443453384447543,2.015044015614959,-0.6988276927614565,0.1914431255853616,-0.31051541879751976,-0.7553453471130539,0.0775974966529997,0.14935276036722758,-0.2516534593327485,-1.0760351968923072###0.16359557517925463,0.09736122680054309,-0.5782168950060321,0.16165237948733469,-0.2627589718951134,0.24227295241189484,0.07375635520976795,1.7702086608757317,-1.2162775965993522,0.32938809945637026,-0.4303050415894368,-0.6420823162965961,0.026160855490661838,0.10864841997803575,-0.5059134506361058,-1.7797108516432767###0.14275427142853786,0.03559782345216319,0.11074949166427882,0.16161884599555398,-0.4097942264161602,0.2468866561731941,0.10850312974926579,0.7140090588633137,-0.9428457591380558,0.11197081055725773,-0.1552749477230331,-0.16239056381942255,0.0999857062423964,0.060749715193483975,-0.46343632587148503,-2.199889974027361###0.12711964298063275,0.08123958609963594,1.0187777200410784,0.1486650973630383,-0.8006739242553674,0.14093169695020452,0.13163602753290868,0.3077652075560708,-0.8756549056235733,0.3614260309139277,0.17121589311294008,0.07434858861640183,0.09320366029038803,0.12000057734435415,-0.9565835947135056,-1.874611384342359###0.16242614761752935,0.08756596753944422,1.08324404128798,0.06348041153119147,-0.7060254547899942,0.20537908182049805,0.11317355223274479,0.31083547205851264,-1.0513098514170616,0.1085027829907593,0.13444175080439352,0.0583622195457243,0.03298535887636549,0.019586076585955313,-1.0188269458861976,-1.593480920459642###0.11062965682015195,0.05875859971448414,0.8080450602535647,0.006959946460618134,-0.21255287255448396,0.4847660728752785,0.021259273134676956,0.3106315516153418,-0.9257116726743496,-0.2463971672691434,0.08901288403902607,0.35037730161443276,0.0631013091209517,0.06584714194970112,-1.0253147797682876,-1.1463007433024544###0.02450817796198706,0.02857870984255593,0.5697497485474641,0.09131030289743192,-0.3218601094814477,0.4723888726740473,0.11827661815544084,0.5535623300639451,-0.024783694203030067,-0.24808613944846503,0.2571028340080246,0.46309804620455797,-0.0066327562926771525,0.001875172753134275,-0.5704034589019371,-0.6144988897060485###0.07048822141534962,0.05949411217415601,0.503605144366273,0.06874487321429947,-0.15615107055872915,0.3667714049045948,0.0713727618251156,-0.35287782181643423,0.07277704047543493,-0.33369409086236745,0.39835128161478706,0.575766746614594,0.006866839099652597,0.04361977773075507,-0.664583067795674,-0.5611372394211102###0.03605423666568585,0.02024007810918397,-0.28413454393849286,0.08878567080312114,0.20657562582054806,0.8159340072470328,0.03185432250756233,-0.7217081882911456,-0.3970452090202228,-0.574644279678207,0.4876775222674334,0.2225942026627885,0.021200398843007208,0.026347514548124347,-0.8031786342194247,-0.655984706793456###0.03415391344111936,0.04856116319643582,-0.3491424351151459,0.043949832978253604,0.23975608553622596,0.6998985411524259,-0.08011154941125095,-1.2403196124423475,-1.0810409627252044,-0.9220677735312025,0.508328286235137,0.722108235048136,0.012727236285337515,-0.04241156069348738,-0.39103530911571693,-0.37597187267752247###0.025857189762809308,-0.06965988472091703,-0.5898641106600949,-0.035052424668760344,0.27273521218267804,0.7293961125714653,-0.004668809108043571,-1.337645046383023,-1.0453155861906078,-1.1621979972032719,0.3064025516241347,1.0813278297635585,-0.021169302746389854,-0.008491562038865905,-0.31165808804716283,0.40949270502635804###0.001450598713972953,0.0010008862496194899,-0.7117070053102424,-0.059260364758458,0.15211554673707534,0.4946672947141145,0.036355014182204715,-0.8125334876906578,-0.8484341859089862,-0.7594439257902089,0.13260946641112162,0.7014760034510881,-0.02768449177196031,0.08233727219258713,-0.11344390326154984,0.5861212618356824###0.019887162319689893,-0.06294948711686968,-0.4602619161571806,0.013937700509896636,0.07658427225891762,0.20027777762810234,0.030174521883927705,-0.3470726719190222,-0.4445529384715883,-0.3610376914044832,0.03684262521400799,0.33671369125826495,-0.03820063286808372,-0.0484226671940866,0.02776490532427383,0.4181330268838486###0.03437138141545844,7.459636069119861E-4,-0.02555931808775578,0.05533129025890858,-0.06124167017535691,-0.08877552076369591,8.565462597866812E-4,-0.19766516014977686,-0.40419662172911686,-0.04853763694472232,0.06391591217104989,0.17966704897635766,0.03674390430558268,-0.03457281851567404,0.07974305771468891,-0.11895424290872192###0.04935610489590035,0.03691581823323149,0.08095119078084521,0.04446704225948156,0.13567651617633372,0.07229673881028278,0.03972820538160284,-0.12596519972179684,-0.008796997190553876,0.008179248096812423,0.21640061064583768,0.11129880294122926,0.01764164068513937,-0.023593789144439697,-0.1679432763385399,-0.5063965118387147###0.06663973839347324,-0.03758790026252499,0.0033817151891556937,-0.025679146628033826,0.14368721634291523,0.1463640821965078,0.028908614068409354,-0.03234188673374949,0.04636428631900109,0.031381142020255985,0.09516854755527192,-0.030138092943681936,-0.018869151826236528,-0.018092647222830882,-0.26885735769927444,-0.09726909075310668###-0.041061412407663644,0.007164856965181278,0.1480655636629469,0.0540909922989233,0.01625421979130212,-0.011925383945092481,0.0499864418498632,0.0012018595733737304,-0.12685429638050483,-0.10406528785712349,0.02923200884947177,0.16550919654729543,-0.00918111525862259,-0.016069249066472526,-0.06296219837537172,-0.12325230398139256###-0.036770769120783586,0.007182257675462374,0.38486328502334133,0.004027233167406789,0.07211827375892585,-0.022352180562469313,-0.023250470614183023,0.09632339042017175,-0.13721927416218074,0.21355911483484252,0.08240840861933645,-0.15581275691637048,-0.014345227591461172,8.542854872983253E-4,-0.2108170036225977,-0.29137415476259565###0.09490215034395608,-0.016400644485355755,0.4232196644279535,0.048743830540125536,-0.13176335590662444,-0.34876986232362217,0.009933249328214166,0.29489793446928725,-0.24374681252211938,0.3048038401306265,0.17750915339314538,-0.2840347657962217,0.03144124454159823,0.018419137928140244,-0.24050016113478961,-0.4722194290591607###-0.022788410826003188,0.05590493783394006,0.47744268073881585,0.04259143907688139,-0.10778183462533947,-0.33003538006075667,0.020783042084661144,-0.13877150273014258,-0.079401389260501,0.30903795738749273,0.1600750740544125,-0.2982194649597522,0.01579455307323642,0.05008425736470436,-0.33408859432315846,-0.7152697894422275###0.057230685072779154,-0.004121614866506158,0.9861363998264286,0.012810328148260112,-0.11200919381406882,-0.12155084855806443,0.062218543744750186,-0.39963477427199134,-0.13223091766780717,0.49135614672774697,0.16157600454126708,-0.22557361697755043,0.05413999115342434,-0.050644158573797234,-0.05552349085175903,-0.7924691125975503###0.0362335068900507,0.0648029670009201,0.7619955207278449,0.06555513115672108,-0.09304319400163819,0.3597280193471105,0.022835634837506582,-0.7280148458542078,0.02566864300595851,0.16297269533772285,0.12498571351047065,-0.2239313784738595,0.03839323926585189,-0.03941889608145469,0.43164353427463126,-0.35690843173185693###0.08328580004454122,0.07612477770075378,1.2050866562073352,0.053762750393269255,-0.08933304378103177,0.36367176188472317,0.09264582983310383,-0.7254530559772935,-0.8290434788343433,0.2655485764495208,0.33876858748283784,0.242889070490699,0.050453370011831124,0.10874723588785565,0.3971251259423878,-0.09758914652746743###0.056114506020257734,0.04759821097467387,1.1565847246252596,0.06824927380797434,-0.014859100960563962,0.08846335833446019,0.06565243237449091,-0.8045273047706005,-1.3005643423829605,0.3060049020737086,0.5173552561632224,0.2437523295723867,0.10701722921603563,0.033147664835994746,0.945295321553411,-0.08097995548644617###0.06230521659349414,0.10331509586866801,1.1228329028049955,0.12606565959633922,-0.34996267220419885,-0.412295221458384,0.04509040805289748,-1.4261653766851863,-0.8482919124307193,0.1711620706583649,0.2938916319959882,0.5215850771275483,0.1471467459112129,0.060626148981314645,1.4139800480802835,-0.3153653350383735###0.020566354982241283,0.06817642984738437,0.7627415327997219,0.03110675132511824,-0.5580829572648759,-0.6548533325750961,0.040713576126455285,-1.7651569562188647,-0.7799750588505252,0.20482091458149007,0.47176781640334126,0.5444008333702042,0.08564157789965014,0.13973865408677363,1.3951999931267416,-0.7215096532618511###0.04416729270557799,0.05607887549397656,0.9688073479346174,0.05995284301374658,-0.2783645680094407,-0.07546631583586255,0.12804906972475347,-1.5012215832192628,-1.2709333216756922,-0.16367014820964546,-0.22716785545127305,0.4762439450230769,0.10229681961330245,0.08347919025262258,1.1373194909320947,-0.6057373103687766###0.12965554101033128,0.15856226146322183,0.2041782442938999,0.20109993507549964,-0.05865169481495303,0.09858948522921904,0.12436698185849183,-0.34292643319122007,-1.6628237686363354,-0.147010050826264,-0.4503488695626784,0.5084609269572014,6.251065795149213E-4,0.14818304599601875,0.692721078866329,-0.8420296505709232###0.11306853831778714,0.14978409185819827,-0.8760802034974623,0.1622358443343171,0.1822949873262413,0.3227346109373047,0.10004552343273752,1.6228941101104701,-1.3345400759080004,0.07289475445122831,-1.0011260806697222,-0.30661599241696413,0.10153100354581801,0.11814330477343798,-0.2742720890745042,-0.5352463640110947###0.1473561525235865,0.16448116766917548,-0.8589152382072269,0.10624761681820971,-0.2341951042795329,0.2655254864705232,0.008907802532449854,1.6372965836615108,-1.14416883314505,0.24987302291953392,-1.1276128803843661,-0.2957741075372472,0.06793703592390894,0.07953873839667219,-0.5350844769685449,-0.8015805821286608###0.11642364955624762,0.07018797023623233,0.567729159809654,0.14220512197685012,-0.9716210649212297,-0.04252290432672173,0.05141312851096712,0.46026303318060396,-0.3866439611587738,0.4560444500516515,-0.4623548922266219,0.07748886362357617,0.13267116750660096,0.12299289265236625,-0.34433407288776524,-1.7647745133877704###0.11112702326752151,0.12647399837457,1.1964419915062037,0.07793928120225045,-0.8911837890125452,-0.306467626941246,0.08259261819859103,0.5530917781481733,0.03562021600892671,0.4401640235963986,0.2363287825291137,0.43385805329668237,0.06748596761386715,0.02078865544649653,-0.9015515634204274,-2.0366020736622388###0.12451839401366595,0.12548499412323333,1.1831168314487475,0.08015032933018958,-0.7455957674084919,-0.45220960364948076,0.08041872853476927,0.6823322943324481,-0.5647486465094373,0.4921920252261956,0.07311366844136918,-0.08001550218959022,0.04692425452139278,0.016611849708531894,-0.8767769673990042,-1.6757583163976275###0.08833213865695813,0.11872642213050358,1.0210224762253384,0.1390420283777543,-0.4153723102782034,-0.25232695375032593,0.07601188605339224,0.864939453791643,-0.5442489825430011,0.1526178651164082,0.07754545034075078,0.19529436459292976,0.10292721825702592,0.07677577177840651,-0.9783713094458845,-1.0276876350158433###0.08321061624002385,0.05859882226295905,0.7818529814829253,0.0743994012753882,-0.21094787927455977,-0.06162994946758298,0.10810916764051515,0.584870090442045,-0.0029905333779003244,0.22747315247868627,0.47197196493333826,0.018445990141734897,0.002349035182155668,0.03292359699504137,-0.7198966140179431,-1.0116193427243616###0.11847592926954607,0.0016514707064698329,0.5692215142389974,0.05116770860804741,-0.20923408132469237,0.18063297213756582,0.0527547708056608,-0.25848528947352983,-0.45187504455500555,0.019830761666168543,0.4743894456856742,0.18635107093366124,-0.03647821564125879,0.031680465314678975,-0.5060228890781642,-1.0165690750976712###0.08881606530546182,5.552352711057537E-4,-0.0045400807778285465,0.045450752182341785,-0.10788943017892112,0.38961914765803185,0.06414099651373391,-0.05332796832979796,-0.8257752393108067,-0.2603040104428172,0.4369133869824288,0.43805067069162434,0.07969542745693507,0.06751205112897429,-0.3393520092458502,-1.0828455193684743###0.003689694743476454,0.04530845932738805,-0.16420661414777754,0.010374873192288407,0.03615281592140961,0.7035340790327286,0.03975183514589219,-0.40514787907992494,-0.8863367388323838,-0.8033172116216671,0.24068742068523297,0.5195345496641104,0.09646351506778049,0.0363747275632214,-0.3779245844728601,-0.4908774432234315###0.014679611204925396,0.007610998431656522,-0.29718495508251264,0.011301244169769797,0.5266774628038486,0.7874139803870743,0.006012685639698962,-0.7401991270063513,-1.0555840458268722,-0.9980171247716869,0.11931905051355843,0.7745578727604439,-0.03309168245604823,-0.014621124051477703,-0.38942276220703614,0.16826488774474374###0.006484701583233676,